{"learner":{"attributes":{"best_iteration":"19","best_ntree_limit":"20"},"feature_names":["Int_Away","Int_Home","Int_Opp_Away","Int_Opp_Home","OppScore_Away","OppScore_Home","PYds_Away","PYds_Home","PYds_Opp_Away","PYds_Opp_Home","Pnt_Away","Pnt_Home","Pnt_Opp_Away","Pnt_Opp_Home","RYds_Away","RYds_Home","RYds_Opp_Away","RYds_Opp_Home","Sk_Away","Sk_Home","Sk_Opp_Away","Sk_Opp_Home","TeamScore_Away","TeamScore_Home","Total Score Close","eloaway","elohome","Away Odds Close"],"feature_types":["float","float","float","float","float","float","float","float","float","float","float","float","float","float","float","float","float","float","float","float","float","float","float","float","float","float","float","float"],"gradient_booster":{"model":{"gbtree_model_param":{"num_parallel_tree":"1","num_trees":"40","size_leaf_vector":"0"},"tree_info":[0,1,0,1,0,1,0,1,0,1,0,1,0,1,0,1,0,1,0,1,0,1,0,1,0,1,0,1,0,1,0,1,0,1,0,1,0,1,0,1],"trees":[{"base_weights":[1.442786E-1,-2.4557957E-1,4.2775393E-1,-5.57047E-1,-1.160221E-1,2.4305555E-1,5.544794E-1],"categories":[],"categories_nodes":[],"categories_segments":[],"categories_sizes":[],"default_left":[1,1,1,0,0,0,0],"id":0,"left_children":[1,3,5,-1,-1,-1,-1],"loss_changes":[6.67457E1,1.020519E1,8.04562E0,0E0,0E0,0E0,0E0],"parents":[2147483647,0,0,1,1,2,2],"right_children":[2,4,6,-1,-1,-1,-1],"split_conditions":[2.165E0,1.437E0,2.915E0,-1.6711411E-1,-3.480663E-2,7.291667E-2,1.6634384E-1],"split_indices":[27,27,27,0,0,0,0],"split_type":[0,0,0,0,0,0,0],"sum_hessian":[6.02E2,2.535E2,3.485E2,7.35E1,1.8E2,1.43E2,2.055E2],"tree_param":{"num_deleted":"0","num_feature":"28","num_nodes":"7","size_leaf_vector":"0"}},{"base_weights":[-1.442786E-1,2.4557957E-1,-4.2775393E-1,5.57047E-1,1.160221E-1,-2.4305555E-1,-5.544794E-1],"categories":[],"categories_nodes":[],"categories_segments":[],"categories_sizes":[],"default_left":[1,1,1,0,0,0,0],"id":1,"left_children":[1,3,5,-1,-1,-1,-1],"loss_changes":[6.67457E1,1.020519E1,8.04562E0,0E0,0E0,0E0,0E0],"parents":[2147483647,0,0,1,1,2,2],"right_children":[2,4,6,-1,-1,-1,-1],"split_conditions":[2.165E0,1.437E0,2.915E0,1.6711411E-1,3.480663E-2,-7.291667E-2,-1.6634384E-1],"split_indices":[27,27,27,0,0,0,0],"split_type":[0,0,0,0,0,0,0],"sum_hessian":[6.02E2,2.535E2,3.485E2,7.35E1,1.8E2,1.43E2,2.055E2],"tree_param":{"num_deleted":"0","num_feature":"28","num_nodes":"7","size_leaf_vector":"0"}},{"base_weights":[1.0287563E-1,-2.223219E-1,2.8414804E-1,5.693371E-2,-3.0271128E-1,1.7640567E-1,4.380874E-1],"categories":[],"categories_nodes":[],"categories_segments":[],"categories_sizes":[],"default_left":[1,1,1,0,0,0,0],"id":2,"left_children":[1,3,5,-1,-1,-1,-1],"loss_changes":[3.5104225E1,4.8059673E0,6.2603493E0,0E0,0E0,0E0,0E0],"parents":[2147483647,0,0,1,1,2,2],"right_children":[2,4,6,-1,-1,-1,-1],"split_conditions":[1.9565E0,9.341667E1,3.2849998E0,1.7080113E-2,-9.081338E-2,5.29217E-2,1.3142623E-1],"split_indices":[27,14,27,0,0,0,0],"split_type":[0,0,0,0,0,0,0],"sum_hessian":[5.934265E2,2.123143E2,3.8111218E2,4.752262E1,1.6479167E2,2.2545903E2,1.5565317E2],"tree_param":{"num_deleted":"0","num_feature":"28","num_nodes":"7","size_leaf_vector":"0"}},{"base_weights":[-1.02875635E-1,2.2232191E-1,-2.8414807E-1,-5.6933682E-2,3.027113E-1,-1.7640568E-1,-4.3808743E-1],"categories":[],"categories_nodes":[],"categories_segments":[],"categories_sizes":[],"default_left":[1,1,1,0,0,0,0],"id":3,"left_children":[1,3,5,-1,-1,-1,-1],"loss_changes":[3.510423E1,4.8059673E0,6.260357E0,0E0,0E0,0E0,0E0],"parents":[2147483647,0,0,1,1,2,2],"right_children":[2,4,6,-1,-1,-1,-1],"split_conditions":[1.9565E0,9.341667E1,3.2849998E0,-1.7080106E-2,9.08134E-2,-5.292171E-2,-1.3142623E-1],"split_indices":[27,14,27,0,0,0,0],"split_type":[0,0,0,0,0,0,0],"sum_hessian":[5.934265E2,2.123143E2,3.811122E2,4.752262E1,1.6479167E2,2.2545903E2,1.5565317E2],"tree_param":{"num_deleted":"0","num_feature":"28","num_nodes":"7","size_leaf_vector":"0"}},{"base_weights":[7.4841574E-2,-2.6029617E-1,1.7447743E-1,5.958995E-1,-3.0376786E-1,4.473924E-1,1.2403664E-1],"categories":[],"categories_nodes":[],"categories_segments":[],"categories_sizes":[],"default_left":[1,1,1,0,0,0,0],"id":4,"left_children":[1,3,5,-1,-1,-1,-1],"loss_changes":[1.939626E1,5.138979E0,6.102113E0,0E0,0E0,0E0,0E0],"parents":[2147483647,0,0,1,1,2,2],"right_children":[2,4,6,-1,-1,-1,-1],"split_conditions":[1.651E0,1.6541668E1,1.3594114E3,1.7876986E-1,-9.113036E-2,1.3421772E-1,3.7210993E-2],"split_indices":[27,23,25,0,0,0,0],"split_type":[0,0,0,0,0,0,0],"sum_hessian":[5.7850995E2,1.32206E2,4.46304E2,5.774123E0,1.2643186E2,6.8392075E1,3.7791193E2],"tree_param":{"num_deleted":"0","num_feature":"28","num_nodes":"7","size_leaf_vector":"0"}},{"base_weights":[-7.484158E-2,2.602961E-1,-1.7447741E-1,-5.958996E-1,3.037678E-1,-4.4739237E-1,-1.2403664E-1],"categories":[],"categories_nodes":[],"categories_segments":[],"categories_sizes":[],"default_left":[1,1,1,0,0,0,0],"id":5,"left_children":[1,3,5,-1,-1,-1,-1],"loss_changes":[1.9396254E1,5.138978E0,6.102112E0,0E0,0E0,0E0,0E0],"parents":[2147483647,0,0,1,1,2,2],"right_children":[2,4,6,-1,-1,-1,-1],"split_conditions":[1.651E0,1.6541668E1,1.3594114E3,-1.7876989E-1,9.1130346E-2,-1.3421772E-1,-3.7210993E-2],"split_indices":[27,23,25,0,0,0,0],"split_type":[0,0,0,0,0,0,0],"sum_hessian":[5.7850995E2,1.3220598E2,4.46304E2,5.774123E0,1.2643186E2,6.8392075E1,3.7791193E2],"tree_param":{"num_deleted":"0","num_feature":"28","num_nodes":"7","size_leaf_vector":"0"}},{"base_weights":[5.4410547E-2,-7.006285E-2,2.2934629E-1,-2.8636685E-1,-1.4699784E-2,-3.1170675E-1,2.613737E-1],"categories":[],"categories_nodes":[],"categories_segments":[],"categories_sizes":[],"default_left":[1,1,1,0,0,0,0],"id":6,"left_children":[1,3,5,-1,-1,-1,-1],"loss_changes":[1.2337432E1,3.9641118E0,4.1619253E0,0E0,0E0,0E0,0E0],"parents":[2147483647,0,0,1,1,2,2],"right_children":[2,4,6,-1,-1,-1,-1],"split_conditions":[2.6550002E0,1.437E0,1.4236555E3,-8.591006E-2,-4.4099353E-3,-9.351203E-2,7.8412116E-2],"split_indices":[27,27,26,0,0,0,0],"split_type":[0,0,0,0,0,0,0],"sum_hessian":[5.6485297E2,3.3037686E2,2.3447614E2,6.6477234E1,2.6389963E2,1.2615997E1,2.2186014E2],"tree_param":{"num_deleted":"0","num_feature":"28","num_nodes":"7","size_leaf_vector":"0"}},{"base_weights":[-5.441054E-2,7.0062846E-2,-2.2934628E-1,2.863669E-1,1.4699752E-2,3.1170675E-1,-2.6137367E-1],"categories":[],"categories_nodes":[],"categories_segments":[],"categories_sizes":[],"default_left":[1,1,1,0,0,0,0],"id":7,"left_children":[1,3,5,-1,-1,-1,-1],"loss_changes":[1.2337428E1,3.9641151E0,4.1619263E0,0E0,0E0,0E0,0E0],"parents":[2147483647,0,0,1,1,2,2],"right_children":[2,4,6,-1,-1,-1,-1],"split_conditions":[2.6550002E0,1.437E0,1.4236555E3,8.5910074E-2,4.409926E-3,9.351203E-2,-7.84121E-2],"split_indices":[27,27,26,0,0,0,0],"split_type":[0,0,0,0,0,0,0],"sum_hessian":[5.6485297E2,3.3037686E2,2.3447612E2,6.6477234E1,2.6389963E2,1.2615997E1,2.2186012E2],"tree_param":{"num_deleted":"0","num_feature":"28","num_nodes":"7","size_leaf_vector":"0"}},{"base_weights":[3.941901E-2,-6.1596356E-2,1.5999211E-1,3.2372203E-1,-9.328277E-2,4.0276662E-1,1.0205663E-1],"categories":[],"categories_nodes":[],"categories_segments":[],"categories_sizes":[],"default_left":[1,1,1,0,0,0,0],"id":8,"left_children":[1,3,5,-1,-1,-1,-1],"loss_changes":[6.728516E0,3.7037342E0,3.4997864E0,0E0,0E0,0E0,0E0],"parents":[2147483647,0,0,1,1,2,2],"right_children":[2,4,6,-1,-1,-1,-1],"split_conditions":[2.47E0,3.4583335E0,1.3541023E3,9.711661E-2,-2.7984831E-2,1.2082999E-1,3.061699E-2],"split_indices":[27,11,25,0,0,0,0],"split_type":[0,0,0,0,0,0,0],"sum_hessian":[5.5062616E2,2.9987878E2,2.5074734E2,2.208619E1,2.777926E2,4.7162846E1,2.035845E2],"tree_param":{"num_deleted":"0","num_feature":"28","num_nodes":"7","size_leaf_vector":"0"}},{"base_weights":[-3.9419003E-2,6.159634E-2,-1.599921E-1,-3.2372203E-1,9.328275E-2,-4.0276662E-1,-1.0205659E-1],"categories":[],"categories_nodes":[],"categories_segments":[],"categories_sizes":[],"default_left":[1,1,1,0,0,0,0],"id":9,"left_children":[1,3,5,-1,-1,-1,-1],"loss_changes":[6.728513E0,3.703734E0,3.4997883E0,0E0,0E0,0E0,0E0],"parents":[2147483647,0,0,1,1,2,2],"right_children":[2,4,6,-1,-1,-1,-1],"split_conditions":[2.47E0,3.4583335E0,1.3541023E3,-9.711661E-2,2.7984826E-2,-1.2082999E-1,-3.0616978E-2],"split_indices":[27,11,25,0,0,0,0],"split_type":[0,0,0,0,0,0,0],"sum_hessian":[5.506261E2,2.9987878E2,2.5074734E2,2.208619E1,2.7779257E2,4.7162846E1,2.0358449E2],"tree_param":{"num_deleted":"0","num_feature":"28","num_nodes":"7","size_leaf_vector":"0"}},{"base_weights":[2.911722E-2,9.81783E-2,-9.223398E-2,-3.0164418E-1,1.2293344E-1,-2.2289644E-1,3.672603E-2],"categories":[],"categories_nodes":[],"categories_segments":[],"categories_sizes":[],"default_left":[1,1,1,0,0,0,0],"id":10,"left_children":[1,3,5,-1,-1,-1,-1],"loss_changes":[4.5456777E0,3.4564548E0,3.3251328E0,0E0,0E0,0E0,0E0],"parents":[2147483647,0,0,1,1,2,2],"right_children":[2,4,6,-1,-1,-1,-1],"split_conditions":[1.5579492E3,1.8354166E2,1.5324216E3,-9.0493254E-2,3.6880035E-2,-6.686894E-2,1.101781E-2],"split_indices":[25,9,26,0,0,0,0],"split_type":[0,0,0,0,0,0,0],"sum_hessian":[5.403214E2,3.4447266E2,1.9584874E2,1.9432446E1,3.250402E2,9.6920425E1,9.892832E1],"tree_param":{"num_deleted":"0","num_feature":"28","num_nodes":"7","size_leaf_vector":"0"}},{"base_weights":[-2.9117223E-2,-9.8178305E-2,9.223397E-2,3.0164418E-1,-1.2293345E-1,2.2289644E-1,-3.6726043E-2],"categories":[],"categories_nodes":[],"categories_segments":[],"categories_sizes":[],"default_left":[1,1,1,0,0,0,0],"id":11,"left_children":[1,3,5,-1,-1,-1,-1],"loss_changes":[4.5456777E0,3.4564538E0,3.3251333E0,0E0,0E0,0E0,0E0],"parents":[2147483647,0,0,1,1,2,2],"right_children":[2,4,6,-1,-1,-1,-1],"split_conditions":[1.5579492E3,1.8354166E2,1.5324216E3,9.0493254E-2,-3.6880035E-2,6.686894E-2,-1.1017813E-2],"split_indices":[25,9,26,0,0,0,0],"split_type":[0,0,0,0,0,0,0],"sum_hessian":[5.403214E2,3.4447263E2,1.9584874E2,1.9432446E1,3.250402E2,9.6920425E1,9.892832E1],"tree_param":{"num_deleted":"0","num_feature":"28","num_nodes":"7","size_leaf_vector":"0"}},{"base_weights":[2.0502873E-2,-1.3850906E-1,6.0203966E-2,9.307039E-1,-1.7072402E-1,3.7947157E-1,2.8600989E-2],"categories":[],"categories_nodes":[],"categories_segments":[],"categories_sizes":[],"default_left":[1,1,1,0,0,0,0],"id":12,"left_children":[1,3,5,-1,-1,-1,-1],"loss_changes":[3.3761222E0,3.8405452E0,4.3034105E0,0E0,0E0,0E0,0E0],"parents":[2147483647,0,0,1,1,2,2],"right_children":[2,4,6,-1,-1,-1,-1],"split_conditions":[1.4053325E3,1.0416667E0,1.3541023E3,2.7921116E-1,-5.121721E-2,1.13841474E-1,8.580297E-3],"split_indices":[26,19,25,0,0,0,0],"split_type":[0,0,0,0,0,0,0],"sum_hessian":[5.324724E2,1.0588601E2,4.2658643E2,2.2812428E0,1.0360477E2,3.7431274E1,3.8915515E2],"tree_param":{"num_deleted":"0","num_feature":"28","num_nodes":"7","size_leaf_vector":"0"}},{"base_weights":[-2.0502904E-2,1.3850905E-1,-6.0204E-2,-9.3070394E-1,1.7072402E-1,-3.794715E-1,-2.8601034E-2],"categories":[],"categories_nodes":[],"categories_segments":[],"categories_sizes":[],"default_left":[1,1,1,0,0,0,0],"id":13,"left_children":[1,3,5,-1,-1,-1,-1],"loss_changes":[3.376123E0,3.8405457E0,4.3034086E0,0E0,0E0,0E0,0E0],"parents":[2147483647,0,0,1,1,2,2],"right_children":[2,4,6,-1,-1,-1,-1],"split_conditions":[1.4053325E3,1.0416667E0,1.3541023E3,-2.792112E-1,5.121721E-2,-1.1384146E-1,-8.58031E-3],"split_indices":[26,19,25,0,0,0,0],"split_type":[0,0,0,0,0,0,0],"sum_hessian":[5.324724E2,1.0588601E2,4.2658643E2,2.2812428E0,1.0360476E2,3.7431274E1,3.8915515E2],"tree_param":{"num_deleted":"0","num_feature":"28","num_nodes":"7","size_leaf_vector":"0"}},{"base_weights":[1.5588767E-2,2.5567657E-1,-9.057455E-3,-8.745924E-2,4.5768353E-1,-8.8089937E-1,-6.332339E-5],"categories":[],"categories_nodes":[],"categories_segments":[],"categories_sizes":[],"default_left":[1,1,1,0,0,0,0],"id":14,"left_children":[1,3,5,-1,-1,-1,-1],"loss_changes":[3.117051E0,3.439229E0,3.7508464E0,0E0,0E0,0E0,0E0],"parents":[2147483647,0,0,1,1,2,2],"right_children":[2,4,6,-1,-1,-1,-1],"split_conditions":[1.5416667E0,4.208333E0,1.6175E2,-2.6237773E-2,1.3730507E-1,-2.6426983E-1,-1.8997016E-5],"split_indices":[21,11,8,0,0,0,0],"split_type":[0,0,0,0,0,0,0],"sum_hessian":[5.253816E2,4.803931E1,4.7734225E2,1.8011469E1,3.002784E1,3.8842347E0,4.7345804E2],"tree_param":{"num_deleted":"0","num_feature":"28","num_nodes":"7","size_leaf_vector":"0"}},{"base_weights":[-1.5588751E-2,-2.5567657E-1,9.057471E-3,8.7459266E-2,-4.5768353E-1,8.8089937E-1,6.333883E-5],"categories":[],"categories_nodes":[],"categories_segments":[],"categories_sizes":[],"default_left":[1,1,1,0,0,0,0],"id":15,"left_children":[1,3,5,-1,-1,-1,-1],"loss_changes":[3.117051E0,3.4392292E0,3.7508464E0,0E0,0E0,0E0,0E0],"parents":[2147483647,0,0,1,1,2,2],"right_children":[2,4,6,-1,-1,-1,-1],"split_conditions":[1.5416667E0,4.208333E0,1.6175E2,2.623778E-2,-1.3730507E-1,2.6426983E-1,1.900165E-5],"split_indices":[21,11,8,0,0,0,0],"split_type":[0,0,0,0,0,0,0],"sum_hessian":[5.253816E2,4.803931E1,4.7734225E2,1.8011469E1,3.002784E1,3.884235E0,4.73458E2],"tree_param":{"num_deleted":"0","num_feature":"28","num_nodes":"7","size_leaf_vector":"0"}},{"base_weights":[1.09278085E-2,1.00534864E-1,-5.611168E-2,5.304762E-2,4.502409E-1,-4.3534786E-1,-7.4254423E-3],"categories":[],"categories_nodes":[],"categories_segments":[],"categories_sizes":[],"default_left":[1,1,1,0,0,0,0],"id":16,"left_children":[1,3,5,-1,-1,-1,-1],"loss_changes":[3.15941E0,3.7132509E0,5.5535245E0,0E0,0E0,0E0,0E0],"parents":[2147483647,0,0,1,1,2,2],"right_children":[2,4,6,-1,-1,-1,-1],"split_conditions":[2.2291668E1,4.38E0,4.583333E-1,1.5914287E-2,1.3507228E-1,-1.3060436E-1,-2.2276328E-3],"split_indices":[4,27,0,0,0,0,0],"split_type":[0,0,0,0,0,0,0],"sum_hessian":[5.239972E2,2.2403946E2,2.9995773E2,1.9826796E2,2.577149E1,3.3223667E1,2.6673407E2],"tree_param":{"num_deleted":"0","num_feature":"28","num_nodes":"7","size_leaf_vector":"0"}},{"base_weights":[-1.0927797E-2,-1.0053486E-1,5.611169E-2,-5.3047616E-2,-4.5024088E-1,4.3534786E-1,7.4254554E-3],"categories":[],"categories_nodes":[],"categories_segments":[],"categories_sizes":[],"default_left":[1,1,1,0,0,0,0],"id":17,"left_children":[1,3,5,-1,-1,-1,-1],"loss_changes":[3.1594102E0,3.7132504E0,5.5535245E0,0E0,0E0,0E0,0E0],"parents":[2147483647,0,0,1,1,2,2],"right_children":[2,4,6,-1,-1,-1,-1],"split_conditions":[2.2291668E1,4.38E0,4.583333E-1,-1.5914286E-2,-1.3507228E-1,1.3060436E-1,2.2276368E-3],"split_indices":[4,27,0,0,0,0,0],"split_type":[0,0,0,0,0,0,0],"sum_hessian":[5.239972E2,2.2403946E2,2.9995773E2,1.9826796E2,2.577149E1,3.3223667E1,2.6673404E2],"tree_param":{"num_deleted":"0","num_feature":"28","num_nodes":"7","size_leaf_vector":"0"}},{"base_weights":[8.273985E-3,2.7694178E-1,-1.3860213E-2,3.769929E-1,-5.930348E-1,2.0508165E-2,-2.021664E-1],"categories":[],"categories_nodes":[],"categories_segments":[],"categories_sizes":[],"default_left":[1,1,1,0,0,0,0],"id":18,"left_children":[1,3,5,-1,-1,-1,-1],"loss_changes":[3.1026754E0,3.6800723E0,3.126049E0,0E0,0E0,0E0,0E0],"parents":[2147483647,0,0,1,1,2,2],"right_children":[2,4,6,-1,-1,-1,-1],"split_conditions":[3.4583335E0,1.2916667E0,2.67875E2,1.1309788E-1,-1.7791045E-1,6.1524496E-3,-6.064992E-2],"split_indices":[11,2,8,0,0,0,0],"split_type":[0,0,0,0,0,0,0],"sum_hessian":[5.200979E2,3.871068E1,4.8138724E2,3.5226177E1,3.4845018E0,4.078418E2,7.354545E1],"tree_param":{"num_deleted":"0","num_feature":"28","num_nodes":"7","size_leaf_vector":"0"}},{"base_weights":[-8.273988E-3,-2.7694178E-1,1.3860209E-2,-3.7699288E-1,5.930348E-1,-2.0508172E-2,2.021664E-1],"categories":[],"categories_nodes":[],"categories_segments":[],"categories_sizes":[],"default_left":[1,1,1,0,0,0,0],"id":19,"left_children":[1,3,5,-1,-1,-1,-1],"loss_changes":[3.1026752E0,3.680072E0,3.1260495E0,0E0,0E0,0E0,0E0],"parents":[2147483647,0,0,1,1,2,2],"right_children":[2,4,6,-1,-1,-1,-1],"split_conditions":[3.4583335E0,1.2916667E0,2.67875E2,-1.1309787E-1,1.7791045E-1,-6.152452E-3,6.064992E-2],"split_indices":[11,2,8,0,0,0,0],"split_type":[0,0,0,0,0,0,0],"sum_hessian":[5.200979E2,3.871068E1,4.8138724E2,3.5226177E1,3.4845018E0,4.078418E2,7.354545E1],"tree_param":{"num_deleted":"0","num_feature":"28","num_nodes":"7","size_leaf_vector":"0"}},{"base_weights":[5.784575E-3,1.9233765E-1,-2.2494044E-2,5.235042E-1,-9.1455495E-3,-5.405285E-1,-3.0398567E-4],"categories":[],"categories_nodes":[],"categories_segments":[],"categories_sizes":[],"default_left":[1,1,1,0,0,0,0],"id":20,"left_children":[1,3,5,-1,-1,-1,-1],"loss_changes":[2.7461584E0,4.5766125E0,5.198144E0,0E0,0E0,0E0,0E0],"parents":[2147483647,0,0,1,1,2,2],"right_children":[2,4,6,-1,-1,-1,-1],"split_conditions":[8.95E1,4.43125E1,9.1625E1,1.5705127E-1,-2.743665E-3,-1.6215855E-1,-9.11957E-5],"split_indices":[15,24,15,0,0,0,0],"split_type":[0,0,0,0,0,0,0],"sum_hessian":[5.18733E2,6.751794E1,4.5121503E2,2.4935163E1,4.258277E1,1.7574451E1,4.3364056E2],"tree_param":{"num_deleted":"0","num_feature":"28","num_nodes":"7","size_leaf_vector":"0"}},{"base_weights":[-5.784576E-3,-1.9233766E-1,2.2494044E-2,-5.235042E-1,9.145551E-3,5.405284E-1,3.039863E-4],"categories":[],"categories_nodes":[],"categories_segments":[],"categories_sizes":[],"default_left":[1,1,1,0,0,0,0],"id":21,"left_children":[1,3,5,-1,-1,-1,-1],"loss_changes":[2.7461586E0,4.5766134E0,5.1981435E0,0E0,0E0,0E0,0E0],"parents":[2147483647,0,0,1,1,2,2],"right_children":[2,4,6,-1,-1,-1,-1],"split_conditions":[8.95E1,4.43125E1,9.1625E1,-1.5705127E-1,2.7436656E-3,1.6215853E-1,9.119589E-5],"split_indices":[15,24,15,0,0,0,0],"split_type":[0,0,0,0,0,0,0],"sum_hessian":[5.18733E2,6.751794E1,4.51215E2,2.4935163E1,4.258277E1,1.7574451E1,4.3364056E2],"tree_param":{"num_deleted":"0","num_feature":"28","num_nodes":"7","size_leaf_vector":"0"}},{"base_weights":[4.3436233E-3,-2.2354116E-1,2.4380311E-2,6.1717457E-1,-3.0664638E-1,-3.7441738E-2,1.11122966E-1],"categories":[],"categories_nodes":[],"categories_segments":[],"categories_sizes":[],"default_left":[1,1,1,0,0,0,0],"id":22,"left_children":[1,3,5,-1,-1,-1,-1],"loss_changes":[2.3757079E0,3.127313E0,2.567768E0,0E0,0E0,0E0,0E0],"parents":[2147483647,0,0,1,1,2,2],"right_children":[2,4,6,-1,-1,-1,-1],"split_conditions":[1.367E0,1.4583333E0,2.4445834E2,1.8515238E-1,-9.199391E-2,-1.1232521E-2,3.3336893E-2],"split_indices":[27,21,9,0,0,0,0],"split_type":[0,0,0,0,0,0,0],"sum_hessian":[5.181039E2,4.1051636E1,4.7705228E2,3.1148205E0,3.7936817E1,2.7886893E2,1.9818333E2],"tree_param":{"num_deleted":"0","num_feature":"28","num_nodes":"7","size_leaf_vector":"0"}},{"base_weights":[-4.3436214E-3,2.2354116E-1,-2.4380311E-2,-6.1717457E-1,3.066464E-1,3.7441738E-2,-1.1112296E-1],"categories":[],"categories_nodes":[],"categories_segments":[],"categories_sizes":[],"default_left":[1,1,1,0,0,0,0],"id":23,"left_children":[1,3,5,-1,-1,-1,-1],"loss_changes":[2.3757076E0,3.127313E0,2.5677679E0,0E0,0E0,0E0,0E0],"parents":[2147483647,0,0,1,1,2,2],"right_children":[2,4,6,-1,-1,-1,-1],"split_conditions":[1.367E0,1.4583333E0,2.4445834E2,-1.8515238E-1,9.199393E-2,1.1232521E-2,-3.333689E-2],"split_indices":[27,21,9,0,0,0,0],"split_type":[0,0,0,0,0,0,0],"sum_hessian":[5.181039E2,4.1051636E1,4.7705228E2,3.1148205E0,3.7936817E1,2.7886893E2,1.9818333E2],"tree_param":{"num_deleted":"0","num_feature":"28","num_nodes":"7","size_leaf_vector":"0"}},{"base_weights":[3.0501452E-3,5.4408264E-1,-4.712854E-3,8.279881E-2,-5.254605E-2],"categories":[],"categories_nodes":[],"categories_segments":[],"categories_sizes":[],"default_left":[1,0,1,0,0],"id":24,"left_children":[1,-1,3,-1,-1],"loss_changes":[2.1660736E0,0E0,2.1342597E0,0E0,0E0],"parents":[2147483647,0,0,2,2],"right_children":[2,-1,4,-1,-1],"split_conditions":[1.277363E3,1.632248E-1,1.0079167E2,2.4839643E-2,-1.5763815E-2],"split_indices":[25,0,17,0,0],"split_type":[0,0,0,0,0],"sum_hessian":[5.14117E2,6.295187E0,5.078218E2,1.792146E2,3.286072E2],"tree_param":{"num_deleted":"0","num_feature":"28","num_nodes":"5","size_leaf_vector":"0"}},{"base_weights":[-3.0501455E-3,-5.4408264E-1,4.712854E-3,-8.2798816E-2,5.254605E-2],"categories":[],"categories_nodes":[],"categories_segments":[],"categories_sizes":[],"default_left":[1,0,1,0,0],"id":25,"left_children":[1,-1,3,-1,-1],"loss_changes":[2.1660736E0,0E0,2.13426E0,0E0,0E0],"parents":[2147483647,0,0,2,2],"right_children":[2,-1,4,-1,-1],"split_conditions":[1.277363E3,-1.632248E-1,1.0079167E2,-2.4839645E-2,1.5763815E-2],"split_indices":[25,0,17,0,0],"split_type":[0,0,0,0,0],"sum_hessian":[5.14117E2,6.295187E0,5.078218E2,1.7921458E2,3.286072E2],"tree_param":{"num_deleted":"0","num_feature":"28","num_nodes":"5","size_leaf_vector":"0"}},{"base_weights":[2.7114342E-3,1.6897933E-1,-1.9605393E-2,-1.9134456E-1,2.937905E-1,-3.6403965E-2,3.0863565E-1],"categories":[],"categories_nodes":[],"categories_segments":[],"categories_sizes":[],"default_left":[1,1,1,0,0,0,0],"id":26,"left_children":[1,3,5,-1,-1,-1,-1],"loss_changes":[1.9100026E0,2.7956023E0,2.5142562E0,0E0,0E0,0E0,0E0],"parents":[2147483647,0,0,1,1,2,2],"right_children":[2,4,6,-1,-1,-1,-1],"split_conditions":[1.8125E1,1.9395834E2,1.4604166E2,-5.740337E-2,8.813715E-2,-1.092119E-2,9.25907E-2],"split_indices":[4,8,14,0,0,0,0],"split_type":[0,0,0,0,0,0,0],"sum_hessian":[5.1285333E2,5.991257E1,4.5294073E2,1.5276619E1,4.4635952E1,4.317347E2,2.120603E1],"tree_param":{"num_deleted":"0","num_feature":"28","num_nodes":"7","size_leaf_vector":"0"}},{"base_weights":[-2.7114307E-3,-1.6897933E-1,1.9605394E-2,1.9134457E-1,-2.937905E-1,3.6403965E-2,-3.0863565E-1],"categories":[],"categories_nodes":[],"categories_segments":[],"categories_sizes":[],"default_left":[1,1,1,0,0,0,0],"id":27,"left_children":[1,3,5,-1,-1,-1,-1],"loss_changes":[1.9100024E0,2.7956023E0,2.5142562E0,0E0,0E0,0E0,0E0],"parents":[2147483647,0,0,1,1,2,2],"right_children":[2,4,6,-1,-1,-1,-1],"split_conditions":[1.8125E1,1.9395834E2,1.4604166E2,5.7403374E-2,-8.813715E-2,1.092119E-2,-9.25907E-2],"split_indices":[4,8,14,0,0,0,0],"split_type":[0,0,0,0,0,0,0],"sum_hessian":[5.1285333E2,5.991257E1,4.5294073E2,1.5276619E1,4.4635952E1,4.317347E2,2.120603E1],"tree_param":{"num_deleted":"0","num_feature":"28","num_nodes":"7","size_leaf_vector":"0"}},{"base_weights":[2.292504E-3,5.4675136E-2,-6.836254E-2,3.2773085E-2,5.8885133E-1,5.2001494E-1,-9.620058E-2],"categories":[],"categories_nodes":[],"categories_segments":[],"categories_sizes":[],"default_left":[1,1,1,0,0,0,0],"id":28,"left_children":[1,3,5,-1,-1,-1,-1],"loss_changes":[1.9036392E0,3.4360566E0,3.6369855E0,0E0,0E0,0E0,0E0],"parents":[2147483647,0,0,1,1,2,2],"right_children":[2,4,6,-1,-1,-1,-1],"split_conditions":[1.5376987E3,1.5312146E3,8.0125E1,9.831926E-3,1.7665541E-1,1.5600449E-1,-2.8860174E-2],"split_indices":[25,25,15,0,0,0,0],"split_type":[0,0,0,0,0,0,0],"sum_hessian":[5.123346E2,2.9434076E2,2.1799382E2,2.8376724E2,1.0573544E1,9.049338E0,2.0894449E2],"tree_param":{"num_deleted":"0","num_feature":"28","num_nodes":"7","size_leaf_vector":"0"}},{"base_weights":[-2.2925078E-3,-5.4675143E-2,6.836255E-2,-3.2773092E-2,-5.8885133E-1,-5.2001494E-1,9.620058E-2],"categories":[],"categories_nodes":[],"categories_segments":[],"categories_sizes":[],"default_left":[1,1,1,0,0,0,0],"id":29,"left_children":[1,3,5,-1,-1,-1,-1],"loss_changes":[1.9036394E0,3.4360564E0,3.6369855E0,0E0,0E0,0E0,0E0],"parents":[2147483647,0,0,1,1,2,2],"right_children":[2,4,6,-1,-1,-1,-1],"split_conditions":[1.5376987E3,1.5312146E3,8.0125E1,-9.831928E-3,-1.7665541E-1,-1.5600449E-1,2.8860174E-2],"split_indices":[25,25,15,0,0,0,0],"split_type":[0,0,0,0,0,0,0],"sum_hessian":[5.123346E2,2.9434076E2,2.1799382E2,2.8376724E2,1.0573544E1,9.049338E0,2.0894449E2],"tree_param":{"num_deleted":"0","num_feature":"28","num_nodes":"7","size_leaf_vector":"0"}},{"base_weights":[2.3571944E-3,-7.302437E-1,7.6772724E-3,-2.7214E-1,-8.971763E-1,-2.2308765E-1,2.4575224E-2],"categories":[],"categories_nodes":[],"categories_segments":[],"categories_sizes":[],"default_left":[1,1,1,0,0,0,0],"id":30,"left_children":[1,3,5,-1,-1,-1,-1],"loss_changes":[1.9950542E0,3.80615E-2,1.9854399E0,0E0,0E0,0E0,0E0],"parents":[2147483647,0,0,1,1,2,2],"right_children":[2,4,6,-1,-1,-1,-1],"split_conditions":[6.6E1,6.2541664E1,1.88875E2,-8.1642E-2,-2.691529E-1,-6.69263E-2,7.3725674E-3],"split_indices":[15,15,6,0,0,0,0],"split_type":[0,0,0,0,0,0,0],"sum_hessian":[5.094429E2,2.6904674E0,5.067524E2,1.4210365E0,1.2694309E0,3.3742996E1,4.7300943E2],"tree_param":{"num_deleted":"0","num_feature":"28","num_nodes":"7","size_leaf_vector":"0"}},{"base_weights":[-2.3571965E-3,7.3024374E-1,-7.6772748E-3,2.7214E-1,8.971764E-1,2.2308767E-1,-2.4575226E-2],"categories":[],"categories_nodes":[],"categories_segments":[],"categories_sizes":[],"default_left":[1,1,1,0,0,0,0],"id":31,"left_children":[1,3,5,-1,-1,-1,-1],"loss_changes":[1.9950545E0,3.806162E-2,1.98544E0,0E0,0E0,0E0,0E0],"parents":[2147483647,0,0,1,1,2,2],"right_children":[2,4,6,-1,-1,-1,-1],"split_conditions":[6.6E1,6.2541664E1,1.88875E2,8.1642E-2,2.6915294E-1,6.69263E-2,-7.372568E-3],"split_indices":[15,15,6,0,0,0,0],"split_type":[0,0,0,0,0,0,0],"sum_hessian":[5.094429E2,2.6904671E0,5.067524E2,1.4210364E0,1.2694308E0,3.3742996E1,4.7300943E2],"tree_param":{"num_deleted":"0","num_feature":"28","num_nodes":"7","size_leaf_vector":"0"}},{"base_weights":[9.1865973E-4,5.0442815E-1,-6.6276034E-3,8.611518E-1,-3.30682E-1,3.212628E-2,-1.1273554E-1],"categories":[],"categories_nodes":[],"categories_segments":[],"categories_sizes":[],"default_left":[1,1,1,0,0,0,0],"id":32,"left_children":[1,3,5,-1,-1,-1,-1],"loss_changes":[1.9408927E0,2.5317516E0,2.0736108E0,0E0,0E0,0E0,0E0],"parents":[2147483647,0,0,1,1,2,2],"right_children":[2,4,6,-1,-1,-1,-1],"split_conditions":[6.654167E1,5.125E0,2.570417E2,2.5834554E-1,-9.920461E-2,9.637885E-3,-3.3820663E-2],"split_indices":[17,10,6,0,0,0,0],"split_type":[0,0,0,0,0,0,0],"sum_hessian":[5.0893307E2,6.5426545E0,5.0239044E2,4.562545E0,1.9801095E0,3.685001E2,1.3389035E2],"tree_param":{"num_deleted":"0","num_feature":"28","num_nodes":"7","size_leaf_vector":"0"}},{"base_weights":[-9.186606E-4,-5.0442815E-1,6.627603E-3,-8.611519E-1,3.3068207E-1,-3.212628E-2,1.1273553E-1],"categories":[],"categories_nodes":[],"categories_segments":[],"categories_sizes":[],"default_left":[1,1,1,0,0,0,0],"id":33,"left_children":[1,3,5,-1,-1,-1,-1],"loss_changes":[1.9408927E0,2.5317516E0,2.0736105E0,0E0,0E0,0E0,0E0],"parents":[2147483647,0,0,1,1,2,2],"right_children":[2,4,6,-1,-1,-1,-1],"split_conditions":[6.654167E1,5.125E0,2.570417E2,-2.5834557E-1,9.920462E-2,-9.637885E-3,3.3820663E-2],"split_indices":[17,10,6,0,0,0,0],"split_type":[0,0,0,0,0,0,0],"sum_hessian":[5.0893307E2,6.5426545E0,5.0239044E2,4.5625453E0,1.9801095E0,3.685001E2,1.3389035E2],"tree_param":{"num_deleted":"0","num_feature":"28","num_nodes":"7","size_leaf_vector":"0"}},{"base_weights":[1.0120916E-3,-6.841598E-2,5.2399237E-2,-7.4164003E-1,-4.7735237E-2,-5.9811965E-2,1.577495E-1],"categories":[],"categories_nodes":[],"categories_segments":[],"categories_sizes":[],"default_left":[1,1,1,0,0,0,0],"id":34,"left_children":[1,3,5,-1,-1,-1,-1],"loss_changes":[1.8218642E0,2.988708E0,3.478363E0,0E0,0E0,0E0,0E0],"parents":[2147483647,0,0,1,1,2,2],"right_children":[2,4,6,-1,-1,-1,-1],"split_conditions":[1.4858711E3,1.4625E1,4.375E0,-2.2249202E-1,-1.4320572E-2,-1.794359E-2,4.7324855E-2],"split_indices":[26,22,10,0,0,0,0],"split_type":[0,0,0,0,0,0,0],"sum_hessian":[5.086488E2,2.1620605E2,2.9244275E2,5.404692E0,2.1080136E2,1.418195E2,1.5062325E2],"tree_param":{"num_deleted":"0","num_feature":"28","num_nodes":"7","size_leaf_vector":"0"}},{"base_weights":[-1.0120915E-3,6.841598E-2,-5.2399237E-2,7.4164003E-1,4.773524E-2,5.981196E-2,-1.577495E-1],"categories":[],"categories_nodes":[],"categories_segments":[],"categories_sizes":[],"default_left":[1,1,1,0,0,0,0],"id":35,"left_children":[1,3,5,-1,-1,-1,-1],"loss_changes":[1.8218644E0,2.988708E0,3.478363E0,0E0,0E0,0E0,0E0],"parents":[2147483647,0,0,1,1,2,2],"right_children":[2,4,6,-1,-1,-1,-1],"split_conditions":[1.4858711E3,1.4625E1,4.375E0,2.2249202E-1,1.4320573E-2,1.7943589E-2,-4.7324855E-2],"split_indices":[26,22,10,0,0,0,0],"split_type":[0,0,0,0,0,0,0],"sum_hessian":[5.086488E2,2.1620605E2,2.9244275E2,5.404692E0,2.1080136E2,1.418195E2,1.5062325E2],"tree_param":{"num_deleted":"0","num_feature":"28","num_nodes":"7","size_leaf_vector":"0"}},{"base_weights":[4.5597838E-4,2.2180936E-1,-1.7296823E-2,6.110302E-3,5.148525E-1,-1.012317E-3,-2.874994E-1],"categories":[],"categories_nodes":[],"categories_segments":[],"categories_sizes":[],"default_left":[1,1,1,0,0,0,0],"id":36,"left_children":[1,3,5,-1,-1,-1,-1],"loss_changes":[1.9938703E0,2.378066E0,2.066637E0,0E0,0E0,0E0,0E0],"parents":[2147483647,0,0,1,1,2,2],"right_children":[2,4,6,-1,-1,-1,-1],"split_conditions":[3.4583335E0,2.51125E2,2.9041668E1,1.8330907E-3,1.5445577E-1,-3.0369512E-4,-8.624982E-2],"split_indices":[11,9,5,0,0,0,0],"split_type":[0,0,0,0,0,0,0],"sum_hessian":[5.0541595E2,3.6671963E1,4.68744E2,2.1711626E1,1.4960336E1,4.4304633E2,2.5697666E1],"tree_param":{"num_deleted":"0","num_feature":"28","num_nodes":"7","size_leaf_vector":"0"}},{"base_weights":[-4.5597958E-4,-2.2180936E-1,1.729682E-2,-6.1103078E-3,-5.1485246E-1,1.012315E-3,2.8749943E-1],"categories":[],"categories_nodes":[],"categories_segments":[],"categories_sizes":[],"default_left":[1,1,1,0,0,0,0],"id":37,"left_children":[1,3,5,-1,-1,-1,-1],"loss_changes":[1.9938701E0,2.3780656E0,2.066637E0,0E0,0E0,0E0,0E0],"parents":[2147483647,0,0,1,1,2,2],"right_children":[2,4,6,-1,-1,-1,-1],"split_conditions":[3.4583335E0,2.51125E2,2.9041668E1,-1.8330924E-3,-1.5445575E-1,3.036945E-4,8.624983E-2],"split_indices":[11,9,5,0,0,0,0],"split_type":[0,0,0,0,0,0,0],"sum_hessian":[5.0541595E2,3.6671963E1,4.68744E2,2.1711626E1,1.4960335E1,4.4304633E2,2.5697666E1],"tree_param":{"num_deleted":"0","num_feature":"28","num_nodes":"7","size_leaf_vector":"0"}},{"base_weights":[6.713075E-4,-4.572082E-2,7.4549906E-2,-5.061367E-1,-1.9067852E-2,3.8609344E-1,1.9702869E-2],"categories":[],"categories_nodes":[],"categories_segments":[],"categories_sizes":[],"default_left":[1,1,1,0,0,0,0],"id":38,"left_children":[1,3,5,-1,-1,-1,-1],"loss_changes":[1.7361729E0,3.808887E0,3.3311021E0,0E0,0E0,0E0,0E0],"parents":[2147483647,0,0,1,1,2,2],"right_children":[2,4,6,-1,-1,-1,-1],"split_conditions":[1.1491667E2,1.9433334E2,2.0270834E2,-1.5184101E-1,-5.7203555E-3,1.1582804E-1,5.910861E-3],"split_indices":[14,8,8,0,0,0,0],"split_type":[0,0,0,0,0,0,0],"sum_hessian":[5.045645E2,3.1017255E2,1.9439197E2,1.598857E1,2.9418396E2,2.8195532E1,1.6619644E2],"tree_param":{"num_deleted":"0","num_feature":"28","num_nodes":"7","size_leaf_vector":"0"}},{"base_weights":[-6.713112E-4,4.5720812E-2,-7.4549906E-2,5.061367E-1,1.9067844E-2,-3.8609344E-1,-1.9702867E-2],"categories":[],"categories_nodes":[],"categories_segments":[],"categories_sizes":[],"default_left":[1,1,1,0,0,0,0],"id":39,"left_children":[1,3,5,-1,-1,-1,-1],"loss_changes":[1.7361728E0,3.8088872E0,3.3311021E0,0E0,0E0,0E0,0E0],"parents":[2147483647,0,0,1,1,2,2],"right_children":[2,4,6,-1,-1,-1,-1],"split_conditions":[1.1491667E2,1.9433334E2,2.0270834E2,1.5184101E-1,5.7203537E-3,-1.1582804E-1,-5.9108604E-3],"split_indices":[14,8,8,0,0,0,0],"split_type":[0,0,0,0,0,0,0],"sum_hessian":[5.045645E2,3.1017255E2,1.9439197E2,1.598857E1,2.9418396E2,2.8195532E1,1.6619644E2],"tree_param":{"num_deleted":"0","num_feature":"28","num_nodes":"7","size_leaf_vector":"0"}}]},"name":"gbtree"},"learner_model_param":{"base_score":"5E-1","boost_from_average":"1","num_class":"2","num_feature":"28","num_target":"1"},"objective":{"name":"multi:softprob","softmax_multiclass_param":{"num_class":"2"}}},"version":[1,7,5]}