{"learner":{"attributes":{"best_iteration":"19","best_ntree_limit":"20"},"feature_names":["eloaway","elohome","Away Line Close","Away Odds Close","Total Score Close","TeamScore_Home_4","PYds_Away_4","TeamScore_Away_4","PYds_Home_4","Int_Opp_Home_4","OppScore_Home_4","RYds_Home_4","OppScore_Away_4","RYds_Opp_Home_4","Pnt_Home_4","Int_Opp_Away_4","Int_Home_4","Sk_Opp_Home_4","Pnt_Opp_Away_4","Int_Away_4","Sk_Opp_Away_4","RYds_Away_4","Sk_Home_4","PYds_Opp_Home_4","PYds_Opp_Away_4","eloaway_4","Pnt_Away_4","elohome_4","RYds_Opp_Away_4","Sk_Away_4","Pnt_Opp_Home_4"],"feature_types":["float","float","float","float","float","float","float","float","float","float","float","float","float","float","float","float","float","float","float","float","float","float","float","float","float","float","float","float","float","float","float"],"gradient_booster":{"model":{"gbtree_model_param":{"num_parallel_tree":"1","num_trees":"40","size_leaf_vector":"0"},"tree_info":[0,1,0,1,0,1,0,1,0,1,0,1,0,1,0,1,0,1,0,1,0,1,0,1,0,1,0,1,0,1,0,1,0,1,0,1,0,1,0,1],"trees":[{"base_weights":[1.296417E-1,-2.1884498E-1,3.9021614E-1,-5.9006214E-1,-9.8196395E-2,2.3014256E-1,5.897436E-1],"categories":[],"categories_nodes":[],"categories_segments":[],"categories_sizes":[],"default_left":[1,1,1,0,0,0,0],"id":0,"left_children":[1,3,5,-1,-1,-1,-1],"loss_changes":[6.9779564E1,1.4676923E1,1.3901489E1,0E0,0E0,0E0,0E0],"parents":[2147483647,0,0,1,1,2,2],"right_children":[2,4,6,-1,-1,-1,-1],"split_conditions":[2.25E0,1.424E0,3.255E0,-5.900621E-5,-9.81964E-6,2.3014256E-5,5.897436E-5],"split_indices":[2,3,3,0,0,0,0],"split_type":[0,0,0,0,0,0,0],"sum_hessian":[7.665E2,3.28E2,4.385E2,7.95E1,2.485E2,2.445E2,1.94E2],"tree_param":{"num_deleted":"0","num_feature":"31","num_nodes":"7","size_leaf_vector":"0"}},{"base_weights":[-1.296417E-1,2.1884498E-1,-3.9021614E-1,5.9006214E-1,9.8196395E-2,-2.3014256E-1,-5.897436E-1],"categories":[],"categories_nodes":[],"categories_segments":[],"categories_sizes":[],"default_left":[1,1,1,0,0,0,0],"id":1,"left_children":[1,3,5,-1,-1,-1,-1],"loss_changes":[6.9779564E1,1.4676923E1,1.3901489E1,0E0,0E0,0E0,0E0],"parents":[2147483647,0,0,1,1,2,2],"right_children":[2,4,6,-1,-1,-1,-1],"split_conditions":[2.25E0,1.424E0,3.255E0,5.900621E-5,9.81964E-6,-2.3014256E-5,-5.897436E-5],"split_indices":[2,3,3,0,0,0,0],"split_type":[0,0,0,0,0,0,0],"sum_hessian":[7.665E2,3.28E2,4.385E2,7.95E1,2.485E2,2.445E2,1.94E2],"tree_param":{"num_deleted":"0","num_feature":"31","num_nodes":"7","size_leaf_vector":"0"}},{"base_weights":[1.2962873E-1,-2.1882333E-1,3.901773E-1,-5.9000385E-1,-9.818663E-2,2.3011965E-1,5.896849E-1],"categories":[],"categories_nodes":[],"categories_segments":[],"categories_sizes":[],"default_left":[1,1,1,0,0,0,0],"id":2,"left_children":[1,3,5,-1,-1,-1,-1],"loss_changes":[6.9765686E1,1.4674028E1,1.3898735E1,0E0,0E0,0E0,0E0],"parents":[2147483647,0,0,1,1,2,2],"right_children":[2,4,6,-1,-1,-1,-1],"split_conditions":[2.25E0,1.424E0,3.255E0,-5.9000384E-5,-9.818663E-6,2.3011964E-5,5.896849E-5],"split_indices":[2,3,3,0,0,0,0],"split_type":[0,0,0,0,0,0,0],"sum_hessian":[7.665E2,3.28E2,4.385E2,7.95E1,2.4849998E2,2.445E2,1.94E2],"tree_param":{"num_deleted":"0","num_feature":"31","num_nodes":"7","size_leaf_vector":"0"}},{"base_weights":[-1.2962875E-1,2.1882334E-1,-3.9017734E-1,5.9000385E-1,9.818666E-2,-2.3011965E-1,-5.8968496E-1],"categories":[],"categories_nodes":[],"categories_segments":[],"categories_sizes":[],"default_left":[1,1,1,0,0,0,0],"id":3,"left_children":[1,3,5,-1,-1,-1,-1],"loss_changes":[6.976571E1,1.4674027E1,1.3898735E1,0E0,0E0,0E0,0E0],"parents":[2147483647,0,0,1,1,2,2],"right_children":[2,4,6,-1,-1,-1,-1],"split_conditions":[2.25E0,1.424E0,3.255E0,5.9000384E-5,9.818666E-6,-2.3011964E-5,-5.8968493E-5],"split_indices":[2,3,3,0,0,0,0],"split_type":[0,0,0,0,0,0,0],"sum_hessian":[7.665E2,3.28E2,4.385E2,7.95E1,2.485E2,2.445E2,1.9399998E2],"tree_param":{"num_deleted":"0","num_feature":"31","num_nodes":"7","size_leaf_vector":"0"}},{"base_weights":[1.296158E-1,-2.1880169E-1,3.901385E-1,-5.8994555E-1,-9.81769E-2,2.3009674E-1,5.896263E-1],"categories":[],"categories_nodes":[],"categories_segments":[],"categories_sizes":[],"default_left":[1,1,1,0,0,0,0],"id":4,"left_children":[1,3,5,-1,-1,-1,-1],"loss_changes":[6.975185E1,1.4671131E1,1.3895981E1,0E0,0E0,0E0,0E0],"parents":[2147483647,0,0,1,1,2,2],"right_children":[2,4,6,-1,-1,-1,-1],"split_conditions":[2.25E0,1.424E0,3.255E0,-5.8994556E-5,-9.81769E-6,2.3009674E-5,5.896263E-5],"split_indices":[2,3,3,0,0,0,0],"split_type":[0,0,0,0,0,0,0],"sum_hessian":[7.665E2,3.28E2,4.385E2,7.95E1,2.4849998E2,2.445E2,1.94E2],"tree_param":{"num_deleted":"0","num_feature":"31","num_nodes":"7","size_leaf_vector":"0"}},{"base_weights":[-1.2961581E-1,2.1880162E-1,-3.9013848E-1,5.8994555E-1,9.81768E-2,-2.3009674E-1,-5.8962625E-1],"categories":[],"categories_nodes":[],"categories_segments":[],"categories_sizes":[],"default_left":[1,1,1,0,0,0,0],"id":5,"left_children":[1,3,5,-1,-1,-1,-1],"loss_changes":[6.975183E1,1.4671137E1,1.3895966E1,0E0,0E0,0E0,0E0],"parents":[2147483647,0,0,1,1,2,2],"right_children":[2,4,6,-1,-1,-1,-1],"split_conditions":[2.25E0,1.424E0,3.255E0,5.8994556E-5,9.81768E-6,-2.3009674E-5,-5.8962625E-5],"split_indices":[2,3,3,0,0,0,0],"split_type":[0,0,0,0,0,0,0],"sum_hessian":[7.665E2,3.28E2,4.385E2,7.95E1,2.485E2,2.445E2,1.94E2],"tree_param":{"num_deleted":"0","num_feature":"31","num_nodes":"7","size_leaf_vector":"0"}},{"base_weights":[1.2960286E-1,-2.1877997E-1,3.9009967E-1,-5.898873E-1,-9.816707E-2,2.3007382E-1,5.895676E-1],"categories":[],"categories_nodes":[],"categories_segments":[],"categories_sizes":[],"default_left":[1,1,1,0,0,0,0],"id":6,"left_children":[1,3,5,-1,-1,-1,-1],"loss_changes":[6.973798E1,1.4668245E1,1.3893204E1,0E0,0E0,0E0,0E0],"parents":[2147483647,0,0,1,1,2,2],"right_children":[2,4,6,-1,-1,-1,-1],"split_conditions":[2.25E0,1.424E0,3.255E0,-5.898873E-5,-9.816707E-6,2.3007382E-5,5.8956757E-5],"split_indices":[2,3,3,0,0,0,0],"split_type":[0,0,0,0,0,0,0],"sum_hessian":[7.665E2,3.28E2,4.385E2,7.949999E1,2.485E2,2.445E2,1.9399998E2],"tree_param":{"num_deleted":"0","num_feature":"31","num_nodes":"7","size_leaf_vector":"0"}},{"base_weights":[-1.2960286E-1,2.1877997E-1,-3.9009967E-1,5.898873E-1,9.816707E-2,-2.3007382E-1,-5.895676E-1],"categories":[],"categories_nodes":[],"categories_segments":[],"categories_sizes":[],"default_left":[1,1,1,0,0,0,0],"id":7,"left_children":[1,3,5,-1,-1,-1,-1],"loss_changes":[6.973798E1,1.4668245E1,1.3893204E1,0E0,0E0,0E0,0E0],"parents":[2147483647,0,0,1,1,2,2],"right_children":[2,4,6,-1,-1,-1,-1],"split_conditions":[2.25E0,1.424E0,3.255E0,5.898873E-5,9.816707E-6,-2.3007382E-5,-5.8956757E-5],"split_indices":[2,3,3,0,0,0,0],"split_type":[0,0,0,0,0,0,0],"sum_hessian":[7.665E2,3.28E2,4.385E2,7.949999E1,2.485E2,2.445E2,1.9399998E2],"tree_param":{"num_deleted":"0","num_feature":"31","num_nodes":"7","size_leaf_vector":"0"}},{"base_weights":[1.2958996E-1,-2.1875827E-1,3.9006087E-1,-5.89829E-1,-9.815724E-2,2.300509E-1,5.89509E-1],"categories":[],"categories_nodes":[],"categories_segments":[],"categories_sizes":[],"default_left":[1,1,1,0,0,0,0],"id":8,"left_children":[1,3,5,-1,-1,-1,-1],"loss_changes":[6.972412E1,1.4665355E1,1.389045E1,0E0,0E0,0E0,0E0],"parents":[2147483647,0,0,1,1,2,2],"right_children":[2,4,6,-1,-1,-1,-1],"split_conditions":[2.25E0,1.424E0,3.255E0,-5.89829E-5,-9.815724E-6,2.300509E-5,5.89509E-5],"split_indices":[2,3,3,0,0,0,0],"split_type":[0,0,0,0,0,0,0],"sum_hessian":[7.665E2,3.28E2,4.385E2,7.949999E1,2.485E2,2.445E2,1.9399998E2],"tree_param":{"num_deleted":"0","num_feature":"31","num_nodes":"7","size_leaf_vector":"0"}},{"base_weights":[-1.2958996E-1,2.1875824E-1,-3.9006087E-1,5.89829E-1,9.815721E-2,-2.300509E-1,-5.89509E-1],"categories":[],"categories_nodes":[],"categories_segments":[],"categories_sizes":[],"default_left":[1,1,1,0,0,0,0],"id":9,"left_children":[1,3,5,-1,-1,-1,-1],"loss_changes":[6.972411E1,1.4665357E1,1.389045E1,0E0,0E0,0E0,0E0],"parents":[2147483647,0,0,1,1,2,2],"right_children":[2,4,6,-1,-1,-1,-1],"split_conditions":[2.25E0,1.424E0,3.255E0,5.89829E-5,9.815721E-6,-2.300509E-5,-5.89509E-5],"split_indices":[2,3,3,0,0,0,0],"split_type":[0,0,0,0,0,0,0],"sum_hessian":[7.665E2,3.28E2,4.385E2,7.949999E1,2.485E2,2.445E2,1.9399998E2],"tree_param":{"num_deleted":"0","num_feature":"31","num_nodes":"7","size_leaf_vector":"0"}},{"base_weights":[1.2957698E-1,-2.1873665E-1,3.9002204E-1,-5.8977085E-1,-9.814751E-2,2.30028E-1,5.8945036E-1],"categories":[],"categories_nodes":[],"categories_segments":[],"categories_sizes":[],"default_left":[1,1,1,0,0,0,0],"id":10,"left_children":[1,3,5,-1,-1,-1,-1],"loss_changes":[6.9710266E1,1.4662461E1,1.3887688E1,0E0,0E0,0E0,0E0],"parents":[2147483647,0,0,1,1,2,2],"right_children":[2,4,6,-1,-1,-1,-1],"split_conditions":[2.25E0,1.424E0,3.255E0,-5.8977083E-5,-9.814751E-6,2.30028E-5,5.8945036E-5],"split_indices":[2,3,3,0,0,0,0],"split_type":[0,0,0,0,0,0,0],"sum_hessian":[7.665E2,3.28E2,4.385E2,7.949999E1,2.485E2,2.445E2,1.9399998E2],"tree_param":{"num_deleted":"0","num_feature":"31","num_nodes":"7","size_leaf_vector":"0"}},{"base_weights":[-1.2957701E-1,2.187366E-1,-3.9002207E-1,5.897708E-1,9.8147474E-2,-2.30028E-1,-5.894504E-1],"categories":[],"categories_nodes":[],"categories_segments":[],"categories_sizes":[],"default_left":[1,1,1,0,0,0,0],"id":11,"left_children":[1,3,5,-1,-1,-1,-1],"loss_changes":[6.9710266E1,1.4662459E1,1.3887695E1,0E0,0E0,0E0,0E0],"parents":[2147483647,0,0,1,1,2,2],"right_children":[2,4,6,-1,-1,-1,-1],"split_conditions":[2.25E0,1.424E0,3.255E0,5.897708E-5,9.8147475E-6,-2.30028E-5,-5.894504E-5],"split_indices":[2,3,3,0,0,0,0],"split_type":[0,0,0,0,0,0,0],"sum_hessian":[7.665E2,3.28E2,4.3849997E2,7.949999E1,2.485E2,2.445E2,1.9399997E2],"tree_param":{"num_deleted":"0","num_feature":"31","num_nodes":"7","size_leaf_vector":"0"}},{"base_weights":[1.2956406E-1,-2.1871495E-1,3.8998327E-1,-5.8971256E-1,-9.8137714E-2,2.3000509E-1,5.8939177E-1],"categories":[],"categories_nodes":[],"categories_segments":[],"categories_sizes":[],"default_left":[1,1,1,0,0,0,0],"id":12,"left_children":[1,3,5,-1,-1,-1,-1],"loss_changes":[6.969643E1,1.4659567E1,1.3884933E1,0E0,0E0,0E0,0E0],"parents":[2147483647,0,0,1,1,2,2],"right_children":[2,4,6,-1,-1,-1,-1],"split_conditions":[2.25E0,1.424E0,3.255E0,-5.8971254E-5,-9.813771E-6,2.3000508E-5,5.8939175E-5],"split_indices":[2,3,3,0,0,0,0],"split_type":[0,0,0,0,0,0,0],"sum_hessian":[7.6649994E2,3.2799997E2,4.3849997E2,7.949999E1,2.4849998E2,2.445E2,1.9399997E2],"tree_param":{"num_deleted":"0","num_feature":"31","num_nodes":"7","size_leaf_vector":"0"}},{"base_weights":[-1.2956405E-1,2.1871498E-1,-3.8998324E-1,5.897126E-1,9.813774E-2,-2.3000512E-1,-5.8939165E-1],"categories":[],"categories_nodes":[],"categories_segments":[],"categories_sizes":[],"default_left":[1,1,1,0,0,0,0],"id":13,"left_children":[1,3,5,-1,-1,-1,-1],"loss_changes":[6.969643E1,1.4659572E1,1.3884918E1,0E0,0E0,0E0,0E0],"parents":[2147483647,0,0,1,1,2,2],"right_children":[2,4,6,-1,-1,-1,-1],"split_conditions":[2.25E0,1.424E0,3.255E0,5.897126E-5,9.813773E-6,-2.3000512E-5,-5.8939164E-5],"split_indices":[2,3,3,0,0,0,0],"split_type":[0,0,0,0,0,0,0],"sum_hessian":[7.665E2,3.28E2,4.385E2,7.949999E1,2.485E2,2.445E2,1.9399998E2],"tree_param":{"num_deleted":"0","num_feature":"31","num_nodes":"7","size_leaf_vector":"0"}},{"base_weights":[1.2955113E-1,-2.1869333E-1,3.8994446E-1,-5.896544E-1,-9.8127976E-2,2.2998217E-1,5.8933324E-1],"categories":[],"categories_nodes":[],"categories_segments":[],"categories_sizes":[],"default_left":[1,1,1,0,0,0,0],"id":14,"left_children":[1,3,5,-1,-1,-1,-1],"loss_changes":[6.968259E1,1.465668E1,1.3882179E1,0E0,0E0,0E0,0E0],"parents":[2147483647,0,0,1,1,2,2],"right_children":[2,4,6,-1,-1,-1,-1],"split_conditions":[2.25E0,1.424E0,3.255E0,-5.8965437E-5,-9.8127975E-6,2.2998216E-5,5.893332E-5],"split_indices":[2,3,3,0,0,0,0],"split_type":[0,0,0,0,0,0,0],"sum_hessian":[7.6649994E2,3.2799997E2,4.3849997E2,7.9499985E1,2.4849998E2,2.445E2,1.9399997E2],"tree_param":{"num_deleted":"0","num_feature":"31","num_nodes":"7","size_leaf_vector":"0"}},{"base_weights":[-1.2955116E-1,2.1869326E-1,-3.8994446E-1,5.896544E-1,9.812789E-2,-2.2998227E-1,-5.893331E-1],"categories":[],"categories_nodes":[],"categories_segments":[],"categories_sizes":[],"default_left":[1,1,1,0,0,0,0],"id":15,"left_children":[1,3,5,-1,-1,-1,-1],"loss_changes":[6.968257E1,1.4656687E1,1.3882156E1,0E0,0E0,0E0,0E0],"parents":[2147483647,0,0,1,1,2,2],"right_children":[2,4,6,-1,-1,-1,-1],"split_conditions":[2.25E0,1.424E0,3.255E0,5.8965437E-5,9.812788E-6,-2.2998227E-5,-5.893331E-5],"split_indices":[2,3,3,0,0,0,0],"split_type":[0,0,0,0,0,0,0],"sum_hessian":[7.6649994E2,3.28E2,4.3849994E2,7.9499985E1,2.485E2,2.4449998E2,1.9399997E2],"tree_param":{"num_deleted":"0","num_feature":"31","num_nodes":"7","size_leaf_vector":"0"}},{"base_weights":[1.2953818E-1,-2.1867163E-1,3.8990566E-1,-5.895963E-1,-9.811815E-2,2.2995926E-1,5.892746E-1],"categories":[],"categories_nodes":[],"categories_segments":[],"categories_sizes":[],"default_left":[1,1,1,0,0,0,0],"id":16,"left_children":[1,3,5,-1,-1,-1,-1],"loss_changes":[6.966873E1,1.4653797E1,1.3879417E1,0E0,0E0,0E0,0E0],"parents":[2147483647,0,0,1,1,2,2],"right_children":[2,4,6,-1,-1,-1,-1],"split_conditions":[2.25E0,1.424E0,3.255E0,-5.8959624E-5,-9.811814E-6,2.2995926E-5,5.8927457E-5],"split_indices":[2,3,3,0,0,0,0],"split_type":[0,0,0,0,0,0,0],"sum_hessian":[7.6649994E2,3.2799997E2,4.3849994E2,7.949998E1,2.485E2,2.4449998E2,1.9399995E2],"tree_param":{"num_deleted":"0","num_feature":"31","num_nodes":"7","size_leaf_vector":"0"}},{"base_weights":[-1.2953818E-1,2.1867162E-1,-3.8990563E-1,5.8959615E-1,9.811815E-2,-2.2995926E-1,-5.892745E-1],"categories":[],"categories_nodes":[],"categories_segments":[],"categories_sizes":[],"default_left":[1,1,1,0,0,0,0],"id":17,"left_children":[1,3,5,-1,-1,-1,-1],"loss_changes":[6.966872E1,1.465379E1,1.3879417E1,0E0,0E0,0E0,0E0],"parents":[2147483647,0,0,1,1,2,2],"right_children":[2,4,6,-1,-1,-1,-1],"split_conditions":[2.25E0,1.424E0,3.255E0,5.8959613E-5,9.811814E-6,-2.2995926E-5,-5.892745E-5],"split_indices":[2,3,3,0,0,0,0],"split_type":[0,0,0,0,0,0,0],"sum_hessian":[7.6649994E2,3.2799997E2,4.3849994E2,7.9499985E1,2.485E2,2.4449998E2,1.9399994E2],"tree_param":{"num_deleted":"0","num_feature":"31","num_nodes":"7","size_leaf_vector":"0"}},{"base_weights":[1.2952527E-1,-2.1864994E-1,3.8986686E-1,-5.8953804E-1,-9.810833E-2,2.2993636E-1,5.89216E-1],"categories":[],"categories_nodes":[],"categories_segments":[],"categories_sizes":[],"default_left":[1,1,1,0,0,0,0],"id":18,"left_children":[1,3,5,-1,-1,-1,-1],"loss_changes":[6.9654884E1,1.4650912E1,1.3876663E1,0E0,0E0,0E0,0E0],"parents":[2147483647,0,0,1,1,2,2],"right_children":[2,4,6,-1,-1,-1,-1],"split_conditions":[2.25E0,1.424E0,3.255E0,-5.8953803E-5,-9.810833E-6,2.2993636E-5,5.89216E-5],"split_indices":[2,3,3,0,0,0,0],"split_type":[0,0,0,0,0,0,0],"sum_hessian":[7.664999E2,3.2799997E2,4.3849994E2,7.949998E1,2.485E2,2.4449998E2,1.9399994E2],"tree_param":{"num_deleted":"0","num_feature":"31","num_nodes":"7","size_leaf_vector":"0"}},{"base_weights":[-1.2952521E-1,2.1865001E-1,-3.898668E-1,5.8953804E-1,9.810841E-2,-2.2993636E-1,-5.892159E-1],"categories":[],"categories_nodes":[],"categories_segments":[],"categories_sizes":[],"default_left":[1,1,1,0,0,0,0],"id":19,"left_children":[1,3,5,-1,-1,-1,-1],"loss_changes":[6.965489E1,1.4650907E1,1.3876648E1,0E0,0E0,0E0,0E0],"parents":[2147483647,0,0,1,1,2,2],"right_children":[2,4,6,-1,-1,-1,-1],"split_conditions":[2.25E0,1.424E0,3.255E0,5.8953803E-5,9.810841E-6,-2.2993636E-5,-5.8921585E-5],"split_indices":[2,3,3,0,0,0,0],"split_type":[0,0,0,0,0,0,0],"sum_hessian":[7.664999E2,3.2799997E2,4.3849994E2,7.949998E1,2.485E2,2.4449998E2,1.9399994E2],"tree_param":{"num_deleted":"0","num_feature":"31","num_nodes":"7","size_leaf_vector":"0"}},{"base_weights":[1.295123E-1,-2.1862832E-1,3.8982803E-1,-5.894798E-1,-9.809859E-2,2.2991344E-1,5.8915734E-1],"categories":[],"categories_nodes":[],"categories_segments":[],"categories_sizes":[],"default_left":[1,1,1,0,0,0,0],"id":20,"left_children":[1,3,5,-1,-1,-1,-1],"loss_changes":[6.964104E1,1.4648022E1,1.3873901E1,0E0,0E0,0E0,0E0],"parents":[2147483647,0,0,1,1,2,2],"right_children":[2,4,6,-1,-1,-1,-1],"split_conditions":[2.25E0,1.424E0,3.255E0,-5.894798E-5,-9.809859E-6,2.2991344E-5,5.891573E-5],"split_indices":[2,3,3,0,0,0,0],"split_type":[0,0,0,0,0,0,0],"sum_hessian":[7.664999E2,3.2799997E2,4.384999E2,7.949998E1,2.485E2,2.4449998E2,1.9399992E2],"tree_param":{"num_deleted":"0","num_feature":"31","num_nodes":"7","size_leaf_vector":"0"}},{"base_weights":[-1.2951231E-1,2.1862827E-1,-3.8982803E-1,5.894798E-1,9.809856E-2,-2.2991344E-1,-5.8915734E-1],"categories":[],"categories_nodes":[],"categories_segments":[],"categories_sizes":[],"default_left":[1,1,1,0,0,0,0],"id":21,"left_children":[1,3,5,-1,-1,-1,-1],"loss_changes":[6.964103E1,1.4648022E1,1.3873901E1,0E0,0E0,0E0,0E0],"parents":[2147483647,0,0,1,1,2,2],"right_children":[2,4,6,-1,-1,-1,-1],"split_conditions":[2.25E0,1.424E0,3.255E0,5.894798E-5,9.809856E-6,-2.2991344E-5,-5.891573E-5],"split_indices":[2,3,3,0,0,0,0],"split_type":[0,0,0,0,0,0,0],"sum_hessian":[7.664999E2,3.2799997E2,4.384999E2,7.949997E1,2.485E2,2.4449998E2,1.9399992E2],"tree_param":{"num_deleted":"0","num_feature":"31","num_nodes":"7","size_leaf_vector":"0"}},{"base_weights":[1.2949938E-1,-2.1860667E-1,3.8978925E-1,-5.894217E-1,-9.808882E-2,2.2989053E-1,5.8909875E-1],"categories":[],"categories_nodes":[],"categories_segments":[],"categories_sizes":[],"default_left":[1,1,1,0,0,0,0],"id":22,"left_children":[1,3,5,-1,-1,-1,-1],"loss_changes":[6.9627205E1,1.4645133E1,1.387114E1,0E0,0E0,0E0,0E0],"parents":[2147483647,0,0,1,1,2,2],"right_children":[2,4,6,-1,-1,-1,-1],"split_conditions":[2.25E0,1.424E0,3.255E0,-5.894217E-5,-9.808882E-6,2.2989052E-5,5.8909874E-5],"split_indices":[2,3,3,0,0,0,0],"split_type":[0,0,0,0,0,0,0],"sum_hessian":[7.664999E2,3.2799997E2,4.384999E2,7.949997E1,2.485E2,2.4449998E2,1.9399992E2],"tree_param":{"num_deleted":"0","num_feature":"31","num_nodes":"7","size_leaf_vector":"0"}},{"base_weights":[-1.2949938E-1,2.1860667E-1,-3.8978925E-1,5.894217E-1,9.808882E-2,-2.2989053E-1,-5.8909875E-1],"categories":[],"categories_nodes":[],"categories_segments":[],"categories_sizes":[],"default_left":[1,1,1,0,0,0,0],"id":23,"left_children":[1,3,5,-1,-1,-1,-1],"loss_changes":[6.9627205E1,1.4645133E1,1.387114E1,0E0,0E0,0E0,0E0],"parents":[2147483647,0,0,1,1,2,2],"right_children":[2,4,6,-1,-1,-1,-1],"split_conditions":[2.25E0,1.424E0,3.255E0,5.894217E-5,9.808882E-6,-2.2989052E-5,-5.8909874E-5],"split_indices":[2,3,3,0,0,0,0],"split_type":[0,0,0,0,0,0,0],"sum_hessian":[7.664999E2,3.2799997E2,4.384999E2,7.949997E1,2.485E2,2.4449998E2,1.9399992E2],"tree_param":{"num_deleted":"0","num_feature":"31","num_nodes":"7","size_leaf_vector":"0"}},{"base_weights":[1.2948644E-1,-2.1858503E-1,3.8975045E-1,-5.893635E-1,-9.807906E-2,2.2986762E-1,5.890402E-1],"categories":[],"categories_nodes":[],"categories_segments":[],"categories_sizes":[],"default_left":[1,1,1,0,0,0,0],"id":24,"left_children":[1,3,5,-1,-1,-1,-1],"loss_changes":[6.961337E1,1.4642252E1,1.3868393E1,0E0,0E0,0E0,0E0],"parents":[2147483647,0,0,1,1,2,2],"right_children":[2,4,6,-1,-1,-1,-1],"split_conditions":[2.25E0,1.424E0,3.255E0,-5.893635E-5,-9.807906E-6,2.2986762E-5,5.890402E-5],"split_indices":[2,3,3,0,0,0,0],"split_type":[0,0,0,0,0,0,0],"sum_hessian":[7.664998E2,3.2799994E2,4.3849988E2,7.9499954E1,2.4849998E2,2.4449998E2,1.9399991E2],"tree_param":{"num_deleted":"0","num_feature":"31","num_nodes":"7","size_leaf_vector":"0"}},{"base_weights":[-1.2948649E-1,2.1858494E-1,-3.8975048E-1,5.8936346E-1,9.8078966E-2,-2.2986764E-1,-5.890402E-1],"categories":[],"categories_nodes":[],"categories_segments":[],"categories_sizes":[],"default_left":[1,1,1,0,0,0,0],"id":25,"left_children":[1,3,5,-1,-1,-1,-1],"loss_changes":[6.961336E1,1.4642252E1,1.3868393E1,0E0,0E0,0E0,0E0],"parents":[2147483647,0,0,1,1,2,2],"right_children":[2,4,6,-1,-1,-1,-1],"split_conditions":[2.25E0,1.424E0,3.255E0,5.8936344E-5,9.807896E-6,-2.2986764E-5,-5.890402E-5],"split_indices":[2,3,3,0,0,0,0],"split_type":[0,0,0,0,0,0,0],"sum_hessian":[7.664999E2,3.2799997E2,4.384999E2,7.949996E1,2.485E2,2.445E2,1.9399991E2],"tree_param":{"num_deleted":"0","num_feature":"31","num_nodes":"7","size_leaf_vector":"0"}},{"base_weights":[1.294735E-1,-2.185634E-1,3.897117E-1,-5.893052E-1,-9.8069325E-2,2.2984472E-1,5.889817E-1],"categories":[],"categories_nodes":[],"categories_segments":[],"categories_sizes":[],"default_left":[1,1,1,0,0,0,0],"id":26,"left_children":[1,3,5,-1,-1,-1,-1],"loss_changes":[6.959955E1,1.4639358E1,1.3865639E1,0E0,0E0,0E0,0E0],"parents":[2147483647,0,0,1,1,2,2],"right_children":[2,4,6,-1,-1,-1,-1],"split_conditions":[2.25E0,1.424E0,3.255E0,-5.893052E-5,-9.806932E-6,2.2984472E-5,5.8898167E-5],"split_indices":[2,3,3,0,0,0,0],"split_type":[0,0,0,0,0,0,0],"sum_hessian":[7.664998E2,3.2799994E2,4.3849985E2,7.9499954E1,2.4849998E2,2.4449997E2,1.9399988E2],"tree_param":{"num_deleted":"0","num_feature":"31","num_nodes":"7","size_leaf_vector":"0"}},{"base_weights":[-1.2947355E-1,2.1856333E-1,-3.897117E-1,5.8930534E-1,9.806923E-2,-2.2984482E-1,-5.889816E-1],"categories":[],"categories_nodes":[],"categories_segments":[],"categories_sizes":[],"default_left":[1,1,1,0,0,0,0],"id":27,"left_children":[1,3,5,-1,-1,-1,-1],"loss_changes":[6.959955E1,1.4639365E1,1.3865616E1,0E0,0E0,0E0,0E0],"parents":[2147483647,0,0,1,1,2,2],"right_children":[2,4,6,-1,-1,-1,-1],"split_conditions":[2.25E0,1.424E0,3.255E0,5.893053E-5,9.806922E-6,-2.298448E-5,-5.889816E-5],"split_indices":[2,3,3,0,0,0,0],"split_type":[0,0,0,0,0,0,0],"sum_hessian":[7.664998E2,3.2799994E2,4.3849988E2,7.9499954E1,2.485E2,2.4449998E2,1.939999E2],"tree_param":{"num_deleted":"0","num_feature":"31","num_nodes":"7","size_leaf_vector":"0"}},{"base_weights":[1.2946059E-1,-2.1854173E-1,3.896729E-1,-5.892472E-1,-9.80595E-2,2.298218E-1,5.8892316E-1],"categories":[],"categories_nodes":[],"categories_segments":[],"categories_sizes":[],"default_left":[1,1,1,0,0,0,0],"id":28,"left_children":[1,3,5,-1,-1,-1,-1],"loss_changes":[6.958572E1,1.4636482E1,1.38628845E1,0E0,0E0,0E0,0E0],"parents":[2147483647,0,0,1,1,2,2],"right_children":[2,4,6,-1,-1,-1,-1],"split_conditions":[2.25E0,1.424E0,3.255E0,-5.892472E-5,-9.80595E-6,2.298218E-5,5.8892314E-5],"split_indices":[2,3,3,0,0,0,0],"split_type":[0,0,0,0,0,0,0],"sum_hessian":[7.664998E2,3.2799994E2,4.3849985E2,7.949995E1,2.485E2,2.4449997E2,1.9399988E2],"tree_param":{"num_deleted":"0","num_feature":"31","num_nodes":"7","size_leaf_vector":"0"}},{"base_weights":[-1.294606E-1,2.185417E-1,-3.8967294E-1,5.892471E-1,9.80595E-2,-2.2982183E-1,-5.8892316E-1],"categories":[],"categories_nodes":[],"categories_segments":[],"categories_sizes":[],"default_left":[1,1,1,0,0,0,0],"id":29,"left_children":[1,3,5,-1,-1,-1,-1],"loss_changes":[6.958572E1,1.4636476E1,1.3862877E1,0E0,0E0,0E0,0E0],"parents":[2147483647,0,0,1,1,2,2],"right_children":[2,4,6,-1,-1,-1,-1],"split_conditions":[2.25E0,1.424E0,3.255E0,5.892471E-5,9.80595E-6,-2.2982182E-5,-5.8892314E-5],"split_indices":[2,3,3,0,0,0,0],"split_type":[0,0,0,0,0,0,0],"sum_hessian":[7.664998E2,3.2799994E2,4.3849985E2,7.949995E1,2.485E2,2.4449998E2,1.9399988E2],"tree_param":{"num_deleted":"0","num_feature":"31","num_nodes":"7","size_leaf_vector":"0"}},{"base_weights":[1.2944771E-1,-2.1852002E-1,3.8963422E-1,-5.89189E-1,-9.804967E-2,2.29799E-1,5.888646E-1],"categories":[],"categories_nodes":[],"categories_segments":[],"categories_sizes":[],"default_left":[1,1,1,0,0,0,0],"id":30,"left_children":[1,3,5,-1,-1,-1,-1],"loss_changes":[6.957189E1,1.4633598E1,1.386013E1,0E0,0E0,0E0,0E0],"parents":[2147483647,0,0,1,1,2,2],"right_children":[2,4,6,-1,-1,-1,-1],"split_conditions":[2.25E0,1.424E0,3.255E0,-5.8918897E-5,-9.804967E-6,2.2979899E-5,5.888646E-5],"split_indices":[2,3,3,0,0,0,0],"split_type":[0,0,0,0,0,0,0],"sum_hessian":[7.6649976E2,3.2799994E2,4.3849982E2,7.949994E1,2.485E2,2.4449997E2,1.9399985E2],"tree_param":{"num_deleted":"0","num_feature":"31","num_nodes":"7","size_leaf_vector":"0"}},{"base_weights":[-1.2944771E-1,2.1852E-1,-3.896342E-1,5.89189E-1,9.804964E-2,-2.2979899E-1,-5.888646E-1],"categories":[],"categories_nodes":[],"categories_segments":[],"categories_sizes":[],"default_left":[1,1,1,0,0,0,0],"id":31,"left_children":[1,3,5,-1,-1,-1,-1],"loss_changes":[6.9571884E1,1.4633599E1,1.386013E1,0E0,0E0,0E0,0E0],"parents":[2147483647,0,0,1,1,2,2],"right_children":[2,4,6,-1,-1,-1,-1],"split_conditions":[2.25E0,1.424E0,3.255E0,5.8918897E-5,9.804964E-6,-2.2979899E-5,-5.888646E-5],"split_indices":[2,3,3,0,0,0,0],"split_type":[0,0,0,0,0,0,0],"sum_hessian":[7.6649976E2,3.2799994E2,4.3849982E2,7.949994E1,2.485E2,2.4449995E2,1.9399985E2],"tree_param":{"num_deleted":"0","num_feature":"31","num_nodes":"7","size_leaf_vector":"0"}},{"base_weights":[1.2943478E-1,-2.1849841E-1,3.8959545E-1,-5.8913094E-1,-9.803994E-2,2.297761E-1,5.888061E-1],"categories":[],"categories_nodes":[],"categories_segments":[],"categories_sizes":[],"default_left":[1,1,1,0,0,0,0],"id":32,"left_children":[1,3,5,-1,-1,-1,-1],"loss_changes":[6.9558075E1,1.4630713E1,1.3857376E1,0E0,0E0,0E0,0E0],"parents":[2147483647,0,0,1,1,2,2],"right_children":[2,4,6,-1,-1,-1,-1],"split_conditions":[2.25E0,1.424E0,3.255E0,-5.8913094E-5,-9.803994E-6,2.2977609E-5,5.8880607E-5],"split_indices":[2,3,3,0,0,0,0],"split_type":[0,0,0,0,0,0,0],"sum_hessian":[7.6649976E2,3.2799994E2,4.384998E2,7.949993E1,2.485E2,2.4449997E2,1.9399983E2],"tree_param":{"num_deleted":"0","num_feature":"31","num_nodes":"7","size_leaf_vector":"0"}},{"base_weights":[-1.2943478E-1,2.184984E-1,-3.8959545E-1,5.8913094E-1,9.80399E-2,-2.297761E-1,-5.888061E-1],"categories":[],"categories_nodes":[],"categories_segments":[],"categories_sizes":[],"default_left":[1,1,1,0,0,0,0],"id":33,"left_children":[1,3,5,-1,-1,-1,-1],"loss_changes":[6.955807E1,1.4630716E1,1.3857376E1,0E0,0E0,0E0,0E0],"parents":[2147483647,0,0,1,1,2,2],"right_children":[2,4,6,-1,-1,-1,-1],"split_conditions":[2.25E0,1.424E0,3.255E0,5.8913094E-5,9.80399E-6,-2.2977609E-5,-5.8880607E-5],"split_indices":[2,3,3,0,0,0,0],"split_type":[0,0,0,0,0,0,0],"sum_hessian":[7.6649976E2,3.2799994E2,4.384998E2,7.949993E1,2.485E2,2.4449997E2,1.9399983E2],"tree_param":{"num_deleted":"0","num_feature":"31","num_nodes":"7","size_leaf_vector":"0"}},{"base_weights":[1.2942185E-1,-2.1847679E-1,3.8955668E-1,-5.890728E-1,-9.803017E-2,2.297532E-1,5.887476E-1],"categories":[],"categories_nodes":[],"categories_segments":[],"categories_sizes":[],"default_left":[1,1,1,0,0,0,0],"id":34,"left_children":[1,3,5,-1,-1,-1,-1],"loss_changes":[6.954425E1,1.4627837E1,1.38546295E1,0E0,0E0,0E0,0E0],"parents":[2147483647,0,0,1,1,2,2],"right_children":[2,4,6,-1,-1,-1,-1],"split_conditions":[2.25E0,1.424E0,3.255E0,-5.890728E-5,-9.803017E-6,2.2975319E-5,5.887476E-5],"split_indices":[2,3,3,0,0,0,0],"split_type":[0,0,0,0,0,0,0],"sum_hessian":[7.664997E2,3.279999E2,4.3849976E2,7.9499916E1,2.485E2,2.4449995E2,1.939998E2],"tree_param":{"num_deleted":"0","num_feature":"31","num_nodes":"7","size_leaf_vector":"0"}},{"base_weights":[-1.2942185E-1,2.1847679E-1,-3.8955668E-1,5.890728E-1,9.803017E-2,-2.297532E-1,-5.887476E-1],"categories":[],"categories_nodes":[],"categories_segments":[],"categories_sizes":[],"default_left":[1,1,1,0,0,0,0],"id":35,"left_children":[1,3,5,-1,-1,-1,-1],"loss_changes":[6.954425E1,1.4627837E1,1.38546295E1,0E0,0E0,0E0,0E0],"parents":[2147483647,0,0,1,1,2,2],"right_children":[2,4,6,-1,-1,-1,-1],"split_conditions":[2.25E0,1.424E0,3.255E0,5.890728E-5,9.803017E-6,-2.2975319E-5,-5.887476E-5],"split_indices":[2,3,3,0,0,0,0],"split_type":[0,0,0,0,0,0,0],"sum_hessian":[7.664997E2,3.279999E2,4.3849976E2,7.9499916E1,2.485E2,2.4449995E2,1.939998E2],"tree_param":{"num_deleted":"0","num_feature":"31","num_nodes":"7","size_leaf_vector":"0"}},{"base_weights":[1.2940896E-1,-2.1845517E-1,3.8951796E-1,-5.8901477E-1,-9.802041E-2,2.297304E-1,5.886891E-1],"categories":[],"categories_nodes":[],"categories_segments":[],"categories_sizes":[],"default_left":[1,1,1,0,0,0,0],"id":36,"left_children":[1,3,5,-1,-1,-1,-1],"loss_changes":[6.953046E1,1.4624954E1,1.3851868E1,0E0,0E0,0E0,0E0],"parents":[2147483647,0,0,1,1,2,2],"right_children":[2,4,6,-1,-1,-1,-1],"split_conditions":[2.25E0,1.424E0,3.255E0,-5.8901474E-5,-9.802041E-6,2.297304E-5,5.8868907E-5],"split_indices":[2,3,3,0,0,0,0],"split_type":[0,0,0,0,0,0,0],"sum_hessian":[7.6649963E2,3.2799988E2,4.3849973E2,7.949991E1,2.4849997E2,2.4449995E2,1.9399979E2],"tree_param":{"num_deleted":"0","num_feature":"31","num_nodes":"7","size_leaf_vector":"0"}},{"base_weights":[-1.294089E-1,2.1845518E-1,-3.895179E-1,5.8901477E-1,9.802044E-2,-2.2973028E-1,-5.886891E-1],"categories":[],"categories_nodes":[],"categories_segments":[],"categories_sizes":[],"default_left":[1,1,1,0,0,0,0],"id":37,"left_children":[1,3,5,-1,-1,-1,-1],"loss_changes":[6.953044E1,1.4624955E1,1.3851875E1,0E0,0E0,0E0,0E0],"parents":[2147483647,0,0,1,1,2,2],"right_children":[2,4,6,-1,-1,-1,-1],"split_conditions":[2.25E0,1.424E0,3.255E0,5.8901474E-5,9.802044E-6,-2.2973027E-5,-5.8868907E-5],"split_indices":[2,3,3,0,0,0,0],"split_type":[0,0,0,0,0,0,0],"sum_hessian":[7.6649963E2,3.279999E2,4.3849973E2,7.949991E1,2.4849998E2,2.4449995E2,1.9399979E2],"tree_param":{"num_deleted":"0","num_feature":"31","num_nodes":"7","size_leaf_vector":"0"}},{"base_weights":[1.2939598E-1,-2.1843356E-1,3.8947913E-1,-5.8895665E-1,-9.8010674E-2,2.2970736E-1,5.8863056E-1],"categories":[],"categories_nodes":[],"categories_segments":[],"categories_sizes":[],"default_left":[1,1,1,0,0,0,0],"id":38,"left_children":[1,3,5,-1,-1,-1,-1],"loss_changes":[6.951662E1,1.4622071E1,1.3849136E1,0E0,0E0,0E0,0E0],"parents":[2147483647,0,0,1,1,2,2],"right_children":[2,4,6,-1,-1,-1,-1],"split_conditions":[2.25E0,1.424E0,3.255E0,-5.8895665E-5,-9.801067E-6,2.2970735E-5,5.8863054E-5],"split_indices":[2,3,3,0,0,0,0],"split_type":[0,0,0,0,0,0,0],"sum_hessian":[7.664996E2,3.2799988E2,4.3849973E2,7.94999E1,2.4849997E2,2.4449995E2,1.9399976E2],"tree_param":{"num_deleted":"0","num_feature":"31","num_nodes":"7","size_leaf_vector":"0"}},{"base_weights":[-1.29396E-1,2.1843354E-1,-3.894792E-1,5.8895653E-1,9.8010704E-2,-2.2970748E-1,-5.8863056E-1],"categories":[],"categories_nodes":[],"categories_segments":[],"categories_sizes":[],"default_left":[1,1,1,0,0,0,0],"id":39,"left_children":[1,3,5,-1,-1,-1,-1],"loss_changes":[6.951663E1,1.4622066E1,1.3849121E1,0E0,0E0,0E0,0E0],"parents":[2147483647,0,0,1,1,2,2],"right_children":[2,4,6,-1,-1,-1,-1],"split_conditions":[2.25E0,1.424E0,3.255E0,5.8895654E-5,9.8010705E-6,-2.2970748E-5,-5.8863054E-5],"split_indices":[2,3,3,0,0,0,0],"split_type":[0,0,0,0,0,0,0],"sum_hessian":[7.664996E2,3.2799988E2,4.3849973E2,7.94999E1,2.4849998E2,2.4449995E2,1.9399976E2],"tree_param":{"num_deleted":"0","num_feature":"31","num_nodes":"7","size_leaf_vector":"0"}}]},"name":"gbtree"},"learner_model_param":{"base_score":"5E-1","boost_from_average":"1","num_class":"2","num_feature":"31","num_target":"1"},"objective":{"name":"multi:softprob","softmax_multiclass_param":{"num_class":"2"}}},"version":[1,7,5]}