{"learner":{"attributes":{"best_iteration":"19","best_ntree_limit":"20"},"feature_names":["eloaway","elohome","Away Line Close","Away Odds Close","Total Score Close","TeamScore_Home_4","PYds_Away_4","TeamScore_Away_4","PYds_Home_4","Int_Opp_Home_4","OppScore_Home_4","RYds_Home_4","OppScore_Away_4","RYds_Opp_Home_4","Pnt_Home_4","Int_Opp_Away_4","Int_Home_4","Sk_Opp_Home_4","Pnt_Opp_Away_4","Int_Away_4","Sk_Opp_Away_4","RYds_Away_4","Sk_Home_4","PYds_Opp_Home_4","PYds_Opp_Away_4","eloaway_4","Pnt_Away_4","elohome_4","RYds_Opp_Away_4","Sk_Away_4","Pnt_Opp_Home_4"],"feature_types":["float","float","float","float","float","float","float","float","float","float","float","float","float","float","float","float","float","float","float","float","float","float","float","float","float","float","float","float","float","float","float"],"gradient_booster":{"model":{"gbtree_model_param":{"num_parallel_tree":"1","num_trees":"40","size_leaf_vector":"0"},"tree_info":[0,1,0,1,0,1,0,1,0,1,0,1,0,1,0,1,0,1,0,1,0,1,0,1,0,1,0,1,0,1,0,1,0,1,0,1,0,1,0,1],"trees":[{"base_weights":[1.3368055E-1,-2.5099602E-1,4.2944786E-1,-5.411765E-1,-1.017964E-1,2.4637681E-1,5.6084657E-1,3.3333334E-1,-5.828221E-1,-2E-1,6.349207E-2,4.4067797E-1,1E-1,-1.25E-1,5.879121E-1,-5E-1,7.1428573E-1,-1.5384616E-1,-6.5467626E-1,5.294118E-1,-2.6153848E-1,1.5686275E-1,-3.0769232E-1,5.730337E-1,3.2258064E-2,-1.1111111E-1,3.611111E-1,3.3333334E-1,-5.555556E-1,8.541667E-1,4.888889E-1],"categories":[],"categories_nodes":[],"categories_segments":[],"categories_sizes":[],"default_left":[1,1,1,1,1,1,1,1,1,1,1,1,1,1,1,0,0,0,0,0,0,0,0,0,0,0,0,0,0,0,0],"id":0,"left_children":[1,3,5,7,9,11,13,15,17,19,21,23,25,27,29,-1,-1,-1,-1,-1,-1,-1,-1,-1,-1,-1,-1,-1,-1,-1,-1],"loss_changes":[6.5642044E1,1.0811908E1,7.703846E0,3.2899323E0,2.7234292E0,3.8808155E0,3.5818596E0,1.7857141E0,2.4114113E0,4.8515844E0,2.231703E0,3.1708622E0,4.45E0,1.7638888E0,4.380905E0,0E0,0E0,0E0,0E0,0E0,0E0,0E0,0E0,0E0,0E0,0E0,0E0,0E0,0E0,0E0,0E0],"parents":[2147483647,0,0,1,1,2,2,3,3,4,4,5,5,6,6,7,7,8,8,9,9,10,10,11,11,12,12,13,13,14,14],"right_children":[2,4,6,8,10,12,14,16,18,20,22,24,26,28,30,-1,-1,-1,-1,-1,-1,-1,-1,-1,-1,-1,-1,-1,-1,-1,-1],"split_conditions":[2.25E0,-4.25E0,4.75E0,1.2916667E0,2.49E2,1.0541667E2,1.4068989E3,8.441667E1,1.625E0,1.4008672E3,1.125E0,1.14583336E2,2.4625E1,2.3416668E1,1.3541023E3,-5E-2,7.1428575E-2,-1.5384616E-2,-6.5467626E-2,5.294118E-2,-2.6153848E-2,1.5686275E-2,-3.0769233E-2,5.730337E-2,3.2258064E-3,-1.1111111E-2,3.6111113E-2,3.3333335E-2,-5.555556E-2,8.541667E-2,4.888889E-2],"split_indices":[2,2,2,17,23,13,1,28,22,0,19,28,10,12,0,0,0,0,0,0,0,0,0,0,0,0,0,0,0,0,0],"split_type":[0,0,0,0,0,0,0,0,0,0,0,0,0,0,0,0,0,0,0,0,0,0,0,0,0,0,0,0,0,0,0],"sum_hessian":[5.75E2,2.5E2,3.25E2,8.4E1,1.66E2,1.37E2,1.88E2,3.5E0,8.05E1,1.04E2,6.2E1,5.8E1,7.9E1,7E0,1.81E2,1E0,2.5E0,1.2E1,6.85E1,7.5E0,9.65E1,5E1,1.2E1,4.35E1,1.45E1,4.4E1,3.5E1,3.5E0,3.5E0,4.7E1,1.34E2],"tree_param":{"num_deleted":"0","num_feature":"31","num_nodes":"31","size_leaf_vector":"0"}},{"base_weights":[-1.3368055E-1,2.5099602E-1,-4.2944786E-1,5.411765E-1,1.017964E-1,-2.4637681E-1,-5.6084657E-1,-3.3333334E-1,5.828221E-1,2E-1,-6.349207E-2,-4.4067797E-1,-1E-1,1.25E-1,-5.879121E-1,5E-1,-7.1428573E-1,1.5384616E-1,6.5467626E-1,-5.294118E-1,2.6153848E-1,-1.5686275E-1,3.0769232E-1,-5.730337E-1,-3.2258064E-2,1.1111111E-1,-3.611111E-1,-3.3333334E-1,5.555556E-1,-8.541667E-1,-4.888889E-1],"categories":[],"categories_nodes":[],"categories_segments":[],"categories_sizes":[],"default_left":[1,1,1,1,1,1,1,1,1,1,1,1,1,1,1,0,0,0,0,0,0,0,0,0,0,0,0,0,0,0,0],"id":1,"left_children":[1,3,5,7,9,11,13,15,17,19,21,23,25,27,29,-1,-1,-1,-1,-1,-1,-1,-1,-1,-1,-1,-1,-1,-1,-1,-1],"loss_changes":[6.5642044E1,1.0811908E1,7.703846E0,3.2899323E0,2.7234292E0,3.8808155E0,3.5818596E0,1.7857141E0,2.4114113E0,4.8515844E0,2.231703E0,3.1708622E0,4.45E0,1.7638888E0,4.380905E0,0E0,0E0,0E0,0E0,0E0,0E0,0E0,0E0,0E0,0E0,0E0,0E0,0E0,0E0,0E0,0E0],"parents":[2147483647,0,0,1,1,2,2,3,3,4,4,5,5,6,6,7,7,8,8,9,9,10,10,11,11,12,12,13,13,14,14],"right_children":[2,4,6,8,10,12,14,16,18,20,22,24,26,28,30,-1,-1,-1,-1,-1,-1,-1,-1,-1,-1,-1,-1,-1,-1,-1,-1],"split_conditions":[2.25E0,-4.25E0,4.75E0,1.2916667E0,2.49E2,1.0541667E2,1.4068989E3,8.441667E1,1.625E0,1.4008672E3,1.125E0,1.14583336E2,2.4625E1,2.3416668E1,1.3541023E3,5E-2,-7.1428575E-2,1.5384616E-2,6.5467626E-2,-5.294118E-2,2.6153848E-2,-1.5686275E-2,3.0769233E-2,-5.730337E-2,-3.2258064E-3,1.1111111E-2,-3.6111113E-2,-3.3333335E-2,5.555556E-2,-8.541667E-2,-4.888889E-2],"split_indices":[2,2,2,17,23,13,1,28,22,0,19,28,10,12,0,0,0,0,0,0,0,0,0,0,0,0,0,0,0,0,0],"split_type":[0,0,0,0,0,0,0,0,0,0,0,0,0,0,0,0,0,0,0,0,0,0,0,0,0,0,0,0,0,0,0],"sum_hessian":[5.75E2,2.5E2,3.25E2,8.4E1,1.66E2,1.37E2,1.88E2,3.5E0,8.05E1,1.04E2,6.2E1,5.8E1,7.9E1,7E0,1.81E2,1E0,2.5E0,1.2E1,6.85E1,7.5E0,9.65E1,5E1,1.2E1,4.35E1,1.45E1,4.4E1,3.5E1,3.5E0,3.5E0,4.7E1,1.34E2],"tree_param":{"num_deleted":"0","num_feature":"31","num_nodes":"31","size_leaf_vector":"0"}},{"base_weights":[1.2086377E-1,-2.2649229E-1,3.881998E-1,-4.8962054E-1,-9.1608845E-2,2.5979015E-1,5.4309773E-1,3.058536E-1,-5.275239E-1,-1.324452E-1,2.8885967E-1,2.0007516E-1,6.1372507E-1,3.7981597E-1,7.079288E-1,6.212343E-1,-1.9467044E-1,-5.5506086E-1,3.7799314E-1,-2.5781035E-1,3.8374253E-2,-3.876263E-1,5.3636014E-1,3.1955492E-1,-3.042656E-2,7.672302E-1,4.7128074E-2,2.0749815E-1,6.232228E-1,3.387491E-1,8.0318356E-1],"categories":[],"categories_nodes":[],"categories_segments":[],"categories_sizes":[],"default_left":[1,1,1,1,1,1,1,1,1,1,1,1,1,1,1,0,0,0,0,0,0,0,0,0,0,0,0,0,0,0,0],"id":2,"left_children":[1,3,5,7,9,11,13,15,17,19,21,23,25,27,29,-1,-1,-1,-1,-1,-1,-1,-1,-1,-1,-1,-1,-1,-1,-1,-1],"loss_changes":[5.345588E1,8.848591E0,6.325886E0,2.714819E0,2.6312099E0,3.674818E0,3.6726303E0,8.2888556E-1,2.234661E0,3.2520669E0,2.9689507E0,4.284699E0,2.1778355E0,3.0469618E0,2.2500763E0,0E0,0E0,0E0,0E0,0E0,0E0,0E0,0E0,0E0,0E0,0E0,0E0,0E0,0E0,0E0,0E0],"parents":[2147483647,0,0,1,1,2,2,3,3,4,4,5,5,6,6,7,7,8,8,9,9,10,10,11,11,12,12,13,13,14,14],"right_children":[2,4,6,8,10,12,14,16,18,20,22,24,26,28,30,-1,-1,-1,-1,-1,-1,-1,-1,-1,-1,-1,-1,-1,-1,-1,-1],"split_conditions":[2.25E0,-4.25E0,3.2849998E0,1.2916667E0,1.5885151E3,2.6708332E1,4.625E0,2.855E2,4.208333E0,1.14125E2,1.6465E0,2.3458332E1,1.2083333E0,2.4991666E2,2.0925E2,6.212343E-2,-1.9467045E-2,-5.5506088E-2,3.7799314E-2,-2.5781035E-2,3.8374253E-3,-3.876263E-2,5.3636014E-2,3.195549E-2,-3.042656E-3,7.6723024E-2,4.7128075E-3,2.0749815E-2,6.2322285E-2,3.387491E-2,8.0318354E-2],"split_indices":[2,2,3,17,27,5,30,6,29,28,3,5,9,8,8,0,0,0,0,0,0,0,0,0,0,0,0,0,0,0,0],"split_type":[0,0,0,0,0,0,0,0,0,0,0,0,0,0,0,0,0,0,0,0,0,0,0,0,0,0,0,0,0,0,0],"sum_hessian":[5.7370917E2,2.4957858E2,3.2413058E2,8.36892E1,1.6588939E2,1.7868158E2,1.4544902E2,3.4847922E0,8.020441E1,1.5039871E2,1.5490672E1,1.5422621E2,2.4455359E1,7.472784E1,7.072119E1,1.9898305E0,1.4949619E0,7.821295E1,1.9914525E0,8.644621E1,6.3952503E1,3.9977028E0,1.14929695E1,1.01320656E2,5.290556E1,1.896356E1,5.4917984E0,4.483778E1,2.9890053E1,1.5439278E1,5.528191E1],"tree_param":{"num_deleted":"0","num_feature":"31","num_nodes":"31","size_leaf_vector":"0"}},{"base_weights":[-1.20863795E-1,2.2649235E-1,-3.881999E-1,4.8962057E-1,9.1608934E-2,-2.597902E-1,-5.4309785E-1,-3.058536E-1,5.275239E-1,1.3244529E-1,-2.8885955E-1,-2.0007524E-1,-6.137252E-1,-3.7981606E-1,-7.079289E-1,-6.212343E-1,1.9467044E-1,5.5506086E-1,-3.7799314E-1,2.5781044E-1,-3.8374178E-2,3.8762638E-1,-5.363601E-1,-3.19555E-1,3.042648E-2,-7.672303E-1,-4.712817E-2,-2.0749824E-1,-6.232229E-1,-3.387492E-1,-8.031836E-1],"categories":[],"categories_nodes":[],"categories_segments":[],"categories_sizes":[],"default_left":[1,1,1,1,1,1,1,1,1,1,1,1,1,1,1,0,0,0,0,0,0,0,0,0,0,0,0,0,0,0,0],"id":3,"left_children":[1,3,5,7,9,11,13,15,17,19,21,23,25,27,29,-1,-1,-1,-1,-1,-1,-1,-1,-1,-1,-1,-1,-1,-1,-1,-1],"loss_changes":[5.34559E1,8.848588E0,6.325886E0,2.714819E0,2.6312099E0,3.674819E0,3.6726303E0,8.2888556E-1,2.234661E0,3.252067E0,2.9689507E0,4.284698E0,2.1778355E0,3.0469618E0,2.25008E0,0E0,0E0,0E0,0E0,0E0,0E0,0E0,0E0,0E0,0E0,0E0,0E0,0E0,0E0,0E0,0E0],"parents":[2147483647,0,0,1,1,2,2,3,3,4,4,5,5,6,6,7,7,8,8,9,9,10,10,11,11,12,12,13,13,14,14],"right_children":[2,4,6,8,10,12,14,16,18,20,22,24,26,28,30,-1,-1,-1,-1,-1,-1,-1,-1,-1,-1,-1,-1,-1,-1,-1,-1],"split_conditions":[2.25E0,-4.25E0,3.2849998E0,1.2916667E0,1.5885151E3,2.6708332E1,4.625E0,2.855E2,4.208333E0,1.14125E2,1.6465E0,2.3458332E1,1.2083333E0,2.4991666E2,2.0925E2,-6.212343E-2,1.9467045E-2,5.5506088E-2,-3.7799314E-2,2.5781045E-2,-3.8374178E-3,3.876264E-2,-5.363601E-2,-3.1955503E-2,3.042648E-3,-7.672303E-2,-4.7128173E-3,-2.0749824E-2,-6.232229E-2,-3.387492E-2,-8.031836E-2],"split_indices":[2,2,3,17,27,5,30,6,29,28,3,5,9,8,8,0,0,0,0,0,0,0,0,0,0,0,0,0,0,0,0],"split_type":[0,0,0,0,0,0,0,0,0,0,0,0,0,0,0,0,0,0,0,0,0,0,0,0,0,0,0,0,0,0,0],"sum_hessian":[5.7370917E2,2.4957858E2,3.241306E2,8.36892E1,1.6588939E2,1.7868158E2,1.4544902E2,3.4847925E0,8.020441E1,1.5039871E2,1.5490672E1,1.5422623E2,2.4455359E1,7.472784E1,7.072119E1,1.9898306E0,1.4949619E0,7.821295E1,1.9914525E0,8.644621E1,6.3952503E1,3.9977028E0,1.14929695E1,1.0132066E2,5.290556E1,1.896356E1,5.4917984E0,4.483778E1,2.9890053E1,1.5439279E1,5.528191E1],"tree_param":{"num_deleted":"0","num_feature":"31","num_nodes":"31","size_leaf_vector":"0"}},{"base_weights":[1.09933645E-1,-2.4625584E-1,3.255713E-1,-4.445418E-1,-1.19569674E-1,1.7112903E-1,4.65138E-1,2.8660882E-1,-4.7952625E-1,-2.0255499E-1,1.9293457E-1,-2.2256346E-1,2.2460821E-1,-1.4289893E-1,4.895385E-1,-1.9989981E-1,5.9716356E-1,-8.8929124E-2,-5.462773E-1,5.3824186E-1,-2.5236708E-1,5.8111453E-1,-8.418332E-2,3.009908E-1,-5.679471E-1,2.687763E-1,-2.6658204E-1,3.148693E-1,-5.68296E-1,7.345305E-1,3.995852E-1],"categories":[],"categories_nodes":[],"categories_segments":[],"categories_sizes":[],"default_left":[1,1,1,1,1,1,1,1,1,1,1,1,1,1,1,0,0,0,0,0,0,0,0,0,0,0,0,0,0,0,0],"id":4,"left_children":[1,3,5,7,9,11,13,15,17,19,21,23,25,27,29,-1,-1,-1,-1,-1,-1,-1,-1,-1,-1,-1,-1,-1,-1,-1,-1],"loss_changes":[4.4009155E1,5.378993E0,7.6087723E0,2.2843552E0,3.4963431E0,3.6482158E0,2.8411636E0,7.9301023E-1,2.049612E0,4.040976E0,3.1131325E0,3.957676E0,3.3467317E0,1.7330092E0,3.6689835E0,0E0,0E0,0E0,0E0,0E0,0E0,0E0,0E0,0E0,0E0,0E0,0E0,0E0,0E0,0E0,0E0],"parents":[2147483647,0,0,1,1,2,2,3,3,4,4,5,5,6,6,7,7,8,8,9,9,10,10,11,11,12,12,13,13,14,14],"right_children":[2,4,6,8,10,12,14,16,18,20,22,24,26,28,30,-1,-1,-1,-1,-1,-1,-1,-1,-1,-1,-1,-1,-1,-1,-1,-1],"split_conditions":[1.995E0,-4.25E0,4.75E0,1.2916667E0,2.655E2,1.8166668E1,1.4068989E3,2.53375E2,1.625E0,1.3997782E3,2.60125E2,2.125E0,1.6336685E3,1.9583333E0,1.3541023E3,-1.998998E-2,5.9716355E-2,-8.892912E-3,-5.4627728E-2,5.3824186E-2,-2.5236709E-2,5.8111455E-2,-8.418332E-3,3.0099079E-2,-5.679471E-2,2.687763E-2,-2.6658205E-2,3.1486932E-2,-5.68296E-2,7.3453054E-2,3.9958518E-2],"split_indices":[3,2,2,17,23,5,1,8,22,0,6,20,1,17,0,0,0,0,0,0,0,0,0,0,0,0,0,0,0,0,0],"split_type":[0,0,0,0,0,0,0,0,0,0,0,0,0,0,0,0,0,0,0,0,0,0,0,0,0,0,0,0,0,0,0],"sum_hessian":[5.709333E2,2.1524706E2,3.5568625E2,8.2933174E1,1.3231387E2,1.6990178E2,1.8578447E2,3.4585898E0,7.947458E1,1.0482856E2,2.7485325E1,1.9941166E1,1.4996062E2,6.980507E0,1.7880397E2,1.4863766E0,1.9722131E0,1.1939895E1,6.753468E1,5.986904E0,9.884165E1,1.0991585E1,1.6493738E1,7.977261E0,1.1963904E1,1.3800403E2,1.1956591E1,3.487473E0,3.493034E0,4.609538E1,1.3270859E2],"tree_param":{"num_deleted":"0","num_feature":"31","num_nodes":"31","size_leaf_vector":"0"}},{"base_weights":[-1.0993363E-1,2.4625587E-1,-3.255713E-1,4.4454187E-1,1.1956968E-1,-1.7112902E-1,-4.65138E-1,-2.8660876E-1,4.7952634E-1,2.0255497E-1,-1.9293453E-1,2.2256348E-1,-2.246082E-1,1.4289896E-1,-4.895385E-1,1.998998E-1,-5.971635E-1,8.8929154E-2,5.4627734E-1,-5.3824186E-1,2.5236705E-1,-5.8111453E-1,8.418336E-2,-3.009908E-1,5.679471E-1,-2.687763E-1,2.6658204E-1,-3.1486928E-1,5.682961E-1,-7.345305E-1,-3.995852E-1],"categories":[],"categories_nodes":[],"categories_segments":[],"categories_sizes":[],"default_left":[1,1,1,1,1,1,1,1,1,1,1,1,1,1,1,0,0,0,0,0,0,0,0,0,0,0,0,0,0,0,0],"id":5,"left_children":[1,3,5,7,9,11,13,15,17,19,21,23,25,27,29,-1,-1,-1,-1,-1,-1,-1,-1,-1,-1,-1,-1,-1,-1,-1,-1],"loss_changes":[4.400916E1,5.378996E0,7.6087723E0,2.2843533E0,3.4963427E0,3.6482158E0,2.8411636E0,7.9301023E-1,2.049614E0,4.040975E0,3.1131327E0,3.9576755E0,3.3467317E0,1.7330093E0,3.6689873E0,0E0,0E0,0E0,0E0,0E0,0E0,0E0,0E0,0E0,0E0,0E0,0E0,0E0,0E0,0E0,0E0],"parents":[2147483647,0,0,1,1,2,2,3,3,4,4,5,5,6,6,7,7,8,8,9,9,10,10,11,11,12,12,13,13,14,14],"right_children":[2,4,6,8,10,12,14,16,18,20,22,24,26,28,30,-1,-1,-1,-1,-1,-1,-1,-1,-1,-1,-1,-1,-1,-1,-1,-1],"split_conditions":[1.995E0,-4.25E0,4.75E0,1.2916667E0,2.655E2,1.8166668E1,1.4068989E3,2.53375E2,1.625E0,1.3997782E3,2.60125E2,2.125E0,1.6336685E3,1.9583333E0,1.3541023E3,1.998998E-2,-5.971635E-2,8.892915E-3,5.4627735E-2,-5.3824186E-2,2.5236705E-2,-5.8111455E-2,8.418336E-3,-3.0099079E-2,5.679471E-2,-2.687763E-2,2.6658205E-2,-3.148693E-2,5.682961E-2,-7.3453054E-2,-3.9958518E-2],"split_indices":[3,2,2,17,23,5,1,8,22,0,6,20,1,17,0,0,0,0,0,0,0,0,0,0,0,0,0,0,0,0,0],"split_type":[0,0,0,0,0,0,0,0,0,0,0,0,0,0,0,0,0,0,0,0,0,0,0,0,0,0,0,0,0,0,0],"sum_hessian":[5.709333E2,2.1524706E2,3.5568625E2,8.293317E1,1.3231389E2,1.6990178E2,1.8578447E2,3.4585898E0,7.947458E1,1.0482856E2,2.7485325E1,1.9941166E1,1.4996062E2,6.9805064E0,1.7880397E2,1.4863768E0,1.9722131E0,1.1939896E1,6.753468E1,5.9869037E0,9.884166E1,1.0991585E1,1.6493738E1,7.9772615E0,1.1963904E1,1.3800403E2,1.1956591E1,3.487473E0,3.4930336E0,4.609538E1,1.3270859E2],"tree_param":{"num_deleted":"0","num_feature":"31","num_nodes":"31","size_leaf_vector":"0"}},{"base_weights":[9.993722E-2,-1.8641576E-1,3.2146248E-1,-4.0604046E-1,-7.6021716E-2,2.559981E-1,5.703393E-1,-2.5366664E-1,-5.928088E-1,1.7487055E-1,-1.3452664E-1,2.0381467E-1,6.0935295E-1,6.0991234E-1,-6.9402784E-1,3.18224E-1,-4.4021663E-1,-6.369761E-1,2.6996735E-1,-1.18174985E-1,6.7347974E-1,6.1037403E-1,-1.617954E-1,4.7677085E-1,1.4832895E-1,2.2461073E-1,7.235481E-1,-2.076732E-1,6.593453E-1],"categories":[],"categories_nodes":[],"categories_segments":[],"categories_sizes":[],"default_left":[1,1,1,1,1,1,1,1,1,1,1,1,1,1,0,0,0,0,0,0,0,0,0,0,0,0,0,0,0],"id":6,"left_children":[1,3,5,7,9,11,13,15,17,19,21,23,25,27,-1,-1,-1,-1,-1,-1,-1,-1,-1,-1,-1,-1,-1,-1,-1],"loss_changes":[3.607789E1,5.989087E0,5.0758324E0,2.2067394E0,2.4670136E0,4.5883427E0,3.7222672E0,5.1928487E0,1.5615225E0,4.74253E0,2.852222E0,3.3246365E0,1.2602739E0,2.7423153E0,0E0,0E0,0E0,0E0,0E0,0E0,0E0,0E0,0E0,0E0,0E0,0E0,0E0,0E0,0E0],"parents":[2147483647,0,0,1,1,2,2,3,3,4,4,5,5,6,6,7,7,8,8,9,9,10,10,11,11,12,12,13,13],"right_children":[2,4,6,8,10,12,14,16,18,20,22,24,26,28,-1,-1,-1,-1,-1,-1,-1,-1,-1,-1,-1,-1,-1,-1,-1],"split_conditions":[2.25E0,-4.25E0,8.75E0,2.4583335E0,9.495833E1,2.7541668E1,1.6550773E3,2.255E2,4.166667E0,1.0295833E2,3.125E0,1.7083333E0,1.5069955E3,3.0833335E0,-6.9402784E-2,3.1822402E-2,-4.4021662E-2,-6.3697614E-2,2.6996735E-2,-1.1817499E-2,6.734797E-2,6.1037403E-2,-1.617954E-2,4.7677085E-2,1.4832894E-2,2.2461073E-2,7.2354816E-2,-2.0767322E-2,6.593453E-2],"split_indices":[2,2,2,20,13,5,27,24,17,21,18,17,1,30,0,0,0,0,0,0,0,0,0,0,0,0,0,0,0],"split_type":[0,0,0,0,0,0,0,0,0,0,0,0,0,0,0,0,0,0,0,0,0,0,0,0,0,0,0,0,0],"sum_hessian":[5.667984E2,2.4729407E2,3.1950433E2,8.1826096E1,1.6546797E2,2.5457083E2,6.493351E1,4.6360962E1,3.5465134E1,3.0912777E1,1.3455519E2,2.2318733E2,3.13835E1,6.346476E1,1.4687479E0,1.1229572E1,3.513139E1,3.398698E1,1.4781513E0,1.99504E1,1.0962376E1,3.9965925E0,1.305586E2,3.642174E1,1.867656E2,7.862009E0,2.3521492E1,3.435927E0,6.002883E1],"tree_param":{"num_deleted":"0","num_feature":"31","num_nodes":"29","size_leaf_vector":"0"}},{"base_weights":[-9.993722E-2,1.8641576E-1,-3.2146248E-1,4.0604046E-1,7.602172E-2,-2.559981E-1,-5.703394E-1,2.536666E-1,5.928088E-1,-1.7487055E-1,1.3452666E-1,-2.0381467E-1,-6.0935295E-1,-6.099124E-1,6.9402784E-1,-3.1822404E-1,4.4021663E-1,6.369761E-1,-2.6996738E-1,1.18174985E-1,-6.7347974E-1,-6.1037403E-1,1.6179541E-1,-4.7677085E-1,-1.4832895E-1,-2.2461076E-1,-7.235481E-1,2.0767315E-1,-6.593454E-1],"categories":[],"categories_nodes":[],"categories_segments":[],"categories_sizes":[],"default_left":[1,1,1,1,1,1,1,1,1,1,1,1,1,1,0,0,0,0,0,0,0,0,0,0,0,0,0,0,0],"id":7,"left_children":[1,3,5,7,9,11,13,15,17,19,21,23,25,27,-1,-1,-1,-1,-1,-1,-1,-1,-1,-1,-1,-1,-1,-1,-1],"loss_changes":[3.6077892E1,5.989086E0,5.0758286E0,2.2067385E0,2.467014E0,4.5883446E0,3.722269E0,5.192849E0,1.5615225E0,4.7425294E0,2.8522224E0,3.3246365E0,1.2602739E0,2.7423153E0,0E0,0E0,0E0,0E0,0E0,0E0,0E0,0E0,0E0,0E0,0E0,0E0,0E0,0E0,0E0],"parents":[2147483647,0,0,1,1,2,2,3,3,4,4,5,5,6,6,7,7,8,8,9,9,10,10,11,11,12,12,13,13],"right_children":[2,4,6,8,10,12,14,16,18,20,22,24,26,28,-1,-1,-1,-1,-1,-1,-1,-1,-1,-1,-1,-1,-1,-1,-1],"split_conditions":[2.25E0,-4.25E0,8.75E0,2.4583335E0,9.495833E1,2.7541668E1,1.6550773E3,2.255E2,4.166667E0,1.0295833E2,3.125E0,1.7083333E0,1.5069955E3,3.0833335E0,6.9402784E-2,-3.1822406E-2,4.4021662E-2,6.3697614E-2,-2.6996737E-2,1.1817499E-2,-6.734797E-2,-6.1037403E-2,1.6179541E-2,-4.7677085E-2,-1.4832894E-2,-2.2461077E-2,-7.2354816E-2,2.0767314E-2,-6.593454E-2],"split_indices":[2,2,2,20,13,5,27,24,17,21,18,17,1,30,0,0,0,0,0,0,0,0,0,0,0,0,0,0,0],"split_type":[0,0,0,0,0,0,0,0,0,0,0,0,0,0,0,0,0,0,0,0,0,0,0,0,0,0,0,0,0],"sum_hessian":[5.667984E2,2.4729407E2,3.1950433E2,8.1826096E1,1.6546797E2,2.5457083E2,6.493351E1,4.6360962E1,3.5465134E1,3.0912777E1,1.3455519E2,2.2318733E2,3.1383501E1,6.346476E1,1.4687479E0,1.1229572E1,3.513139E1,3.398698E1,1.4781513E0,1.9950401E1,1.0962377E1,3.9965925E0,1.305586E2,3.642174E1,1.867656E2,7.862009E0,2.3521492E1,3.435927E0,6.0028835E1],"tree_param":{"num_deleted":"0","num_feature":"31","num_nodes":"29","size_leaf_vector":"0"}},{"base_weights":[9.109924E-2,-2.07594E-1,2.6721945E-1,-4.1467717E-1,-1.189879E-1,1.348796E-1,3.9233202E-1,2.4785186E-1,-4.746109E-1,-1.6191603E-1,3.4220606E-1,1.7316632E-1,-3.1730202E-1,2.7361235E-1,5.25988E-1,-4.9975806E-1,6.083364E-1,-5.55208E-1,3.8911123E-2,-2.2745743E-2,-3.1283256E-1,6.9206023E-1,-3.5710758E-1,-1.9570017E-1,2.221435E-1,-7.802207E-1,4.356932E-1,-1.161511E-1,3.5121316E-1,-3.167783E-1,5.604439E-1],"categories":[],"categories_nodes":[],"categories_segments":[],"categories_sizes":[],"default_left":[1,1,1,1,1,1,1,1,1,1,1,1,1,1,1,0,0,0,0,0,0,0,0,0,0,0,0,0,0,0,0],"id":8,"left_children":[1,3,5,7,9,11,13,15,17,19,21,23,25,27,29,-1,-1,-1,-1,-1,-1,-1,-1,-1,-1,-1,-1,-1,-1,-1,-1],"loss_changes":[2.9680542E1,3.7938128E0,5.8200035E0,2.5938587E0,2.987292E0,3.065528E0,2.7408943E0,1.8752863E0,2.4027147E0,2.8526003E0,3.410942E0,2.9515328E0,5.1947727E0,3.0159883E0,2.6294918E0,0E0,0E0,0E0,0E0,0E0,0E0,0E0,0E0,0E0,0E0,0E0,0E0,0E0,0E0,0E0,0E0],"parents":[2147483647,0,0,1,1,2,2,3,3,4,4,5,5,6,6,7,7,8,8,9,9,10,10,11,11,12,12,13,13,14,14],"right_children":[2,4,6,8,10,12,14,16,18,20,22,24,26,28,30,-1,-1,-1,-1,-1,-1,-1,-1,-1,-1,-1,-1,-1,-1,-1,-1],"split_conditions":[1.9565E0,-5.75E0,4.75E0,1.5416667E0,3.375E0,1.6336685E3,4.625E0,1.3381355E3,3.2083335E0,7.916666E-1,1.7705E0,1.7916668E1,2.6041668E1,9.720833E1,1.4298892E3,-4.997581E-2,6.083364E-2,-5.5520803E-2,3.8911123E-3,-2.2745745E-3,-3.1283256E-2,6.920602E-2,-3.571076E-2,-1.9570017E-2,2.2214351E-2,-7.802207E-2,4.3569323E-2,-1.1615111E-2,3.5121318E-2,-3.167783E-2,5.604439E-2],"split_indices":[3,2,2,17,20,1,30,1,29,15,3,5,5,13,1,0,0,0,0,0,0,0,0,0,0,0,0,0,0,0,0],"split_type":[0,0,0,0,0,0,0,0,0,0,0,0,0,0,0,0,0,0,0,0,0,0,0,0,0,0,0,0,0,0,0],"sum_hessian":[5.621509E2,2.0844955E2,3.537013E2,6.136114E1,1.4708842E2,1.7289592E2,1.8080537E2,4.8302593E0,5.653088E1,1.3515688E2,1.1931539E1,1.5996828E2,1.2927646E1,9.73667E1,8.343868E1,1.4456892E0,3.3845701E0,4.8791836E1,7.7390428E0,7.09135E1,6.4243385E1,7.9597764E0,3.9717624E0,1.8399403E1,1.4156888E2,7.983485E0,4.944161E0,1.6084206E1,8.128249E1,2.955504E0,8.048318E1],"tree_param":{"num_deleted":"0","num_feature":"31","num_nodes":"31","size_leaf_vector":"0"}},{"base_weights":[-9.109922E-2,2.0759404E-1,-2.6721942E-1,4.1467723E-1,1.18987925E-1,-1.348796E-1,-3.9233202E-1,-2.4785182E-1,4.7461095E-1,1.6191605E-1,-3.4220606E-1,-1.731663E-1,3.1730205E-1,-2.7361235E-1,-5.259879E-1,4.997581E-1,-6.083363E-1,5.552081E-1,-3.891109E-2,2.274576E-2,3.128326E-1,-6.9206023E-1,3.571076E-1,1.9570018E-1,-2.221435E-1,7.802207E-1,-4.356932E-1,1.16151094E-1,-3.5121316E-1,3.167783E-1,-5.604438E-1],"categories":[],"categories_nodes":[],"categories_segments":[],"categories_sizes":[],"default_left":[1,1,1,1,1,1,1,1,1,1,1,1,1,1,1,0,0,0,0,0,0,0,0,0,0,0,0,0,0,0,0],"id":9,"left_children":[1,3,5,7,9,11,13,15,17,19,21,23,25,27,29,-1,-1,-1,-1,-1,-1,-1,-1,-1,-1,-1,-1,-1,-1,-1,-1],"loss_changes":[2.9680546E1,3.7938137E0,5.8200054E0,2.5938587E0,2.9872918E0,3.0655274E0,2.7408943E0,1.8752865E0,2.4027157E0,2.8526008E0,3.410942E0,2.9515333E0,5.1947737E0,3.0159883E0,2.62949E0,0E0,0E0,0E0,0E0,0E0,0E0,0E0,0E0,0E0,0E0,0E0,0E0,0E0,0E0,0E0,0E0],"parents":[2147483647,0,0,1,1,2,2,3,3,4,4,5,5,6,6,7,7,8,8,9,9,10,10,11,11,12,12,13,13,14,14],"right_children":[2,4,6,8,10,12,14,16,18,20,22,24,26,28,30,-1,-1,-1,-1,-1,-1,-1,-1,-1,-1,-1,-1,-1,-1,-1,-1],"split_conditions":[1.9565E0,-5.75E0,4.75E0,1.5416667E0,3.375E0,1.6336685E3,4.625E0,1.3381355E3,3.2083335E0,7.916666E-1,1.7705E0,1.7916668E1,2.6041668E1,9.720833E1,1.4298892E3,4.997581E-2,-6.0833633E-2,5.552081E-2,-3.891109E-3,2.274576E-3,3.128326E-2,-6.920602E-2,3.5710763E-2,1.957002E-2,-2.2214351E-2,7.802207E-2,-4.3569323E-2,1.161511E-2,-3.5121318E-2,3.167783E-2,-5.604438E-2],"split_indices":[3,2,2,17,20,1,30,1,29,15,3,5,5,13,1,0,0,0,0,0,0,0,0,0,0,0,0,0,0,0,0],"split_type":[0,0,0,0,0,0,0,0,0,0,0,0,0,0,0,0,0,0,0,0,0,0,0,0,0,0,0,0,0,0,0],"sum_hessian":[5.621509E2,2.0844955E2,3.537013E2,6.136114E1,1.4708842E2,1.7289592E2,1.8080537E2,4.8302593E0,5.653088E1,1.3515688E2,1.1931539E1,1.5996828E2,1.2927646E1,9.73667E1,8.343868E1,1.4456892E0,3.38457E0,4.879184E1,7.7390428E0,7.09135E1,6.4243385E1,7.959776E0,3.9717624E0,1.8399403E1,1.4156888E2,7.983485E0,4.944161E0,1.6084206E1,8.128249E1,2.955504E0,8.048318E1],"tree_param":{"num_deleted":"0","num_feature":"31","num_nodes":"31","size_leaf_vector":"0"}},{"base_weights":[8.280571E-2,-1.5455037E-1,2.6806805E-1,-3.8196898E-1,-7.8585364E-2,2.1053404E-1,4.9382222E-1,2.255912E-1,-4.3784747E-1,-1.0837737E-1,3.1216654E-1,1.6142216E-1,5.281423E-1,5.325725E-1,-6.645317E-1,-4.788546E-1,5.6225264E-1,-5.1408446E-1,3.542295E-2,1.6738375E-1,-1.5915082E-1,7.156353E-1,-5.8023337E-2,2.0304556E-1,-1.6960306E-1,1.793155E-1,6.5345484E-1,-2.1938768E-1,5.8069825E-1],"categories":[],"categories_nodes":[],"categories_segments":[],"categories_sizes":[],"default_left":[1,1,1,1,1,1,1,1,1,1,1,1,1,1,0,0,0,0,0,0,0,0,0,0,0,0,0,0,0],"id":10,"left_children":[1,3,5,7,9,11,13,15,17,19,21,23,25,27,-1,-1,-1,-1,-1,-1,-1,-1,-1,-1,-1,-1,-1,-1,-1],"loss_changes":[2.4569773E1,4.2052817E0,3.9698353E0,2.1739912E0,2.1878247E0,3.840681E0,3.1797972E0,1.646751E0,2.050208E0,2.4441824E0,2.037806E0,3.057733E0,1.3369865E0,2.3520393E0,0E0,0E0,0E0,0E0,0E0,0E0,0E0,0E0,0E0,0E0,0E0,0E0,0E0,0E0,0E0],"parents":[2147483647,0,0,1,1,2,2,3,3,4,4,5,5,6,6,7,7,8,8,9,9,10,10,11,11,12,12,13,13],"right_children":[2,4,6,8,10,12,14,16,18,20,22,24,26,28,-1,-1,-1,-1,-1,-1,-1,-1,-1,-1,-1,-1,-1,-1,-1],"split_conditions":[2.25E0,-5.75E0,8.75E0,1.5416667E0,3.375E0,2.7125E1,1.6550773E3,1.6575144E3,3.2083335E0,1.625E0,1.0129167E2,1.3295834E2,1.5125798E3,3.0833335E0,-6.6453174E-2,-4.788546E-2,5.6225266E-2,-5.1408447E-2,3.5422952E-3,1.6738376E-2,-1.5915083E-2,7.1563534E-2,-5.802334E-3,2.0304557E-2,-1.6960306E-2,1.793155E-2,6.534549E-2,-2.193877E-2,5.8069825E-2],"split_indices":[2,2,2,17,17,5,27,0,29,29,13,11,1,30,0,0,0,0,0,0,0,0,0,0,0,0,0,0,0],"split_type":[0,0,0,0,0,0,0,0,0,0,0,0,0,0,0,0,0,0,0,0,0,0,0,0,0,0,0,0,0],"sum_hessian":[5.568028E2,2.4415714E2,3.1264566E2,6.01265E1,1.8403064E2,2.5068942E2,6.195624E1,4.80838E0,5.531812E1,1.7166507E2,1.2365572E1,2.1842287E2,3.2266563E1,6.0473465E1,1.4827777E0,1.4183004E0,3.3900795E0,4.7569176E1,7.7489405E0,2.63354E1,1.4532967E2,5.470325E0,6.895247E0,1.9436931E2,2.405355E1,9.170373E0,2.309619E1,3.4234693E0,5.7049995E1],"tree_param":{"num_deleted":"0","num_feature":"31","num_nodes":"29","size_leaf_vector":"0"}},{"base_weights":[-8.2805716E-2,1.5455036E-1,-2.6806805E-1,3.8196898E-1,7.858535E-2,-2.1053404E-1,-4.938222E-1,-2.2559121E-1,4.3784747E-1,1.0837735E-1,-3.1216657E-1,-1.6142216E-1,-5.281423E-1,-5.3257245E-1,6.6453177E-1,4.7885463E-1,-5.6225264E-1,5.1408446E-1,-3.5422895E-2,-1.6738376E-1,1.5915081E-1,-7.156353E-1,5.8023307E-2,-2.0304556E-1,1.6960306E-1,-1.793155E-1,-6.5345484E-1,2.1938764E-1,-5.8069825E-1],"categories":[],"categories_nodes":[],"categories_segments":[],"categories_sizes":[],"default_left":[1,1,1,1,1,1,1,1,1,1,1,1,1,1,0,0,0,0,0,0,0,0,0,0,0,0,0,0,0],"id":11,"left_children":[1,3,5,7,9,11,13,15,17,19,21,23,25,27,-1,-1,-1,-1,-1,-1,-1,-1,-1,-1,-1,-1,-1,-1,-1],"loss_changes":[2.4569773E1,4.205282E0,3.9698315E0,2.1739912E0,2.1878257E0,3.840681E0,3.1798E0,1.6467512E0,2.0502062E0,2.4441822E0,2.0378058E0,3.0577316E0,1.3369865E0,2.3520393E0,0E0,0E0,0E0,0E0,0E0,0E0,0E0,0E0,0E0,0E0,0E0,0E0,0E0,0E0,0E0],"parents":[2147483647,0,0,1,1,2,2,3,3,4,4,5,5,6,6,7,7,8,8,9,9,10,10,11,11,12,12,13,13],"right_children":[2,4,6,8,10,12,14,16,18,20,22,24,26,28,-1,-1,-1,-1,-1,-1,-1,-1,-1,-1,-1,-1,-1,-1,-1],"split_conditions":[2.25E0,-5.75E0,8.75E0,1.5416667E0,3.375E0,2.7125E1,1.6550773E3,1.6575144E3,3.2083335E0,1.625E0,1.0129167E2,1.3295834E2,1.5125798E3,3.0833335E0,6.645318E-2,4.7885463E-2,-5.6225266E-2,5.1408447E-2,-3.5422896E-3,-1.6738376E-2,1.591508E-2,-7.1563534E-2,5.802331E-3,-2.0304557E-2,1.6960306E-2,-1.793155E-2,-6.534549E-2,2.1938764E-2,-5.8069825E-2],"split_indices":[2,2,2,17,17,5,27,0,29,29,13,11,1,30,0,0,0,0,0,0,0,0,0,0,0,0,0,0,0],"split_type":[0,0,0,0,0,0,0,0,0,0,0,0,0,0,0,0,0,0,0,0,0,0,0,0,0,0,0,0,0],"sum_hessian":[5.568028E2,2.4415714E2,3.1264566E2,6.0126495E1,1.8403064E2,2.5068942E2,6.195624E1,4.80838E0,5.5318115E1,1.7166507E2,1.2365572E1,2.1842287E2,3.2266563E1,6.047346E1,1.4827777E0,1.4183005E0,3.3900795E0,4.7569176E1,7.7489405E0,2.63354E1,1.4532967E2,5.470325E0,6.895247E0,1.9436932E2,2.405355E1,9.170373E0,2.309619E1,3.4234693E0,5.704999E1],"tree_param":{"num_deleted":"0","num_feature":"31","num_nodes":"29","size_leaf_vector":"0"}},{"base_weights":[7.552803E-2,-2.0133963E-1,2.0930244E-1,-2.1964106E-1,5.641508E-1,9.761283E-2,3.3421233E-1,1.19733885E-1,-2.649157E-1,1.9971645E-1,6.7925376E-1,2.2167768E-1,-6.631952E-2,-4.3271592E-1,3.533197E-1,-5.0211763E-1,2.8403172E-1,2.6217294E-1,-3.067351E-1,-5.766609E-1,2.5222144E-1,-3.2536474E-3,-5.837527E-1,-8.809365E-1,1.6804883E-1,5.556544E-1,2.7952254E-1],"categories":[],"categories_nodes":[],"categories_segments":[],"categories_sizes":[],"default_left":[1,1,1,1,1,1,1,1,1,0,0,1,1,1,1,0,0,0,0,0,0,0,0,0,0,0,0],"id":12,"left_children":[1,3,5,7,9,11,13,15,17,-1,-1,19,21,23,25,-1,-1,-1,-1,-1,-1,-1,-1,-1,-1,-1,-1],"loss_changes":[2.049675E1,2.651513E0,5.1689625E0,2.7502136E0,5.281222E-2,4.046772E0,2.7260132E0,2.3406403E0,3.5281582E0,0E0,0E0,2.90276E0,2.8101344E0,1.4184508E0,2.411068E0,0E0,0E0,0E0,0E0,0E0,0E0,0E0,0E0,0E0,0E0,0E0,0E0],"parents":[2147483647,0,0,1,1,2,2,3,3,4,4,5,5,6,6,7,7,8,8,11,11,12,12,13,13,14,14],"right_children":[2,4,6,8,10,12,14,16,18,-1,-1,20,22,24,26,-1,-1,-1,-1,-1,-1,-1,-1,-1,-1,-1,-1],"split_conditions":[-1.25E0,1.615144E3,4.75E0,1.5416667E0,6.666666E-1,2.5416665E0,1.4666666E1,9.804167E1,1.3878561E3,1.9971645E-2,6.792538E-2,1.8229166E2,1.6173887E3,1.2204167E2,1.3541023E3,-5.0211765E-2,2.8403172E-2,2.6217295E-2,-3.067351E-2,-5.766609E-2,2.5222143E-2,-3.2536473E-4,-5.837527E-2,-8.809365E-2,1.6804883E-2,5.5565443E-2,2.7952254E-2],"split_indices":[2,1,2,29,19,20,5,13,27,0,0,23,1,13,0,0,0,0,0,0,0,0,0,0,0,0,0],"split_type":[0,0,0,0,0,0,0,0,0,0,0,0,0,0,0,0,0,0,0,0,0,0,0,0,0,0,0],"sum_hessian":[5.5126294E2,1.7941977E2,3.7184317E2,1.7592676E2,3.4930046E0,1.9725069E2,1.7459248E2,2.0513634E1,1.5541313E2,1.4949298E0,1.9980748E0,1.1207756E2,8.517313E1,3.7178898E0,1.708746E2,3.857442E0,1.665619E1,1.1036808E1,1.4437631E2,3.4711256E0,1.0860644E2,7.681681E1,8.356311E0,1.8621855E0,1.8557042E0,4.3921772E1,1.2695282E2],"tree_param":{"num_deleted":"0","num_feature":"31","num_nodes":"27","size_leaf_vector":"0"}},{"base_weights":[-7.552802E-2,2.0133966E-1,-2.0930243E-1,2.1964109E-1,-5.641508E-1,-9.7612806E-2,-3.3421233E-1,-1.1973387E-1,2.6491573E-1,-1.997164E-1,-6.792538E-1,-2.2167765E-1,6.631955E-2,4.3271595E-1,-3.533197E-1,5.0211763E-1,-2.840317E-1,-2.621729E-1,3.067351E-1,5.766608E-1,-2.5222144E-1,3.253676E-3,5.837527E-1,8.8093656E-1,-1.6804883E-1,-5.5565447E-1,-2.7952254E-1],"categories":[],"categories_nodes":[],"categories_segments":[],"categories_sizes":[],"default_left":[1,1,1,1,1,1,1,1,1,0,0,1,1,1,1,0,0,0,0,0,0,0,0,0,0,0,0],"id":13,"left_children":[1,3,5,7,9,11,13,15,17,-1,-1,19,21,23,25,-1,-1,-1,-1,-1,-1,-1,-1,-1,-1,-1,-1],"loss_changes":[2.049675E1,2.6515136E0,5.1689663E0,2.7502127E0,5.28121E-2,4.046772E0,2.726015E0,2.3406403E0,3.5281572E0,0E0,0E0,2.9027586E0,2.810134E0,1.4184508E0,2.411068E0,0E0,0E0,0E0,0E0,0E0,0E0,0E0,0E0,0E0,0E0,0E0,0E0],"parents":[2147483647,0,0,1,1,2,2,3,3,4,4,5,5,6,6,7,7,8,8,11,11,12,12,13,13,14,14],"right_children":[2,4,6,8,10,12,14,16,18,-1,-1,20,22,24,26,-1,-1,-1,-1,-1,-1,-1,-1,-1,-1,-1,-1],"split_conditions":[-1.25E0,1.615144E3,4.75E0,1.5416667E0,6.666666E-1,2.5416665E0,1.4666666E1,9.804167E1,1.3878561E3,-1.997164E-2,-6.7925386E-2,1.8229166E2,1.6173887E3,1.2204167E2,1.3541023E3,5.0211765E-2,-2.8403169E-2,-2.6217291E-2,3.067351E-2,5.7666082E-2,-2.5222143E-2,3.253676E-4,5.837527E-2,8.809366E-2,-1.6804883E-2,-5.5565447E-2,-2.7952254E-2],"split_indices":[2,1,2,29,19,20,5,13,27,0,0,23,1,13,0,0,0,0,0,0,0,0,0,0,0,0,0],"split_type":[0,0,0,0,0,0,0,0,0,0,0,0,0,0,0,0,0,0,0,0,0,0,0,0,0,0,0],"sum_hessian":[5.5126294E2,1.7941977E2,3.7184317E2,1.7592676E2,3.4930048E0,1.9725069E2,1.7459248E2,2.0513632E1,1.5541313E2,1.4949298E0,1.9980749E0,1.1207756E2,8.517312E1,3.7178898E0,1.7087459E2,3.857442E0,1.665619E1,1.1036808E1,1.4437633E2,3.4711256E0,1.0860644E2,7.681681E1,8.356311E0,1.8621855E0,1.8557042E0,4.3921772E1,1.2695282E2],"tree_param":{"num_deleted":"0","num_feature":"31","num_nodes":"27","size_leaf_vector":"0"}},{"base_weights":[6.868498E-2,-1.3728145E-1,2.1809116E-1,-3.35185E-1,-6.892393E-2,-1.558131E-1,2.4856064E-1,-1.6795568E-1,-5.3651184E-1,-1.12345695E-1,2.2272608E-1,-3.3953101E-3,-6.8649155E-1,5.054353E-1,1.935076E-1,2.8108856E-1,-3.8019758E-1,-3.4199014E-2,-6.6552544E-1,-2.7269474E-1,-1.1434037E-3,-2.8952724E-1,4.8438954E-1,6.364691E-1,-1.6939096E-1,-2.0500188E-1,-8.1586677E-1,-3.829543E-1,5.532795E-1,5.143648E-1,1.5465038E-1],"categories":[],"categories_nodes":[],"categories_segments":[],"categories_sizes":[],"default_left":[1,1,1,1,1,1,1,1,1,1,1,1,1,1,1,0,0,0,0,0,0,0,0,0,0,0,0,0,0,0,0],"id":14,"left_children":[1,3,5,7,9,11,13,15,17,19,21,23,25,27,29,-1,-1,-1,-1,-1,-1,-1,-1,-1,-1,-1,-1,-1,-1,-1,-1],"loss_changes":[1.6863762E1,3.0965018E0,3.6551943E0,1.894382E0,2.211541E0,1.9820638E0,4.0585136E0,3.314301E0,1.6809263E0,2.6912513E0,3.1842184E0,2.2389493E0,1.7343497E-1,2.3902998E0,2.9582224E0,0E0,0E0,0E0,0E0,0E0,0E0,0E0,0E0,0E0,0E0,0E0,0E0,0E0,0E0,0E0,0E0],"parents":[2147483647,0,0,1,1,2,2,3,3,4,4,5,5,6,6,7,7,8,8,9,9,10,10,11,11,12,12,13,13,14,14],"right_children":[2,4,6,8,10,12,14,16,18,20,22,24,26,28,30,-1,-1,-1,-1,-1,-1,-1,-1,-1,-1,-1,-1,-1,-1,-1,-1],"split_conditions":[1.75E0,-5.75E0,1.4050708E3,2.4583335E0,1.5761799E3,2.9583335E0,1.3594114E3,2.315E2,1.5382992E3,1.08416664E2,1.651E0,4E0,1.9958332E1,1.5875E1,3.4583335E0,2.8108856E-2,-3.8019758E-2,-3.4199015E-3,-6.655254E-2,-2.7269473E-2,-1.1434037E-4,-2.8952723E-2,4.8438955E-2,6.364691E-2,-1.6939096E-2,-2.0500189E-2,-8.158668E-2,-3.829543E-2,5.5327952E-2,5.143648E-2,1.5465038E-2],"split_indices":[2,2,1,20,27,20,0,24,0,28,3,30,12,10,26,0,0,0,0,0,0,0,0,0,0,0,0,0,0,0,0],"split_type":[0,0,0,0,0,0,0,0,0,0,0,0,0,0,0,0,0,0,0,0,0,0,0,0,0,0,0,0,0,0,0],"sum_hessian":[5.460383E2,2.2960019E2,3.164381E2,5.79434E1,1.716568E2,2.353358E1,2.9290454E2,3.265403E1,2.5289368E1,1.49947E2,2.170979E1,1.9064426E1,4.469155E0,5.025172E1,2.426528E2,1.0376306E1,2.2277725E1,5.426487E0,1.986288E1,6.080971E1,8.913729E1,7.304138E0,1.4405651E1,3.343184E0,1.5721242E1,1.4939065E0,2.9752483E0,2.210072E0,4.804165E1,2.4890043E1,2.1776276E2],"tree_param":{"num_deleted":"0","num_feature":"31","num_nodes":"31","size_leaf_vector":"0"}},{"base_weights":[-6.868498E-2,1.3728145E-1,-2.1809115E-1,3.35185E-1,6.892392E-2,1.558131E-1,-2.4856064E-1,1.6795574E-1,5.3651184E-1,1.1234569E-1,-2.2272609E-1,3.3953027E-3,6.864915E-1,-5.054353E-1,-1.9350758E-1,-2.8108856E-1,3.8019764E-1,3.4198955E-2,6.6552544E-1,2.726947E-1,1.1434028E-3,2.895272E-1,-4.8438954E-1,-6.364691E-1,1.6939096E-1,2.0500189E-1,8.158667E-1,3.8295427E-1,-5.532795E-1,-5.143648E-1,-1.5465036E-1],"categories":[],"categories_nodes":[],"categories_segments":[],"categories_sizes":[],"default_left":[1,1,1,1,1,1,1,1,1,1,1,1,1,1,1,0,0,0,0,0,0,0,0,0,0,0,0,0,0,0,0],"id":15,"left_children":[1,3,5,7,9,11,13,15,17,19,21,23,25,27,29,-1,-1,-1,-1,-1,-1,-1,-1,-1,-1,-1,-1,-1,-1,-1,-1],"loss_changes":[1.6863758E1,3.0965023E0,3.6551962E0,1.894381E0,2.211541E0,1.9820638E0,4.0585136E0,3.3143013E0,1.6809268E0,2.6912513E0,3.184218E0,2.2389493E0,1.7343473E-1,2.3902988E0,2.9582243E0,0E0,0E0,0E0,0E0,0E0,0E0,0E0,0E0,0E0,0E0,0E0,0E0,0E0,0E0,0E0,0E0],"parents":[2147483647,0,0,1,1,2,2,3,3,4,4,5,5,6,6,7,7,8,8,9,9,10,10,11,11,12,12,13,13,14,14],"right_children":[2,4,6,8,10,12,14,16,18,20,22,24,26,28,30,-1,-1,-1,-1,-1,-1,-1,-1,-1,-1,-1,-1,-1,-1,-1,-1],"split_conditions":[1.75E0,-5.75E0,1.4050708E3,2.4583335E0,1.5761799E3,2.9583335E0,1.3594114E3,2.315E2,1.5382992E3,1.08416664E2,1.651E0,4E0,1.9958332E1,1.5875E1,3.4583335E0,-2.8108856E-2,3.8019765E-2,3.4198954E-3,6.655254E-2,2.7269471E-2,1.1434028E-4,2.8952722E-2,-4.8438955E-2,-6.364691E-2,1.6939096E-2,2.0500189E-2,8.1586674E-2,3.829543E-2,-5.5327952E-2,-5.143648E-2,-1.5465036E-2],"split_indices":[2,2,1,20,27,20,0,24,0,28,3,30,12,10,26,0,0,0,0,0,0,0,0,0,0,0,0,0,0,0,0],"split_type":[0,0,0,0,0,0,0,0,0,0,0,0,0,0,0,0,0,0,0,0,0,0,0,0,0,0,0,0,0,0,0],"sum_hessian":[5.460383E2,2.2960019E2,3.164381E2,5.79434E1,1.7165678E2,2.353358E1,2.9290454E2,3.2654034E1,2.5289366E1,1.49947E2,2.170979E1,1.9064426E1,4.469155E0,5.025172E1,2.426528E2,1.0376306E1,2.2277727E1,5.426487E0,1.9862879E1,6.080971E1,8.913729E1,7.3041377E0,1.4405651E1,3.343184E0,1.5721242E1,1.4939065E0,2.9752483E0,2.210072E0,4.804165E1,2.4890043E1,2.1776276E2],"tree_param":{"num_deleted":"0","num_feature":"31","num_nodes":"31","size_leaf_vector":"0"}},{"base_weights":[6.2409814E-2,-1.6869603E-1,1.7441717E-1,-2.0124714E-1,2.0263962E-1,1.2546872E-1,3.953468E-1,2.0430635E-1,-2.333925E-1,-4.2456025E-1,5.0663537E-1,6.999688E-2,3.7058476E-1,4.2963636E-1,-6.491661E-1,-1.8665478E-1,7.645068E-1,-1.7800671E-1,-5.282171E-1,-5.7527155E-1,3.3108063E-2,7.219421E-1,-2.7690154E-1,2.7610672E-1,-2.7154006E-2,-7.401332E-1,4.139794E-1,-4.869059E-2,4.9311447E-1],"categories":[],"categories_nodes":[],"categories_segments":[],"categories_sizes":[],"default_left":[1,1,1,1,1,1,1,1,1,1,1,1,1,1,0,0,0,0,0,0,0,0,0,0,0,0,0,0,0],"id":16,"left_children":[1,3,5,7,9,11,13,15,17,19,21,23,25,27,-1,-1,-1,-1,-1,-1,-1,-1,-1,-1,-1,-1,-1,-1,-1],"loss_changes":[1.4045601E1,2.1834784E0,3.8997269E0,2.1789446E0,3.0341077E0,4.058987E0,2.6345987E0,2.8890877E0,2.3870583E0,3.8949883E-1,1.9568074E0,4.9377112E0,2.9674492E0,1.9758673E0,0E0,0E0,0E0,0E0,0E0,0E0,0E0,0E0,0E0,0E0,0E0,0E0,0E0,0E0,0E0],"parents":[2147483647,0,0,1,1,2,2,3,3,4,4,5,5,6,6,7,7,8,8,9,9,10,10,11,11,12,12,13,13],"right_children":[2,4,6,8,10,12,14,16,18,20,22,24,26,28,-1,-1,-1,-1,-1,-1,-1,-1,-1,-1,-1,-1,-1,-1,-1],"split_conditions":[-1.25E0,3.375E0,8.25E0,1.3878561E3,-4.75E0,2.6375E1,1.6550773E3,1.1291667E2,2.7916665E0,1.7205234E3,5.583333E0,2.125E0,1.8591666E2,8.8375E1,-6.491661E-2,-1.8665478E-2,7.645068E-2,-1.7800672E-2,-5.2821707E-2,-5.7527155E-2,3.3108064E-3,7.219421E-2,-2.7690155E-2,2.7610673E-2,-2.7154007E-3,-7.401332E-2,4.139794E-2,-4.869059E-3,4.9311448E-2],"split_indices":[2,20,2,27,2,5,27,11,20,0,14,22,6,28,0,0,0,0,0,0,0,0,0,0,0,0,0,0,0],"split_type":[0,0,0,0,0,0,0,0,0,0,0,0,0,0,0,0,0,0,0,0,0,0,0,0,0,0,0,0,0],"sum_hessian":[5.4046716E2,1.762672E2,3.6419995E2,1.6248213E2,1.3785064E1,2.9942767E2,6.477229E1,1.1539638E1,1.509425E2,4.370764E0,9.4143E0,2.4521825E2,5.4209415E1,6.3283478E1,1.488816E0,7.189163E0,4.3504744E0,1.2842107E2,2.2521433E1,3.0947075E0,1.2760566E0,7.4466567E0,1.9676429E0,7.796661E1,1.6725163E2,1.4345741E0,5.277484E1,7.441612E0,5.5841866E1],"tree_param":{"num_deleted":"0","num_feature":"31","num_nodes":"29","size_leaf_vector":"0"}},{"base_weights":[-6.240982E-2,1.6869605E-1,-1.7441717E-1,2.0124716E-1,-2.0263961E-1,-1.2546873E-1,-3.9534682E-1,-2.0430632E-1,2.333925E-1,4.2456028E-1,-5.0663537E-1,-6.9996886E-2,-3.7058476E-1,-4.296364E-1,6.4916617E-1,1.8665482E-1,-7.645068E-1,1.7800671E-1,5.2821714E-1,5.7527155E-1,-3.310801E-2,-7.219421E-1,2.7690154E-1,-2.7610672E-1,2.7153995E-2,7.401332E-1,-4.139794E-1,4.8690572E-2,-4.931145E-1],"categories":[],"categories_nodes":[],"categories_segments":[],"categories_sizes":[],"default_left":[1,1,1,1,1,1,1,1,1,1,1,1,1,1,0,0,0,0,0,0,0,0,0,0,0,0,0,0,0],"id":17,"left_children":[1,3,5,7,9,11,13,15,17,19,21,23,25,27,-1,-1,-1,-1,-1,-1,-1,-1,-1,-1,-1,-1,-1,-1,-1],"loss_changes":[1.4045603E1,2.1834774E0,3.8997278E0,2.1789446E0,3.034108E0,4.0589867E0,2.6346006E0,2.8890877E0,2.3870573E0,3.8949883E-1,1.9568071E0,4.9377112E0,2.9674501E0,1.9758673E0,0E0,0E0,0E0,0E0,0E0,0E0,0E0,0E0,0E0,0E0,0E0,0E0,0E0,0E0,0E0],"parents":[2147483647,0,0,1,1,2,2,3,3,4,4,5,5,6,6,7,7,8,8,9,9,10,10,11,11,12,12,13,13],"right_children":[2,4,6,8,10,12,14,16,18,20,22,24,26,28,-1,-1,-1,-1,-1,-1,-1,-1,-1,-1,-1,-1,-1,-1,-1],"split_conditions":[-1.25E0,3.375E0,8.25E0,1.3878561E3,-4.75E0,2.6375E1,1.6550773E3,1.1291667E2,2.7916665E0,1.7205234E3,5.583333E0,2.125E0,1.8591666E2,8.8375E1,6.491662E-2,1.8665483E-2,-7.645068E-2,1.7800672E-2,5.2821714E-2,5.7527155E-2,-3.3108012E-3,-7.219421E-2,2.7690155E-2,-2.7610673E-2,2.7153995E-3,7.401332E-2,-4.139794E-2,4.8690573E-3,-4.931145E-2],"split_indices":[2,20,2,27,2,5,27,11,20,0,14,22,6,28,0,0,0,0,0,0,0,0,0,0,0,0,0,0,0],"split_type":[0,0,0,0,0,0,0,0,0,0,0,0,0,0,0,0,0,0,0,0,0,0,0,0,0,0,0,0,0],"sum_hessian":[5.4046716E2,1.762672E2,3.6419995E2,1.6248215E2,1.3785065E1,2.9942767E2,6.477229E1,1.1539638E1,1.509425E2,4.3707643E0,9.4143E0,2.4521825E2,5.4209415E1,6.3283478E1,1.488816E0,7.189163E0,4.3504744E0,1.2842107E2,2.2521435E1,3.0947075E0,1.2760568E0,7.446657E0,1.967643E0,7.796661E1,1.6725163E2,1.434574E0,5.277484E1,7.441612E0,5.5841866E1],"tree_param":{"num_deleted":"0","num_feature":"31","num_nodes":"29","size_leaf_vector":"0"}},{"base_weights":[5.6734946E-2,-1.09953165E-1,1.8965413E-1,-3.14985E-1,-5.7909083E-2,3.9216402E-1,1.382582E-1,-4.0526873E-1,2.2454976E-1,-8.7007225E-2,2.8791502E-1,2.413572E-1,6.3796365E-1,2.5450537E-1,1.976541E-3,1.513011E-1,-5.02079E-1,5.417599E-1,-5.013309E-1,-5.161416E-2,-4.2741758E-1,4.683614E-1,-2.536862E-1,4.1097158E-1,-1.4941148E-1,7.2044253E-1,1.657161E-1,5.076128E-2,3.721849E-1,-1.20565556E-1,2.8070873E-1],"categories":[],"categories_nodes":[],"categories_segments":[],"categories_sizes":[],"default_left":[1,1,1,1,1,1,1,1,1,1,1,1,1,1,1,0,0,0,0,0,0,0,0,0,0,0,0,0,0,0,0],"id":18,"left_children":[1,3,5,7,9,11,13,15,17,19,21,23,25,27,29,-1,-1,-1,-1,-1,-1,-1,-1,-1,-1,-1,-1,-1,-1,-1,-1],"loss_changes":[1.1900245E1,2.526738E0,3.054368E0,2.431992E0,1.951512E0,2.066862E0,3.797789E0,2.3134527E0,2.0060334E0,2.1147168E0,1.5935804E0,2.6290584E0,7.442455E-1,3.0831995E0,3.8380165E0,0E0,0E0,0E0,0E0,0E0,0E0,0E0,0E0,0E0,0E0,0E0,0E0,0E0,0E0,0E0,0E0],"parents":[2147483647,0,0,1,1,2,2,3,3,4,4,5,5,6,6,7,7,8,8,9,9,10,10,11,11,12,12,13,13,14,14],"right_children":[2,4,6,8,10,12,14,16,18,20,22,24,26,28,30,-1,-1,-1,-1,-1,-1,-1,-1,-1,-1,-1,-1,-1,-1,-1,-1],"split_conditions":[2.25E0,-6.25E0,1.7916667E0,3.0416665E0,3.375E0,2.5295834E2,2.2625E1,4.583333E-1,2.5625E1,3.2083335E0,2.7208332E1,1.0416667E0,2.89125E2,2.0416665E0,2.6375E1,1.513011E-2,-5.02079E-2,5.417599E-2,-5.013309E-2,-5.1614163E-3,-4.2741757E-2,4.683614E-2,-2.536862E-2,4.109716E-2,-1.4941148E-2,7.204425E-2,1.657161E-2,5.076128E-3,3.7218492E-2,-1.2056556E-2,2.8070873E-2],"split_indices":[2,2,22,29,17,6,5,9,10,29,5,19,6,29,5,0,0,0,0,0,0,0,0,0,0,0,0,0,0,0,0],"split_type":[0,0,0,0,0,0,0,0,0,0,0,0,0,0,0,0,0,0,0,0,0,0,0,0,0,0,0,0,0,0,0],"sum_hessian":[5.3516925E2,2.3750165E2,2.9766763E2,4.7058533E1,1.9044312E2,5.8912136E1,2.3875548E2,4.052593E1,6.532602E0,1.7635294E2,1.4090185E1,3.7739517E1,2.1172617E1,1.2838046E2,1.10375015E2,5.9212646E0,3.4604664E1,4.722513E0,1.8100886E0,1.6078723E2,1.5565706E1,1.0670351E1,3.4198344E0,2.6280628E1,1.1458891E1,1.7577171E1,3.5954459E0,4.752667E1,8.08538E1,7.706259E1,3.3312424E1],"tree_param":{"num_deleted":"0","num_feature":"31","num_nodes":"31","size_leaf_vector":"0"}},{"base_weights":[-5.6734953E-2,1.09953165E-1,-1.8965413E-1,3.14985E-1,5.790908E-2,-3.9216405E-1,-1.382582E-1,4.0526873E-1,-2.2454973E-1,8.7007225E-2,-2.8791502E-1,-2.4135719E-1,-6.3796365E-1,-2.545054E-1,-1.9765473E-3,-1.5130109E-1,5.02079E-1,-5.4175985E-1,5.013309E-1,5.1614158E-2,4.2741758E-1,-4.683614E-1,2.5368616E-1,-4.1097158E-1,1.4941147E-1,-7.2044253E-1,-1.6571614E-1,-5.0761282E-2,-3.7218493E-1,1.2056555E-1,-2.8070876E-1],"categories":[],"categories_nodes":[],"categories_segments":[],"categories_sizes":[],"default_left":[1,1,1,1,1,1,1,1,1,1,1,1,1,1,1,0,0,0,0,0,0,0,0,0,0,0,0,0,0,0,0],"id":19,"left_children":[1,3,5,7,9,11,13,15,17,19,21,23,25,27,29,-1,-1,-1,-1,-1,-1,-1,-1,-1,-1,-1,-1,-1,-1,-1,-1],"loss_changes":[1.1900246E1,2.5267375E0,3.054368E0,2.431992E0,1.9515119E0,2.0668612E0,3.7977896E0,2.3134527E0,2.006033E0,2.1147165E0,1.5935801E0,2.6290584E0,7.442446E-1,3.0831995E0,3.8380167E0,0E0,0E0,0E0,0E0,0E0,0E0,0E0,0E0,0E0,0E0,0E0,0E0,0E0,0E0,0E0,0E0],"parents":[2147483647,0,0,1,1,2,2,3,3,4,4,5,5,6,6,7,7,8,8,9,9,10,10,11,11,12,12,13,13,14,14],"right_children":[2,4,6,8,10,12,14,16,18,20,22,24,26,28,30,-1,-1,-1,-1,-1,-1,-1,-1,-1,-1,-1,-1,-1,-1,-1,-1],"split_conditions":[2.25E0,-6.25E0,1.7916667E0,3.0416665E0,3.375E0,2.5295834E2,2.2625E1,4.583333E-1,2.5625E1,3.2083335E0,2.7208332E1,1.0416667E0,2.89125E2,2.0416665E0,2.6375E1,-1.5130109E-2,5.02079E-2,-5.4175984E-2,5.013309E-2,5.161416E-3,4.2741757E-2,-4.683614E-2,2.5368616E-2,-4.109716E-2,1.49411475E-2,-7.204425E-2,-1.6571615E-2,-5.0761285E-3,-3.7218492E-2,1.2056555E-2,-2.8070876E-2],"split_indices":[2,2,22,29,17,6,5,9,10,29,5,19,6,29,5,0,0,0,0,0,0,0,0,0,0,0,0,0,0,0,0],"split_type":[0,0,0,0,0,0,0,0,0,0,0,0,0,0,0,0,0,0,0,0,0,0,0,0,0,0,0,0,0,0,0],"sum_hessian":[5.3516925E2,2.3750165E2,2.9766763E2,4.7058533E1,1.9044312E2,5.8912136E1,2.3875548E2,4.052593E1,6.532602E0,1.7635294E2,1.4090185E1,3.7739517E1,2.1172617E1,1.2838046E2,1.10375015E2,5.9212646E0,3.4604664E1,4.722513E0,1.8100886E0,1.6078723E2,1.5565706E1,1.0670351E1,3.4198344E0,2.6280628E1,1.1458891E1,1.7577171E1,3.5954459E0,4.752667E1,8.08538E1,7.706259E1,3.3312424E1],"tree_param":{"num_deleted":"0","num_feature":"31","num_nodes":"31","size_leaf_vector":"0"}},{"base_weights":[5.182724E-2,-6.764478E-2,2.1379553E-1,-2.4317002E-1,-1.1777725E-2,1.5219402E-1,4.7282594E-1,-2.4797946E-2,-3.7404397E-1,9.185899E-2,-1.0414117E-1,3.997644E-1,9.183597E-2,5.5017203E-1,-4.068829E-1,-2.4281368E-1,4.963368E-1,-6.503389E-1,-2.0970756E-1,1.8970935E-1,-1.7065623E-1,-1.6663592E-1,3.6092746E-1,-4.0712E-1,4.6315545E-1,2.5688017E-2,4.2258808E-1,-4.39376E-1,6.12248E-1,3.8872096E-1,-8.9472026E-1],"categories":[],"categories_nodes":[],"categories_segments":[],"categories_sizes":[],"default_left":[1,1,1,1,1,1,1,1,1,1,1,1,1,1,1,0,0,0,0,0,0,0,0,0,0,0,0,0,0,0,0],"id":20,"left_children":[1,3,5,7,9,11,13,15,17,19,21,23,25,27,29,-1,-1,-1,-1,-1,-1,-1,-1,-1,-1,-1,-1,-1,-1,-1,-1],"loss_changes":[1.0295465E1,3.0029082E0,3.5307045E0,2.1043057E0,2.245318E0,2.7109075E0,3.1430635E0,3.3908787E0,1.9600167E0,2.873314E0,3.6632118E0,2.0168247E0,3.2519262E0,2.7175493E0,1.9166539E0,0E0,0E0,0E0,0E0,0E0,0E0,0E0,0E0,0E0,0E0,0E0,0E0,0E0,0E0,0E0,0E0],"parents":[2147483647,0,0,1,1,2,2,3,3,4,4,5,5,6,6,7,7,8,8,9,9,10,10,11,11,12,12,13,13,14,14],"right_children":[2,4,6,8,10,12,14,16,18,20,22,24,26,28,30,-1,-1,-1,-1,-1,-1,-1,-1,-1,-1,-1,-1,-1,-1,-1,-1],"split_conditions":[3.25E0,-4.25E0,5.125E0,4.291667E0,1.0808333E2,1.3541023E3,2.5541668E1,1.2579167E2,7.083334E-1,2.4E1,1.38125E2,1.3419146E3,2.7583332E1,1.5779166E2,2.3425E2,-2.4281368E-2,4.9633678E-2,-6.503389E-2,-2.0970756E-2,1.8970935E-2,-1.7065624E-2,-1.6663592E-2,3.6092747E-2,-4.0712E-2,4.6315547E-2,2.5688016E-3,4.225881E-2,-4.39376E-2,6.12248E-2,3.8872097E-2,-8.9472026E-2],"split_indices":[2,2,18,14,13,0,12,28,9,7,13,25,5,24,8,0,0,0,0,0,0,0,0,0,0,0,0,0,0,0,0],"split_type":[0,0,0,0,0,0,0,0,0,0,0,0,0,0,0,0,0,0,0,0,0,0,0,0,0,0,0,0,0,0,0],"sum_hessian":[5.302994E2,3.055213E2,2.2477809E2,7.295521E1,2.325661E2,1.8287508E2,4.1903023E1,2.7784447E1,4.517076E1,1.0959741E2,1.2296868E2,3.4743713E1,1.4813136E2,3.886088E1,3.042142E0,1.9965841E1,7.818605E0,1.574377E1,2.942699E1,8.0040375E1,2.9557041E1,1.0896759E2,1.4001091E1,2.1357744E0,3.2607937E1,1.2434163E2,2.3789732E1,1.9351287E0,3.692575E1,1.2335483E0,1.8085936E0],"tree_param":{"num_deleted":"0","num_feature":"31","num_nodes":"31","size_leaf_vector":"0"}},{"base_weights":[-5.1827233E-2,6.764479E-2,-2.1379553E-1,2.4317005E-1,1.177773E-2,-1.5219402E-1,-4.7282594E-1,2.4797985E-2,3.7404397E-1,-9.185898E-2,1.04141176E-1,-3.997644E-1,-9.1835976E-2,-5.50172E-1,4.068829E-1,2.4281372E-1,-4.9633676E-1,6.503389E-1,2.0970757E-1,-1.8970934E-1,1.7065623E-1,1.6663592E-1,-3.609275E-1,4.0712E-1,-4.6315545E-1,-2.568802E-2,-4.2258808E-1,4.3937603E-1,-6.12248E-1,-3.8872096E-1,8.947202E-1],"categories":[],"categories_nodes":[],"categories_segments":[],"categories_sizes":[],"default_left":[1,1,1,1,1,1,1,1,1,1,1,1,1,1,1,0,0,0,0,0,0,0,0,0,0,0,0,0,0,0,0],"id":21,"left_children":[1,3,5,7,9,11,13,15,17,19,21,23,25,27,29,-1,-1,-1,-1,-1,-1,-1,-1,-1,-1,-1,-1,-1,-1,-1,-1],"loss_changes":[1.0295468E1,3.0029087E0,3.5307035E0,2.1043057E0,2.245318E0,2.710907E0,3.1430626E0,3.3908787E0,1.9600167E0,2.873314E0,3.6632118E0,2.0168247E0,3.251926E0,2.7175503E0,1.9166536E0,0E0,0E0,0E0,0E0,0E0,0E0,0E0,0E0,0E0,0E0,0E0,0E0,0E0,0E0,0E0,0E0],"parents":[2147483647,0,0,1,1,2,2,3,3,4,4,5,5,6,6,7,7,8,8,9,9,10,10,11,11,12,12,13,13,14,14],"right_children":[2,4,6,8,10,12,14,16,18,20,22,24,26,28,30,-1,-1,-1,-1,-1,-1,-1,-1,-1,-1,-1,-1,-1,-1,-1,-1],"split_conditions":[3.25E0,-4.25E0,5.125E0,4.291667E0,1.0808333E2,1.3541023E3,2.5541668E1,1.2579167E2,7.083334E-1,2.4E1,1.38125E2,1.3419146E3,2.7583332E1,1.5779166E2,2.3425E2,2.4281373E-2,-4.9633678E-2,6.503389E-2,2.0970758E-2,-1.8970935E-2,1.7065624E-2,1.6663592E-2,-3.609275E-2,4.0712E-2,-4.6315547E-2,-2.568802E-3,-4.225881E-2,4.3937605E-2,-6.12248E-2,-3.8872097E-2,8.947202E-2],"split_indices":[2,2,18,14,13,0,12,28,9,7,13,25,5,24,8,0,0,0,0,0,0,0,0,0,0,0,0,0,0,0,0],"split_type":[0,0,0,0,0,0,0,0,0,0,0,0,0,0,0,0,0,0,0,0,0,0,0,0,0,0,0,0,0,0,0],"sum_hessian":[5.302994E2,3.055213E2,2.2477809E2,7.295521E1,2.325661E2,1.8287508E2,4.1903023E1,2.7784447E1,4.517076E1,1.0959741E2,1.2296868E2,3.4743713E1,1.4813136E2,3.886088E1,3.042142E0,1.9965843E1,7.818605E0,1.5743771E1,2.942699E1,8.0040375E1,2.9557041E1,1.0896759E2,1.4001091E1,2.1357744E0,3.2607937E1,1.2434163E2,2.3789732E1,1.9351287E0,3.692575E1,1.2335483E0,1.8085936E0],"tree_param":{"num_deleted":"0","num_feature":"31","num_nodes":"31","size_leaf_vector":"0"}},{"base_weights":[4.7181748E-2,-6.1438043E-2,1.9604479E-1,-2.241868E-1,-1.0513752E-2,1.3908975E-1,4.4132087E-1,-1.6140518E-1,-6.484312E-1,5.6547187E-2,-1.4967407E-1,4.6290973E-1,9.8214276E-2,5.164586E-1,-3.753248E-1,1.01308316E-1,-2.9133078E-1,1.13639675E-1,-1.9928755E-1,5.9744895E-1,-2.0420483E-1,5.8759886E-1,-1.1876087E-1,2.4480693E-1,-2.715217E-2,-4.0738502E-1,5.7731265E-1,3.7451366E-1,-8.164705E-1],"categories":[],"categories_nodes":[],"categories_segments":[],"categories_sizes":[],"default_left":[1,1,1,1,1,1,1,1,0,1,1,1,1,1,1,0,0,0,0,0,0,0,0,0,0,0,0,0,0],"id":22,"left_children":[1,3,5,7,9,11,13,15,-1,17,19,21,23,25,27,-1,-1,-1,-1,-1,-1,-1,-1,-1,-1,-1,-1,-1,-1],"loss_changes":[8.518892E0,2.5248446E0,3.0423717E0,1.8296537E0,2.1857104E0,2.36048E0,2.734723E0,2.2342916E0,0E0,2.3327994E0,3.2241268E0,1.527854E0,2.9960752E0,2.3906937E0,1.6514432E0,0E0,0E0,0E0,0E0,0E0,0E0,0E0,0E0,0E0,0E0,0E0,0E0,0E0,0E0],"parents":[2147483647,0,0,1,1,2,2,3,3,4,4,5,5,6,6,7,7,9,9,10,10,11,11,12,12,13,13,14,14],"right_children":[2,4,6,8,10,12,14,16,-1,18,20,22,24,26,28,-1,-1,-1,-1,-1,-1,-1,-1,-1,-1,-1,-1,-1,-1],"split_conditions":[3.25E0,-4.25E0,5.125E0,2.825E1,2.625E0,3.375E0,2.5541668E1,4.208333E0,-6.484312E-2,1.5584502E3,1.7583332E1,3.020833E2,2.2841666E2,1.5779166E2,2.3425E2,1.0130832E-2,-2.913308E-2,1.1363967E-2,-1.9928755E-2,5.9744895E-2,-2.0420482E-2,5.8759887E-2,-1.1876087E-2,2.4480693E-2,-2.715217E-3,-4.0738504E-2,5.7731267E-2,3.7451368E-2,-8.164705E-2],"split_indices":[2,2,18,12,22,26,12,14,0,25,12,6,6,24,8,0,0,0,0,0,0,0,0,0,0,0,0,0,0],"split_type":[0,0,0,0,0,0,0,0,0,0,0,0,0,0,0,0,0,0,0,0,0,0,0,0,0,0,0,0,0],"sum_hessian":[5.2510547E2,3.0392792E2,2.2117757E2,7.162369E1,2.3230423E2,1.8076872E2,4.040884E1,6.3593315E1,8.0303755E0,1.57162E2,7.5142235E1,1.9103539E1,1.6166519E2,3.7340786E1,3.0680544E0,2.1116127E1,4.247719E1,1.2894273E2,2.821926E1,4.4341397E0,7.07081E1,1.572292E1,3.380618E0,7.408448E1,8.75807E1,1.9557351E0,3.538505E1,1.1923678E0,1.8756866E0],"tree_param":{"num_deleted":"0","num_feature":"31","num_nodes":"29","size_leaf_vector":"0"}},{"base_weights":[-4.718175E-2,6.1438043E-2,-1.9604479E-1,2.2418681E-1,1.0513749E-2,-1.3908975E-1,-4.4132087E-1,1.6140519E-1,6.484311E-1,-5.654719E-2,1.4967407E-1,-4.629097E-1,-9.821428E-2,-5.164586E-1,3.7532485E-1,-1.013083E-1,2.9133078E-1,-1.1363968E-1,1.9928755E-1,-5.9744895E-1,2.0420483E-1,-5.8759886E-1,1.1876093E-1,-2.4480693E-1,2.7152162E-2,4.0738502E-1,-5.7731265E-1,-3.7451366E-1,8.1647056E-1],"categories":[],"categories_nodes":[],"categories_segments":[],"categories_sizes":[],"default_left":[1,1,1,1,1,1,1,1,0,1,1,1,1,1,1,0,0,0,0,0,0,0,0,0,0,0,0,0,0],"id":23,"left_children":[1,3,5,7,9,11,13,15,-1,17,19,21,23,25,27,-1,-1,-1,-1,-1,-1,-1,-1,-1,-1,-1,-1,-1,-1],"loss_changes":[8.518892E0,2.5248451E0,3.0423717E0,1.8296533E0,2.1857104E0,2.3604798E0,2.734723E0,2.234291E0,0E0,2.3327994E0,3.2241268E0,1.527854E0,2.9960756E0,2.3906937E0,1.651443E0,0E0,0E0,0E0,0E0,0E0,0E0,0E0,0E0,0E0,0E0,0E0,0E0,0E0,0E0],"parents":[2147483647,0,0,1,1,2,2,3,3,4,4,5,5,6,6,7,7,9,9,10,10,11,11,12,12,13,13,14,14],"right_children":[2,4,6,8,10,12,14,16,-1,18,20,22,24,26,28,-1,-1,-1,-1,-1,-1,-1,-1,-1,-1,-1,-1,-1,-1],"split_conditions":[3.25E0,-4.25E0,5.125E0,2.825E1,2.625E0,3.375E0,2.5541668E1,4.208333E0,6.484311E-2,1.5584502E3,1.7583332E1,3.020833E2,2.2841666E2,1.5779166E2,2.3425E2,-1.013083E-2,2.913308E-2,-1.1363968E-2,1.9928755E-2,-5.9744895E-2,2.0420482E-2,-5.8759887E-2,1.1876093E-2,-2.4480693E-2,2.7152163E-3,4.0738504E-2,-5.7731267E-2,-3.7451368E-2,8.164706E-2],"split_indices":[2,2,18,12,22,26,12,14,0,25,12,6,6,24,8,0,0,0,0,0,0,0,0,0,0,0,0,0,0],"split_type":[0,0,0,0,0,0,0,0,0,0,0,0,0,0,0,0,0,0,0,0,0,0,0,0,0,0,0,0,0],"sum_hessian":[5.2510547E2,3.0392792E2,2.2117757E2,7.162369E1,2.3230423E2,1.8076872E2,4.040884E1,6.3593315E1,8.0303755E0,1.57162E2,7.5142235E1,1.9103539E1,1.6166519E2,3.7340786E1,3.0680544E0,2.1116127E1,4.247719E1,1.2894273E2,2.821926E1,4.4341397E0,7.07081E1,1.572292E1,3.380618E0,7.408448E1,8.75807E1,1.9557351E0,3.538505E1,1.1923678E0,1.8756865E0],"tree_param":{"num_deleted":"0","num_feature":"31","num_nodes":"29","size_leaf_vector":"0"}},{"base_weights":[4.2918704E-2,-5.5825636E-2,1.795139E-1,-2.6098987E-1,-1.9806901E-2,1.2682098E-1,4.1337326E-1,3.9177176E-1,-3.358457E-1,-4.6803463E-2,3.3496517E-1,3.659463E-1,7.02064E-2,5.281283E-1,-1.3513203E-1,-3.8956967E-1,7.387314E-1,-4.950668E-1,8.042457E-4,1.38645E-1,-1.0732454E-1,-3.478739E-1,5.0364697E-1,-3.9363045E-1,4.2918372E-1,1.0808297E-1,-4.5037296E-1,-6.044571E-1,5.996464E-1,4.6251428E-1,-4.6708003E-1],"categories":[],"categories_nodes":[],"categories_segments":[],"categories_sizes":[],"default_left":[1,1,1,1,1,1,1,1,1,1,1,1,1,1,1,0,0,0,0,0,0,0,0,0,0,0,0,0,0,0,0],"id":24,"left_children":[1,3,5,7,9,11,13,15,17,19,21,23,25,27,29,-1,-1,-1,-1,-1,-1,-1,-1,-1,-1,-1,-1,-1,-1,-1,-1],"loss_changes":[7.0440664E0,2.2372725E0,2.6468835E0,2.3419483E0,2.498358E0,2.4140313E0,2.5789099E0,1.6745335E0,2.2045422E0,2.7283247E0,2.3006644E0,1.8146458E0,2.9462376E0,3.047536E0,1.7414063E0,0E0,0E0,0E0,0E0,0E0,0E0,0E0,0E0,0E0,0E0,0E0,0E0,0E0,0E0,0E0,0E0],"parents":[2147483647,0,0,1,1,2,2,3,3,4,4,5,5,6,6,7,7,8,8,9,9,10,10,11,11,12,12,13,13,14,14],"right_children":[2,4,6,8,10,12,14,16,18,20,22,24,26,28,30,-1,-1,-1,-1,-1,-1,-1,-1,-1,-1,-1,-1,-1,-1,-1,-1],"split_conditions":[3.25E0,-6.25E0,5.125E0,1.5416667E0,1.38125E2,1.3541023E3,2.55125E2,1.3381355E3,2.625E0,4.225E1,2.916667E-1,1.3419146E3,1.38125E2,1.3862242E3,1.3633584E3,-3.8956966E-2,7.387314E-2,-4.950668E-2,8.042457E-5,1.38644995E-2,-1.0732454E-2,-3.478739E-2,5.03647E-2,-3.9363045E-2,4.2918373E-2,1.0808297E-2,-4.5037296E-2,-6.0445707E-2,5.996464E-2,4.6251427E-2,-4.6708003E-2],"split_indices":[2,2,18,17,13,0,24,1,29,4,19,25,13,1,0,0,0,0,0,0,0,0,0,0,0,0,0,0,0,0,0],"split_type":[0,0,0,0,0,0,0,0,0,0,0,0,0,0,0,0,0,0,0,0,0,0,0,0,0,0,0,0,0,0,0],"sum_hessian":[5.2050385E2,3.0245276E2,2.1805109E2,4.4236107E1,2.5821667E2,1.7921327E2,3.883783E1,4.1153703E0,4.012074E1,2.407637E2,1.7452963E1,3.3261497E1,1.4595177E2,3.214896E1,6.6888676E0,1.2277373E0,2.8876328E0,2.6918749E1,1.3201989E1,5.892256E1,1.8184114E2,3.246902E0,1.4206061E1,2.1547737E0,3.1106724E1,1.3679141E2,9.160358E0,1.4668934E0,3.0682068E1,2.2480664E0,4.440801E0],"tree_param":{"num_deleted":"0","num_feature":"31","num_nodes":"31","size_leaf_vector":"0"}},{"base_weights":[-4.291871E-2,5.5825632E-2,-1.795139E-1,2.6098987E-1,1.9806894E-2,-1.2682097E-1,-4.1337326E-1,-3.9177173E-1,3.358457E-1,4.6803456E-2,-3.3496517E-1,-3.659463E-1,-7.02064E-2,-5.281283E-1,1.3513204E-1,3.8956967E-1,-7.387314E-1,4.9506682E-1,-8.04231E-4,-1.38645E-1,1.0732453E-1,3.4787393E-1,-5.0364697E-1,3.9363045E-1,-4.2918372E-1,-1.08082965E-1,4.50373E-1,6.044571E-1,-5.996464E-1,-4.6251428E-1,4.6708E-1],"categories":[],"categories_nodes":[],"categories_segments":[],"categories_sizes":[],"default_left":[1,1,1,1,1,1,1,1,1,1,1,1,1,1,1,0,0,0,0,0,0,0,0,0,0,0,0,0,0,0,0],"id":25,"left_children":[1,3,5,7,9,11,13,15,17,19,21,23,25,27,29,-1,-1,-1,-1,-1,-1,-1,-1,-1,-1,-1,-1,-1,-1,-1,-1],"loss_changes":[7.0440664E0,2.2372732E0,2.6468835E0,2.3419478E0,2.4983578E0,2.4140315E0,2.5789099E0,1.6745334E0,2.204543E0,2.7283244E0,2.3006644E0,1.8146453E0,2.9462378E0,3.047536E0,1.7414061E0,0E0,0E0,0E0,0E0,0E0,0E0,0E0,0E0,0E0,0E0,0E0,0E0,0E0,0E0,0E0,0E0],"parents":[2147483647,0,0,1,1,2,2,3,3,4,4,5,5,6,6,7,7,8,8,9,9,10,10,11,11,12,12,13,13,14,14],"right_children":[2,4,6,8,10,12,14,16,18,20,22,24,26,28,30,-1,-1,-1,-1,-1,-1,-1,-1,-1,-1,-1,-1,-1,-1,-1,-1],"split_conditions":[3.25E0,-6.25E0,5.125E0,1.5416667E0,1.38125E2,1.3541023E3,2.55125E2,1.3381355E3,2.625E0,4.225E1,2.916667E-1,1.3419146E3,1.38125E2,1.3862242E3,1.3633584E3,3.8956966E-2,-7.387314E-2,4.9506683E-2,-8.04231E-5,-1.38644995E-2,1.0732453E-2,3.4787394E-2,-5.03647E-2,3.9363045E-2,-4.2918373E-2,-1.08082965E-2,4.50373E-2,6.0445707E-2,-5.996464E-2,-4.6251427E-2,4.6708E-2],"split_indices":[2,2,18,17,13,0,24,1,29,4,19,25,13,1,0,0,0,0,0,0,0,0,0,0,0,0,0,0,0,0,0],"split_type":[0,0,0,0,0,0,0,0,0,0,0,0,0,0,0,0,0,0,0,0,0,0,0,0,0,0,0,0,0,0,0],"sum_hessian":[5.2050385E2,3.0245276E2,2.1805109E2,4.4236107E1,2.5821667E2,1.7921326E2,3.883783E1,4.1153703E0,4.012074E1,2.407637E2,1.7452963E1,3.3261497E1,1.4595177E2,3.214896E1,6.6888676E0,1.2277374E0,2.8876328E0,2.6918747E1,1.320199E1,5.892256E1,1.8184114E2,3.246902E0,1.4206061E1,2.1547737E0,3.1106724E1,1.3679141E2,9.160357E0,1.4668934E0,3.0682068E1,2.2480664E0,4.440801E0],"tree_param":{"num_deleted":"0","num_feature":"31","num_nodes":"31","size_leaf_vector":"0"}},{"base_weights":[3.9044004E-2,-1.1515887E-1,1.1428877E-1,-9.015088E-2,-5.432937E-1,2.4635085E-1,4.7562107E-2,-1.17185004E-1,6.622167E-1,2.287559E-1,-7.219674E-1,6.82854E-2,4.0246478E-1,-9.3167865E-1,6.1428074E-2,-1.5551956E-1,3.2054192E-1,-5.05016E-2,8.9172226E-1,-1.0589499E-1,4.6281064E-1,-1.5105861E-1,4.6223006E-1,-2.5885844E-1,9.988866E-2],"categories":[],"categories_nodes":[],"categories_segments":[],"categories_sizes":[],"default_left":[1,1,1,1,1,1,1,1,1,0,0,1,1,0,1,0,0,0,0,0,0,0,0,0,0],"id":26,"left_children":[1,3,5,7,9,11,13,15,17,-1,-1,19,21,-1,23,-1,-1,-1,-1,-1,-1,-1,-1,-1,-1],"loss_changes":[6.008494E0,1.770602E0,3.052772E0,3.3678646E0,1.4314942E0,3.2108283E0,3.2110002E0,2.6844056E0,9.8743176E-1,0E0,0E0,3.871438E0,2.1165037E0,0E0,2.8586426E0,0E0,0E0,0E0,0E0,0E0,0E0,0E0,0E0,0E0,0E0],"parents":[2147483647,0,0,1,1,2,2,3,3,4,4,5,5,6,6,7,7,8,8,11,11,12,12,14,14],"right_children":[2,4,6,8,10,12,14,16,18,-1,-1,20,22,-1,24,-1,-1,-1,-1,-1,-1,-1,-1,-1,-1],"split_conditions":[-1.25E0,1.4566667E2,2.0416665E0,1.39625E2,3.75E-1,1.1066667E2,1.2083333E0,3.375E0,2.0495834E2,2.287559E-2,-7.2196744E-2,1.600582E3,3.75E-1,-9.3167864E-2,1.3973849E3,-1.5551956E-2,3.2054193E-2,-5.05016E-3,8.917223E-2,-1.0589499E-2,4.6281066E-2,-1.5105861E-2,4.6223007E-2,-2.5885845E-2,9.988866E-3],"split_indices":[2,28,22,28,19,21,20,20,6,0,0,1,15,0,1,0,0,0,0,0,0,0,0,0,0],"split_type":[0,0,0,0,0,0,0,0,0,0,0,0,0,0,0,0,0,0,0,0,0,0,0,0,0],"sum_hessian":[5.1570715E2,1.6894638E2,3.4676074E2,1.6076636E2,8.180035E0,1.1549227E2,2.3126848E2,1.5600502E2,4.7613378E0,1.4846327E0,6.6954017E0,5.4624405E1,6.0867863E1,2.3048363E0,2.2896364E2,1.440356E2,1.1969413E1,1.34974E0,3.4115977E0,3.840183E1,1.6222576E1,5.782745E0,5.508512E1,2.3932398E1,2.0503125E2],"tree_param":{"num_deleted":"0","num_feature":"31","num_nodes":"25","size_leaf_vector":"0"}},{"base_weights":[-3.9044008E-2,1.1515887E-1,-1.1428878E-1,9.015088E-2,5.432937E-1,-2.4635085E-1,-4.756211E-2,1.17185004E-1,-6.622167E-1,-2.2875589E-1,7.219674E-1,-6.82854E-2,-4.0246478E-1,9.3167865E-1,-6.1428078E-2,1.5551956E-1,-3.2054192E-1,5.0501622E-2,-8.9172226E-1,1.0589499E-1,-4.628106E-1,1.5105861E-1,-4.6223006E-1,2.5885844E-1,-9.988867E-2],"categories":[],"categories_nodes":[],"categories_segments":[],"categories_sizes":[],"default_left":[1,1,1,1,1,1,1,1,1,0,0,1,1,0,1,0,0,0,0,0,0,0,0,0,0],"id":27,"left_children":[1,3,5,7,9,11,13,15,17,-1,-1,19,21,-1,23,-1,-1,-1,-1,-1,-1,-1,-1,-1,-1],"loss_changes":[6.0084934E0,1.7706017E0,3.052773E0,3.3678646E0,1.4314945E0,3.2108269E0,3.2110004E0,2.6844056E0,9.8743176E-1,0E0,0E0,3.8714375E0,2.1165047E0,0E0,2.858643E0,0E0,0E0,0E0,0E0,0E0,0E0,0E0,0E0,0E0,0E0],"parents":[2147483647,0,0,1,1,2,2,3,3,4,4,5,5,6,6,7,7,8,8,11,11,12,12,14,14],"right_children":[2,4,6,8,10,12,14,16,18,-1,-1,20,22,-1,24,-1,-1,-1,-1,-1,-1,-1,-1,-1,-1],"split_conditions":[-1.25E0,1.4566667E2,2.0416665E0,1.39625E2,3.75E-1,1.1066667E2,1.2083333E0,3.375E0,2.0495834E2,-2.287559E-2,7.2196744E-2,1.600582E3,3.75E-1,9.3167864E-2,1.3973849E3,1.5551956E-2,-3.2054193E-2,5.0501623E-3,-8.917223E-2,1.0589499E-2,-4.6281062E-2,1.5105861E-2,-4.6223007E-2,2.5885845E-2,-9.988867E-3],"split_indices":[2,28,22,28,19,21,20,20,6,0,0,1,15,0,1,0,0,0,0,0,0,0,0,0,0],"split_type":[0,0,0,0,0,0,0,0,0,0,0,0,0,0,0,0,0,0,0,0,0,0,0,0,0],"sum_hessian":[5.1570715E2,1.6894638E2,3.4676074E2,1.6076636E2,8.180035E0,1.1549227E2,2.3126848E2,1.56005E2,4.7613378E0,1.4846327E0,6.6954017E0,5.4624405E1,6.0867867E1,2.3048363E0,2.2896364E2,1.440356E2,1.1969413E1,1.3497401E0,3.4115977E0,3.840183E1,1.6222576E1,5.782745E0,5.508512E1,2.3932398E1,2.0503125E2],"tree_param":{"num_deleted":"0","num_feature":"31","num_nodes":"25","size_leaf_vector":"0"}},{"base_weights":[3.549885E-2,-2.9209057E-2,1.8750772E-1,7.535762E-2,-1.1059398E-1,7.324352E-2,3.2863802E-1,-9.697849E-3,3.661452E-1,1.2956151E-1,-1.687086E-1,5.437244E-1,5.540096E-3,3.466763E-3,4.311671E-1,5.6673534E-2,-5.4794466E-1,9.097956E-2,8.0873734E-1,3.332585E-1,-1.7036754E-1,-1.8808395E-1,4.689033E-1,-4.705407E-2,6.2242734E-1,1.820824E-1,-2.538326E-1,-6.859712E-1,1.9556367E-1,5.05213E-1,-1.8933827E-1],"categories":[],"categories_nodes":[],"categories_segments":[],"categories_sizes":[],"default_left":[1,1,1,1,1,1,1,1,1,1,1,1,1,1,1,0,0,0,0,0,0,0,0,0,0,0,0,0,0,0,0],"id":28,"left_children":[1,3,5,7,9,11,13,15,17,19,21,23,25,27,29,-1,-1,-1,-1,-1,-1,-1,-1,-1,-1,-1,-1,-1,-1,-1,-1],"loss_changes":[5.0497456E0,3.076854E0,2.4473639E0,3.921398E0,2.8573608E0,2.735592E0,2.2749472E0,4.444111E0,4.2953553E0,2.5097485E0,2.1144428E0,5.316973E-1,3.534082E0,2.4354687E0,2.4804373E0,0E0,0E0,0E0,0E0,0E0,0E0,0E0,0E0,0E0,0E0,0E0,0E0,0E0,0E0,0E0,0E0],"parents":[2147483647,0,0,1,1,2,2,3,3,4,4,5,5,6,6,7,7,8,8,9,9,10,10,11,11,12,12,13,13,14,14],"right_children":[2,4,6,8,10,12,14,16,18,20,22,24,26,28,30,-1,-1,-1,-1,-1,-1,-1,-1,-1,-1,-1,-1,-1,-1,-1,-1],"split_conditions":[4.75E0,1.4884729E3,4.625E0,1.4725151E3,4.225E1,1.4151027E3,2.0925E2,5.625E0,2.4583335E0,2.2416668E1,5.791667E0,1.7833332E1,4.125E0,1.04708336E2,4.975E1,5.6673535E-3,-5.4794468E-2,9.097956E-3,8.0873735E-2,3.332585E-2,-1.7036755E-2,-1.8808395E-2,4.689033E-2,-4.705407E-3,6.2242735E-2,1.8208241E-2,-2.5383262E-2,-6.859712E-2,1.9556368E-2,5.0521303E-2,-1.8933827E-2],"split_indices":[2,25,30,25,4,27,8,26,17,12,26,7,30,28,4,0,0,0,0,0,0,0,0,0,0,0,0,0,0,0,0],"split_type":[0,0,0,0,0,0,0,0,0,0,0,0,0,0,0,0,0,0,0,0,0,0,0,0,0,0,0,0,0,0,0],"sum_hessian":[5.1182816E2,3.5957172E2,1.5225645E2,1.5740517E2,2.0216655E2,8.4975876E1,6.728058E1,1.2253135E2,3.4873817E1,3.9150364E1,1.6301617E2,9.805446E0,7.517043E1,1.6376448E1,5.090413E1,1.0987708E2,1.265427E1,2.2247686E1,1.2626131E1,2.3249397E1,1.5900966E1,1.5889285E2,4.1233206E0,1.1999824E0,8.605463E0,4.4904278E1,3.0266155E1,3.0083787E0,1.336807E1,4.564325E1,5.260879E0],"tree_param":{"num_deleted":"0","num_feature":"31","num_nodes":"31","size_leaf_vector":"0"}},{"base_weights":[-3.5498854E-2,2.9209053E-2,-1.8750773E-1,-7.535763E-2,1.1059398E-1,-7.324353E-2,-3.2863802E-1,9.697842E-3,-3.661452E-1,-1.2956151E-1,1.6870858E-1,-5.437244E-1,-5.5401023E-3,-3.4667691E-3,-4.311671E-1,-5.667354E-2,5.479447E-1,-9.097956E-2,-8.0873734E-1,-3.3325848E-1,1.7036754E-1,1.8808395E-1,-4.689033E-1,4.7054052E-2,-6.2242734E-1,-1.820824E-1,2.538326E-1,6.859712E-1,-1.9556366E-1,-5.05213E-1,1.8933828E-1],"categories":[],"categories_nodes":[],"categories_segments":[],"categories_sizes":[],"default_left":[1,1,1,1,1,1,1,1,1,1,1,1,1,1,1,0,0,0,0,0,0,0,0,0,0,0,0,0,0,0,0],"id":29,"left_children":[1,3,5,7,9,11,13,15,17,19,21,23,25,27,29,-1,-1,-1,-1,-1,-1,-1,-1,-1,-1,-1,-1,-1,-1,-1,-1],"loss_changes":[5.0497456E0,3.076854E0,2.4473639E0,3.9213974E0,2.8573608E0,2.735592E0,2.2749472E0,4.4441113E0,4.2953553E0,2.5097482E0,2.1144428E0,5.3169775E-1,3.534082E0,2.4354687E0,2.4804373E0,0E0,0E0,0E0,0E0,0E0,0E0,0E0,0E0,0E0,0E0,0E0,0E0,0E0,0E0,0E0,0E0],"parents":[2147483647,0,0,1,1,2,2,3,3,4,4,5,5,6,6,7,7,8,8,9,9,10,10,11,11,12,12,13,13,14,14],"right_children":[2,4,6,8,10,12,14,16,18,20,22,24,26,28,30,-1,-1,-1,-1,-1,-1,-1,-1,-1,-1,-1,-1,-1,-1,-1,-1],"split_conditions":[4.75E0,1.4884729E3,4.625E0,1.4725151E3,4.225E1,1.4151027E3,2.0925E2,5.625E0,2.4583335E0,2.2416668E1,5.791667E0,1.7833332E1,4.125E0,1.04708336E2,4.975E1,-5.6673544E-3,5.479447E-2,-9.097956E-3,-8.0873735E-2,-3.3325847E-2,1.7036755E-2,1.8808395E-2,-4.689033E-2,4.7054053E-3,-6.2242735E-2,-1.8208241E-2,2.5383262E-2,6.859712E-2,-1.9556366E-2,-5.0521303E-2,1.8933829E-2],"split_indices":[2,25,30,25,4,27,8,26,17,12,26,7,30,28,4,0,0,0,0,0,0,0,0,0,0,0,0,0,0,0,0],"split_type":[0,0,0,0,0,0,0,0,0,0,0,0,0,0,0,0,0,0,0,0,0,0,0,0,0,0,0,0,0,0,0],"sum_hessian":[5.1182816E2,3.5957172E2,1.5225645E2,1.5740517E2,2.0216655E2,8.4975876E1,6.728058E1,1.2253135E2,3.4873817E1,3.915036E1,1.6301617E2,9.805446E0,7.517043E1,1.6376448E1,5.090413E1,1.0987708E2,1.2654269E1,2.2247686E1,1.2626131E1,2.3249397E1,1.5900966E1,1.5889285E2,4.123321E0,1.1999824E0,8.605463E0,4.4904278E1,3.0266155E1,3.0083787E0,1.336807E1,4.564325E1,5.260879E0],"tree_param":{"num_deleted":"0","num_feature":"31","num_nodes":"31","size_leaf_vector":"0"}},{"base_weights":[3.256854E-2,-7.4423976E-2,1.1312089E-1,-1.7357223E-2,-2.276986E-1,4.2955497E-1,8.637619E-2,3.7714254E-2,-3.7740493E-1,-4.4706318E-1,-1.6986929E-2,5.2799E-1,-4.4872053E-2,4.3118313E-2,3.0188963E-1,-1.0018048E-1,2.3538329E-1,-1.7174428E-2,-7.304737E-1,2.3753197E-1,-5.989206E-1,1.442593E-1,-6.2124646E-1,6.205018E-1,-1.1350722E-1,-7.628041E-1,4.832134E-1,1.964189E-1,-4.1246522E-2,3.4970838E-1,-6.5355563E-1],"categories":[],"categories_nodes":[],"categories_segments":[],"categories_sizes":[],"default_left":[1,1,1,1,1,1,1,1,1,1,1,1,1,1,1,0,0,0,0,0,0,0,0,0,0,0,0,0,0,0,0],"id":30,"left_children":[1,3,5,7,9,11,13,15,17,19,21,23,25,27,29,-1,-1,-1,-1,-1,-1,-1,-1,-1,-1,-1,-1,-1,-1,-1,-1],"loss_changes":[4.397554E0,1.9145828E0,2.4250174E0,3.2048905E0,2.7392063E0,1.0707636E0,2.4995203E0,3.8525932E0,2.7141175E0,3.1649652E0,3.1441944E0,1.1770477E0,2.1786737E0,2.9261184E0,2.2793236E0,0E0,0E0,0E0,0E0,0E0,0E0,0E0,0E0,0E0,0E0,0E0,0E0,0E0,0E0,0E0,0E0],"parents":[2147483647,0,0,1,1,2,2,3,3,4,4,5,5,6,6,7,7,8,8,9,9,10,10,11,11,12,12,13,13,14,14],"right_children":[2,4,6,8,10,12,14,16,18,20,22,24,26,28,30,-1,-1,-1,-1,-1,-1,-1,-1,-1,-1,-1,-1,-1,-1,-1,-1],"split_conditions":[1.75E0,2.5541668E1,3.375E0,1.2916667E0,1.0908333E2,3.03E2,8.75E0,2.1958332E1,2.35625E2,4.583333E-1,1.3125E2,5.275E1,2.5416668E1,1.0075E2,1.6539481E3,-1.0018048E-2,2.3538329E-2,-1.7174429E-3,-7.304737E-2,2.3753198E-2,-5.989206E-2,1.4425931E-2,-6.2124647E-2,6.2050182E-2,-1.1350722E-2,-7.628041E-2,4.832134E-2,1.964189E-2,-4.124652E-3,3.497084E-2,-6.535556E-2],"split_indices":[2,7,26,19,28,6,2,7,6,16,11,4,5,13,27,0,0,0,0,0,0,0,0,0,0,0,0,0,0,0,0],"split_type":[0,0,0,0,0,0,0,0,0,0,0,0,0,0,0,0,0,0,0,0,0,0,0,0,0,0,0,0,0,0,0],"sum_hessian":[5.0826913E2,2.1833922E2,2.899299E2,1.5991382E2,5.8425396E1,2.1421127E1,2.685088E2,1.3947546E2,2.0438364E1,2.8075396E1,3.035E1,1.7646832E1,3.7742968E0,2.2462257E2,4.3886196E1,8.24507E1,5.7024757E1,1.0635635E1,9.802729E0,4.9946427E0,2.3080753E1,2.4557983E1,5.7920184E0,1.5451292E1,2.1955395E0,1.4112422E0,2.3630545E0,7.9263504E1,1.4535907E2,4.239821E1,1.4879903E0],"tree_param":{"num_deleted":"0","num_feature":"31","num_nodes":"31","size_leaf_vector":"0"}},{"base_weights":[-3.256854E-2,7.4423976E-2,-1.1312089E-1,1.7357226E-2,2.276986E-1,-4.29555E-1,-8.63762E-2,-3.771425E-2,3.7740493E-1,4.4706318E-1,1.698693E-2,-5.2799E-1,4.487198E-2,-4.3118317E-2,-3.018896E-1,1.00180484E-1,-2.3538329E-1,1.717442E-2,7.304737E-1,-2.3753197E-1,5.989206E-1,-1.442593E-1,6.2124646E-1,-6.205018E-1,1.1350722E-1,7.628041E-1,-4.8321342E-1,-1.964189E-1,4.124652E-2,-3.4970838E-1,6.535557E-1],"categories":[],"categories_nodes":[],"categories_segments":[],"categories_sizes":[],"default_left":[1,1,1,1,1,1,1,1,1,1,1,1,1,1,1,0,0,0,0,0,0,0,0,0,0,0,0,0,0,0,0],"id":31,"left_children":[1,3,5,7,9,11,13,15,17,19,21,23,25,27,29,-1,-1,-1,-1,-1,-1,-1,-1,-1,-1,-1,-1,-1,-1,-1,-1],"loss_changes":[4.3975544E0,1.9145828E0,2.4250174E0,3.2048905E0,2.7392063E0,1.0707626E0,2.4995198E0,3.8525932E0,2.714118E0,3.1649652E0,3.1441944E0,1.1770482E0,2.1786737E0,2.9261184E0,2.279325E0,0E0,0E0,0E0,0E0,0E0,0E0,0E0,0E0,0E0,0E0,0E0,0E0,0E0,0E0,0E0,0E0],"parents":[2147483647,0,0,1,1,2,2,3,3,4,4,5,5,6,6,7,7,8,8,9,9,10,10,11,11,12,12,13,13,14,14],"right_children":[2,4,6,8,10,12,14,16,18,20,22,24,26,28,30,-1,-1,-1,-1,-1,-1,-1,-1,-1,-1,-1,-1,-1,-1,-1,-1],"split_conditions":[1.75E0,2.5541668E1,3.375E0,1.2916667E0,1.0908333E2,3.03E2,8.75E0,2.1958332E1,2.35625E2,4.583333E-1,1.3125E2,5.275E1,2.5416668E1,1.0075E2,1.6539481E3,1.0018049E-2,-2.3538329E-2,1.7174421E-3,7.304737E-2,-2.3753198E-2,5.989206E-2,-1.4425931E-2,6.2124647E-2,-6.2050182E-2,1.1350722E-2,7.628041E-2,-4.8321344E-2,-1.964189E-2,4.124652E-3,-3.497084E-2,6.535557E-2],"split_indices":[2,7,26,19,28,6,2,7,6,16,11,4,5,13,27,0,0,0,0,0,0,0,0,0,0,0,0,0,0,0,0],"split_type":[0,0,0,0,0,0,0,0,0,0,0,0,0,0,0,0,0,0,0,0,0,0,0,0,0,0,0,0,0,0,0],"sum_hessian":[5.0826913E2,2.1833922E2,2.899299E2,1.5991382E2,5.8425396E1,2.1421127E1,2.685088E2,1.3947546E2,2.0438364E1,2.8075396E1,3.035E1,1.7646832E1,3.774297E0,2.2462257E2,4.3886196E1,8.24507E1,5.7024757E1,1.0635635E1,9.802728E0,4.9946427E0,2.3080753E1,2.4557983E1,5.792018E0,1.5451292E1,2.1955395E0,1.4112422E0,2.3630548E0,7.9263504E1,1.4535909E2,4.2398205E1,1.4879903E0],"tree_param":{"num_deleted":"0","num_feature":"31","num_nodes":"31","size_leaf_vector":"0"}},{"base_weights":[2.9311383E-2,9.206572E-2,-9.281002E-2,1.485151E-1,-1.1019232E-1,2.5032353E-1,-1.5049204E-1,1.6088855E-1,-5.462462E-1,-3.8021836E-1,1.1647617E-1,-3.0674687E-1,4.3495822E-1,-1.9248573E-1,2.9143244E-1,4.6092695E-1,1.2518731E-1,-6.7668486E-1,-5.0051272E-2,1.7673826E-1,-5.7061124E-1,-3.1955877E-1,2.931474E-1,2.674411E-1,-5.76378E-1,6.464083E-1,-1.452306E-1,-2.577839E-1,7.445916E-2,-6.052994E-1,4.54064E-1],"categories":[],"categories_nodes":[],"categories_segments":[],"categories_sizes":[],"default_left":[1,1,1,1,1,1,1,1,1,1,1,1,1,1,1,0,0,0,0,0,0,0,0,0,0,0,0,0,0,0,0],"id":32,"left_children":[1,3,5,7,9,11,13,15,17,19,21,23,25,27,29,-1,-1,-1,-1,-1,-1,-1,-1,-1,-1,-1,-1,-1,-1,-1,-1],"loss_changes":[3.8797708E0,3.831788E0,3.4412835E0,2.337501E0,4.542401E0,2.7174375E0,2.799726E0,2.704647E0,2.7722347E-1,3.6820912E0,3.230424E0,1.213166E0,2.4594924E0,2.3830724E0,2.2038498E0,0E0,0E0,0E0,0E0,0E0,0E0,0E0,0E0,0E0,0E0,0E0,0E0,0E0,0E0,0E0,0E0],"parents":[2147483647,0,0,1,1,2,2,3,3,4,4,5,5,6,6,7,7,8,8,9,9,10,10,11,11,12,12,13,13,14,14],"right_children":[2,4,6,8,10,12,14,16,18,20,22,24,26,28,30,-1,-1,-1,-1,-1,-1,-1,-1,-1,-1,-1,-1,-1,-1,-1,-1],"split_conditions":[1.5579492E3,2.5375E1,3.4583335E0,1.6716666E2,1.5140952E3,1.4620027E3,3.375E0,1.625E0,5.25E0,1.625E0,2.6375E1,2.0416665E0,4.125E0,2.6791668E1,2.1166668E1,4.6092696E-2,1.2518731E-2,-6.766849E-2,-5.0051273E-3,1.7673826E-2,-5.7061125E-2,-3.195588E-2,2.931474E-2,2.674411E-2,-5.76378E-2,6.4640835E-2,-1.4523061E-2,-2.5778389E-2,7.445916E-3,-6.0529944E-2,4.54064E-2],"split_indices":[0,7,26,28,1,1,17,17,2,29,7,17,14,5,5,0,0,0,0,0,0,0,0,0,0,0,0,0,0,0,0],"split_type":[0,0,0,0,0,0,0,0,0,0,0,0,0,0,0,0,0,0,0,0,0,0,0,0,0,0,0,0,0,0,0],"sum_hessian":[5.0414136E2,3.3317786E2,1.7096349E2,2.6068695E2,7.249093E1,2.4123013E1,1.4684048E2,2.5688043E2,3.8065236E0,3.2772377E1,3.971855E1,5.8403697E0,1.8282642E1,1.3461334E2,1.2227138E1,2.604913E1,2.3083128E2,2.726135E0,1.0803885E0,8.36728E0,2.4405098E1,1.1219468E1,2.8499084E1,1.8688074E0,3.9715624E0,1.3315622E1,4.9670205E0,1.08184364E2,2.6428974E1,1.459226E0,1.0767911E1],"tree_param":{"num_deleted":"0","num_feature":"31","num_nodes":"31","size_leaf_vector":"0"}},{"base_weights":[-2.9311381E-2,-9.206572E-2,9.281002E-2,-1.485151E-1,1.1019233E-1,-2.5032356E-1,1.5049206E-1,-1.6088855E-1,5.4624623E-1,3.8021836E-1,-1.1647617E-1,3.0674687E-1,-4.3495822E-1,1.9248573E-1,-2.9143244E-1,-4.6092695E-1,-1.2518732E-1,6.7668486E-1,5.00513E-2,-1.7673825E-1,5.7061124E-1,3.1955874E-1,-2.931474E-1,-2.674411E-1,5.76378E-1,-6.464084E-1,1.4523059E-1,2.5778392E-1,-7.445916E-2,6.052994E-1,-4.54064E-1],"categories":[],"categories_nodes":[],"categories_segments":[],"categories_sizes":[],"default_left":[1,1,1,1,1,1,1,1,1,1,1,1,1,1,1,0,0,0,0,0,0,0,0,0,0,0,0,0,0,0,0],"id":33,"left_children":[1,3,5,7,9,11,13,15,17,19,21,23,25,27,29,-1,-1,-1,-1,-1,-1,-1,-1,-1,-1,-1,-1,-1,-1,-1,-1],"loss_changes":[3.8797708E0,3.831788E0,3.4412832E0,2.337502E0,4.5424013E0,2.7174373E0,2.7997258E0,2.704647E0,2.7722347E-1,3.6820908E0,3.230424E0,1.213166E0,2.4594924E0,2.3830729E0,2.2038498E0,0E0,0E0,0E0,0E0,0E0,0E0,0E0,0E0,0E0,0E0,0E0,0E0,0E0,0E0,0E0,0E0],"parents":[2147483647,0,0,1,1,2,2,3,3,4,4,5,5,6,6,7,7,8,8,9,9,10,10,11,11,12,12,13,13,14,14],"right_children":[2,4,6,8,10,12,14,16,18,20,22,24,26,28,30,-1,-1,-1,-1,-1,-1,-1,-1,-1,-1,-1,-1,-1,-1,-1,-1],"split_conditions":[1.5579492E3,2.5375E1,3.4583335E0,1.6716666E2,1.5140952E3,1.4620027E3,3.375E0,1.625E0,5.25E0,1.625E0,2.6375E1,2.0416665E0,4.125E0,2.6791668E1,2.1166668E1,-4.6092696E-2,-1.2518733E-2,6.766849E-2,5.00513E-3,-1.7673826E-2,5.7061125E-2,3.1955875E-2,-2.931474E-2,-2.674411E-2,5.76378E-2,-6.464084E-2,1.4523059E-2,2.5778392E-2,-7.445916E-3,6.0529944E-2,-4.54064E-2],"split_indices":[0,7,26,28,1,1,17,17,2,29,7,17,14,5,5,0,0,0,0,0,0,0,0,0,0,0,0,0,0,0,0],"split_type":[0,0,0,0,0,0,0,0,0,0,0,0,0,0,0,0,0,0,0,0,0,0,0,0,0,0,0,0,0,0,0],"sum_hessian":[5.0414136E2,3.3317786E2,1.7096349E2,2.6068695E2,7.249093E1,2.4123013E1,1.4684048E2,2.5688043E2,3.8065236E0,3.2772377E1,3.971855E1,5.8403697E0,1.8282642E1,1.3461334E2,1.2227138E1,2.604913E1,2.3083128E2,2.726135E0,1.0803885E0,8.36728E0,2.4405096E1,1.1219468E1,2.8499084E1,1.8688074E0,3.9715624E0,1.3315622E1,4.9670205E0,1.08184364E2,2.6428974E1,1.459226E0,1.0767911E1],"tree_param":{"num_deleted":"0","num_feature":"31","num_nodes":"31","size_leaf_vector":"0"}},{"base_weights":[2.648331E-2,2.6676357E-1,-4.00395E-3,-5.394372E-1,3.1376374E-1,-9.17574E-2,6.4674914E-2,-7.7120906E-1,-2.7412336E-2,3.6420894E-1,-3.8036266E-1,-1.4865859E-2,-3.7709975E-1,-1.6438477E-1,1.23557866E-1,4.9608395E-1,9.914272E-2,-8.422153E-1,3.593209E-1,2.9060068E-2,-5.292039E-1,-6.552091E-1,-7.367358E-2,1.7310743E-1,-3.695242E-1,4.5634183E-1,4.4885706E-2],"categories":[],"categories_nodes":[],"categories_segments":[],"categories_sizes":[],"default_left":[1,1,1,1,1,1,1,0,0,1,1,1,1,1,1,0,0,0,0,0,0,0,0,0,0,0,0],"id":34,"left_children":[1,3,5,7,9,11,13,-1,-1,15,17,19,21,23,25,-1,-1,-1,-1,-1,-1,-1,-1,-1,-1,-1,-1],"loss_changes":[3.673143E0,2.3084655E0,2.6927924E0,3.9157283E-1,2.0286016E0,4.2978287E0,3.4013543E0,0E0,0E0,1.727684E0,1.7190766E0,3.5296357E0,3.4616723E0,3.6427002E0,5.215282E0,0E0,0E0,0E0,0E0,0E0,0E0,0E0,0E0,0E0,0E0,0E0,0E0],"parents":[2147483647,0,0,1,1,2,2,3,3,4,4,5,5,6,6,9,9,10,10,11,11,12,12,13,13,14,14],"right_children":[2,4,6,8,10,12,14,-1,-1,16,18,20,22,24,26,-1,-1,-1,-1,-1,-1,-1,-1,-1,-1,-1,-1],"split_conditions":[1.3594114E3,1.5875E1,1.4858711E3,1.055E2,2.89625E2,2.5333332E1,1.4803284E3,-7.712091E-2,-2.7412337E-3,1.2425E2,1.5208857E3,1.4583333E0,2.5416668E1,2.1708332E1,1.4861296E3,4.9608395E-2,9.914272E-3,-8.4221534E-2,3.593209E-2,2.9060068E-3,-5.292039E-2,-6.552091E-2,-7.3673585E-3,1.7310744E-2,-3.695242E-2,4.5634184E-2,4.4885706E-3],"split_indices":[0,10,1,21,23,7,27,0,0,13,25,19,10,10,25,0,0,0,0,0,0,0,0,0,0,0,0],"split_type":[0,0,0,0,0,0,0,0,0,0,0,0,0,0,0,0,0,0,0,0,0,0,0,0,0,0,0],"sum_hessian":[5.0027383E2,5.5456074E1,4.4481778E2,2.477737E0,5.2978336E1,1.951419E2,2.4967586E2,1.357197E0,1.1205399E0,4.9832115E1,3.146219E0,1.5454782E2,4.0594086E1,5.069117E1,1.989847E2,3.2694492E1,1.7137623E1,1.8515254E0,1.2946936E0,1.4325679E2,1.1291037E1,2.0575743E1,2.0018341E1,1.9222599E1,3.146857E1,3.7128834E1,1.6185585E2],"tree_param":{"num_deleted":"0","num_feature":"31","num_nodes":"27","size_leaf_vector":"0"}},{"base_weights":[-2.648331E-2,-2.6676357E-1,4.0039513E-3,5.394372E-1,-3.1376374E-1,9.1757394E-2,-6.4674914E-2,7.7120906E-1,2.7412336E-2,-3.6420894E-1,3.8036266E-1,1.4865861E-2,3.7709975E-1,1.6438478E-1,-1.2355786E-1,-4.9608395E-1,-9.914273E-2,8.422153E-1,-3.593209E-1,-2.9060064E-2,5.292039E-1,6.5520906E-1,7.367359E-2,-1.7310743E-1,3.6952424E-1,-4.5634183E-1,-4.4885702E-2],"categories":[],"categories_nodes":[],"categories_segments":[],"categories_sizes":[],"default_left":[1,1,1,1,1,1,1,0,0,1,1,1,1,1,1,0,0,0,0,0,0,0,0,0,0,0,0],"id":35,"left_children":[1,3,5,7,9,11,13,-1,-1,15,17,19,21,23,25,-1,-1,-1,-1,-1,-1,-1,-1,-1,-1,-1,-1],"loss_changes":[3.6731434E0,2.308465E0,2.6927922E0,3.915727E-1,2.0286016E0,4.2978287E0,3.4013538E0,0E0,0E0,1.727685E0,1.7190769E0,3.5296354E0,3.4616714E0,3.6427007E0,5.2152824E0,0E0,0E0,0E0,0E0,0E0,0E0,0E0,0E0,0E0,0E0,0E0,0E0],"parents":[2147483647,0,0,1,1,2,2,3,3,4,4,5,5,6,6,9,9,10,10,11,11,12,12,13,13,14,14],"right_children":[2,4,6,8,10,12,14,-1,-1,16,18,20,22,24,26,-1,-1,-1,-1,-1,-1,-1,-1,-1,-1,-1,-1],"split_conditions":[1.3594114E3,1.5875E1,1.4858711E3,1.055E2,2.89625E2,2.5333332E1,1.4803284E3,7.712091E-2,2.7412337E-3,1.2425E2,1.5208857E3,1.4583333E0,2.5416668E1,2.1708332E1,1.4861296E3,-4.9608395E-2,-9.914273E-3,8.4221534E-2,-3.593209E-2,-2.9060065E-3,5.292039E-2,6.5520905E-2,7.367359E-3,-1.7310744E-2,3.6952425E-2,-4.5634184E-2,-4.48857E-3],"split_indices":[0,10,1,21,23,7,27,0,0,13,25,19,10,10,25,0,0,0,0,0,0,0,0,0,0,0,0],"split_type":[0,0,0,0,0,0,0,0,0,0,0,0,0,0,0,0,0,0,0,0,0,0,0,0,0,0,0],"sum_hessian":[5.0027383E2,5.5456074E1,4.4481778E2,2.477737E0,5.2978336E1,1.951419E2,2.4967586E2,1.357197E0,1.1205399E0,4.9832115E1,3.146219E0,1.5454782E2,4.0594086E1,5.069117E1,1.989847E2,3.2694492E1,1.7137623E1,1.8515254E0,1.2946937E0,1.4325679E2,1.1291037E1,2.0575743E1,2.0018341E1,1.9222599E1,3.146857E1,3.7128834E1,1.6185585E2],"tree_param":{"num_deleted":"0","num_feature":"31","num_nodes":"27","size_leaf_vector":"0"}},{"base_weights":[2.373925E-2,2.4607964E-1,-3.8448076E-3,-5.028477E-1,2.91561E-1,2.7677944E-1,-2.5338694E-2,-7.158192E-1,-2.5940811E-2,3.398343E-1,-3.5366794E-1,4.2193514E-1,-2.6235598E-1,-8.569576E-2,7.269326E-2,4.5687452E-1,5.4633487E-2,-7.7369964E-1,3.4756386E-1,-1.0587158E-1,7.1193916E-1,-4.771578E-1,3.7743315E-1,-2.2673914E-1,1.5567883E-2,7.307562E-1,4.0972948E-2],"categories":[],"categories_nodes":[],"categories_segments":[],"categories_sizes":[],"default_left":[1,1,1,1,1,1,1,0,0,1,1,1,1,1,1,0,0,0,0,0,0,0,0,0,0,0,0],"id":36,"left_children":[1,3,5,7,9,11,13,-1,-1,15,17,19,21,23,25,-1,-1,-1,-1,-1,-1,-1,-1,-1,-1,-1,-1],"loss_changes":[3.0542872E0,2.0187697E0,2.6844113E0,3.3831334E-1,1.7538404E0,2.5886598E0,2.4512408E0,0E0,0E0,1.6209478E0,1.4885714E0,3.9526124E0,1.1878953E0,3.6629524E0,3.2683017E0,0E0,0E0,0E0,0E0,0E0,0E0,0E0,0E0,0E0,0E0,0E0,0E0],"parents":[2147483647,0,0,1,1,2,2,3,3,4,4,5,5,6,6,9,9,10,10,11,11,12,12,13,13,14,14],"right_children":[2,4,6,8,10,12,14,-1,-1,16,18,20,22,24,26,-1,-1,-1,-1,-1,-1,-1,-1,-1,-1,-1,-1],"split_conditions":[1.3594114E3,1.5875E1,1.375E0,1.055E2,2.89625E2,1.5580549E3,4.791667E0,-7.158192E-2,-2.5940812E-3,5.208333E0,1.5208857E3,1.0020833E2,1.6321826E3,1.5021123E3,1.8541666E2,4.5687452E-2,5.4633487E-3,-7.7369966E-2,3.475639E-2,-1.0587159E-2,7.119392E-2,-4.771578E-2,3.7743315E-2,-2.2673914E-2,1.5567883E-3,7.307562E-2,4.097295E-3],"split_indices":[0,10,22,21,23,25,14,0,0,14,25,21,1,27,24,0,0,0,0,0,0,0,0,0,0,0,0],"split_type":[0,0,0,0,0,0,0,0,0,0,0,0,0,0,0,0,0,0,0,0,0,0,0,0,0,0,0],"sum_hessian":[4.9685028E2,5.3962914E1,4.4288736E2,2.5137439E0,5.144917E1,3.0663784E1,4.1222357E2,1.3914183E0,1.1223254E0,4.830826E1,3.1409082E0,2.433048E1,6.3333015E0,2.5521605E2,1.5700754E2,3.3825195E1,1.4483066E1,1.8996756E0,1.2412325E0,8.852989E0,1.5477492E1,4.9317265E0,1.4015751E0,1.0614067E2,1.4907538E2,6.20672E0,1.5080081E2],"tree_param":{"num_deleted":"0","num_feature":"31","num_nodes":"27","size_leaf_vector":"0"}},{"base_weights":[-2.373925E-2,-2.4607964E-1,3.8448088E-3,5.0284773E-1,-2.91561E-1,-2.7677944E-1,2.5338696E-2,7.1581924E-1,2.5940847E-2,-3.398343E-1,3.53668E-1,-4.2193514E-1,2.6235598E-1,8.569576E-2,-7.269326E-2,-4.5687452E-1,-5.4633494E-2,7.736997E-1,-3.4756386E-1,1.0587159E-1,-7.1193916E-1,4.771578E-1,-3.7743315E-1,2.2673914E-1,-1.55678755E-2,-7.307562E-1,-4.097295E-2],"categories":[],"categories_nodes":[],"categories_segments":[],"categories_sizes":[],"default_left":[1,1,1,1,1,1,1,0,0,1,1,1,1,1,1,0,0,0,0,0,0,0,0,0,0,0,0],"id":37,"left_children":[1,3,5,7,9,11,13,-1,-1,15,17,19,21,23,25,-1,-1,-1,-1,-1,-1,-1,-1,-1,-1,-1,-1],"loss_changes":[3.054287E0,2.01877E0,2.6844115E0,3.3831346E-1,1.7538404E0,2.5886595E0,2.4512408E0,0E0,0E0,1.6209478E0,1.4885716E0,3.9526114E0,1.1878953E0,3.6629522E0,3.2683012E0,0E0,0E0,0E0,0E0,0E0,0E0,0E0,0E0,0E0,0E0,0E0,0E0],"parents":[2147483647,0,0,1,1,2,2,3,3,4,4,5,5,6,6,9,9,10,10,11,11,12,12,13,13,14,14],"right_children":[2,4,6,8,10,12,14,-1,-1,16,18,20,22,24,26,-1,-1,-1,-1,-1,-1,-1,-1,-1,-1,-1,-1],"split_conditions":[1.3594114E3,1.5875E1,1.375E0,1.055E2,2.89625E2,1.5580549E3,4.791667E0,7.158192E-2,2.5940847E-3,5.208333E0,1.5208857E3,1.0020833E2,1.6321826E3,1.5021123E3,1.8541666E2,-4.5687452E-2,-5.4633496E-3,7.736997E-2,-3.475639E-2,1.0587159E-2,-7.119392E-2,4.771578E-2,-3.7743315E-2,2.2673914E-2,-1.5567875E-3,-7.307562E-2,-4.0972955E-3],"split_indices":[0,10,22,21,23,25,14,0,0,14,25,21,1,27,24,0,0,0,0,0,0,0,0,0,0,0,0],"split_type":[0,0,0,0,0,0,0,0,0,0,0,0,0,0,0,0,0,0,0,0,0,0,0,0,0,0,0],"sum_hessian":[4.9685028E2,5.3962914E1,4.4288736E2,2.5137439E0,5.144917E1,3.0663782E1,4.1222357E2,1.3914183E0,1.1223254E0,4.830826E1,3.1409082E0,2.433048E1,6.3333015E0,2.5521605E2,1.5700754E2,3.3825195E1,1.4483065E1,1.8996756E0,1.2412325E0,8.852989E0,1.5477492E1,4.9317265E0,1.4015751E0,1.0614067E2,1.4907538E2,6.20672E0,1.5080081E2],"tree_param":{"num_deleted":"0","num_feature":"31","num_nodes":"27","size_leaf_vector":"0"}},{"base_weights":[2.1672621E-2,7.631459E-2,-8.3817825E-2,2.8322923E-1,3.0658035E-2,2.3661068E-1,-1.3675474E-1,3.3307508E-1,-3.4507883E-1,9.3007304E-2,-1.9934547E-1,-2.692995E-1,3.9564204E-1,-1.7456762E-1,2.6068127E-1,6.1756563E-1,2.1465902E-1,-7.6530653E-1,2.1068116E-1,-1.0125775E-1,1.5238939E-1,-3.1731027E-1,2.3103388E-1,2.5288296E-1,-5.315354E-1,-1.9436483E-1,5.635282E-1,-7.1001023E-1,-1.418414E-1,-5.750641E-1,4.1439646E-1],"categories":[],"categories_nodes":[],"categories_segments":[],"categories_sizes":[],"default_left":[1,1,1,1,1,1,1,1,1,1,1,1,1,1,1,0,0,0,0,0,0,0,0,0,0,0,0,0,0,0,0],"id":38,"left_children":[1,3,5,7,9,11,13,15,17,19,21,23,25,27,29,-1,-1,-1,-1,-1,-1,-1,-1,-1,-1,-1,-1,-1,-1,-1,-1],"loss_changes":[2.8622885E0,3.079667E0,2.9081779E0,1.9619074E0,3.8752775E0,2.0699983E0,2.2416632E0,1.7252684E0,1.2882924E0,2.464093E0,3.0013993E0,1.0151341E0,1.9888341E0,2.2480564E0,1.9208112E0,0E0,0E0,0E0,0E0,0E0,0E0,0E0,0E0,0E0,0E0,0E0,0E0,0E0,0E0,0E0,0E0],"parents":[2147483647,0,0,1,1,2,2,3,3,4,4,5,5,6,6,7,7,8,8,9,9,10,10,11,11,12,12,13,13,14,14],"right_children":[2,4,6,8,10,12,14,16,18,20,22,24,26,28,30,-1,-1,-1,-1,-1,-1,-1,-1,-1,-1,-1,-1,-1,-1,-1,-1],"split_conditions":[1.5579492E3,1.7916667E0,3.4583335E0,1.4116666E2,2.5458332E1,1.4620027E3,3.375E0,1.625E0,1.4980039E3,1.8805E0,3.2083335E0,2.0416665E0,1.8541668E1,1.5634009E3,2.1166668E1,6.1756562E-2,2.1465903E-2,-7.653066E-2,2.1068117E-2,-1.0125775E-2,1.523894E-2,-3.1731028E-2,2.3103388E-2,2.5288297E-2,-5.315354E-2,-1.9436484E-2,5.635282E-2,-7.100102E-2,-1.418414E-2,-5.7506412E-2,4.143965E-2],"split_indices":[0,22,26,28,7,1,17,29,25,3,20,17,12,0,5,0,0,0,0,0,0,0,0,0,0,0,0,0,0,0,0],"split_type":[0,0,0,0,0,0,0,0,0,0,0,0,0,0,0,0,0,0,0,0,0,0,0,0,0,0,0,0,0,0,0],"sum_hessian":[4.9445285E2,3.2591293E2,1.685399E2,5.7973705E1,2.6793924E2,2.3404173E1,1.4513573E2,5.4147858E1,3.8258502E0,2.1126517E2,5.6674065E1,5.4316497E0,1.7972525E1,1.330389E2,1.20968275E1,1.46754265E1,3.947243E1,1.9638649E0,1.8619852E0,4.929483E1,1.6197034E2,4.4688023E1,1.1986042E1,1.8277575E0,3.603892E0,3.9462807E0,1.4026243E1,6.470923E0,1.2656797E2,1.4534354E0,1.0643392E1],"tree_param":{"num_deleted":"0","num_feature":"31","num_nodes":"31","size_leaf_vector":"0"}},{"base_weights":[-2.1672618E-2,-7.631458E-2,8.3817825E-2,-2.8322923E-1,-3.0658029E-2,-2.3661068E-1,1.3675474E-1,-3.3307508E-1,3.4507886E-1,-9.3007304E-2,1.9934548E-1,2.6929948E-1,-3.9564204E-1,1.7456762E-1,-2.6068127E-1,-6.1756563E-1,-2.1465904E-1,7.6530653E-1,-2.1068114E-1,1.0125776E-1,-1.5238939E-1,3.173103E-1,-2.3103386E-1,-2.5288296E-1,5.315354E-1,1.9436485E-1,-5.635282E-1,7.1001023E-1,1.418414E-1,5.750641E-1,-4.1439646E-1],"categories":[],"categories_nodes":[],"categories_segments":[],"categories_sizes":[],"default_left":[1,1,1,1,1,1,1,1,1,1,1,1,1,1,1,0,0,0,0,0,0,0,0,0,0,0,0,0,0,0,0],"id":39,"left_children":[1,3,5,7,9,11,13,15,17,19,21,23,25,27,29,-1,-1,-1,-1,-1,-1,-1,-1,-1,-1,-1,-1,-1,-1,-1,-1],"loss_changes":[2.8622882E0,3.0796666E0,2.9081779E0,1.9619079E0,3.8752775E0,2.0699983E0,2.2416632E0,1.7252688E0,1.2882923E0,2.4640937E0,3.0013995E0,1.0151341E0,1.9888341E0,2.2480564E0,1.9208114E0,0E0,0E0,0E0,0E0,0E0,0E0,0E0,0E0,0E0,0E0,0E0,0E0,0E0,0E0,0E0,0E0],"parents":[2147483647,0,0,1,1,2,2,3,3,4,4,5,5,6,6,7,7,8,8,9,9,10,10,11,11,12,12,13,13,14,14],"right_children":[2,4,6,8,10,12,14,16,18,20,22,24,26,28,30,-1,-1,-1,-1,-1,-1,-1,-1,-1,-1,-1,-1,-1,-1,-1,-1],"split_conditions":[1.5579492E3,1.7916667E0,3.4583335E0,1.4116666E2,2.5458332E1,1.4620027E3,3.375E0,1.625E0,1.4980039E3,1.8805E0,3.2083335E0,2.0416665E0,1.8541668E1,1.5634009E3,2.1166668E1,-6.1756562E-2,-2.1465903E-2,7.653066E-2,-2.1068115E-2,1.0125776E-2,-1.523894E-2,3.173103E-2,-2.3103386E-2,-2.5288297E-2,5.315354E-2,1.9436484E-2,-5.635282E-2,7.100102E-2,1.418414E-2,5.7506412E-2,-4.143965E-2],"split_indices":[0,22,26,28,7,1,17,29,25,3,20,17,12,0,5,0,0,0,0,0,0,0,0,0,0,0,0,0,0,0,0],"split_type":[0,0,0,0,0,0,0,0,0,0,0,0,0,0,0,0,0,0,0,0,0,0,0,0,0,0,0,0,0,0,0],"sum_hessian":[4.9445285E2,3.2591293E2,1.685399E2,5.797371E1,2.6793924E2,2.3404173E1,1.4513573E2,5.4147858E1,3.82585E0,2.1126517E2,5.6674065E1,5.4316497E0,1.7972525E1,1.330389E2,1.2096827E1,1.4675426E1,3.947243E1,1.9638649E0,1.8619851E0,4.929483E1,1.6197034E2,4.4688023E1,1.1986042E1,1.8277575E0,3.603892E0,3.9462807E0,1.4026243E1,6.470923E0,1.2656797E2,1.4534354E0,1.0643392E1],"tree_param":{"num_deleted":"0","num_feature":"31","num_nodes":"31","size_leaf_vector":"0"}}]},"name":"gbtree"},"learner_model_param":{"base_score":"5E-1","boost_from_average":"1","num_class":"2","num_feature":"31","num_target":"1"},"objective":{"name":"multi:softprob","softmax_multiclass_param":{"num_class":"2"}}},"version":[1,7,5]}