{"learner":{"attributes":{"best_iteration":"19","best_ntree_limit":"20"},"feature_names":["eloaway","elohome","Away Line Close","Away Odds Close","Total Score Close","TeamScore_Home_4","PYds_Away_4","TeamScore_Away_4","PYds_Home_4","Int_Opp_Home_4","OppScore_Home_4","RYds_Home_4","OppScore_Away_4","RYds_Opp_Home_4","Pnt_Home_4","Int_Opp_Away_4","Int_Home_4","Sk_Opp_Home_4","Pnt_Opp_Away_4","Int_Away_4","Sk_Opp_Away_4","RYds_Away_4","Sk_Home_4","PYds_Opp_Home_4","PYds_Opp_Away_4","eloaway_4","Pnt_Away_4","elohome_4","RYds_Opp_Away_4","Sk_Away_4","Pnt_Opp_Home_4"],"feature_types":["float","float","float","float","float","float","float","float","float","float","float","float","float","float","float","float","float","float","float","float","float","float","float","float","float","float","float","float","float","float","float"],"gradient_booster":{"model":{"gbtree_model_param":{"num_parallel_tree":"1","num_trees":"40","size_leaf_vector":"0"},"tree_info":[0,1,0,1,0,1,0,1,0,1,0,1,0,1,0,1,0,1,0,1,0,1,0,1,0,1,0,1,0,1,0,1,0,1,0,1,0,1,0,1],"trees":[{"base_weights":[2.1367522E-1,-5.2873564E-1,5.254237E-1,4.2857143E-1,-5.6213015E-1,6.05178E-1,2.8301886E-1,-0E0,6E-1,1.6666667E-1,-6.100629E-1,-2E-1,6.418919E-1,-1.1111111E-1,4.722222E-1,7.5E-1,-6.666667E-1,-6.533333E-1,9.090909E-2,3.3333334E-1,-7.5E-1,6.951673E-1,1.0344828E-1,-4.7826087E-1,4.6666667E-1,7.692308E-2,6.666667E-1],"categories":[],"categories_nodes":[],"categories_segments":[],"categories_sizes":[],"default_left":[1,1,1,1,1,1,1,0,0,1,1,1,1,1,1,0,0,0,0,0,0,0,0,0,0,0,0],"id":0,"left_children":[1,3,5,7,9,11,13,-1,-1,15,17,19,21,23,25,-1,-1,-1,-1,-1,-1,-1,-1,-1,-1,-1,-1],"loss_changes":[6.797562E1,3.0222015E0,3.8209457E0,2.5714284E-1,3.0535336E0,4.695587E0,4.004717E0,0E0,0E0,3.4166667E0,2.4707375E0,2.45E0,4.173584E0,4.041546E0,2.7158127E0,0E0,0E0,0E0,0E0,0E0,0E0,0E0,0E0,0E0,0E0,0E0,0E0],"parents":[2147483647,0,0,1,1,2,2,3,3,4,4,5,5,6,6,9,9,10,10,11,11,12,12,13,13,14,14],"right_children":[2,4,6,8,10,12,14,-1,-1,16,18,20,22,24,26,-1,-1,-1,-1,-1,-1,-1,-1,-1,-1,-1,-1],"split_conditions":[-2.5E-1,1.1666667E0,2.5870834E2,1.5065338E3,8.004167E1,1.2083333E0,6.25E0,-0E0,6E-3,2.5583332E1,5.875E0,1.7083333E0,1.375E0,1.1520833E2,2.4404166E2,7.5E-3,-6.666667E-3,-6.533333E-3,9.090909E-4,3.3333334E-3,-7.5E-3,6.951673E-3,1.0344827E-3,-4.7826087E-3,4.6666665E-3,7.6923077E-4,6.666667E-3],"split_indices":[2,22,6,0,28,20,2,0,0,10,14,22,19,28,23,0,0,0,0,0,0,0,0,0,0,0,0],"split_type":[0,0,0,0,0,0,0,0,0,0,0,0,0,0,0,0,0,0,0,0,0,0,0,0,0,0,0],"sum_hessian":[2.915E2,8.6E1,2.055E2,2.5E0,8.35E1,1.535E2,5.2E1,1E0,1.5E0,5E0,7.85E1,6.5E0,1.47E2,1.7E1,3.5E1,3E0,2E0,7.4E1,4.5E0,3.5E0,3E0,1.335E2,1.35E1,1.05E1,6.5E0,1.2E1,2.3E1],"tree_param":{"num_deleted":"0","num_feature":"31","num_nodes":"27","size_leaf_vector":"0"}},{"base_weights":[-2.1367522E-1,5.2873564E-1,-5.254237E-1,-4.2857143E-1,5.6213015E-1,-6.05178E-1,-2.8301886E-1,-0E0,-6E-1,-1.6666667E-1,6.100629E-1,2E-1,-6.418919E-1,1.1111111E-1,-4.722222E-1,-7.5E-1,6.666667E-1,6.533333E-1,-9.090909E-2,-3.3333334E-1,7.5E-1,-6.951673E-1,-1.0344828E-1,4.7826087E-1,-4.6666667E-1,-7.692308E-2,-6.666667E-1],"categories":[],"categories_nodes":[],"categories_segments":[],"categories_sizes":[],"default_left":[1,1,1,1,1,1,1,0,0,1,1,1,1,1,1,0,0,0,0,0,0,0,0,0,0,0,0],"id":1,"left_children":[1,3,5,7,9,11,13,-1,-1,15,17,19,21,23,25,-1,-1,-1,-1,-1,-1,-1,-1,-1,-1,-1,-1],"loss_changes":[6.797562E1,3.0222015E0,3.8209457E0,2.5714284E-1,3.0535336E0,4.695587E0,4.004717E0,0E0,0E0,3.4166667E0,2.4707375E0,2.45E0,4.173584E0,4.041546E0,2.7158127E0,0E0,0E0,0E0,0E0,0E0,0E0,0E0,0E0,0E0,0E0,0E0,0E0],"parents":[2147483647,0,0,1,1,2,2,3,3,4,4,5,5,6,6,9,9,10,10,11,11,12,12,13,13,14,14],"right_children":[2,4,6,8,10,12,14,-1,-1,16,18,20,22,24,26,-1,-1,-1,-1,-1,-1,-1,-1,-1,-1,-1,-1],"split_conditions":[-2.5E-1,1.1666667E0,2.5870834E2,1.5065338E3,8.004167E1,1.2083333E0,6.25E0,-0E0,-6E-3,2.5583332E1,5.875E0,1.7083333E0,1.375E0,1.1520833E2,2.4404166E2,-7.5E-3,6.666667E-3,6.533333E-3,-9.090909E-4,-3.3333334E-3,7.5E-3,-6.951673E-3,-1.0344827E-3,4.7826087E-3,-4.6666665E-3,-7.6923077E-4,-6.666667E-3],"split_indices":[2,22,6,0,28,20,2,0,0,10,14,22,19,28,23,0,0,0,0,0,0,0,0,0,0,0,0],"split_type":[0,0,0,0,0,0,0,0,0,0,0,0,0,0,0,0,0,0,0,0,0,0,0,0,0,0,0],"sum_hessian":[2.915E2,8.6E1,2.055E2,2.5E0,8.35E1,1.535E2,5.2E1,1E0,1.5E0,5E0,7.85E1,6.5E0,1.47E2,1.7E1,3.5E1,3E0,2E0,7.4E1,4.5E0,3.5E0,3E0,1.335E2,1.35E1,1.05E1,6.5E0,1.2E1,2.3E1],"tree_param":{"num_deleted":"0","num_feature":"31","num_nodes":"27","size_leaf_vector":"0"}},{"base_weights":[2.1158907E-1,-5.2345544E-1,5.202439E-1,4.2600662E-1,-5.5658823E-1,5.991769E-1,2.803343E-1,-0E0,5.9641296E-1,1.6514604E-1,-6.040572E-1,-1.985611E-1,6.355548E-1,-4.9759874E-1,3.717363E-1,7.444066E-1,-6.6224194E-1,-6.4691454E-1,9.0165354E-2,3.3074358E-1,-7.4440646E-1,6.8830043E-1,1.02485225E-1,1.990925E-1,-7.740717E-1,-6.6690886E-1,4.3139392E-1],"categories":[],"categories_nodes":[],"categories_segments":[],"categories_sizes":[],"default_left":[1,1,1,1,1,1,1,0,0,1,1,1,1,1,1,0,0,0,0,0,0,0,0,0,0,0,0],"id":2,"left_children":[1,3,5,7,9,11,13,-1,-1,15,17,19,21,23,25,-1,-1,-1,-1,-1,-1,-1,-1,-1,-1,-1,-1],"loss_changes":[6.6630646E1,2.973877E0,3.7423134E0,2.5407583E-1,2.994608E0,4.6096077E0,3.9534197E0,0E0,0E0,3.3684928E0,2.423561E0,2.4130366E0,4.090603E0,1.309788E0,3.2618499E0,0E0,0E0,0E0,0E0,0E0,0E0,0E0,0E0,0E0,0E0,0E0,0E0],"parents":[2147483647,0,0,1,1,2,2,3,3,4,4,5,5,6,6,9,9,10,10,11,11,12,12,13,13,14,14],"right_children":[2,4,6,8,10,12,14,-1,-1,16,18,20,22,24,26,-1,-1,-1,-1,-1,-1,-1,-1,-1,-1,-1,-1],"split_conditions":[-2.5E-1,1.1666667E0,2.5870834E2,1.5065338E3,8.004167E1,1.2083333E0,2.915E0,-0E0,5.964129E-3,2.5583332E1,5.875E0,1.7083333E0,1.375E0,1.4166667E0,1.4214177E3,7.4440655E-3,-6.622419E-3,-6.4691454E-3,9.0165355E-4,3.3074357E-3,-7.4440646E-3,6.883004E-3,1.0248523E-3,1.990925E-3,-7.740717E-3,-6.6690883E-3,4.3139393E-3],"split_indices":[2,22,6,0,28,20,3,0,0,10,14,22,19,20,1,0,0,0,0,0,0,0,0,0,0,0,0],"split_type":[0,0,0,0,0,0,0,0,0,0,0,0,0,0,0,0,0,0,0,0,0,0,0,0,0,0,0],"sum_hessian":[2.9148843E2,8.599652E1,2.0549191E2,2.499946E0,8.3496574E1,1.5349333E2,5.199859E1,1E0,1.499946E0,4.9997425E0,7.849683E1,6.4997926E0,1.4699353E2,4.999887E0,4.6998703E1,2.9998312E0,1.9999111E0,7.399683E1,4.499996E0,3.4999611E0,2.9998314E0,1.3349355E2,1.3499986E1,1.4999669E0,3.4999201E0,1.9999771E0,4.4998726E1],"tree_param":{"num_deleted":"0","num_feature":"31","num_nodes":"27","size_leaf_vector":"0"}},{"base_weights":[-2.1158908E-1,5.234553E-1,-5.202439E-1,-4.2600664E-1,5.565882E-1,-5.991769E-1,-2.803343E-1,-0E0,-5.9641296E-1,-1.65146E-1,6.040571E-1,1.9856113E-1,-6.355548E-1,4.975988E-1,-3.717363E-1,-7.4440646E-1,6.6224194E-1,6.469144E-1,-9.0165354E-2,-3.3074358E-1,7.444066E-1,-6.8830043E-1,-1.02485225E-1,-1.9909252E-1,7.740718E-1,6.6690886E-1,-4.3139392E-1],"categories":[],"categories_nodes":[],"categories_segments":[],"categories_sizes":[],"default_left":[1,1,1,1,1,1,1,0,0,1,1,1,1,1,1,0,0,0,0,0,0,0,0,0,0,0,0],"id":3,"left_children":[1,3,5,7,9,11,13,-1,-1,15,17,19,21,23,25,-1,-1,-1,-1,-1,-1,-1,-1,-1,-1,-1,-1],"loss_changes":[6.663064E1,2.973877E0,3.7423134E0,2.5407588E-1,2.994606E0,4.6096077E0,3.9534197E0,0E0,0E0,3.3684924E0,2.423561E0,2.4130368E0,4.090603E0,1.309788E0,3.2618499E0,0E0,0E0,0E0,0E0,0E0,0E0,0E0,0E0,0E0,0E0,0E0,0E0],"parents":[2147483647,0,0,1,1,2,2,3,3,4,4,5,5,6,6,9,9,10,10,11,11,12,12,13,13,14,14],"right_children":[2,4,6,8,10,12,14,-1,-1,16,18,20,22,24,26,-1,-1,-1,-1,-1,-1,-1,-1,-1,-1,-1,-1],"split_conditions":[-2.5E-1,1.1666667E0,2.5870834E2,1.5065338E3,8.004167E1,1.2083333E0,2.915E0,-0E0,-5.964129E-3,2.5583332E1,5.875E0,1.7083333E0,1.375E0,1.4166667E0,1.4214177E3,-7.4440646E-3,6.622419E-3,6.469144E-3,-9.0165355E-4,-3.3074357E-3,7.4440655E-3,-6.883004E-3,-1.0248523E-3,-1.9909253E-3,7.740718E-3,6.6690883E-3,-4.3139393E-3],"split_indices":[2,22,6,0,28,20,3,0,0,10,14,22,19,20,1,0,0,0,0,0,0,0,0,0,0,0,0],"split_type":[0,0,0,0,0,0,0,0,0,0,0,0,0,0,0,0,0,0,0,0,0,0,0,0,0,0,0],"sum_hessian":[2.9148843E2,8.599653E1,2.0549191E2,2.4999459E0,8.349658E1,1.5349333E2,5.199859E1,1E0,1.4999459E0,4.9997425E0,7.849684E1,6.4997926E0,1.4699353E2,4.9998865E0,4.6998703E1,2.9998314E0,1.9999111E0,7.399684E1,4.499996E0,3.4999611E0,2.9998312E0,1.3349355E2,1.3499986E1,1.4999667E0,3.49992E0,1.9999771E0,4.4998726E1],"tree_param":{"num_deleted":"0","num_feature":"31","num_nodes":"27","size_leaf_vector":"0"}},{"base_weights":[2.0948616E-1,-5.182684E-1,5.1507694E-1,4.234702E-1,-5.5114484E-1,7.463303E-1,4.313947E-1,-0E0,5.928728E-1,1.6365251E-1,-5.981574E-1,-9.650796E-2,8.257072E-1,2.6663047E-1,6.0822344E-1,7.3891646E-1,-6.5788525E-1,-6.406118E-1,8.942787E-2,-6.687015E-1,4.2155746E-1,8.62443E-1,-2.0256947E-1,-6.7597544E-1,2.9884663E-1,8.110409E-1,4.2294592E-1],"categories":[],"categories_nodes":[],"categories_segments":[],"categories_sizes":[],"default_left":[1,1,1,1,1,1,1,0,0,1,1,1,1,1,1,0,0,0,0,0,0,0,0,0,0,0,0],"id":4,"left_children":[1,3,5,7,9,11,13,-1,-1,15,17,19,21,23,25,-1,-1,-1,-1,-1,-1,-1,-1,-1,-1,-1,-1],"loss_changes":[6.530763E1,2.9265747E0,3.6735916E0,2.5106394E-1,2.9370117E0,3.6583729E0,4.3239784E0,0E0,0E0,3.3212454E0,2.3776112E0,1.9121282E0,2.025364E0,2.6765857E0,2.4185123E0,0E0,0E0,0E0,0E0,0E0,0E0,0E0,0E0,0E0,0E0,0E0,0E0],"parents":[2147483647,0,0,1,1,2,2,3,3,4,4,5,5,6,6,9,9,10,10,11,11,12,12,13,13,14,14],"right_children":[2,4,6,8,10,12,14,-1,-1,16,18,20,22,24,26,-1,-1,-1,-1,-1,-1,-1,-1,-1,-1,-1,-1],"split_conditions":[-2.5E-1,1.1666667E0,1.3541023E3,1.5065338E3,8.004167E1,1.4067686E3,1.5041936E3,-0E0,5.928728E-3,2.5583332E1,5.875E0,9.691667E1,2.7375E1,1.3875E1,2.36E2,7.3891645E-3,-6.5788524E-3,-6.406118E-3,8.942787E-4,-6.6870153E-3,4.2155744E-3,8.62443E-3,-2.0256946E-3,-6.7597544E-3,2.9884663E-3,8.110409E-3,4.229459E-3],"split_indices":[2,22,0,0,28,1,27,0,0,10,14,21,5,5,6,0,0,0,0,0,0,0,0,0,0,0,0],"split_type":[0,0,0,0,0,0,0,0,0,0,0,0,0,0,0,0,0,0,0,0,0,0,0,0,0,0,0],"sum_hessian":[2.9145563E2,8.598624E1,2.054694E2,2.4997854E0,8.348645E1,5.2491642E1,1.5297777E2,1E0,1.4997853E0,4.9989767E0,7.848747E1,4.4994826E0,4.799216E1,8.048855E1,7.248921E1,2.99933E0,1.9996468E0,7.398749E1,4.499985E0,1.9998827E0,2.4996E0,4.6492462E1,1.499697E0,1.9996172E0,7.848893E1,3.2994133E1,3.9495083E1],"tree_param":{"num_deleted":"0","num_feature":"31","num_nodes":"27","size_leaf_vector":"0"}},{"base_weights":[-2.0948613E-1,5.182684E-1,-5.1507694E-1,-4.2347017E-1,5.511449E-1,-7.463303E-1,-4.313947E-1,-0E0,-5.9287274E-1,-1.6365252E-1,5.981574E-1,9.6508004E-2,-8.2570714E-1,-2.6663047E-1,-6.082234E-1,-7.389166E-1,6.5788525E-1,6.406118E-1,-8.94278E-2,6.687016E-1,-4.2155743E-1,-8.62443E-1,2.0256947E-1,6.7597544E-1,-2.988466E-1,-8.110409E-1,-4.229459E-1],"categories":[],"categories_nodes":[],"categories_segments":[],"categories_sizes":[],"default_left":[1,1,1,1,1,1,1,0,0,1,1,1,1,1,1,0,0,0,0,0,0,0,0,0,0,0,0],"id":5,"left_children":[1,3,5,7,9,11,13,-1,-1,15,17,19,21,23,25,-1,-1,-1,-1,-1,-1,-1,-1,-1,-1,-1,-1],"loss_changes":[6.530765E1,2.9265766E0,3.673584E0,2.5106388E-1,2.9370098E0,3.6583786E0,4.3239784E0,0E0,0E0,3.3212457E0,2.3776112E0,1.9121282E0,2.02536E0,2.6765847E0,2.4185162E0,0E0,0E0,0E0,0E0,0E0,0E0,0E0,0E0,0E0,0E0,0E0,0E0],"parents":[2147483647,0,0,1,1,2,2,3,3,4,4,5,5,6,6,9,9,10,10,11,11,12,12,13,13,14,14],"right_children":[2,4,6,8,10,12,14,-1,-1,16,18,20,22,24,26,-1,-1,-1,-1,-1,-1,-1,-1,-1,-1,-1,-1],"split_conditions":[-2.5E-1,1.1666667E0,1.3541023E3,1.5065338E3,8.004167E1,1.4067686E3,1.5041936E3,-0E0,-5.9287273E-3,2.5583332E1,5.875E0,9.691667E1,2.7375E1,1.3875E1,2.36E2,-7.3891655E-3,6.5788524E-3,6.406118E-3,-8.94278E-4,6.6870158E-3,-4.2155744E-3,-8.62443E-3,2.0256946E-3,6.7597544E-3,-2.988466E-3,-8.110409E-3,-4.229459E-3],"split_indices":[2,22,0,0,28,1,27,0,0,10,14,21,5,5,6,0,0,0,0,0,0,0,0,0,0,0,0],"split_type":[0,0,0,0,0,0,0,0,0,0,0,0,0,0,0,0,0,0,0,0,0,0,0,0,0,0,0],"sum_hessian":[2.9145563E2,8.598624E1,2.0546939E2,2.4997854E0,8.348645E1,5.2491642E1,1.5297775E2,1E0,1.4997854E0,4.9989767E0,7.848748E1,4.499482E0,4.7992157E1,8.048855E1,7.248921E1,2.99933E0,1.9996469E0,7.398749E1,4.4999857E0,1.9998827E0,2.4995997E0,4.6492462E1,1.499697E0,1.9996171E0,7.848893E1,3.299413E1,3.9495083E1],"tree_param":{"num_deleted":"0","num_feature":"31","num_nodes":"27","size_leaf_vector":"0"}},{"base_weights":[2.0747298E-1,-5.1317185E-1,5.100644E-1,-6.0672134E-1,-1.4641713E-1,5.880411E-1,2.7317226E-1,-6.672784E-1,7.8040875E-2,3.0181476E-1,-4.6497577E-1,-2.0028283E-1,6.2402487E-1,-1.1464704E-1,4.5951533E-1,-7.0362103E-1,1.5676081E-1,7.155538E-1,-4.9929065E-1,6.4525926E-1,-2.4589941E-1,6.003867E-1,-6.848576E-1,3.2502922E-1,-7.4119484E-1,6.761691E-1,9.746311E-2,-4.7719714E-1,4.5660552E-1,6.939948E-2,6.517098E-1],"categories":[],"categories_nodes":[],"categories_segments":[],"categories_sizes":[],"default_left":[1,1,1,1,1,1,1,1,1,1,1,1,1,1,1,0,0,0,0,0,0,0,0,0,0,0,0,0,0,0,0],"id":6,"left_children":[1,3,5,7,9,11,13,15,17,19,21,23,25,27,29,-1,-1,-1,-1,-1,-1,-1,-1,-1,-1,-1,-1,-1,-1,-1,-1],"loss_changes":[6.402448E1,2.8950558E0,3.6527176E0,2.912321E0,2.8523424E0,4.506153E0,3.8822596E0,2.011282E0,2.7494845E0,1.7570367E0,3.1042082E0,2.3717723E0,3.996315E0,3.945553E0,2.6534624E0,0E0,0E0,0E0,0E0,0E0,0E0,0E0,0E0,0E0,0E0,0E0,0E0,0E0,0E0,0E0,0E0],"parents":[2147483647,0,0,1,1,2,2,3,3,4,4,5,5,6,6,7,7,8,8,9,9,10,10,11,11,12,12,13,13,14,14],"right_children":[2,4,6,8,10,12,14,16,18,20,22,24,26,28,30,-1,-1,-1,-1,-1,-1,-1,-1,-1,-1,-1,-1,-1,-1,-1,-1],"split_conditions":[-2.5E-1,1.25333336E2,2.5870834E2,5.708333E0,1.3358334E2,1.2083333E0,6.25E0,1.38875E2,5.333333E0,2.3129166E2,1.4583333E0,1.7083333E0,1.375E0,1.1520833E2,2.4404166E2,-7.03621E-3,1.5676081E-3,7.155538E-3,-4.9929065E-3,6.4525926E-3,-2.458994E-3,6.0038664E-3,-6.848576E-3,3.2502923E-3,-7.4119484E-3,6.7616906E-3,9.7463105E-4,-4.771971E-3,4.5660553E-3,6.939948E-4,6.517098E-3],"split_indices":[2,21,6,14,21,20,2,13,30,6,22,22,19,28,23,0,0,0,0,0,0,0,0,0,0,0,0,0,0,0,0],"split_type":[0,0,0,0,0,0,0,0,0,0,0,0,0,0,0,0,0,0,0,0,0,0,0,0,0,0,0,0,0,0,0],"sum_hessian":[2.9140787E2,8.596933E1,2.0543854E2,6.797612E1,1.7993212E1,1.5344681E2,5.199173E1,6.247653E1,5.4995904E0,7.4970117E0,1.0496201E1,6.499138E0,1.4694766E2,1.6998669E1,3.499306E1,5.997747E1,2.4990585E0,2.499797E0,2.9997933E0,4.4982724E0,2.998739E0,1.4996517E0,8.99655E0,3.4995875E0,2.99955E0,1.3344844E2,1.3499225E1,1.0499636E1,6.499032E0,1.1998871E1,2.299419E1],"tree_param":{"num_deleted":"0","num_feature":"31","num_nodes":"31","size_leaf_vector":"0"}},{"base_weights":[-2.0747294E-1,5.1317185E-1,-5.1006436E-1,6.0672134E-1,1.4641716E-1,-5.880411E-1,-2.731722E-1,6.672784E-1,-7.804087E-2,-3.0181473E-1,4.649758E-1,2.0028289E-1,-6.240248E-1,1.14647076E-1,-4.5951527E-1,7.0362103E-1,-1.567608E-1,-7.155538E-1,4.9929065E-1,-6.452592E-1,2.4589944E-1,-6.003867E-1,6.848576E-1,-3.2502913E-1,7.411949E-1,-6.761691E-1,-9.746314E-2,4.7719717E-1,-4.566055E-1,-6.9399476E-2,-6.5170974E-1],"categories":[],"categories_nodes":[],"categories_segments":[],"categories_sizes":[],"default_left":[1,1,1,1,1,1,1,1,1,1,1,1,1,1,1,0,0,0,0,0,0,0,0,0,0,0,0,0,0,0,0],"id":7,"left_children":[1,3,5,7,9,11,13,15,17,19,21,23,25,27,29,-1,-1,-1,-1,-1,-1,-1,-1,-1,-1,-1,-1,-1,-1,-1,-1],"loss_changes":[6.402448E1,2.8950615E0,3.65271E0,2.9123173E0,2.8523421E0,4.506153E0,3.8822591E0,2.011282E0,2.7494845E0,1.7570367E0,3.1042085E0,2.3717718E0,3.9963226E0,3.9455533E0,2.6534615E0,0E0,0E0,0E0,0E0,0E0,0E0,0E0,0E0,0E0,0E0,0E0,0E0,0E0,0E0,0E0,0E0],"parents":[2147483647,0,0,1,1,2,2,3,3,4,4,5,5,6,6,7,7,8,8,9,9,10,10,11,11,12,12,13,13,14,14],"right_children":[2,4,6,8,10,12,14,16,18,20,22,24,26,28,30,-1,-1,-1,-1,-1,-1,-1,-1,-1,-1,-1,-1,-1,-1,-1,-1],"split_conditions":[-2.5E-1,1.25333336E2,2.5870834E2,5.708333E0,1.3358334E2,1.2083333E0,6.25E0,1.38875E2,5.333333E0,2.3129166E2,1.4583333E0,1.7083333E0,1.375E0,1.1520833E2,2.4404166E2,7.03621E-3,-1.567608E-3,-7.155538E-3,4.9929065E-3,-6.452592E-3,2.4589943E-3,-6.0038664E-3,6.848576E-3,-3.2502913E-3,7.411949E-3,-6.7616906E-3,-9.7463134E-4,4.7719716E-3,-4.566055E-3,-6.9399475E-4,-6.5170974E-3],"split_indices":[2,21,6,14,21,20,2,13,30,6,22,22,19,28,23,0,0,0,0,0,0,0,0,0,0,0,0,0,0,0,0],"split_type":[0,0,0,0,0,0,0,0,0,0,0,0,0,0,0,0,0,0,0,0,0,0,0,0,0,0,0,0,0,0,0],"sum_hessian":[2.9140787E2,8.596934E1,2.0543854E2,6.797612E1,1.7993214E1,1.5344681E2,5.199173E1,6.2476532E1,5.4995904E0,7.4970117E0,1.04962015E1,6.499138E0,1.4694766E2,1.6998669E1,3.499306E1,5.9977474E1,2.4990585E0,2.499797E0,2.9997933E0,4.4982724E0,2.9987392E0,1.4996517E0,8.99655E0,3.4995878E0,2.9995503E0,1.3344844E2,1.3499225E1,1.0499637E1,6.499032E0,1.199887E1,2.299419E1],"tree_param":{"num_deleted":"0","num_feature":"31","num_nodes":"31","size_leaf_vector":"0"}},{"base_weights":[2.0548329E-1,-5.0816333E-1,5.051363E-1,4.2035967E-1,-5.4062104E-1,7.339889E-1,4.2236596E-1,1.6577066E-1,-5.871393E-1,-9.938435E-2,8.125832E-1,2.595345E-1,5.972031E-1,7.358894E-1,-6.497863E-1,-6.288727E-1,8.836684E-2,4.150647E-1,-6.662676E-1,8.4891945E-1,-2.0260406E-1,-6.759767E-1,2.915806E-1,7.9746336E-1,4.1438824E-1],"categories":[],"categories_nodes":[],"categories_segments":[],"categories_sizes":[],"default_left":[1,1,1,0,1,1,1,1,1,1,1,1,1,0,0,0,0,0,0,0,0,0,0,0,0],"id":8,"left_children":[1,3,5,-1,7,9,11,13,15,17,19,21,23,-1,-1,-1,-1,-1,-1,-1,-1,-1,-1,-1,-1],"loss_changes":[6.2772106E1,2.8476906E0,3.599453E0,0E0,2.8723469E0,3.582552E0,4.227104E0,3.2667954E0,2.295412E0,1.8801112E0,1.9782295E0,2.639461E0,2.3588715E0,0E0,0E0,0E0,0E0,0E0,0E0,0E0,0E0,0E0,0E0,0E0,0E0],"parents":[2147483647,0,0,1,1,2,2,4,4,5,5,6,6,7,7,8,8,9,9,10,10,11,11,12,12],"right_children":[2,4,6,-1,8,10,12,14,16,18,20,22,24,-1,-1,-1,-1,-1,-1,-1,-1,-1,-1,-1,-1],"split_conditions":[-2.5E-1,1.1666667E0,1.3541023E3,4.2035966E-3,8.004167E1,1.4067686E3,1.5041936E3,2.5583332E1,5.875E0,2.3458332E1,2.7375E1,1.3875E1,2.36E2,7.3588938E-3,-6.4978627E-3,-6.288727E-3,8.8366837E-4,4.1506467E-3,-6.6626756E-3,8.489194E-3,-2.0260406E-3,-6.759767E-3,2.915806E-3,7.974633E-3,4.143882E-3],"split_indices":[2,22,0,0,28,1,27,10,14,12,5,5,6,0,0,0,0,0,0,0,0,0,0,0,0],"split_type":[0,0,0,0,0,0,0,0,0,0,0,0,0,0,0,0,0,0,0,0,0,0,0,0,0],"sum_hessian":[2.9133795E2,8.59487E1,2.0538924E2,2.4993167E0,8.344938E1,5.2463802E1,1.5292543E2,4.997503E0,7.845188E1,4.498588E0,4.7965214E1,8.0467705E1,7.245773E1,2.9988372E0,1.9986656E0,7.395209E1,4.499792E0,2.4987626E0,1.9998254E0,4.646586E1,1.499358E0,1.9996171E0,7.846809E1,3.297447E1,3.9483265E1],"tree_param":{"num_deleted":"0","num_feature":"31","num_nodes":"25","size_leaf_vector":"0"}},{"base_weights":[-2.0548329E-1,5.081633E-1,-5.051363E-1,-4.203597E-1,5.40621E-1,-7.339889E-1,-4.2236593E-1,-1.6577066E-1,5.8713925E-1,9.938432E-2,-8.125832E-1,-2.5953445E-1,-5.972031E-1,-7.358894E-1,6.497863E-1,6.2887263E-1,-8.836683E-2,-4.1506472E-1,6.662676E-1,-8.4891945E-1,2.0260406E-1,6.7597675E-1,-2.9158053E-1,-7.9746336E-1,-4.1438824E-1],"categories":[],"categories_nodes":[],"categories_segments":[],"categories_sizes":[],"default_left":[1,1,1,0,1,1,1,1,1,1,1,1,1,0,0,0,0,0,0,0,0,0,0,0,0],"id":9,"left_children":[1,3,5,-1,7,9,11,13,15,17,19,21,23,-1,-1,-1,-1,-1,-1,-1,-1,-1,-1,-1,-1],"loss_changes":[6.2772087E1,2.8476906E0,3.599453E0,0E0,2.8723469E0,3.582552E0,4.22711E0,3.2667954E0,2.295414E0,1.8801113E0,1.9782295E0,2.63946E0,2.3588696E0,0E0,0E0,0E0,0E0,0E0,0E0,0E0,0E0,0E0,0E0,0E0,0E0],"parents":[2147483647,0,0,1,1,2,2,4,4,5,5,6,6,7,7,8,8,9,9,10,10,11,11,12,12],"right_children":[2,4,6,-1,8,10,12,14,16,18,20,22,24,-1,-1,-1,-1,-1,-1,-1,-1,-1,-1,-1,-1],"split_conditions":[-2.5E-1,1.1666667E0,1.3541023E3,-4.203597E-3,8.004167E1,1.4067686E3,1.5041936E3,2.5583332E1,5.875E0,2.3458332E1,2.7375E1,1.3875E1,2.36E2,-7.3588938E-3,6.4978627E-3,6.2887263E-3,-8.8366825E-4,-4.150647E-3,6.6626756E-3,-8.489194E-3,2.0260406E-3,6.7597674E-3,-2.9158052E-3,-7.974633E-3,-4.143882E-3],"split_indices":[2,22,0,0,28,1,27,10,14,12,5,5,6,0,0,0,0,0,0,0,0,0,0,0,0],"split_type":[0,0,0,0,0,0,0,0,0,0,0,0,0,0,0,0,0,0,0,0,0,0,0,0,0],"sum_hessian":[2.9133795E2,8.59487E1,2.0538924E2,2.4993165E0,8.344939E1,5.2463802E1,1.5292545E2,4.997503E0,7.845188E1,4.498588E0,4.7965214E1,8.0467705E1,7.245773E1,2.9988372E0,1.9986656E0,7.395209E1,4.4997926E0,2.4987626E0,1.9998254E0,4.646586E1,1.499358E0,1.999617E0,7.846809E1,3.297447E1,3.9483265E1],"tree_param":{"num_deleted":"0","num_feature":"31","num_nodes":"25","size_leaf_vector":"0"}},{"base_weights":[2.0352802E-1,-5.032511E-1,5.0027996E-1,-5.9567755E-1,-1.4114866E-1,5.6665677E-1,2.3092587E-1,-6.553023E-1,7.7954106E-2,3.0186322E-1,-4.5640868E-1,-1.2684762E-1,5.9820455E-1,-3.5770904E-2,5.3273493E-1,-6.913659E-1,1.6015592E-1,7.1087676E-1,-4.9534616E-1,6.430051E-1,-2.4279098E-1,5.96431E-1,-6.7411184E-1,3.8744256E-1,-7.37986E-1,6.4375997E-1,1.21322185E-1,-3.4010133E-1,3.4111243E-1,-1.3232589E-2,8.2775795E-1],"categories":[],"categories_nodes":[],"categories_segments":[],"categories_sizes":[],"default_left":[1,1,1,1,1,1,1,1,1,1,1,1,1,1,1,0,0,0,0,0,0,0,0,0,0,0,0,0,0,0,0],"id":10,"left_children":[1,3,5,7,9,11,13,15,17,19,21,23,25,27,29,-1,-1,-1,-1,-1,-1,-1,-1,-1,-1,-1,-1,-1,-1,-1,-1],"loss_changes":[6.154853E1,2.824957E0,3.558155E0,2.8198566E0,2.7893488E0,3.682598E0,3.438471E0,1.976265E0,2.7103672E0,1.7345791E0,3.0356674E0,2.7996955E0,3.351204E0,2.810225E0,3.2311058E0,0E0,0E0,0E0,0E0,0E0,0E0,0E0,0E0,0E0,0E0,0E0,0E0,0E0,0E0,0E0,0E0],"parents":[2147483647,0,0,1,1,2,2,3,3,4,4,5,5,6,6,7,7,8,8,9,9,10,10,11,11,12,12,13,13,14,14],"right_children":[2,4,6,8,10,12,14,16,18,20,22,24,26,28,30,-1,-1,-1,-1,-1,-1,-1,-1,-1,-1,-1,-1,-1,-1,-1,-1],"split_conditions":[-2.5E-1,1.25333336E2,2.6645834E2,5.708333E0,1.3358334E2,1.2083333E0,1.4680458E3,1.38875E2,5.333333E0,2.3129166E2,1.4583333E0,1.7083333E0,1.375E0,3.8049998E0,3.875E0,-6.9136587E-3,1.6015592E-3,7.1087675E-3,-4.9534617E-3,6.4300504E-3,-2.4279098E-3,5.96431E-3,-6.741118E-3,3.8744255E-3,-7.37986E-3,6.4375997E-3,1.2132218E-3,-3.4010133E-3,3.4111242E-3,-1.3232589E-4,8.277579E-3],"split_indices":[2,21,6,14,21,20,0,13,30,6,22,22,19,3,18,0,0,0,0,0,0,0,0,0,0,0,0,0,0,0,0],"split_type":[0,0,0,0,0,0,0,0,0,0,0,0,0,0,0,0,0,0,0,0,0,0,0,0,0,0,0,0,0,0,0],"sum_hessian":[2.9125385E2,8.5920265E1,2.0533359E2,6.793486E1,1.7985401E1,1.638519E2,4.148169E1,6.243574E1,5.4991217E0,7.495299E0,1.0490102E1,6.9979267E0,1.5685397E2,2.2489807E1,1.899188E1,5.99372E1,2.4985452E0,2.4995973E0,2.9995246E0,4.497644E0,2.997655E0,1.4993594E0,8.990743E0,3.99883E0,2.9990964E0,1.4285722E2,1.3996751E1,1.2496541E1,9.993267E0,6.9975023E0,1.1994378E1],"tree_param":{"num_deleted":"0","num_feature":"31","num_nodes":"31","size_leaf_vector":"0"}},{"base_weights":[-2.03528E-1,5.032511E-1,-5.0027996E-1,5.956776E-1,1.4114867E-1,-5.6665677E-1,-2.3092586E-1,6.553023E-1,-7.7954106E-2,-3.018632E-1,4.564087E-1,1.268476E-1,-5.9820455E-1,3.5770908E-2,-5.327349E-1,6.913659E-1,-1.6015585E-1,-7.108767E-1,4.9534616E-1,-6.43005E-1,2.4279101E-1,-5.96431E-1,6.7411184E-1,-3.874426E-1,7.37986E-1,-6.4375997E-1,-1.2132218E-1,3.4010133E-1,-3.4111243E-1,1.3232585E-2,-8.2775795E-1],"categories":[],"categories_nodes":[],"categories_segments":[],"categories_sizes":[],"default_left":[1,1,1,1,1,1,1,1,1,1,1,1,1,1,1,0,0,0,0,0,0,0,0,0,0,0,0,0,0,0,0],"id":11,"left_children":[1,3,5,7,9,11,13,15,17,19,21,23,25,27,29,-1,-1,-1,-1,-1,-1,-1,-1,-1,-1,-1,-1,-1,-1,-1,-1],"loss_changes":[6.154853E1,2.824955E0,3.5581589E0,2.8198566E0,2.7893486E0,3.6825943E0,3.4384713E0,1.9762688E0,2.710367E0,1.7345796E0,3.035667E0,2.7996957E0,3.351204E0,2.810225E0,3.2311049E0,0E0,0E0,0E0,0E0,0E0,0E0,0E0,0E0,0E0,0E0,0E0,0E0,0E0,0E0,0E0,0E0],"parents":[2147483647,0,0,1,1,2,2,3,3,4,4,5,5,6,6,7,7,8,8,9,9,10,10,11,11,12,12,13,13,14,14],"right_children":[2,4,6,8,10,12,14,16,18,20,22,24,26,28,30,-1,-1,-1,-1,-1,-1,-1,-1,-1,-1,-1,-1,-1,-1,-1,-1],"split_conditions":[-2.5E-1,1.25333336E2,2.6645834E2,5.708333E0,1.3358334E2,1.2083333E0,1.4680458E3,1.38875E2,5.333333E0,2.3129166E2,1.4583333E0,1.7083333E0,1.375E0,3.8049998E0,3.875E0,6.9136587E-3,-1.6015584E-3,-7.108767E-3,4.9534617E-3,-6.43005E-3,2.42791E-3,-5.96431E-3,6.741118E-3,-3.8744258E-3,7.37986E-3,-6.4375997E-3,-1.2132217E-3,3.4010133E-3,-3.4111242E-3,1.3232585E-4,-8.277579E-3],"split_indices":[2,21,6,14,21,20,0,13,30,6,22,22,19,3,18,0,0,0,0,0,0,0,0,0,0,0,0,0,0,0,0],"split_type":[0,0,0,0,0,0,0,0,0,0,0,0,0,0,0,0,0,0,0,0,0,0,0,0,0,0,0,0,0,0,0],"sum_hessian":[2.9125385E2,8.5920265E1,2.0533359E2,6.793487E1,1.7985401E1,1.638519E2,4.148169E1,6.2435745E1,5.4991217E0,7.495299E0,1.0490102E1,6.9979267E0,1.5685397E2,2.2489807E1,1.899188E1,5.99372E1,2.498545E0,2.4995973E0,2.9995244E0,4.497644E0,2.997655E0,1.4993594E0,8.990743E0,3.9988303E0,2.9990964E0,1.4285722E2,1.3996751E1,1.2496541E1,9.993267E0,6.9975023E0,1.1994378E1],"tree_param":{"num_deleted":"0","num_feature":"31","num_nodes":"31","size_leaf_vector":"0"}},{"base_weights":[2.0160685E-1,-4.9840876E-1,4.95507E-1,-5.9001666E-1,-1.3959767E-1,7.223864E-1,4.135093E-1,-6.4912605E-1,7.751289E-2,2.9931188E-1,-4.5207623E-1,-1.01402216E-1,8.00186E-1,2.5258312E-1,5.8640665E-1,-6.848896E-1,1.5900357E-1,7.0586E-1,-4.9166334E-1,6.3771373E-1,-2.4098015E-1,5.928921E-1,-6.6831285E-1,-6.6414005E-1,4.102309E-1,8.3615005E-1,-2.0252529E-1,-6.75758E-1,2.8445828E-1,7.845746E-1,4.0569305E-1],"categories":[],"categories_nodes":[],"categories_segments":[],"categories_sizes":[],"default_left":[1,1,1,1,1,1,1,1,1,1,1,1,1,1,1,0,0,0,0,0,0,0,0,0,0,0,0,0,0,0,0],"id":12,"left_children":[1,3,5,7,9,11,13,15,17,19,21,23,25,27,29,-1,-1,-1,-1,-1,-1,-1,-1,-1,-1,-1,-1,-1,-1,-1,-1],"loss_changes":[6.0352425E1,2.7736092E0,3.5385208E0,2.7691517E0,2.7386026E0,3.5047169E0,4.1324253E0,1.9414692E0,2.6711926E0,1.7069407E0,2.9916096E0,1.8551377E0,1.9335117E0,2.6020503E0,2.3105469E0,0E0,0E0,0E0,0E0,0E0,0E0,0E0,0E0,0E0,0E0,0E0,0E0,0E0,0E0,0E0,0E0],"parents":[2147483647,0,0,1,1,2,2,3,3,4,4,5,5,6,6,7,7,8,8,9,9,10,10,11,11,12,12,13,13,14,14],"right_children":[2,4,6,8,10,12,14,16,18,20,22,24,26,28,30,-1,-1,-1,-1,-1,-1,-1,-1,-1,-1,-1,-1,-1,-1,-1,-1],"split_conditions":[-2.5E-1,1.25333336E2,1.3541023E3,5.708333E0,1.3358334E2,1.4067686E3,1.5041936E3,1.38875E2,5.333333E0,2.3129166E2,1.4583333E0,9.691667E1,2.7375E1,1.3875E1,2.36E2,-6.848896E-3,1.5900356E-3,7.0586E-3,-4.9166335E-3,6.3771373E-3,-2.4098014E-3,5.928921E-3,-6.6831284E-3,-6.6414005E-3,4.102309E-3,8.361501E-3,-2.025253E-3,-6.7575797E-3,2.8445828E-3,7.845746E-3,4.0569305E-3],"split_indices":[2,21,0,14,21,1,27,13,30,6,22,21,5,5,6,0,0,0,0,0,0,0,0,0,0,0,0,0,0,0,0],"split_type":[0,0,0,0,0,0,0,0,0,0,0,0,0,0,0,0,0,0,0,0,0,0,0,0,0,0,0,0,0,0,0],"sum_hessian":[2.9115033E2,8.588717E1,2.0526315E2,6.790581E1,1.7981363E1,5.2417984E1,1.5284517E2,6.2407246E1,5.498562E0,7.495404E0,1.0485959E1,4.4970574E0,4.792093E1,8.043772E1,7.240745E1,5.9908516E1,2.4987319E0,2.4992974E0,2.9992645E0,4.497909E0,2.9974947E0,1.4991953E0,8.986764E0,1.9996226E0,2.4974346E0,4.6422028E1,1.4989017E0,1.9996347E0,7.843808E1,3.2942093E1,3.9465355E1],"tree_param":{"num_deleted":"0","num_feature":"31","num_nodes":"31","size_leaf_vector":"0"}},{"base_weights":[-2.0160684E-1,4.984088E-1,-4.95507E-1,5.9001666E-1,1.3959768E-1,-7.2238636E-1,-4.1350934E-1,6.491261E-1,-7.751289E-2,-2.9931185E-1,4.5207623E-1,1.01402156E-1,-8.001859E-1,-2.5258315E-1,-5.864067E-1,6.848896E-1,-1.5900359E-1,-7.0586E-1,4.916634E-1,-6.3771373E-1,2.4098015E-1,-5.928921E-1,6.6831285E-1,6.6414005E-1,-4.1023096E-1,-8.3615E-1,2.0252527E-1,6.75758E-1,-2.8445828E-1,-7.845747E-1,-4.0569305E-1],"categories":[],"categories_nodes":[],"categories_segments":[],"categories_sizes":[],"default_left":[1,1,1,1,1,1,1,1,1,1,1,1,1,1,1,0,0,0,0,0,0,0,0,0,0,0,0,0,0,0,0],"id":13,"left_children":[1,3,5,7,9,11,13,15,17,19,21,23,25,27,29,-1,-1,-1,-1,-1,-1,-1,-1,-1,-1,-1,-1,-1,-1,-1,-1],"loss_changes":[6.0352432E1,2.7736092E0,3.5385132E0,2.7691555E0,2.7386024E0,3.5047226E0,4.132431E0,1.9414673E0,2.6711931E0,1.7069407E0,2.9916096E0,1.855138E0,1.9335098E0,2.6020498E0,2.3105469E0,0E0,0E0,0E0,0E0,0E0,0E0,0E0,0E0,0E0,0E0,0E0,0E0,0E0,0E0,0E0,0E0],"parents":[2147483647,0,0,1,1,2,2,3,3,4,4,5,5,6,6,7,7,8,8,9,9,10,10,11,11,12,12,13,13,14,14],"right_children":[2,4,6,8,10,12,14,16,18,20,22,24,26,28,30,-1,-1,-1,-1,-1,-1,-1,-1,-1,-1,-1,-1,-1,-1,-1,-1],"split_conditions":[-2.5E-1,1.25333336E2,1.3541023E3,5.708333E0,1.3358334E2,1.4067686E3,1.5041936E3,1.38875E2,5.333333E0,2.3129166E2,1.4583333E0,9.691667E1,2.7375E1,1.3875E1,2.36E2,6.848896E-3,-1.5900359E-3,-7.0586E-3,4.916634E-3,-6.3771373E-3,2.4098014E-3,-5.928921E-3,6.6831284E-3,6.6414005E-3,-4.1023097E-3,-8.3615E-3,2.0252527E-3,6.7575797E-3,-2.8445828E-3,-7.845746E-3,-4.0569305E-3],"split_indices":[2,21,0,14,21,1,27,13,30,6,22,21,5,5,6,0,0,0,0,0,0,0,0,0,0,0,0,0,0,0,0],"split_type":[0,0,0,0,0,0,0,0,0,0,0,0,0,0,0,0,0,0,0,0,0,0,0,0,0,0,0,0,0,0,0],"sum_hessian":[2.9115033E2,8.588718E1,2.0526315E2,6.7905815E1,1.7981363E1,5.2417984E1,1.5284517E2,6.240725E1,5.498562E0,7.4954033E0,1.0485959E1,4.497057E0,4.7920925E1,8.043771E1,7.240745E1,5.990852E1,2.4987316E0,2.4992974E0,2.9992642E0,4.4979086E0,2.9974947E0,1.4991952E0,8.986764E0,1.9996226E0,2.4974346E0,4.6422024E1,1.4989016E0,1.9996346E0,7.843808E1,3.2942093E1,3.9465355E1],"tree_param":{"num_deleted":"0","num_feature":"31","num_nodes":"31","size_leaf_vector":"0"}},{"base_weights":[1.9971327E-1,-4.9365306E-1,4.907981E-1,4.1622692E-1,-5.255334E-1,5.6696016E-1,2.5972256E-1,1.713414E-1,-5.7155114E-1,-2.0384748E-1,6.0223407E-1,-5.013947E-1,3.4951726E-1,7.3522204E-1,-6.3832295E-1,-6.122886E-1,8.700135E-2,3.1349003E-1,-7.3478186E-1,6.5336E-1,8.718695E-2,1.902688E-1,-7.7418405E-1,-6.620318E-1,4.079281E-1],"categories":[],"categories_nodes":[],"categories_segments":[],"categories_sizes":[],"default_left":[1,1,1,0,1,1,1,1,1,1,1,1,1,0,0,0,0,0,0,0,0,0,0,0,0],"id":14,"left_children":[1,3,5,-1,7,9,11,13,15,17,19,21,23,-1,-1,-1,-1,-1,-1,-1,-1,-1,-1,-1,-1],"loss_changes":[5.9182495E1,2.737936E0,3.4814224E0,0E0,2.802887E0,4.3161125E0,3.794553E0,3.2060223E0,2.1821842E0,2.2893064E0,3.8331337E0,1.2792187E0,3.1036706E0,0E0,0E0,0E0,0E0,0E0,0E0,0E0,0E0,0E0,0E0,0E0,0E0],"parents":[2147483647,0,0,1,1,2,2,4,4,5,5,6,6,7,7,8,8,9,9,10,10,11,11,12,12],"right_children":[2,4,6,-1,8,10,12,14,16,18,20,22,24,-1,-1,-1,-1,-1,-1,-1,-1,-1,-1,-1,-1],"split_conditions":[-2.5E-1,1.1666667E0,2.5870834E2,4.162269E-3,8.004167E1,1.2083333E0,2.915E0,2.5583332E1,5.875E0,1.7083333E0,1.375E0,1.4166667E0,1.4214177E3,7.3522204E-3,-6.3832295E-3,-6.1228857E-3,8.700135E-4,3.1349002E-3,-7.3478185E-3,6.5336E-3,8.7186944E-4,1.902688E-3,-7.74184E-3,-6.620318E-3,4.079281E-3],"split_indices":[2,22,6,0,28,20,3,10,14,22,19,20,1,0,0,0,0,0,0,0,0,0,0,0,0],"split_type":[0,0,0,0,0,0,0,0,0,0,0,0,0,0,0,0,0,0,0,0,0,0,0,0,0],"sum_hessian":[2.9103128E2,8.5847046E1,2.0518425E2,2.4979644E0,8.3349075E1,1.5322726E2,5.195698E1,4.994281E0,7.83548E1,6.4960604E0,1.467312E2,4.9991794E0,4.69578E1,2.998179E0,1.9961021E0,7.385635E1,4.4984417E0,3.4975908E0,2.9984696E0,1.3323695E2,1.3494252E1,1.499548E0,3.4996312E0,1.9993505E0,4.4958454E1],"tree_param":{"num_deleted":"0","num_feature":"31","num_nodes":"25","size_leaf_vector":"0"}},{"base_weights":[-1.9971329E-1,4.9365306E-1,-4.9079812E-1,-4.1622695E-1,5.255334E-1,-5.6696016E-1,-2.5972256E-1,-1.713414E-1,5.7155114E-1,2.0384747E-1,-6.0223407E-1,5.013947E-1,-3.4951726E-1,-7.35222E-1,6.3832295E-1,6.1228865E-1,-8.700135E-2,-3.1349006E-1,7.3478186E-1,-6.5336E-1,-8.718698E-2,-1.9026878E-1,7.7418405E-1,6.620318E-1,-4.079281E-1],"categories":[],"categories_nodes":[],"categories_segments":[],"categories_sizes":[],"default_left":[1,1,1,0,1,1,1,1,1,1,1,1,1,0,0,0,0,0,0,0,0,0,0,0,0],"id":15,"left_children":[1,3,5,-1,7,9,11,13,15,17,19,21,23,-1,-1,-1,-1,-1,-1,-1,-1,-1,-1,-1,-1],"loss_changes":[5.91825E1,2.737936E0,3.4814224E0,0E0,2.8028889E0,4.316105E0,3.7945538E0,3.206022E0,2.1821804E0,2.289307E0,3.8331413E0,1.2792187E0,3.1036706E0,0E0,0E0,0E0,0E0,0E0,0E0,0E0,0E0,0E0,0E0,0E0,0E0],"parents":[2147483647,0,0,1,1,2,2,4,4,5,5,6,6,7,7,8,8,9,9,10,10,11,11,12,12],"right_children":[2,4,6,-1,8,10,12,14,16,18,20,22,24,-1,-1,-1,-1,-1,-1,-1,-1,-1,-1,-1,-1],"split_conditions":[-2.5E-1,1.1666667E0,2.5870834E2,-4.1622696E-3,8.004167E1,1.2083333E0,2.915E0,2.5583332E1,5.875E0,1.7083333E0,1.375E0,1.4166667E0,1.4214177E3,-7.3522194E-3,6.3832295E-3,6.122886E-3,-8.700135E-4,-3.1349005E-3,7.3478185E-3,-6.5336E-3,-8.7186974E-4,-1.9026878E-3,7.74184E-3,6.620318E-3,-4.079281E-3],"split_indices":[2,22,6,0,28,20,3,10,14,22,19,20,1,0,0,0,0,0,0,0,0,0,0,0,0],"split_type":[0,0,0,0,0,0,0,0,0,0,0,0,0,0,0,0,0,0,0,0,0,0,0,0,0],"sum_hessian":[2.910313E2,8.5847046E1,2.0518425E2,2.4979644E0,8.334908E1,1.5322726E2,5.195698E1,4.994281E0,7.83548E1,6.4960604E0,1.4673122E2,4.9991794E0,4.69578E1,2.998179E0,1.996102E0,7.385636E1,4.4984417E0,3.497591E0,2.9984696E0,1.3323695E2,1.3494252E1,1.499548E0,3.4996312E0,1.9993505E0,4.4958454E1],"tree_param":{"num_deleted":"0","num_feature":"31","num_nodes":"25","size_leaf_vector":"0"}},{"base_weights":[1.9779281E-1,-4.8896784E-1,4.860905E-1,-5.795283E-1,-1.345517E-1,7.1110356E-1,4.0483963E-1,-6.377695E-1,7.742207E-2,2.9931185E-1,-4.4392493E-1,-1.0281324E-1,7.8808653E-1,2.4552073E-1,5.761442E-1,-6.732876E-1,1.6226651E-1,7.0133346E-1,-4.878321E-1,6.354739E-1,-2.3800702E-1,5.8904105E-1,-6.581239E-1,-6.6008985E-1,4.0472248E-1,8.237015E-1,-2.0250323E-1,-6.75606E-1,2.7722862E-1,7.720402E-1,3.9770597E-1],"categories":[],"categories_nodes":[],"categories_segments":[],"categories_sizes":[],"default_left":[1,1,1,1,1,1,1,1,1,1,1,1,1,1,1,0,0,0,0,0,0,0,0,0,0,0,0,0,0,0,0],"id":16,"left_children":[1,3,5,7,9,11,13,15,17,19,21,23,25,27,29,-1,-1,-1,-1,-1,-1,-1,-1,-1,-1,-1,-1,-1,-1,-1,-1],"loss_changes":[5.802983E1,2.7080574E0,3.47995E0,2.6830997E0,2.678903E0,3.4239998E0,4.0543213E0,1.9090309E0,2.633511E0,1.6852791E0,2.926717E0,1.8213028E0,1.8905087E0,2.5646696E0,2.2565403E0,0E0,0E0,0E0,0E0,0E0,0E0,0E0,0E0,0E0,0E0,0E0,0E0,0E0,0E0,0E0,0E0],"parents":[2147483647,0,0,1,1,2,2,3,3,4,4,5,5,6,6,7,7,8,8,9,9,10,10,11,11,12,12,13,13,14,14],"right_children":[2,4,6,8,10,12,14,16,18,20,22,24,26,28,30,-1,-1,-1,-1,-1,-1,-1,-1,-1,-1,-1,-1,-1,-1,-1,-1],"split_conditions":[-2.5E-1,1.25333336E2,1.3541023E3,5.708333E0,1.3358334E2,1.4067686E3,1.5041936E3,1.38875E2,5.333333E0,2.3129166E2,1.4583333E0,9.691667E1,2.7375E1,1.3875E1,2.36E2,-6.7328755E-3,1.6226651E-3,7.0133344E-3,-4.8783207E-3,6.354739E-3,-2.3800703E-3,5.8904104E-3,-6.581239E-3,-6.600898E-3,4.0472248E-3,8.2370145E-3,-2.0250322E-3,-6.75606E-3,2.772286E-3,7.7204015E-3,3.97706E-3],"split_indices":[2,21,0,14,21,1,27,13,30,6,22,21,5,5,6,0,0,0,0,0,0,0,0,0,0,0,0,0,0,0,0],"split_type":[0,0,0,0,0,0,0,0,0,0,0,0,0,0,0,0,0,0,0,0,0,0,0,0,0,0,0,0,0,0,0],"sum_hessian":[2.9089206E2,8.580291E1,2.0508916E2,6.783463E1,1.7968273E1,5.235296E1,1.5273619E2,6.2337376E1,5.497257E0,7.492853E0,1.047542E1,4.4948444E0,4.7858116E1,8.03973E1,7.233889E1,5.9839207E1,2.49817E0,2.498616E0,2.9986413E0,4.4968314E0,2.9960217E0,1.4985847E0,8.976835E0,1.9991693E0,2.4956753E0,4.6359802E1,1.4983144E0,1.9996468E0,7.839765E1,3.289687E1,3.944202E1],"tree_param":{"num_deleted":"0","num_feature":"31","num_nodes":"31","size_leaf_vector":"0"}},{"base_weights":[-1.9779281E-1,4.889678E-1,-4.8609048E-1,5.795283E-1,1.345517E-1,-7.111035E-1,-4.048396E-1,6.3776946E-1,-7.742209E-2,-2.993119E-1,4.43925E-1,1.0281325E-1,-7.880864E-1,-2.4552073E-1,-5.761442E-1,6.732876E-1,-1.6226657E-1,-7.013335E-1,4.8783207E-1,-6.3547397E-1,2.3800702E-1,-5.8904105E-1,6.58124E-1,6.600898E-1,-4.0472248E-1,-8.237014E-1,2.025032E-1,6.75606E-1,-2.7722865E-1,-7.720402E-1,-3.9770597E-1],"categories":[],"categories_nodes":[],"categories_segments":[],"categories_sizes":[],"default_left":[1,1,1,1,1,1,1,1,1,1,1,1,1,1,1,0,0,0,0,0,0,0,0,0,0,0,0,0,0,0,0],"id":17,"left_children":[1,3,5,7,9,11,13,15,17,19,21,23,25,27,29,-1,-1,-1,-1,-1,-1,-1,-1,-1,-1,-1,-1,-1,-1,-1,-1],"loss_changes":[5.8029827E1,2.7080574E0,3.4799423E0,2.6830997E0,2.6789036E0,3.4240036E0,4.0543213E0,1.9090309E0,2.6335113E0,1.6852794E0,2.926717E0,1.8213028E0,1.8905087E0,2.5646691E0,2.2565403E0,0E0,0E0,0E0,0E0,0E0,0E0,0E0,0E0,0E0,0E0,0E0,0E0,0E0,0E0,0E0,0E0],"parents":[2147483647,0,0,1,1,2,2,3,3,4,4,5,5,6,6,7,7,8,8,9,9,10,10,11,11,12,12,13,13,14,14],"right_children":[2,4,6,8,10,12,14,16,18,20,22,24,26,28,30,-1,-1,-1,-1,-1,-1,-1,-1,-1,-1,-1,-1,-1,-1,-1,-1],"split_conditions":[-2.5E-1,1.25333336E2,1.3541023E3,5.708333E0,1.3358334E2,1.4067686E3,1.5041936E3,1.38875E2,5.333333E0,2.3129166E2,1.4583333E0,9.691667E1,2.7375E1,1.3875E1,2.36E2,6.7328755E-3,-1.6226657E-3,-7.013335E-3,4.8783207E-3,-6.3547394E-3,2.3800703E-3,-5.8904104E-3,6.5812403E-3,6.6008978E-3,-4.0472248E-3,-8.237014E-3,2.025032E-3,6.75606E-3,-2.7722865E-3,-7.7204015E-3,-3.97706E-3],"split_indices":[2,21,0,14,21,1,27,13,30,6,22,21,5,5,6,0,0,0,0,0,0,0,0,0,0,0,0,0,0,0,0],"split_type":[0,0,0,0,0,0,0,0,0,0,0,0,0,0,0,0,0,0,0,0,0,0,0,0,0,0,0,0,0,0,0],"sum_hessian":[2.9089206E2,8.580291E1,2.0508916E2,6.783463E1,1.7968273E1,5.2352962E1,1.5273619E2,6.2337376E1,5.497257E0,7.492853E0,1.0475419E1,4.4948444E0,4.7858116E1,8.03973E1,7.233889E1,5.9839207E1,2.4981701E0,2.498616E0,2.9986413E0,4.4968314E0,2.9960217E0,1.4985847E0,8.976834E0,1.9991693E0,2.495675E0,4.6359802E1,1.4983144E0,1.9996468E0,7.839765E1,3.2896866E1,3.944202E1],"tree_param":{"num_deleted":"0","num_feature":"31","num_nodes":"31","size_leaf_vector":"0"}},{"base_weights":[1.9595803E-1,-4.843642E-1,4.8152274E-1,4.1274026E-1,-5.158467E-1,3.8676894E-1,6.710069E-1,1.7330782E-1,-5.614255E-1,4.9095756E-1,1.599295E-1,-4.3214935E-1,7.2018003E-1,7.3220736E-1,-6.3082844E-1,-6.015172E-1,8.597678E-2,3.6700895E-1,7.998506E-1,2.5393594E-2,8.3817106E-1,7.4579024E-1,-2.17003E-1],"categories":[],"categories_nodes":[],"categories_segments":[],"categories_sizes":[],"default_left":[1,1,1,0,1,1,1,1,1,1,1,0,1,0,0,0,0,0,0,0,0,0,0],"id":18,"left_children":[1,3,5,-1,7,9,11,13,15,17,19,-1,21,-1,-1,-1,-1,-1,-1,-1,-1,-1,-1],"loss_changes":[5.6911194E1,2.6630363E0,3.4388542E0,0E0,2.7438087E0,3.222702E0,3.9623737E0,3.1543572E0,2.109045E0,3.3526535E0,4.125611E0,0E0,1.7173767E0,0E0,0E0,0E0,0E0,0E0,0E0,0E0,0E0,0E0,0E0],"parents":[2147483647,0,0,1,1,2,2,4,4,5,5,6,6,7,7,8,8,9,9,10,10,12,12],"right_children":[2,4,6,-1,8,10,12,14,16,18,20,-1,22,-1,-1,-1,-1,-1,-1,-1,-1,-1,-1],"split_conditions":[-2.5E-1,1.1666667E0,8.75E0,4.1274023E-3,8.004167E1,2.54375E2,1.1666667E0,2.5583332E1,5.875E0,2.4375E1,2.820833E2,-4.321493E-3,1.75E0,7.3220734E-3,-6.308284E-3,-6.0151718E-3,8.597678E-4,3.6700894E-3,7.998506E-3,2.5393593E-4,8.38171E-3,7.457902E-3,-2.17003E-3],"split_indices":[2,22,2,0,28,6,20,10,14,7,24,0,19,0,0,0,0,0,0,0,0,0,0],"split_type":[0,0,0,0,0,0,0,0,0,0,0,0,0,0,0,0,0,0,0,0,0,0,0],"sum_hessian":[2.9073935E2,8.5751335E1,2.04988E2,2.4967058E0,8.325463E1,1.386804E2,6.630761E1,4.9908147E0,7.826382E1,9.42339E1,4.44465E1,2.4971807E0,6.3810425E1,2.997151E0,1.9936635E0,7.376655E1,4.497267E0,6.881061E1,2.542329E1,3.795516E1,6.4913406E0,6.2311867E1,1.4985614E0],"tree_param":{"num_deleted":"0","num_feature":"31","num_nodes":"23","size_leaf_vector":"0"}},{"base_weights":[-1.95958E-1,4.8436427E-1,-4.815227E-1,-4.1274032E-1,5.158468E-1,-3.867689E-1,-6.710069E-1,-1.7330787E-1,5.6142557E-1,-4.9095756E-1,-1.5992947E-1,4.3214935E-1,-7.2018003E-1,-7.3220736E-1,6.308284E-1,6.0151726E-1,-8.597678E-2,-3.6700895E-1,-7.998505E-1,-2.5393559E-2,-8.38171E-1,-7.4579024E-1,2.17003E-1],"categories":[],"categories_nodes":[],"categories_segments":[],"categories_sizes":[],"default_left":[1,1,1,0,1,1,1,1,1,1,1,0,1,0,0,0,0,0,0,0,0,0,0],"id":19,"left_children":[1,3,5,-1,7,9,11,13,15,17,19,-1,21,-1,-1,-1,-1,-1,-1,-1,-1,-1,-1],"loss_changes":[5.691119E1,2.6630363E0,3.438858E0,0E0,2.7438087E0,3.2227E0,3.9623718E0,3.154357E0,2.109047E0,3.3526573E0,4.125611E0,0E0,1.7173805E0,0E0,0E0,0E0,0E0,0E0,0E0,0E0,0E0,0E0,0E0],"parents":[2147483647,0,0,1,1,2,2,4,4,5,5,6,6,7,7,8,8,9,9,10,10,12,12],"right_children":[2,4,6,-1,8,10,12,14,16,18,20,-1,22,-1,-1,-1,-1,-1,-1,-1,-1,-1,-1],"split_conditions":[-2.5E-1,1.1666667E0,8.75E0,-4.1274033E-3,8.004167E1,2.54375E2,1.1666667E0,2.5583332E1,5.875E0,2.4375E1,2.820833E2,4.321493E-3,1.75E0,-7.3220734E-3,6.3082837E-3,6.0151727E-3,-8.597678E-4,-3.6700894E-3,-7.998505E-3,-2.5393558E-4,-8.381709E-3,-7.457902E-3,2.17003E-3],"split_indices":[2,22,2,0,28,6,20,10,14,7,24,0,19,0,0,0,0,0,0,0,0,0,0],"split_type":[0,0,0,0,0,0,0,0,0,0,0,0,0,0,0,0,0,0,0,0,0,0,0],"sum_hessian":[2.9073935E2,8.5751335E1,2.04988E2,2.4967058E0,8.325463E1,1.386804E2,6.630761E1,4.9908147E0,7.826382E1,9.42339E1,4.44465E1,2.4971807E0,6.3810425E1,2.997151E0,1.9936637E0,7.376655E1,4.497267E0,6.881061E1,2.542329E1,3.795516E1,6.4913406E0,6.2311863E1,1.4985614E0],"tree_param":{"num_deleted":"0","num_feature":"31","num_nodes":"23","size_leaf_vector":"0"}},{"base_weights":[1.9417839E-1,-4.798222E-1,4.770572E-1,-5.693792E-1,-1.2964839E-1,6.9977355E-1,3.9671552E-1,-6.267914E-1,7.732665E-2,4.6758464E-1,-3.474266E-1,-1.05404295E-1,7.7609855E-1,2.3889223E-1,5.6656504E-1,-6.620829E-1,1.6543336E-1,6.968783E-1,-4.8406023E-1,7.583827E-1,-1.8577509E-1,3.9867613E-1,-6.700747E-1,-6.582454E-1,3.9928305E-1,8.1143105E-1,-2.0345898E-1,-6.747993E-1,2.704207E-1,7.6025707E-1,3.903601E-1],"categories":[],"categories_nodes":[],"categories_segments":[],"categories_sizes":[],"default_left":[1,1,1,1,1,1,1,1,1,1,1,1,1,1,1,0,0,0,0,0,0,0,0,0,0,0,0,0,0,0,0],"id":20,"left_children":[1,3,5,7,9,11,13,15,17,19,21,23,25,27,29,-1,-1,-1,-1,-1,-1,-1,-1,-1,-1,-1,-1,-1,-1,-1,-1],"loss_changes":[5.5821583E1,2.6450481E0,3.4063263E0,2.6008987E0,2.627412E0,3.355589E0,3.9823837E0,1.8779182E0,2.5965252E0,1.1840391E0,3.7484322E0,1.7954123E0,1.8533115E0,2.5260587E0,2.203474E0,0E0,0E0,0E0,0E0,0E0,0E0,0E0,0E0,0E0,0E0,0E0,0E0,0E0,0E0,0E0,0E0],"parents":[2147483647,0,0,1,1,2,2,3,3,4,4,5,5,6,6,7,7,8,8,9,9,10,10,11,11,12,12,13,13,14,14],"right_children":[2,4,6,8,10,12,14,16,18,20,22,24,26,28,30,-1,-1,-1,-1,-1,-1,-1,-1,-1,-1,-1,-1,-1,-1,-1,-1],"split_conditions":[-2.5E-1,1.25333336E2,1.3541023E3,5.708333E0,4.083333E0,1.4067686E3,1.5041936E3,1.38875E2,5.333333E0,2.3916666E1,9.5E1,9.691667E1,2.7375E1,1.3875E1,2.36E2,-6.620829E-3,1.6543336E-3,6.968783E-3,-4.840602E-3,7.583827E-3,-1.8577508E-3,3.986761E-3,-6.7007467E-3,-6.582454E-3,3.9928304E-3,8.11431E-3,-2.0345896E-3,-6.747993E-3,2.7042069E-3,7.6025706E-3,3.9036009E-3],"split_indices":[2,21,0,14,14,1,27,13,30,12,28,21,5,5,6,0,0,0,0,0,0,0,0,0,0,0,0,0,0,0,0],"split_type":[0,0,0,0,0,0,0,0,0,0,0,0,0,0,0,0,0,0,0,0,0,0,0,0,0,0,0,0,0,0,0],"sum_hessian":[2.9057947E2,8.569714E1,2.0488232E2,6.7745285E1,1.7951857E1,5.227104E1,1.5261128E2,6.2249767E1,5.4955177E0,4.4903884E0,1.3461469E1,4.492906E0,4.7778133E1,8.0353615E1,7.225767E1,5.9752235E1,2.497528E0,2.4976914E0,2.997826E0,2.9961262E0,1.4942621E0,3.992782E0,9.468687E0,1.9989579E0,2.4939482E0,4.628044E1,1.4976933E0,1.9997001E0,7.835391E1,3.2841858E1,3.9415806E1],"tree_param":{"num_deleted":"0","num_feature":"31","num_nodes":"31","size_leaf_vector":"0"}},{"base_weights":[-1.9417837E-1,4.7982225E-1,-4.770572E-1,5.6937927E-1,1.2964833E-1,-6.997735E-1,-3.9671552E-1,6.2679154E-1,-7.732664E-2,-4.6758467E-1,3.4742653E-1,1.0540428E-1,-7.7609855E-1,-2.3889226E-1,-5.6656504E-1,6.62083E-1,-1.6543335E-1,-6.968784E-1,4.840603E-1,-7.5838274E-1,1.8577506E-1,-3.9867616E-1,6.7007464E-1,6.582454E-1,-3.9928308E-1,-8.1143105E-1,2.03459E-1,6.7479926E-1,-2.7042073E-1,-7.6025707E-1,-3.903601E-1],"categories":[],"categories_nodes":[],"categories_segments":[],"categories_sizes":[],"default_left":[1,1,1,1,1,1,1,1,1,1,1,1,1,1,1,0,0,0,0,0,0,0,0,0,0,0,0,0,0,0,0],"id":21,"left_children":[1,3,5,7,9,11,13,15,17,19,21,23,25,27,29,-1,-1,-1,-1,-1,-1,-1,-1,-1,-1,-1,-1,-1,-1,-1,-1],"loss_changes":[5.5821587E1,2.64505E0,3.4063263E0,2.6008987E0,2.6274123E0,3.355589E0,3.9823856E0,1.8779182E0,2.5965257E0,1.1840389E0,3.7484322E0,1.7954124E0,1.8533134E0,2.5260577E0,2.2034721E0,0E0,0E0,0E0,0E0,0E0,0E0,0E0,0E0,0E0,0E0,0E0,0E0,0E0,0E0,0E0,0E0],"parents":[2147483647,0,0,1,1,2,2,3,3,4,4,5,5,6,6,7,7,8,8,9,9,10,10,11,11,12,12,13,13,14,14],"right_children":[2,4,6,8,10,12,14,16,18,20,22,24,26,28,30,-1,-1,-1,-1,-1,-1,-1,-1,-1,-1,-1,-1,-1,-1,-1,-1],"split_conditions":[-2.5E-1,1.25333336E2,1.3541023E3,5.708333E0,4.083333E0,1.4067686E3,1.5041936E3,1.38875E2,5.333333E0,2.3916666E1,9.5E1,9.691667E1,2.7375E1,1.3875E1,2.36E2,6.62083E-3,-1.6543334E-3,-6.9687837E-3,4.8406026E-3,-7.5838272E-3,1.8577505E-3,-3.9867614E-3,6.7007462E-3,6.582454E-3,-3.992831E-3,-8.11431E-3,2.0345899E-3,6.7479927E-3,-2.7042073E-3,-7.6025706E-3,-3.9036009E-3],"split_indices":[2,21,0,14,14,1,27,13,30,12,28,21,5,5,6,0,0,0,0,0,0,0,0,0,0,0,0,0,0,0,0],"split_type":[0,0,0,0,0,0,0,0,0,0,0,0,0,0,0,0,0,0,0,0,0,0,0,0,0,0,0,0,0,0,0],"sum_hessian":[2.9057947E2,8.569714E1,2.0488232E2,6.7745285E1,1.7951859E1,5.227104E1,1.5261128E2,6.2249767E1,5.4955177E0,4.4903884E0,1.3461469E1,4.492906E0,4.7778133E1,8.0353615E1,7.225767E1,5.975224E1,2.4975283E0,2.4976914E0,2.997826E0,2.9961264E0,1.4942621E0,3.992782E0,9.468687E0,1.9989579E0,2.4939482E0,4.628044E1,1.4976933E0,1.9997001E0,7.835392E1,3.284186E1,3.9415806E1],"tree_param":{"num_deleted":"0","num_feature":"31","num_nodes":"31","size_leaf_vector":"0"}},{"base_weights":[1.9239596E-1,-4.7535703E-1,4.726216E-1,4.1191614E-1,-5.065728E-1,3.7891585E-1,6.6016805E-1,1.7296481E-1,-5.515665E-1,4.819047E-1,1.5492812E-1,-4.3034348E-1,7.088985E-1,7.2669375E-1,-6.2455E-1,-5.9103525E-1,8.4965356E-2,3.5905746E-1,7.8839767E-1,2.1466618E-2,8.286092E-1,-2.1973519E-1,7.343594E-1],"categories":[],"categories_nodes":[],"categories_segments":[],"categories_sizes":[],"default_left":[1,1,1,0,1,1,1,1,1,1,1,0,1,0,0,0,0,0,0,0,0,0,0],"id":22,"left_children":[1,3,5,-1,7,9,11,13,15,17,19,-1,21,-1,-1,-1,-1,-1,-1,-1,-1,-1,-1],"loss_changes":[5.475128E1,2.6082287E0,3.365921E0,0E0,2.667986E0,3.1446E0,3.8764973E0,3.097508E0,2.0388165E0,3.2985191E0,4.066802E0,0E0,1.6913567E0,0E0,0E0,0E0,0E0,0E0,0E0,0E0,0E0,0E0,0E0],"parents":[2147483647,0,0,1,1,2,2,4,4,5,5,6,6,7,7,8,8,9,9,10,10,12,12],"right_children":[2,4,6,-1,8,10,12,14,16,18,20,-1,22,-1,-1,-1,-1,-1,-1,-1,-1,-1,-1],"split_conditions":[-2.5E-1,1.1666667E0,8.75E0,4.119161E-3,8.004167E1,2.54375E2,1.1666667E0,2.5583332E1,5.875E0,2.4375E1,2.820833E2,-4.303435E-3,1.3541667E1,7.2669373E-3,-6.2455E-3,-5.9103523E-3,8.4965356E-4,3.5905745E-3,7.883976E-3,2.1466619E-4,8.286092E-3,-2.1973518E-3,7.3435935E-3],"split_indices":[2,22,2,0,28,6,20,10,14,7,24,0,5,0,0,0,0,0,0,0,0,0,0],"split_type":[0,0,0,0,0,0,0,0,0,0,0,0,0,0,0,0,0,0,0,0,0,0,0],"sum_hessian":[2.9039685E2,8.563644E1,2.0476042E2,2.4959562E0,8.314048E1,1.3855379E2,6.6206635E1,4.986434E0,7.815405E1,9.412427E1,4.4429512E1,2.4969785E0,6.370966E1,2.9954445E0,1.9909894E0,7.365827E1,4.4957757E0,6.874264E1,2.538163E1,3.7944313E1,6.4852004E0,1.496531E0,6.2213127E1],"tree_param":{"num_deleted":"0","num_feature":"31","num_nodes":"23","size_leaf_vector":"0"}},{"base_weights":[-1.9239597E-1,4.7535703E-1,-4.7262162E-1,-4.1191614E-1,5.065728E-1,-3.7891588E-1,-6.601681E-1,-1.729648E-1,5.515665E-1,-4.8190472E-1,-1.549281E-1,4.303435E-1,-7.088985E-1,-7.2669375E-1,6.2455004E-1,5.9103525E-1,-8.4965356E-2,-3.590575E-1,-7.8839767E-1,-2.1466611E-2,-8.2860917E-1,2.1973513E-1,-7.3435944E-1],"categories":[],"categories_nodes":[],"categories_segments":[],"categories_sizes":[],"default_left":[1,1,1,0,1,1,1,1,1,1,1,0,1,0,0,0,0,0,0,0,0,0,0],"id":23,"left_children":[1,3,5,-1,7,9,11,13,15,17,19,-1,21,-1,-1,-1,-1,-1,-1,-1,-1,-1,-1],"loss_changes":[5.475128E1,2.6082287E0,3.3659248E0,0E0,2.6679897E0,3.1446E0,3.876503E0,3.0975082E0,2.0388126E0,3.298521E0,4.066802E0,0E0,1.6913528E0,0E0,0E0,0E0,0E0,0E0,0E0,0E0,0E0,0E0,0E0],"parents":[2147483647,0,0,1,1,2,2,4,4,5,5,6,6,7,7,8,8,9,9,10,10,12,12],"right_children":[2,4,6,-1,8,10,12,14,16,18,20,-1,22,-1,-1,-1,-1,-1,-1,-1,-1,-1,-1],"split_conditions":[-2.5E-1,1.1666667E0,8.75E0,-4.119161E-3,8.004167E1,2.54375E2,1.1666667E0,2.5583332E1,5.875E0,2.4375E1,2.820833E2,4.303435E-3,1.3541667E1,-7.2669373E-3,6.2455004E-3,5.9103523E-3,-8.4965356E-4,-3.5905747E-3,-7.883976E-3,-2.146661E-4,-8.2860915E-3,2.1973513E-3,-7.3435945E-3],"split_indices":[2,22,2,0,28,6,20,10,14,7,24,0,5,0,0,0,0,0,0,0,0,0,0],"split_type":[0,0,0,0,0,0,0,0,0,0,0,0,0,0,0,0,0,0,0,0,0,0,0],"sum_hessian":[2.9039685E2,8.563644E1,2.0476042E2,2.4959562E0,8.314048E1,1.3855379E2,6.6206635E1,4.986434E0,7.8154045E1,9.412427E1,4.4429512E1,2.4969785E0,6.370966E1,2.9954448E0,1.9909893E0,7.365827E1,4.4957757E0,6.874264E1,2.538163E1,3.794431E1,6.4852004E0,1.4965309E0,6.2213127E1],"tree_param":{"num_deleted":"0","num_feature":"31","num_nodes":"23","size_leaf_vector":"0"}},{"base_weights":[1.9066866E-1,-4.70951E-1,4.6828526E-1,-5.595506E-1,-1.248878E-1,6.889342E-1,3.887812E-1,-6.161702E-1,7.722693E-2,3.010886E-1,-4.2969328E-1,-1.0791935E-1,7.646553E-1,2.3249002E-1,5.5715156E-1,-6.5125257E-1,1.6850647E-1,6.924931E-1,-4.8034617E-1,6.343539E-1,-2.3310377E-1,5.8323616E-1,-6.4069575E-1,3.946806E-1,-6.5718657E-1,7.9972976E-1,-2.0437467E-1,-6.7071474E-1,2.6372585E-1,7.489077E-1,3.8297474E-1],"categories":[],"categories_nodes":[],"categories_segments":[],"categories_sizes":[],"default_left":[1,1,1,1,1,1,1,1,1,1,1,1,1,1,1,0,0,0,0,0,0,0,0,0,0,0,0,0,0,0,0],"id":24,"left_children":[1,3,5,7,9,11,13,15,17,19,21,23,25,27,29,-1,-1,-1,-1,-1,-1,-1,-1,-1,-1,-1,-1,-1,-1,-1,-1],"loss_changes":[5.3708473E1,2.5845337E0,3.3395004E0,2.522295E0,2.5877512E0,3.2908993E0,3.9087772E0,1.8480301E0,2.5602193E0,1.6584755E0,2.8206081E0,1.7751242E0,1.8180637E0,2.4705973E0,2.1566887E0,0E0,0E0,0E0,0E0,0E0,0E0,0E0,0E0,0E0,0E0,0E0,0E0,0E0,0E0,0E0,0E0],"parents":[2147483647,0,0,1,1,2,2,3,3,4,4,5,5,6,6,7,7,8,8,9,9,10,10,11,11,12,12,13,13,14,14],"right_children":[2,4,6,8,10,12,14,16,18,20,22,24,26,28,30,-1,-1,-1,-1,-1,-1,-1,-1,-1,-1,-1,-1,-1,-1,-1,-1],"split_conditions":[-2.5E-1,1.25333336E2,1.3541023E3,5.708333E0,1.3358334E2,1.4067686E3,1.5041936E3,1.38875E2,5.333333E0,2.3129166E2,1.4583333E0,2.3458332E1,2.7375E1,1.3875E1,2.36E2,-6.5125255E-3,1.6850648E-3,6.9249305E-3,-4.8034615E-3,6.3435384E-3,-2.3310375E-3,5.8323615E-3,-6.4069573E-3,3.946806E-3,-6.5718656E-3,7.997298E-3,-2.0437466E-3,-6.707147E-3,2.6372585E-3,7.489077E-3,3.8297474E-3],"split_indices":[2,21,0,14,21,1,27,13,30,6,22,12,5,5,6,0,0,0,0,0,0,0,0,0,0,0,0,0,0,0,0],"split_type":[0,0,0,0,0,0,0,0,0,0,0,0,0,0,0,0,0,0,0,0,0,0,0,0,0,0,0,0,0,0,0],"sum_hessian":[2.9020715E2,8.557271E1,2.0463445E2,6.763881E1,1.7933893E1,5.217286E1,1.5246158E2,6.214546E1,5.493354E0,7.4852233E0,1.0448669E1,4.490605E0,4.7682255E1,8.0301704E1,7.215988E1,5.9648643E1,2.4968147E0,2.4965284E0,2.9968255E0,4.494038E0,2.9911852E0,1.4971925E0,8.951477E0,2.4918818E0,1.998723E0,4.6185272E1,1.4969836E0,1.9999249E0,7.830177E1,3.277608E1,3.93838E1],"tree_param":{"num_deleted":"0","num_feature":"31","num_nodes":"31","size_leaf_vector":"0"}},{"base_weights":[-1.9066866E-1,4.70951E-1,-4.6828526E-1,5.595506E-1,1.2488783E-1,-6.889342E-1,-3.887812E-1,6.161702E-1,-7.72269E-2,-3.010886E-1,4.2969334E-1,1.0791933E-1,-7.646553E-1,-2.3249005E-1,-5.5715156E-1,6.5125257E-1,-1.6850647E-1,-6.92493E-1,4.8034617E-1,-6.343538E-1,2.3310378E-1,-5.8323616E-1,6.406958E-1,-3.9468062E-1,6.5718657E-1,-7.997297E-1,2.0437467E-1,6.7071474E-1,-2.6372588E-1,-7.489076E-1,-3.8297474E-1],"categories":[],"categories_nodes":[],"categories_segments":[],"categories_sizes":[],"default_left":[1,1,1,1,1,1,1,1,1,1,1,1,1,1,1,0,0,0,0,0,0,0,0,0,0,0,0,0,0,0,0],"id":25,"left_children":[1,3,5,7,9,11,13,15,17,19,21,23,25,27,29,-1,-1,-1,-1,-1,-1,-1,-1,-1,-1,-1,-1,-1,-1,-1,-1],"loss_changes":[5.3708473E1,2.5845299E0,3.3394966E0,2.522293E0,2.5877514E0,3.2909012E0,3.9087791E0,1.848032E0,2.560219E0,1.6584756E0,2.8206086E0,1.7751244E0,1.8180637E0,2.4705968E0,2.1566868E0,0E0,0E0,0E0,0E0,0E0,0E0,0E0,0E0,0E0,0E0,0E0,0E0,0E0,0E0,0E0,0E0],"parents":[2147483647,0,0,1,1,2,2,3,3,4,4,5,5,6,6,7,7,8,8,9,9,10,10,11,11,12,12,13,13,14,14],"right_children":[2,4,6,8,10,12,14,16,18,20,22,24,26,28,30,-1,-1,-1,-1,-1,-1,-1,-1,-1,-1,-1,-1,-1,-1,-1,-1],"split_conditions":[-2.5E-1,1.25333336E2,1.3541023E3,5.708333E0,1.3358334E2,1.4067686E3,1.5041936E3,1.38875E2,5.333333E0,2.3129166E2,1.4583333E0,2.3458332E1,2.7375E1,1.3875E1,2.36E2,6.5125255E-3,-1.6850648E-3,-6.92493E-3,4.8034615E-3,-6.343538E-3,2.3310378E-3,-5.8323615E-3,6.4069577E-3,-3.9468063E-3,6.5718656E-3,-7.997297E-3,2.0437466E-3,6.707147E-3,-2.6372587E-3,-7.489076E-3,-3.8297474E-3],"split_indices":[2,21,0,14,21,1,27,13,30,6,22,12,5,5,6,0,0,0,0,0,0,0,0,0,0,0,0,0,0,0,0],"split_type":[0,0,0,0,0,0,0,0,0,0,0,0,0,0,0,0,0,0,0,0,0,0,0,0,0,0,0,0,0,0,0],"sum_hessian":[2.9020715E2,8.55727E1,2.0463445E2,6.763881E1,1.7933893E1,5.217286E1,1.5246158E2,6.214546E1,5.493354E0,7.4852233E0,1.0448669E1,4.490605E0,4.7682255E1,8.03017E1,7.215988E1,5.9648643E1,2.4968147E0,2.4965284E0,2.9968255E0,4.494038E0,2.9911852E0,1.4971924E0,8.951477E0,2.4918818E0,1.998723E0,4.6185272E1,1.4969835E0,1.9999249E0,7.830177E1,3.277608E1,3.93838E1],"tree_param":{"num_deleted":"0","num_feature":"31","num_nodes":"31","size_leaf_vector":"0"}},{"base_weights":[1.8894024E-1,-4.666241E-1,4.6397546E-1,-5.5450237E-1,-1.23521075E-1,3.7127042E-1,6.49703E-1,-6.106729E-1,7.680583E-2,4.656491E-1,-3.3886746E-1,4.7304967E-1,1.5017107E-1,-4.285171E-1,6.980165E-1,-6.4549744E-1,1.672892E-1,6.877872E-1,-4.768449E-1,7.5384754E-1,-1.8347934E-1,3.9528713E-1,-6.5707016E-1,3.5123396E-1,7.773694E-1,1.778601E-2,8.1937146E-1,7.23463E-1,-2.2437659E-1],"categories":[],"categories_nodes":[],"categories_segments":[],"categories_sizes":[],"default_left":[1,1,1,1,1,1,1,1,1,1,1,1,1,0,1,0,0,0,0,0,0,0,0,0,0,0,0,0,0],"id":26,"left_children":[1,3,5,7,9,11,13,15,17,19,21,23,25,-1,27,-1,-1,-1,-1,-1,-1,-1,-1,-1,-1,-1,-1,-1,-1],"loss_changes":[5.2683586E1,2.5396137E0,3.2969322E0,2.4786816E0,2.5588286E0,3.0660744E0,3.7938004E0,1.8170929E0,2.5237849E0,1.1647576E0,3.6325006E0,3.248598E0,4.008354E0,0E0,1.6783466E0,0E0,0E0,0E0,0E0,0E0,0E0,0E0,0E0,0E0,0E0,0E0,0E0,0E0,0E0],"parents":[2147483647,0,0,1,1,2,2,3,3,4,4,5,5,6,6,7,7,8,8,9,9,10,10,11,11,12,12,14,14],"right_children":[2,4,6,8,10,12,14,16,18,20,22,24,26,-1,28,-1,-1,-1,-1,-1,-1,-1,-1,-1,-1,-1,-1,-1,-1],"split_conditions":[-2.5E-1,1.25333336E2,8.75E0,5.708333E0,4.083333E0,2.54375E2,1.1666667E0,1.38875E2,5.333333E0,2.35625E2,9.5E1,2.4375E1,2.820833E2,-4.285171E-3,1.75E0,-6.4549744E-3,1.6728919E-3,6.8778717E-3,-4.768449E-3,7.538475E-3,-1.8347934E-3,3.952871E-3,-6.5707015E-3,3.5123394E-3,7.7736937E-3,1.7786009E-4,8.193715E-3,7.2346297E-3,-2.2437659E-3],"split_indices":[2,21,2,14,14,6,20,13,30,6,28,7,24,0,19,0,0,0,0,0,0,0,0,0,0,0,0,0,0],"split_type":[0,0,0,0,0,0,0,0,0,0,0,0,0,0,0,0,0,0,0,0,0,0,0,0,0,0,0,0,0],"sum_hessian":[2.899935E2,8.550062E1,2.0449287E2,6.7576294E1,1.792432E1,1.3840678E2,6.608609E1,6.2084984E1,5.49131E0,4.486713E0,1.3437608E1,9.399725E1,4.440954E1,2.4967291E0,6.3589363E1,5.9587875E1,2.4971082E0,2.4953215E0,2.9959886E0,2.9954689E0,1.4912438E0,3.9898987E0,9.447709E0,6.866543E1,2.5331825E1,3.793216E1,6.47738E0,6.2092068E1,1.4972928E0],"tree_param":{"num_deleted":"0","num_feature":"31","num_nodes":"29","size_leaf_vector":"0"}},{"base_weights":[-1.8894024E-1,4.6662417E-1,-4.6397546E-1,5.545025E-1,1.23521075E-1,-3.7127042E-1,-6.49703E-1,6.1067295E-1,-7.680585E-2,-4.6564907E-1,3.3886746E-1,-4.7304967E-1,-1.5017107E-1,4.2851713E-1,-6.980166E-1,6.454975E-1,-1.672892E-1,-6.877872E-1,4.7684488E-1,-7.5384754E-1,1.8347935E-1,-3.9528713E-1,6.5707016E-1,-3.51234E-1,-7.7736944E-1,-1.7786004E-2,-8.1937146E-1,-7.23463E-1,2.2437662E-1],"categories":[],"categories_nodes":[],"categories_segments":[],"categories_sizes":[],"default_left":[1,1,1,1,1,1,1,1,1,1,1,1,1,0,1,0,0,0,0,0,0,0,0,0,0,0,0,0,0],"id":27,"left_children":[1,3,5,7,9,11,13,15,17,19,21,23,25,-1,27,-1,-1,-1,-1,-1,-1,-1,-1,-1,-1,-1,-1,-1,-1],"loss_changes":[5.2683586E1,2.5396118E0,3.296936E0,2.4786835E0,2.5588286E0,3.06608E0,3.7938004E0,1.8170948E0,2.5237849E0,1.1647576E0,3.6325006E0,3.2485962E0,4.008354E0,0E0,1.6783466E0,0E0,0E0,0E0,0E0,0E0,0E0,0E0,0E0,0E0,0E0,0E0,0E0,0E0,0E0],"parents":[2147483647,0,0,1,1,2,2,3,3,4,4,5,5,6,6,7,7,8,8,9,9,10,10,11,11,12,12,14,14],"right_children":[2,4,6,8,10,12,14,16,18,20,22,24,26,-1,28,-1,-1,-1,-1,-1,-1,-1,-1,-1,-1,-1,-1,-1,-1],"split_conditions":[-2.5E-1,1.25333336E2,8.75E0,5.708333E0,4.083333E0,2.54375E2,1.1666667E0,1.38875E2,5.333333E0,2.35625E2,9.5E1,2.4375E1,2.820833E2,4.285171E-3,1.75E0,6.454975E-3,-1.6728919E-3,-6.8778717E-3,4.768449E-3,-7.538475E-3,1.8347935E-3,-3.952871E-3,6.5707015E-3,-3.51234E-3,-7.773694E-3,-1.7786003E-4,-8.193715E-3,-7.2346297E-3,2.243766E-3],"split_indices":[2,21,2,14,14,6,20,13,30,6,28,7,24,0,19,0,0,0,0,0,0,0,0,0,0,0,0,0,0],"split_type":[0,0,0,0,0,0,0,0,0,0,0,0,0,0,0,0,0,0,0,0,0,0,0,0,0,0,0,0,0],"sum_hessian":[2.899935E2,8.550061E1,2.0449289E2,6.7576294E1,1.792432E1,1.384068E2,6.608609E1,6.208498E1,5.4913096E0,4.4867125E0,1.3437608E1,9.399725E1,4.440954E1,2.4967291E0,6.3589363E1,5.958787E1,2.4971082E0,2.4953215E0,2.9959884E0,2.9954689E0,1.4912437E0,3.9898987E0,9.447709E0,6.866543E1,2.5331823E1,3.793216E1,6.47738E0,6.2092068E1,1.4972928E0],"tree_param":{"num_deleted":"0","num_feature":"31","num_nodes":"29","size_leaf_vector":"0"}},{"base_weights":[1.8726555E-1,-4.6236396E-1,4.597616E-1,4.1048613E-1,-4.931904E-1,6.784013E-1,3.8108504E-1,1.7595387E-1,-5.376203E-1,-1.1036067E-1,7.535569E-1,2.2618963E-1,5.481391E-1,7.235199E-1,-6.1522686E-1,-5.762249E-1,8.366921E-2,-6.562105E-1,3.902948E-1,7.883919E-1,-2.052525E-1,-6.698191E-1,2.5725636E-1,7.379665E-1,3.7600186E-1],"categories":[],"categories_nodes":[],"categories_segments":[],"categories_sizes":[],"default_left":[1,1,1,0,1,1,1,1,1,1,1,1,1,0,0,0,0,0,0,0,0,0,0,0,0],"id":28,"left_children":[1,3,5,-1,7,9,11,13,15,17,19,21,23,-1,-1,-1,-1,-1,-1,-1,-1,-1,-1,-1,-1],"loss_changes":[5.168548E1,2.527855E0,3.2738304E0,0E0,2.5898476E0,3.228428E0,3.842533E0,3.0354826E0,1.9418259E0,1.755883E0,1.7840614E0,2.4337764E0,2.109459E0,0E0,0E0,0E0,0E0,0E0,0E0,0E0,0E0,0E0,0E0,0E0,0E0],"parents":[2147483647,0,0,1,1,2,2,4,4,5,5,6,6,7,7,8,8,9,9,10,10,11,11,12,12],"right_children":[2,4,6,-1,8,10,12,14,16,18,20,22,24,-1,-1,-1,-1,-1,-1,-1,-1,-1,-1,-1,-1],"split_conditions":[-2.5E-1,1.1666667E0,1.3541023E3,4.104861E-3,8.004167E1,1.4067686E3,1.5041936E3,2.5583332E1,5.875E0,9.691667E1,2.7375E1,1.3875E1,2.36E2,7.235199E-3,-6.1522685E-3,-5.762249E-3,8.3669205E-4,-6.5621044E-3,3.9029478E-3,7.8839185E-3,-2.0525248E-3,-6.698191E-3,2.5725635E-3,7.3796646E-3,3.7600186E-3],"split_indices":[2,22,0,0,28,1,27,10,14,21,5,5,6,0,0,0,0,0,0,0,0,0,0,0,0],"split_type":[0,0,0,0,0,0,0,0,0,0,0,0,0,0,0,0,0,0,0,0,0,0,0,0,0],"sum_hessian":[2.897721E2,8.542425E1,2.0434785E2,2.4938858E0,8.293036E1,5.2057888E1,1.5228996E2,4.979252E0,7.795111E1,4.487971E0,4.7569916E1,8.0242096E1,7.2047874E1,2.993209E0,1.9860429E0,7.345917E1,4.4919443E0,1.9984342E0,2.4895363E0,4.6073727E1,1.496189E0,1.9999541E0,7.824214E1,3.270014E1,3.9347733E1],"tree_param":{"num_deleted":"0","num_feature":"31","num_nodes":"25","size_leaf_vector":"0"}},{"base_weights":[-1.872655E-1,4.6236405E-1,-4.5976156E-1,-4.1048613E-1,4.931905E-1,-6.7840123E-1,-3.8108504E-1,-1.7595387E-1,5.376204E-1,1.1036066E-1,-7.5355685E-1,-2.2618961E-1,-5.481391E-1,-7.2351986E-1,6.152268E-1,5.7622504E-1,-8.366921E-2,6.562105E-1,-3.9029482E-1,-7.883918E-1,2.052525E-1,6.698191E-1,-2.5725636E-1,-7.379664E-1,-3.7600183E-1],"categories":[],"categories_nodes":[],"categories_segments":[],"categories_sizes":[],"default_left":[1,1,1,0,1,1,1,1,1,1,1,1,1,0,0,0,0,0,0,0,0,0,0,0,0],"id":29,"left_children":[1,3,5,-1,7,9,11,13,15,17,19,21,23,-1,-1,-1,-1,-1,-1,-1,-1,-1,-1,-1,-1],"loss_changes":[5.1685486E1,2.5278568E0,3.2738266E0,0E0,2.5898476E0,3.228426E0,3.842533E0,3.0354824E0,1.9418259E0,1.755883E0,1.7840595E0,2.433776E0,2.1094608E0,0E0,0E0,0E0,0E0,0E0,0E0,0E0,0E0,0E0,0E0,0E0,0E0],"parents":[2147483647,0,0,1,1,2,2,4,4,5,5,6,6,7,7,8,8,9,9,10,10,11,11,12,12],"right_children":[2,4,6,-1,8,10,12,14,16,18,20,22,24,-1,-1,-1,-1,-1,-1,-1,-1,-1,-1,-1,-1],"split_conditions":[-2.5E-1,1.1666667E0,1.3541023E3,-4.104861E-3,8.004167E1,1.4067686E3,1.5041936E3,2.5583332E1,5.875E0,9.691667E1,2.7375E1,1.3875E1,2.36E2,-7.2351983E-3,6.152268E-3,5.76225E-3,-8.3669205E-4,6.5621044E-3,-3.9029482E-3,-7.8839185E-3,2.0525248E-3,6.698191E-3,-2.5725635E-3,-7.379664E-3,-3.7600182E-3],"split_indices":[2,22,0,0,28,1,27,10,14,21,5,5,6,0,0,0,0,0,0,0,0,0,0,0,0],"split_type":[0,0,0,0,0,0,0,0,0,0,0,0,0,0,0,0,0,0,0,0,0,0,0,0,0],"sum_hessian":[2.897721E2,8.542425E1,2.0434785E2,2.493886E0,8.293036E1,5.2057888E1,1.5228996E2,4.979252E0,7.795111E1,4.4879704E0,4.756992E1,8.0242096E1,7.2047874E1,2.993209E0,1.9860429E0,7.345917E1,4.4919443E0,1.9984342E0,2.4895363E0,4.607373E1,1.4961889E0,1.9999541E0,7.824214E1,3.270014E1,3.9347733E1],"tree_param":{"num_deleted":"0","num_feature":"31","num_nodes":"25","size_leaf_vector":"0"}},{"base_weights":[1.8558078E-1,-4.5814532E-1,4.5557082E-1,4.0762404E-1,-4.88749E-1,3.6382294E-1,6.395881E-1,1.7448673E-1,-5.327959E-1,4.6449196E-1,1.4541972E-1,-4.2667174E-1,6.875086E-1,7.1841335E-1,-6.1155945E-1,-5.710955E-1,8.298594E-2,3.4368205E-1,7.66741E-1,1.4075916E-2,8.104406E-1,7.12786E-1,-2.2506185E-1],"categories":[],"categories_nodes":[],"categories_segments":[],"categories_sizes":[],"default_left":[1,1,1,0,1,1,1,1,1,1,1,0,1,0,0,0,0,0,0,0,0,0,0],"id":30,"left_children":[1,3,5,-1,7,9,11,13,15,17,19,-1,21,-1,-1,-1,-1,-1,-1,-1,-1,-1,-1],"loss_changes":[5.0703712E1,2.487072E0,3.2315292E0,0E0,2.5426426E0,2.9938583E0,3.714058E0,2.9941592E0,1.9076939E0,3.200039E0,3.9529762E0,0E0,1.6471367E0,0E0,0E0,0E0,0E0,0E0,0E0,0E0,0E0,0E0,0E0],"parents":[2147483647,0,0,1,1,2,2,4,4,5,5,6,6,7,7,8,8,9,9,10,10,12,12],"right_children":[2,4,6,-1,8,10,12,14,16,18,20,-1,22,-1,-1,-1,-1,-1,-1,-1,-1,-1,-1],"split_conditions":[-2.5E-1,1.1666667E0,8.75E0,4.07624E-3,8.004167E1,2.54375E2,1.1666667E0,2.5583332E1,5.875E0,2.4375E1,2.820833E2,-4.2667175E-3,1.75E0,7.1841334E-3,-6.1155944E-3,-5.7109552E-3,8.2985935E-4,3.4368203E-3,7.6674097E-3,1.4075916E-4,8.104405E-3,7.12786E-3,-2.2506185E-3],"split_indices":[2,22,2,0,28,6,20,10,14,7,24,0,19,0,0,0,0,0,0,0,0,0,0],"split_type":[0,0,0,0,0,0,0,0,0,0,0,0,0,0,0,0,0,0,0,0,0,0,0],"sum_hessian":[2.8953564E2,8.534772E1,2.0418793E2,2.4933069E0,8.285441E1,1.3824062E2,6.594731E1,4.9754367E0,7.7878975E1,9.385369E1,4.4386932E1,2.4964318E0,6.345088E1,2.9914567E0,1.9839802E0,7.33871E1,4.491874E0,6.857937E1,2.5274319E1,3.7918976E1,6.467956E0,6.195374E1,1.49714E0],"tree_param":{"num_deleted":"0","num_feature":"31","num_nodes":"23","size_leaf_vector":"0"}},{"base_weights":[-1.855808E-1,4.5814532E-1,-4.5557088E-1,-4.07624E-1,4.88749E-1,-3.6382297E-1,-6.395882E-1,-1.7448676E-1,5.327959E-1,-4.64492E-1,-1.4541973E-1,4.2667174E-1,-6.8750864E-1,-7.1841335E-1,6.1155945E-1,5.710955E-1,-8.298593E-2,-3.4368208E-1,-7.66741E-1,-1.40759265E-2,-8.104406E-1,-7.127861E-1,2.2506185E-1],"categories":[],"categories_nodes":[],"categories_segments":[],"categories_sizes":[],"default_left":[1,1,1,0,1,1,1,1,1,1,1,0,1,0,0,0,0,0,0,0,0,0,0],"id":31,"left_children":[1,3,5,-1,7,9,11,13,15,17,19,-1,21,-1,-1,-1,-1,-1,-1,-1,-1,-1,-1],"loss_changes":[5.0703716E1,2.487072E0,3.231533E0,0E0,2.5426426E0,2.9938602E0,3.7140617E0,2.9941595E0,1.9076939E0,3.200035E0,3.952976E0,0E0,1.6471329E0,0E0,0E0,0E0,0E0,0E0,0E0,0E0,0E0,0E0,0E0],"parents":[2147483647,0,0,1,1,2,2,4,4,5,5,6,6,7,7,8,8,9,9,10,10,12,12],"right_children":[2,4,6,-1,8,10,12,14,16,18,20,-1,22,-1,-1,-1,-1,-1,-1,-1,-1,-1,-1],"split_conditions":[-2.5E-1,1.1666667E0,8.75E0,-4.07624E-3,8.004167E1,2.54375E2,1.1666667E0,2.5583332E1,5.875E0,2.4375E1,2.820833E2,4.2667175E-3,1.75E0,-7.1841334E-3,6.1155944E-3,5.7109552E-3,-8.298593E-4,-3.4368208E-3,-7.6674097E-3,-1.4075926E-4,-8.104405E-3,-7.1278606E-3,2.2506185E-3],"split_indices":[2,22,2,0,28,6,20,10,14,7,24,0,19,0,0,0,0,0,0,0,0,0,0],"split_type":[0,0,0,0,0,0,0,0,0,0,0,0,0,0,0,0,0,0,0,0,0,0,0],"sum_hessian":[2.8953564E2,8.534772E1,2.0418793E2,2.4933069E0,8.285441E1,1.3824062E2,6.594731E1,4.9754367E0,7.7878975E1,9.385369E1,4.4386932E1,2.4964318E0,6.345088E1,2.9914567E0,1.9839801E0,7.33871E1,4.491874E0,6.857938E1,2.5274319E1,3.7918976E1,6.467956E0,6.195374E1,1.4971399E0],"tree_param":{"num_deleted":"0","num_feature":"31","num_nodes":"23","size_leaf_vector":"0"}},{"base_weights":[1.8395026E-1,-4.5398965E-1,4.5147383E-1,-5.407831E-1,-1.1574708E-1,6.6823375E-1,3.7358806E-1,-5.959162E-1,7.701275E-2,4.6820977E-1,-3.2995224E-1,-1.1272958E-1,7.4286616E-1,2.2004391E-1,5.393876E-1,-6.306279E-1,1.7437947E-1,6.8392336E-1,-4.7308695E-1,7.548852E-1,-1.8010564E-1,3.9146993E-1,-6.4334005E-1,-6.5427476E-1,3.85213E-1,7.774812E-1,-2.0609336E-1,-6.6887313E-1,2.509459E-1,7.2741E-1,3.6920223E-1],"categories":[],"categories_nodes":[],"categories_segments":[],"categories_sizes":[],"default_left":[1,1,1,1,1,1,1,1,1,1,1,1,1,1,1,0,0,0,0,0,0,0,0,0,0,0,0,0,0,0,0],"id":32,"left_children":[1,3,5,7,9,11,13,15,17,19,21,23,25,27,29,-1,-1,-1,-1,-1,-1,-1,-1,-1,-1,-1,-1,-1,-1,-1,-1],"loss_changes":[4.974726E1,2.4699535E0,3.211689E0,2.3749313E0,2.5171456E0,3.1686478E0,3.7787857E0,1.7915535E0,2.489583E0,1.1549097E0,3.5087636E0,1.7311271E0,1.7514915E0,2.3976796E0,2.0648384E0,0E0,0E0,0E0,0E0,0E0,0E0,0E0,0E0,0E0,0E0,0E0,0E0,0E0,0E0,0E0,0E0],"parents":[2147483647,0,0,1,1,2,2,3,3,4,4,5,5,6,6,7,7,8,8,9,9,10,10,11,11,12,12,13,13,14,14],"right_children":[2,4,6,8,10,12,14,16,18,20,22,24,26,28,30,-1,-1,-1,-1,-1,-1,-1,-1,-1,-1,-1,-1,-1,-1,-1,-1],"split_conditions":[-2.5E-1,1.25333336E2,1.3541023E3,5.708333E0,4.083333E0,1.4067686E3,1.5041936E3,1.38875E2,5.333333E0,2.3916666E1,9.5E1,9.691667E1,2.7375E1,1.3875E1,2.36E2,-6.3062785E-3,1.7437947E-3,6.8392335E-3,-4.7308696E-3,7.548852E-3,-1.8010563E-3,3.914699E-3,-6.4334003E-3,-6.5427474E-3,3.8521297E-3,7.7748117E-3,-2.0609335E-3,-6.6887313E-3,2.509459E-3,7.2741E-3,3.6920223E-3],"split_indices":[2,21,0,14,14,1,27,13,30,12,28,21,5,5,6,0,0,0,0,0,0,0,0,0,0,0,0,0,0,0,0],"split_type":[0,0,0,0,0,0,0,0,0,0,0,0,0,0,0,0,0,0,0,0,0,0,0,0,0,0,0,0,0,0,0],"sum_hessian":[2.8929144E2,8.5266624E1,2.0402483E2,6.737844E1,1.7888187E1,5.192775E1,1.5209708E2,6.1890633E1,5.487807E0,4.4824705E0,1.3405718E1,4.4850583E0,4.744269E1,8.017528E1,7.192181E1,5.9395428E1,2.4952047E0,2.4935105E0,2.9942966E0,2.9941308E0,1.4883399E0,3.984409E0,9.4213085E0,1.99807E0,2.4869883E0,4.594738E1,1.4953133E0,1.9999635E0,7.8175316E1,3.2614624E1,3.9307182E1],"tree_param":{"num_deleted":"0","num_feature":"31","num_nodes":"31","size_leaf_vector":"0"}},{"base_weights":[-1.8395028E-1,4.5398962E-1,-4.5147383E-1,5.4078305E-1,1.1574708E-1,-6.6823375E-1,-3.7358803E-1,5.9591615E-1,-7.701276E-2,-4.6820974E-1,3.2995224E-1,1.1272955E-1,-7.4286616E-1,-2.200439E-1,-5.393875E-1,6.306278E-1,-1.7437947E-1,-6.839234E-1,4.7308695E-1,-7.548852E-1,1.8010564E-1,-3.9146993E-1,6.4334005E-1,6.542747E-1,-3.85213E-1,-7.774812E-1,2.0609334E-1,6.6887313E-1,-2.509459E-1,-7.2741E-1,-3.6920223E-1],"categories":[],"categories_nodes":[],"categories_segments":[],"categories_sizes":[],"default_left":[1,1,1,1,1,1,1,1,1,1,1,1,1,1,1,0,0,0,0,0,0,0,0,0,0,0,0,0,0,0,0],"id":33,"left_children":[1,3,5,7,9,11,13,15,17,19,21,23,25,27,29,-1,-1,-1,-1,-1,-1,-1,-1,-1,-1,-1,-1,-1,-1,-1,-1],"loss_changes":[4.9747253E1,2.4699535E0,3.211689E0,2.3749313E0,2.5171456E0,3.1686459E0,3.7787876E0,1.7915535E0,2.4895835E0,1.1549096E0,3.5087638E0,1.7311271E0,1.7514935E0,2.3976798E0,2.0648365E0,0E0,0E0,0E0,0E0,0E0,0E0,0E0,0E0,0E0,0E0,0E0,0E0,0E0,0E0,0E0,0E0],"parents":[2147483647,0,0,1,1,2,2,3,3,4,4,5,5,6,6,7,7,8,8,9,9,10,10,11,11,12,12,13,13,14,14],"right_children":[2,4,6,8,10,12,14,16,18,20,22,24,26,28,30,-1,-1,-1,-1,-1,-1,-1,-1,-1,-1,-1,-1,-1,-1,-1,-1],"split_conditions":[-2.5E-1,1.25333336E2,1.3541023E3,5.708333E0,4.083333E0,1.4067686E3,1.5041936E3,1.38875E2,5.333333E0,2.3916666E1,9.5E1,9.691667E1,2.7375E1,1.3875E1,2.36E2,6.306278E-3,-1.7437947E-3,-6.839234E-3,4.7308696E-3,-7.548852E-3,1.8010563E-3,-3.914699E-3,6.4334003E-3,6.542747E-3,-3.8521297E-3,-7.7748117E-3,2.0609333E-3,6.6887313E-3,-2.509459E-3,-7.2741E-3,-3.6920223E-3],"split_indices":[2,21,0,14,14,1,27,13,30,12,28,21,5,5,6,0,0,0,0,0,0,0,0,0,0,0,0,0,0,0,0],"split_type":[0,0,0,0,0,0,0,0,0,0,0,0,0,0,0,0,0,0,0,0,0,0,0,0,0,0,0,0,0,0,0],"sum_hessian":[2.8929144E2,8.5266624E1,2.0402483E2,6.737844E1,1.7888187E1,5.192775E1,1.5209708E2,6.1890633E1,5.487807E0,4.4824705E0,1.3405718E1,4.4850583E0,4.744269E1,8.017528E1,7.19218E1,5.9395428E1,2.4952047E0,2.4935102E0,2.9942966E0,2.9941308E0,1.4883399E0,3.984409E0,9.4213085E0,1.99807E0,2.4869885E0,4.594738E1,1.4953132E0,1.9999636E0,7.817531E1,3.261462E1,3.9307182E1],"tree_param":{"num_deleted":"0","num_feature":"31","num_nodes":"31","size_leaf_vector":"0"}},{"base_weights":[1.8231578E-1,-4.4991082E-1,4.4739646E-1,4.0674928E-1,-4.8028344E-1,3.565647E-1,6.29806E-1,1.7411213E-1,-5.2380043E-1,4.5616356E-1,1.4078726E-1,-4.248086E-1,6.7735577E-1,7.131827E-1,-6.058222E-1,-5.615469E-1,8.20132E-2,3.363166E-1,7.5648993E-1,1.0469575E-2,8.018019E-1,7.0247716E-1,-2.2570276E-1],"categories":[],"categories_nodes":[],"categories_segments":[],"categories_sizes":[],"default_left":[1,1,1,0,1,1,1,1,1,1,1,0,1,0,0,0,0,0,0,0,0,0,0],"id":34,"left_children":[1,3,5,-1,7,9,11,13,15,17,19,-1,21,-1,-1,-1,-1,-1,-1,-1,-1,-1,-1],"loss_changes":[4.880683E1,2.4375973E0,3.169468E0,0E0,2.4743233E0,2.924265E0,3.6371021E0,2.941471E0,1.8460846E0,3.153942E0,3.899153E0,0E0,1.6171551E0,0E0,0E0,0E0,0E0,0E0,0E0,0E0,0E0,0E0,0E0],"parents":[2147483647,0,0,1,1,2,2,4,4,5,5,6,6,7,7,8,8,9,9,10,10,12,12],"right_children":[2,4,6,-1,8,10,12,14,16,18,20,-1,22,-1,-1,-1,-1,-1,-1,-1,-1,-1,-1],"split_conditions":[-2.5E-1,1.1666667E0,8.75E0,4.0674927E-3,8.004167E1,2.54375E2,1.1666667E0,2.5583332E1,5.875E0,2.4375E1,2.820833E2,-4.248086E-3,1.75E0,7.1318266E-3,-6.058222E-3,-5.615469E-3,8.20132E-4,3.3631658E-3,7.564899E-3,1.04695755E-4,8.018019E-3,7.0247715E-3,-2.2570277E-3],"split_indices":[2,22,2,0,28,6,20,10,14,7,24,0,19,0,0,0,0,0,0,0,0,0,0],"split_type":[0,0,0,0,0,0,0,0,0,0,0,0,0,0,0,0,0,0,0,0,0,0,0],"sum_hessian":[2.890247E2,8.517709E1,2.0384758E2,2.4922142E0,8.268488E1,1.3805641E2,6.579117E1,4.968536E0,7.771635E1,9.369466E1,4.4361755E1,2.4960856E0,6.3295082E1,2.9885283E0,1.9800079E0,7.322687E1,4.489477E0,6.848512E1,2.5209541E1,3.790475E1,6.457005E0,6.1798088E1,1.4969921E0],"tree_param":{"num_deleted":"0","num_feature":"31","num_nodes":"23","size_leaf_vector":"0"}},{"base_weights":[-1.8231578E-1,4.4991082E-1,-4.4739646E-1,-4.0674922E-1,4.8028344E-1,-3.5656467E-1,-6.29806E-1,-1.7411211E-1,5.238005E-1,-4.5616353E-1,-1.4078726E-1,4.248086E-1,-6.7735577E-1,-7.131827E-1,6.058222E-1,5.615469E-1,-8.201315E-2,-3.3631656E-1,-7.5648993E-1,-1.0469579E-2,-8.0180186E-1,-7.0247716E-1,2.2570275E-1],"categories":[],"categories_nodes":[],"categories_segments":[],"categories_sizes":[],"default_left":[1,1,1,0,1,1,1,1,1,1,1,0,1,0,0,0,0,0,0,0,0,0,0],"id":35,"left_children":[1,3,5,-1,7,9,11,13,15,17,19,-1,21,-1,-1,-1,-1,-1,-1,-1,-1,-1,-1],"loss_changes":[4.8806835E1,2.4375973E0,3.169464E0,0E0,2.4743252E0,2.924265E0,3.637104E0,2.941471E0,1.8460827E0,3.153944E0,3.899153E0,0E0,1.6171551E0,0E0,0E0,0E0,0E0,0E0,0E0,0E0,0E0,0E0,0E0],"parents":[2147483647,0,0,1,1,2,2,4,4,5,5,6,6,7,7,8,8,9,9,10,10,12,12],"right_children":[2,4,6,-1,8,10,12,14,16,18,20,-1,22,-1,-1,-1,-1,-1,-1,-1,-1,-1,-1],"split_conditions":[-2.5E-1,1.1666667E0,8.75E0,-4.067492E-3,8.004167E1,2.54375E2,1.1666667E0,2.5583332E1,5.875E0,2.4375E1,2.820833E2,4.248086E-3,1.75E0,-7.1318266E-3,6.058222E-3,5.615469E-3,-8.201315E-4,-3.3631655E-3,-7.564899E-3,-1.0469579E-4,-8.018019E-3,-7.0247715E-3,2.2570274E-3],"split_indices":[2,22,2,0,28,6,20,10,14,7,24,0,19,0,0,0,0,0,0,0,0,0,0],"split_type":[0,0,0,0,0,0,0,0,0,0,0,0,0,0,0,0,0,0,0,0,0,0,0],"sum_hessian":[2.890247E2,8.517709E1,2.0384758E2,2.4922142E0,8.268488E1,1.3805641E2,6.579117E1,4.968536E0,7.771635E1,9.369466E1,4.4361755E1,2.4960856E0,6.329508E1,2.9885283E0,1.9800079E0,7.322687E1,4.489477E0,6.8485115E1,2.520954E1,3.790475E1,6.457005E0,6.1798088E1,1.4969921E0],"tree_param":{"num_deleted":"0","num_feature":"31","num_nodes":"23","size_leaf_vector":"0"}},{"base_weights":[1.8073018E-1,-4.4587094E-1,4.4341066E-1,-5.318139E-1,-1.11358956E-1,6.584117E-1,3.6628127E-1,-5.8624905E-1,7.690194E-2,4.6761298E-1,-3.2423425E-1,-1.1502908E-1,7.325597E-1,2.14047E-1,5.308838E-1,-6.2079716E-1,1.7718774E-1,5.352423E-1,-6.3632953E-1,7.531428E-1,-1.7917472E-1,3.8806316E-1,-6.3417935E-1,3.8102052E-1,-6.5320677E-1,7.66973E-1,-2.0689882E-1,-6.6787905E-1,2.4478826E-1,7.172164E-1,3.6256874E-1],"categories":[],"categories_nodes":[],"categories_segments":[],"categories_sizes":[],"default_left":[1,1,1,1,1,1,1,1,1,1,1,1,1,1,1,0,0,0,0,0,0,0,0,0,0,0,0,0,0,0,0],"id":36,"left_children":[1,3,5,7,9,11,13,15,17,19,21,23,25,27,29,-1,-1,-1,-1,-1,-1,-1,-1,-1,-1,-1,-1,-1,-1,-1,-1],"loss_changes":[4.7890278E1,2.41572E0,3.152813E0,2.3058014E0,2.476293E0,3.1113415E0,3.7173595E0,1.7648411E0,2.4603727E0,1.1469965E0,3.4211588E0,1.712329E0,1.7202663E0,2.3622808E0,2.022606E0,0E0,0E0,0E0,0E0,0E0,0E0,0E0,0E0,0E0,0E0,0E0,0E0,0E0,0E0,0E0,0E0],"parents":[2147483647,0,0,1,1,2,2,3,3,4,4,5,5,6,6,7,7,8,8,9,9,10,10,11,11,12,12,13,13,14,14],"right_children":[2,4,6,8,10,12,14,16,18,20,22,24,26,28,30,-1,-1,-1,-1,-1,-1,-1,-1,-1,-1,-1,-1,-1,-1,-1,-1],"split_conditions":[-2.5E-1,1.25333336E2,1.3541023E3,5.708333E0,4.083333E0,1.4067686E3,1.5041936E3,1.38875E2,2.3333335E0,2.35625E2,9.5E1,2.3458332E1,2.7375E1,1.3875E1,2.36E2,-6.2079714E-3,1.7718774E-3,5.352423E-3,-6.363295E-3,7.531428E-3,-1.7917472E-3,3.8806316E-3,-6.3417936E-3,3.810205E-3,-6.5320674E-3,7.66973E-3,-2.0689883E-3,-6.6787903E-3,2.4478824E-3,7.1721636E-3,3.6256872E-3],"split_indices":[2,21,0,14,14,1,27,13,20,6,28,12,5,5,6,0,0,0,0,0,0,0,0,0,0,0,0,0,0,0,0],"split_type":[0,0,0,0,0,0,0,0,0,0,0,0,0,0,0,0,0,0,0,0,0,0,0,0,0,0,0,0,0,0,0],"sum_hessian":[2.8875555E2,8.508807E1,2.0366748E2,6.722642E1,1.7861658E1,5.1783268E1,1.5188422E2,6.1741978E1,5.4844418E0,4.480117E0,1.3381541E1,4.481826E0,4.730144E1,8.010172E1,7.178249E1,5.9247654E1,2.494321E0,3.490751E0,1.9936908E0,2.9939685E0,1.4861481E0,3.9808803E0,9.4006605E0,2.4841504E0,1.9976758E0,4.5807083E1,1.4943599E0,1.9999523E0,7.810177E1,3.2520084E1,3.926241E1],"tree_param":{"num_deleted":"0","num_feature":"31","num_nodes":"31","size_leaf_vector":"0"}},{"base_weights":[-1.8073015E-1,4.4587097E-1,-4.4341063E-1,5.318139E-1,1.11358926E-1,-6.584117E-1,-3.6628124E-1,5.8624905E-1,-7.6901875E-2,-4.6761298E-1,3.2423422E-1,1.1502913E-1,-7.325597E-1,-2.1404696E-1,-5.308838E-1,6.207972E-1,-1.7718774E-1,-5.3524226E-1,6.363296E-1,-7.531428E-1,1.791747E-1,-3.8806316E-1,6.341793E-1,-3.8102046E-1,6.5320677E-1,-7.66973E-1,2.0689875E-1,6.6787905E-1,-2.4478823E-1,-7.172164E-1,-3.6256877E-1],"categories":[],"categories_nodes":[],"categories_segments":[],"categories_sizes":[],"default_left":[1,1,1,1,1,1,1,1,1,1,1,1,1,1,1,0,0,0,0,0,0,0,0,0,0,0,0,0,0,0,0],"id":37,"left_children":[1,3,5,7,9,11,13,15,17,19,21,23,25,27,29,-1,-1,-1,-1,-1,-1,-1,-1,-1,-1,-1,-1,-1,-1,-1,-1],"loss_changes":[4.7890285E1,2.41572E0,3.152813E0,2.3058033E0,2.4762928E0,3.1113415E0,3.7173615E0,1.7648392E0,2.4603724E0,1.1469965E0,3.4211588E0,1.7123289E0,1.7202663E0,2.3622801E0,2.022606E0,0E0,0E0,0E0,0E0,0E0,0E0,0E0,0E0,0E0,0E0,0E0,0E0,0E0,0E0,0E0,0E0],"parents":[2147483647,0,0,1,1,2,2,3,3,4,4,5,5,6,6,7,7,8,8,9,9,10,10,11,11,12,12,13,13,14,14],"right_children":[2,4,6,8,10,12,14,16,18,20,22,24,26,28,30,-1,-1,-1,-1,-1,-1,-1,-1,-1,-1,-1,-1,-1,-1,-1,-1],"split_conditions":[-2.5E-1,1.25333336E2,1.3541023E3,5.708333E0,4.083333E0,1.4067686E3,1.5041936E3,1.38875E2,2.3333335E0,2.35625E2,9.5E1,2.3458332E1,2.7375E1,1.3875E1,2.36E2,6.207972E-3,-1.7718774E-3,-5.3524226E-3,6.363296E-3,-7.531428E-3,1.791747E-3,-3.8806316E-3,6.3417926E-3,-3.8102046E-3,6.5320674E-3,-7.66973E-3,2.0689873E-3,6.6787903E-3,-2.4478822E-3,-7.1721636E-3,-3.6256877E-3],"split_indices":[2,21,0,14,14,1,27,13,20,6,28,12,5,5,6,0,0,0,0,0,0,0,0,0,0,0,0,0,0,0,0],"split_type":[0,0,0,0,0,0,0,0,0,0,0,0,0,0,0,0,0,0,0,0,0,0,0,0,0,0,0,0,0,0,0],"sum_hessian":[2.8875555E2,8.508808E1,2.0366748E2,6.7226425E1,1.7861658E1,5.1783268E1,1.5188422E2,6.1741978E1,5.484442E0,4.480117E0,1.3381541E1,4.481826E0,4.730144E1,8.010172E1,7.178249E1,5.9247658E1,2.494321E0,3.4907513E0,1.993691E0,2.9939685E0,1.4861481E0,3.9808803E0,9.400661E0,2.4841502E0,1.9976758E0,4.5807083E1,1.49436E0,1.9999523E0,7.810177E1,3.252009E1,3.926241E1],"tree_param":{"num_deleted":"0","num_feature":"31","num_nodes":"31","size_leaf_vector":"0"}},{"base_weights":[1.7912897E-1,-4.4194168E-1,4.3944108E-1,4.0585157E-1,-4.720944E-1,3.4948725E-1,6.2033826E-1,1.7373912E-1,-5.1509976E-1,4.47998E-1,1.363841E-1,-4.2292875E-1,6.675382E-1,7.0806575E-1,-6.0024595E-1,-5.522583E-1,8.0190845E-2,3.2905436E-1,7.465952E-1,7.097034E-3,7.934413E-1,7.854799E-1,4.0963194E-1],"categories":[],"categories_nodes":[],"categories_segments":[],"categories_sizes":[],"default_left":[1,1,1,0,1,1,1,1,1,1,1,0,1,0,0,0,0,0,0,0,0,0,0],"id":38,"left_children":[1,3,5,-1,7,9,11,13,15,17,19,-1,21,-1,-1,-1,-1,-1,-1,-1,-1,-1,-1],"loss_changes":[4.6992573E1,2.389799E0,3.1104774E0,0E0,2.4086323E0,2.8538857E0,3.5627651E0,2.8901637E0,1.7815723E0,3.1113663E0,3.8454578E0,0E0,1.6287308E0,0E0,0E0,0E0,0E0,0E0,0E0,0E0,0E0,0E0,0E0],"parents":[2147483647,0,0,1,1,2,2,4,4,5,5,6,6,7,7,8,8,9,9,10,10,12,12],"right_children":[2,4,6,-1,8,10,12,14,16,18,20,-1,22,-1,-1,-1,-1,-1,-1,-1,-1,-1,-1],"split_conditions":[-2.5E-1,1.1666667E0,8.75E0,4.0585157E-3,8.004167E1,2.54375E2,1.1666667E0,2.5583332E1,5.875E0,2.4375E1,2.820833E2,-4.2292876E-3,1.1920833E2,7.0806574E-3,-6.002459E-3,-5.522583E-3,8.0190843E-4,3.2905436E-3,7.465952E-3,7.097034E-5,7.934413E-3,7.854799E-3,4.0963194E-3],"split_indices":[2,22,2,0,28,6,20,10,14,7,24,0,28,0,0,0,0,0,0,0,0,0,0],"split_type":[0,0,0,0,0,0,0,0,0,0,0,0,0,0,0,0,0,0,0,0,0,0,0],"sum_hessian":[2.884645E2,8.499052E1,2.03474E2,2.4910374E0,8.249948E1,1.3785535E2,6.561867E1,4.9607916E0,7.753869E1,9.352122E1,4.433412E1,2.4956903E0,6.3122974E1,2.9851434E0,1.9756483E0,7.305106E1,4.4876194E0,6.8383316E1,2.5137903E1,3.7889523E1,6.4445996E0,4.1911198E1,2.1211779E1],"tree_param":{"num_deleted":"0","num_feature":"31","num_nodes":"23","size_leaf_vector":"0"}},{"base_weights":[-1.79129E-1,4.4194165E-1,-4.3944108E-1,-4.058516E-1,4.720944E-1,-3.4948725E-1,-6.203383E-1,-1.7373908E-1,5.1509976E-1,-4.4799802E-1,-1.3638408E-1,4.2292875E-1,-6.675382E-1,-7.080657E-1,6.00246E-1,5.5225825E-1,-8.019085E-2,-3.290544E-1,-7.465952E-1,-7.097024E-3,-7.934413E-1,-7.854799E-1,-4.0963197E-1],"categories":[],"categories_nodes":[],"categories_segments":[],"categories_sizes":[],"default_left":[1,1,1,0,1,1,1,1,1,1,1,0,1,0,0,0,0,0,0,0,0,0,0],"id":39,"left_children":[1,3,5,-1,7,9,11,13,15,17,19,-1,21,-1,-1,-1,-1,-1,-1,-1,-1,-1,-1],"loss_changes":[4.6992577E1,2.3897972E0,3.1104774E0,0E0,2.4086323E0,2.8538857E0,3.562769E0,2.8901637E0,1.7815704E0,3.1113682E0,3.8454573E0,0E0,1.628725E0,0E0,0E0,0E0,0E0,0E0,0E0,0E0,0E0,0E0,0E0],"parents":[2147483647,0,0,1,1,2,2,4,4,5,5,6,6,7,7,8,8,9,9,10,10,12,12],"right_children":[2,4,6,-1,8,10,12,14,16,18,20,-1,22,-1,-1,-1,-1,-1,-1,-1,-1,-1,-1],"split_conditions":[-2.5E-1,1.1666667E0,8.75E0,-4.058516E-3,8.004167E1,2.54375E2,1.1666667E0,2.5583332E1,5.875E0,2.4375E1,2.820833E2,4.2292876E-3,1.1920833E2,-7.080657E-3,6.00246E-3,5.522582E-3,-8.019085E-4,-3.2905438E-3,-7.465952E-3,-7.0970236E-5,-7.934413E-3,-7.854799E-3,-4.0963194E-3],"split_indices":[2,22,2,0,28,6,20,10,14,7,24,0,28,0,0,0,0,0,0,0,0,0,0],"split_type":[0,0,0,0,0,0,0,0,0,0,0,0,0,0,0,0,0,0,0,0,0,0,0],"sum_hessian":[2.884645E2,8.499051E1,2.03474E2,2.4910374E0,8.249947E1,1.3785535E2,6.561867E1,4.9607916E0,7.753868E1,9.352122E1,4.433412E1,2.4956903E0,6.3122974E1,2.9851434E0,1.9756483E0,7.305106E1,4.4876194E0,6.8383316E1,2.5137903E1,3.7889523E1,6.4446E0,4.1911198E1,2.1211779E1],"tree_param":{"num_deleted":"0","num_feature":"31","num_nodes":"23","size_leaf_vector":"0"}}]},"name":"gbtree"},"learner_model_param":{"base_score":"5E-1","boost_from_average":"1","num_class":"2","num_feature":"31","num_target":"1"},"objective":{"name":"multi:softprob","softmax_multiclass_param":{"num_class":"2"}}},"version":[1,7,5]}