{"learner":{"attributes":{"best_iteration":"29","best_ntree_limit":"30"},"feature_names":["Away Odds Close","elohome","eloaway_lag1","elohome_lag1","eloaway_lag2","elohome_lag2","TeamScore_Away","TeamScore_Home","Total Score Close","Int_Away","Int_Home","Int_Opp_Away","Int_Opp_Home","OppScore_Away","OppScore_Home","PYds_Away","PYds_Home","PYds_Opp_Away","PYds_Opp_Home","Pnt_Away","Pnt_Home","Pnt_Opp_Away","Pnt_Opp_Home","RYds_Away","RYds_Home","RYds_Opp_Away","RYds_Opp_Home","Sk_Away","Sk_Home","Sk_Opp_Away","Sk_Opp_Home"],"feature_types":["float","float","float","float","float","float","float","float","float","float","float","float","float","float","float","float","float","float","float","float","float","float","float","float","float","float","float","float","float","float","float"],"gradient_booster":{"model":{"gbtree_model_param":{"num_parallel_tree":"1","num_trees":"60","size_leaf_vector":"0"},"tree_info":[0,1,0,1,0,1,0,1,0,1,0,1,0,1,0,1,0,1,0,1,0,1,0,1,0,1,0,1,0,1,0,1,0,1,0,1,0,1,0,1,0,1,0,1,0,1,0,1,0,1,0,1,0,1,0,1,0,1,0,1],"trees":[{"base_weights":[1.5096252E-1,-2.6491648E-1,4.5614034E-1,-5.873016E-1,-1.2542373E-1,-2.0408163E-2,4.9904397E-1,-2.820513E-1,-7.078652E-1,3.3333334E-1,-1.7602997E-1,2.9032257E-1,-5E-1,6.862745E-1,3.7694705E-1,-5.2E-1,1.25E-1,-7.647059E-1,3.3333334E-1,6.666667E-1,-1.4285715E-1,7.5E-1,-2.0306513E-1,5.4545456E-1,-2.7272728E-1,-7.5E-1,3.3333334E-1,7.3056996E-1,-7.692308E-2,2.4867725E-1,5.522388E-1],"categories":[],"categories_nodes":[],"categories_segments":[],"categories_sizes":[],"default_left":[1,1,1,1,1,1,1,1,1,1,1,1,1,1,1,0,0,0,0,0,0,0,0,0,0,0,0,0,0,0,0],"id":0,"left_children":[1,3,5,7,9,11,13,15,17,19,21,23,25,27,29,-1,-1,-1,-1,-1,-1,-1,-1,-1,-1,-1,-1,-1,-1,-1,-1],"loss_changes":[6.27544E1,9.347633E0,5.8371925E0,2.1188774E0,3.4830315E0,3.7962475E0,5.7192764E0,1.9537181E0,2.888523E0,2.4761906E0,3.494522E0,2.3753667E0,2.3333335E0,3.504425E0,3.4714565E0,0E0,0E0,0E0,0E0,0E0,0E0,0E0,0E0,0E0,0E0,0E0,0E0,0E0,0E0,0E0,0E0],"parents":[2147483647,0,0,1,1,2,2,3,3,4,4,5,5,6,6,7,7,8,8,9,9,10,10,11,11,12,12,13,13,14,14],"right_children":[2,4,6,8,10,12,14,16,18,20,22,24,26,28,30,-1,-1,-1,-1,-1,-1,-1,-1,-1,-1,-1,-1,-1,-1,-1,-1],"split_conditions":[2.165E0,1.437E0,1.4252794E3,6.25E-1,1.4125E1,1.4243909E3,1.9625E1,2.875E0,7.375E0,1.4820054E3,6.1E1,1.125E0,2.51875E2,4.975E1,3.245E0,-1.56E-1,3.75E-2,-2.2941178E-1,1.0000001E-1,2.0000002E-1,-4.2857148E-2,2.2500001E-1,-6.0919542E-2,1.6363637E-1,-8.1818186E-2,-2.2500001E-1,1.0000001E-1,2.19171E-1,-2.3076925E-2,7.460318E-2,1.6567165E-1],"split_indices":[0,0,3,10,7,4,6,29,20,2,24,10,16,8,0,0,0,0,0,0,0,0,0,0,0,0,0,0,0,0,0],"split_type":[0,0,0,0,0,0,0,0,0,0,0,0,0,0,0,0,0,0,0,0,0,0,0,0,0,0,0,0,0,0,0],"sum_hessian":[4.925E2,2.085E2,2.84E2,6.2E1,1.465E2,2.35E1,2.605E2,1.85E1,4.35E1,1.4E1,1.325E2,1.45E1,9E0,1.01E2,1.595E2,1.15E1,7E0,4.15E1,2E0,8E0,6E0,3E0,1.295E2,1E1,4.5E0,7E0,2E0,9.55E1,5.5E0,9.35E1,6.6E1],"tree_param":{"num_deleted":"0","num_feature":"31","num_nodes":"31","size_leaf_vector":"0"}},{"base_weights":[-1.5096252E-1,2.6491648E-1,-4.5614034E-1,5.873016E-1,1.2542373E-1,2.0408163E-2,-4.9904397E-1,2.820513E-1,7.078652E-1,-3.3333334E-1,1.7602997E-1,-2.9032257E-1,5E-1,-6.862745E-1,-3.7694705E-1,5.2E-1,-1.25E-1,7.647059E-1,-3.3333334E-1,-6.666667E-1,1.4285715E-1,-7.5E-1,2.0306513E-1,-5.4545456E-1,2.7272728E-1,7.5E-1,-3.3333334E-1,-7.3056996E-1,7.692308E-2,-2.4867725E-1,-5.522388E-1],"categories":[],"categories_nodes":[],"categories_segments":[],"categories_sizes":[],"default_left":[1,1,1,1,1,1,1,1,1,1,1,1,1,1,1,0,0,0,0,0,0,0,0,0,0,0,0,0,0,0,0],"id":1,"left_children":[1,3,5,7,9,11,13,15,17,19,21,23,25,27,29,-1,-1,-1,-1,-1,-1,-1,-1,-1,-1,-1,-1,-1,-1,-1,-1],"loss_changes":[6.27544E1,9.347633E0,5.8371925E0,2.1188774E0,3.4830315E0,3.7962475E0,5.7192764E0,1.9537181E0,2.888523E0,2.4761906E0,3.494522E0,2.3753667E0,2.3333335E0,3.504425E0,3.4714565E0,0E0,0E0,0E0,0E0,0E0,0E0,0E0,0E0,0E0,0E0,0E0,0E0,0E0,0E0,0E0,0E0],"parents":[2147483647,0,0,1,1,2,2,3,3,4,4,5,5,6,6,7,7,8,8,9,9,10,10,11,11,12,12,13,13,14,14],"right_children":[2,4,6,8,10,12,14,16,18,20,22,24,26,28,30,-1,-1,-1,-1,-1,-1,-1,-1,-1,-1,-1,-1,-1,-1,-1,-1],"split_conditions":[2.165E0,1.437E0,1.4252794E3,6.25E-1,1.4125E1,1.4243909E3,1.9625E1,2.875E0,7.375E0,1.4820054E3,6.1E1,1.125E0,2.51875E2,4.975E1,3.245E0,1.56E-1,-3.75E-2,2.2941178E-1,-1.0000001E-1,-2.0000002E-1,4.2857148E-2,-2.2500001E-1,6.0919542E-2,-1.6363637E-1,8.1818186E-2,2.2500001E-1,-1.0000001E-1,-2.19171E-1,2.3076925E-2,-7.460318E-2,-1.6567165E-1],"split_indices":[0,0,3,10,7,4,6,29,20,2,24,10,16,8,0,0,0,0,0,0,0,0,0,0,0,0,0,0,0,0,0],"split_type":[0,0,0,0,0,0,0,0,0,0,0,0,0,0,0,0,0,0,0,0,0,0,0,0,0,0,0,0,0,0,0],"sum_hessian":[4.925E2,2.085E2,2.84E2,6.2E1,1.465E2,2.35E1,2.605E2,1.85E1,4.35E1,1.4E1,1.325E2,1.45E1,9E0,1.01E2,1.595E2,1.15E1,7E0,4.15E1,2E0,8E0,6E0,3E0,1.295E2,1E1,4.5E0,7E0,2E0,9.55E1,5.5E0,9.35E1,6.6E1],"tree_param":{"num_deleted":"0","num_feature":"31","num_nodes":"31","size_leaf_vector":"0"}},{"base_weights":[1.0956398E-1,-2.2797124E-1,3.0973363E-1,-4.345141E-1,-1.224063E-1,-1.18318774E-1,3.5164788E-1,-5.9849745E-1,-2.575594E-1,-1.5437545E-1,6.506023E-1,4.2088124E-1,-2.806628E-1,1.5749148E-1,4.4382456E-1,-6.7193186E-1,3.1208608E-1,1.4562091E-1,-4.4775912E-1,-2.1759416E-1,2.4614902E-1,2.3703308E-1,7.5975496E-1,7.3153377E-1,-2.4572822E-1,-4.2934635E-1,5.165515E-1,4.0237588E-1,-3.8875097E-3,4.876911E-1,-2.1660665E-1],"categories":[],"categories_nodes":[],"categories_segments":[],"categories_sizes":[],"default_left":[1,1,1,1,1,1,1,1,1,1,1,1,1,1,1,0,0,0,0,0,0,0,0,0,0,0,0,0,0,0,0],"id":2,"left_children":[1,3,5,7,9,11,13,15,17,19,21,23,25,27,29,-1,-1,-1,-1,-1,-1,-1,-1,-1,-1,-1,-1,-1,-1,-1,-1],"loss_changes":[3.268633E1,3.877636E0,5.4860096E0,1.6038914E0,3.0831628E0,2.5526652E0,4.881069E0,2.2618608E0,2.4344196E0,3.0087874E0,4.4955492E-2,1.5953853E0,2.8266404E0,3.5822701E0,5.524189E0,0E0,0E0,0E0,0E0,0E0,0E0,0E0,0E0,0E0,0E0,0E0,0E0,0E0,0E0,0E0,0E0],"parents":[2147483647,0,0,1,1,2,2,3,3,4,4,5,5,6,6,7,7,8,8,9,9,10,10,11,11,12,12,13,13,14,14],"right_children":[2,4,6,8,10,12,14,16,18,20,22,24,26,28,30,-1,-1,-1,-1,-1,-1,-1,-1,-1,-1,-1,-1,-1,-1,-1,-1],"split_conditions":[1.995E0,1.437E0,1.4250261E3,6.25E-1,3.1875E1,9.125E1,4.125E0,7.375E0,3.75E-1,1.586226E3,1.65E0,1.4384524E3,1.37125E2,1.875E0,1.6234978E3,-2.0157957E-1,9.362583E-2,4.3686274E-2,-1.3432774E-1,-6.5278254E-2,7.384471E-2,7.110993E-2,2.279265E-1,2.1946014E-1,-7.371847E-2,-1.2880391E-1,1.5496546E-1,1.20712765E-1,-1.166253E-3,1.4630733E-1,-6.4982E-2],"split_indices":[0,0,3,12,13,26,19,20,9,5,0,4,24,28,4,0,0,0,0,0,0,0,0,0,0,0,0,0,0,0,0],"split_type":[0,0,0,0,0,0,0,0,0,0,0,0,0,0,0,0,0,0,0,0,0,0,0,0,0,0,0,0,0,0,0],"sum_hessian":[4.8173587E2,1.7928255E2,3.024533E2,5.958519E1,1.19697365E2,2.6811897E1,2.7564142E2,2.9689665E1,2.9895523E1,1.1571217E2,3.9851918E0,5.8360043E0,2.0975893E1,8.9606766E1,1.8603465E2,2.771654E1,1.9731262E0,9.6577215E0,2.02378E1,1.0033244E2,1.5379728E1,1.494447E0,2.4907448E0,3.9144175E0,1.921587E0,1.8067648E1,2.9082446E0,3.500107E1,5.4605698E1,1.7469292E2,1.134173E1],"tree_param":{"num_deleted":"0","num_feature":"31","num_nodes":"31","size_leaf_vector":"0"}},{"base_weights":[-1.0956399E-1,2.2797121E-1,-3.0973363E-1,4.3451402E-1,1.22406304E-1,1.1831879E-1,-3.5164788E-1,5.984974E-1,2.575593E-1,1.5437546E-1,-6.506023E-1,-4.208812E-1,2.806628E-1,-1.5749149E-1,-4.4382456E-1,6.719318E-1,-3.120861E-1,-1.4562102E-1,4.4775906E-1,2.1759418E-1,-2.4614902E-1,-2.3703308E-1,-7.5975496E-1,-7.315337E-1,2.4572816E-1,4.2934635E-1,-5.165515E-1,-4.0237588E-1,3.8874953E-3,-4.876911E-1,2.1660663E-1],"categories":[],"categories_nodes":[],"categories_segments":[],"categories_sizes":[],"default_left":[1,1,1,1,1,1,1,1,1,1,1,1,1,1,1,0,0,0,0,0,0,0,0,0,0,0,0,0,0,0,0],"id":3,"left_children":[1,3,5,7,9,11,13,15,17,19,21,23,25,27,29,-1,-1,-1,-1,-1,-1,-1,-1,-1,-1,-1,-1,-1,-1,-1,-1],"loss_changes":[3.268632E1,3.877634E0,5.4860096E0,1.6038904E0,3.0831625E0,2.5526652E0,4.881069E0,2.2618618E0,2.4344199E0,3.0087879E0,4.4955492E-2,1.5953845E0,2.8266401E0,3.5822704E0,5.524185E0,0E0,0E0,0E0,0E0,0E0,0E0,0E0,0E0,0E0,0E0,0E0,0E0,0E0,0E0,0E0,0E0],"parents":[2147483647,0,0,1,1,2,2,3,3,4,4,5,5,6,6,7,7,8,8,9,9,10,10,11,11,12,12,13,13,14,14],"right_children":[2,4,6,8,10,12,14,16,18,20,22,24,26,28,30,-1,-1,-1,-1,-1,-1,-1,-1,-1,-1,-1,-1,-1,-1,-1,-1],"split_conditions":[1.995E0,1.437E0,1.4250261E3,6.25E-1,3.1875E1,9.125E1,4.125E0,7.375E0,3.75E-1,1.586226E3,1.65E0,1.4384524E3,1.37125E2,1.875E0,1.6234978E3,2.0157956E-1,-9.3625836E-2,-4.3686308E-2,1.3432772E-1,6.5278254E-2,-7.384471E-2,-7.110993E-2,-2.279265E-1,-2.1946011E-1,7.371845E-2,1.2880391E-1,-1.5496546E-1,-1.20712765E-1,1.1662486E-3,-1.4630733E-1,6.498199E-2],"split_indices":[0,0,3,12,13,26,19,20,9,5,0,4,24,28,4,0,0,0,0,0,0,0,0,0,0,0,0,0,0,0,0],"split_type":[0,0,0,0,0,0,0,0,0,0,0,0,0,0,0,0,0,0,0,0,0,0,0,0,0,0,0,0,0,0,0],"sum_hessian":[4.8173587E2,1.7928255E2,3.024533E2,5.9585186E1,1.19697365E2,2.6811897E1,2.7564142E2,2.9689665E1,2.9895521E1,1.1571217E2,3.9851918E0,5.8360043E0,2.0975893E1,8.9606766E1,1.8603465E2,2.7716537E1,1.9731262E0,9.6577215E0,2.02378E1,1.0033244E2,1.5379728E1,1.494447E0,2.4907448E0,3.9144177E0,1.9215869E0,1.8067648E1,2.9082446E0,3.500107E1,5.4605698E1,1.7469292E2,1.134173E1],"tree_param":{"num_deleted":"0","num_feature":"31","num_nodes":"31","size_leaf_vector":"0"}},{"base_weights":[8.158186E-2,-1.4232084E-1,2.508495E-1,6.260071E-1,-1.666897E-1,5.331541E-1,2.0516728E-1,9.0415466E-1,-1.7833336E-1,-4.156305E-1,-1.0330776E-1,6.284332E-1,-2.514002E-1,1.4974505E-1,5.139379E-1,-4.738017E-1,2.9686078E-1,-5.8724314E-1,-6.562991E-2,6.7803794E-1,1.290026E-1,-9.031261E-1,4.9675176E-1,2.0790648E-1,-1.7893963E-1,5.8968693E-1,-5.332255E-1],"categories":[],"categories_nodes":[],"categories_segments":[],"categories_sizes":[],"default_left":[1,1,1,1,1,1,1,0,0,1,1,1,1,1,1,0,0,0,0,0,0,0,0,0,0,0,0],"id":4,"left_children":[1,3,5,7,9,11,13,-1,-1,15,17,19,21,23,25,-1,-1,-1,-1,-1,-1,-1,-1,-1,-1,-1,-1],"loss_changes":[1.7654547E1,3.8635988E0,3.309473E0,1.5891876E0,3.0401049E0,2.8713474E0,3.855649E0,0E0,0E0,1.7704353E0,2.825499E0,7.2148705E-1,2.7135289E0,3.7887816E0,3.0558138E0,0E0,0E0,0E0,0E0,0E0,0E0,0E0,0E0,0E0,0E0,0E0,0E0],"parents":[2147483647,0,0,1,1,2,2,3,3,4,4,5,5,6,6,9,9,10,10,11,11,12,12,13,13,14,14],"right_children":[2,4,6,8,10,12,14,-1,-1,16,18,20,22,24,26,-1,-1,-1,-1,-1,-1,-1,-1,-1,-1,-1,-1],"split_conditions":[2.165E0,6.9125E1,7.7875E1,5.375E0,1.367E0,2.835E2,4.81E0,2.712464E-1,-5.3500008E-2,3.3325E2,7.9E1,1.625E0,1.8125E1,2.89375E2,2.7775E2,-1.4214052E-1,8.9058235E-2,-1.7617294E-1,-1.9688973E-2,2.0341139E-1,3.870078E-2,-2.7093786E-1,1.4902553E-1,6.2371947E-2,-5.368189E-2,1.7690608E-1,-1.5996765E-1],"split_indices":[0,23,26,20,0,17,0,0,0,15,23,12,14,16,15,0,0,0,0,0,0,0,0,0,0,0,0],"split_type":[0,0,0,0,0,0,0,0,0,0,0,0,0,0,0,0,0,0,0,0,0,0,0,0,0,0,0],"sum_hessian":[4.638836E2,1.9977962E2,2.6410397E2,5.382588E0,1.9439703E2,3.5298306E1,2.2880568E2,3.9073126E0,1.4752754E0,3.8322575E1,1.5607446E2,3.1653215E1,3.64509E0,1.952454E2,3.3560265E1,3.5739628E1,2.5829477E0,1.0220187E1,1.4585428E2,2.8468071E1,3.185143E0,1.8373797E0,1.8077104E0,1.6620291E2,2.9042494E1,3.1703768E1,1.8564968E0],"tree_param":{"num_deleted":"0","num_feature":"31","num_nodes":"27","size_leaf_vector":"0"}},{"base_weights":[-8.1581816E-2,1.4232089E-1,-2.5084943E-1,-6.26007E-1,1.6668972E-1,-5.33154E-1,-2.0516723E-1,-9.041546E-1,1.783334E-1,4.156305E-1,1.033078E-1,-6.2843317E-1,2.5140023E-1,-1.4974499E-1,-5.139378E-1,4.738017E-1,-2.9686075E-1,5.8724314E-1,6.562995E-2,-6.7803794E-1,-1.2900256E-1,9.031261E-1,-4.9675173E-1,-2.0790642E-1,1.7893966E-1,-5.896869E-1,5.332255E-1],"categories":[],"categories_nodes":[],"categories_segments":[],"categories_sizes":[],"default_left":[1,1,1,1,1,1,1,0,0,1,1,1,1,1,1,0,0,0,0,0,0,0,0,0,0,0,0],"id":5,"left_children":[1,3,5,7,9,11,13,-1,-1,15,17,19,21,23,25,-1,-1,-1,-1,-1,-1,-1,-1,-1,-1,-1,-1],"loss_changes":[1.7654547E1,3.8635988E0,3.309473E0,1.5891876E0,3.0401034E0,2.8713465E0,3.855648E0,0E0,0E0,1.7704363E0,2.8254983E0,7.2148705E-1,2.7135289E0,3.7887812E0,3.0558147E0,0E0,0E0,0E0,0E0,0E0,0E0,0E0,0E0,0E0,0E0,0E0,0E0],"parents":[2147483647,0,0,1,1,2,2,3,3,4,4,5,5,6,6,9,9,10,10,11,11,12,12,13,13,14,14],"right_children":[2,4,6,8,10,12,14,-1,-1,16,18,20,22,24,26,-1,-1,-1,-1,-1,-1,-1,-1,-1,-1,-1,-1],"split_conditions":[2.165E0,6.9125E1,7.7875E1,5.375E0,1.367E0,2.835E2,4.81E0,-2.712464E-1,5.3500023E-2,3.3325E2,7.9E1,1.625E0,1.8125E1,2.89375E2,2.7775E2,1.4214052E-1,-8.905823E-2,1.7617294E-1,1.9688986E-2,-2.0341139E-1,-3.8700767E-2,2.7093786E-1,-1.4902553E-1,-6.237193E-2,5.36819E-2,-1.7690606E-1,1.5996765E-1],"split_indices":[0,23,26,20,0,17,0,0,0,15,23,12,14,16,15,0,0,0,0,0,0,0,0,0,0,0,0],"split_type":[0,0,0,0,0,0,0,0,0,0,0,0,0,0,0,0,0,0,0,0,0,0,0,0,0,0,0],"sum_hessian":[4.638836E2,1.9977963E2,2.6410397E2,5.382588E0,1.9439703E2,3.5298306E1,2.2880568E2,3.9073126E0,1.4752754E0,3.8322575E1,1.5607446E2,3.1653214E1,3.64509E0,1.952454E2,3.3560265E1,3.5739628E1,2.582948E0,1.0220187E1,1.4585428E2,2.8468071E1,3.185143E0,1.8373796E0,1.8077104E0,1.6620291E2,2.9042494E1,3.1703768E1,1.8564968E0],"tree_param":{"num_deleted":"0","num_feature":"31","num_nodes":"27","size_leaf_vector":"0"}},{"base_weights":[6.07937E-2,-1.2476996E-1,1.7427097E-1,2.8804746E-1,-1.6289143E-1,-1.4129713E-1,2.0716132E-1,8.312498E-1,-2.3719903E-2,1.3015722E-1,-2.32144E-1,-3.564881E-1,1.4680517E-1,6.23122E-1,1.7496775E-1,-3.9551458E-1,4.6899724E-1,-2.668447E-1,6.421667E-1,-3.048694E-1,1.2792873E-1,4.4798914E-1,-6.0707414E-1,-2.099819E-1,6.764403E-1,6.7232895E-1,-1.7560812E-2,1.9078214E-1,-4.9008855E-1],"categories":[],"categories_nodes":[],"categories_segments":[],"categories_sizes":[],"default_left":[1,1,1,1,1,1,1,0,1,1,1,1,1,1,1,0,0,0,0,0,0,0,0,0,0,0,0,0,0],"id":6,"left_children":[1,3,5,7,9,11,13,-1,15,17,19,21,23,25,27,-1,-1,-1,-1,-1,-1,-1,-1,-1,-1,-1,-1,-1,-1],"loss_changes":[9.47109E0,2.7359128E0,2.9237728E0,2.527172E0,3.2176971E0,1.7211185E0,3.2784233E0,0E0,2.0868692E0,6.404117E0,3.3751469E0,3.4369373E0,2.450682E0,5.723772E-1,2.577498E0,0E0,0E0,0E0,0E0,0E0,0E0,0E0,0E0,0E0,0E0,0E0,0E0,0E0,0E0],"parents":[2147483647,0,0,1,1,2,2,3,3,4,4,5,5,6,6,8,8,9,9,10,10,11,11,12,12,13,13,14,14],"right_children":[2,4,6,8,10,12,14,-1,16,18,20,22,24,26,28,-1,-1,-1,-1,-1,-1,-1,-1,-1,-1,-1,-1,-1,-1],"split_conditions":[1.995E0,1.375E0,1.4250261E3,3.75E0,1.375E0,2.47E2,1.3166963E3,2.4937494E-1,1.643E0,1.125E0,5.625E0,2.085E2,2.4375E1,2.825E2,1.8725E2,-1.1865438E-1,1.4069918E-1,-8.005341E-2,1.9265E-1,-9.1460824E-2,3.8378622E-2,1.3439675E-1,-1.8212225E-1,-6.299458E-2,2.029321E-1,2.0169869E-1,-5.2682436E-3,5.7234645E-2,-1.4702657E-1],"split_indices":[0,28,3,22,30,17,2,0,0,30,22,18,14,18,23,0,0,0,0,0,0,0,0,0,0,0,0,0,0],"split_type":[0,0,0,0,0,0,0,0,0,0,0,0,0,0,0,0,0,0,0,0,0,0,0,0,0,0,0,0,0],"sum_hessian":[4.477453E2,1.6986847E2,2.7787683E2,1.3806105E1,1.5606236E2,2.591717E1,2.5195967E2,4.426836E0,9.379269E0,2.9662653E1,1.2639971E2,1.4699999E1,1.1217172E1,1.6781174E1,2.351785E2,5.4580274E0,3.9212415E0,1.6977482E1,1.2685171E1,1.05287636E2,2.1112076E1,3.3042672E0,1.1395731E1,7.0628433E0,4.154328E0,1.553837E1,1.2428029E0,2.3041264E2,4.765856E0],"tree_param":{"num_deleted":"0","num_feature":"31","num_nodes":"29","size_leaf_vector":"0"}},{"base_weights":[-6.079368E-2,1.24769986E-1,-1.7427096E-1,-2.8804743E-1,1.6289145E-1,1.4129715E-1,-2.071613E-1,-8.312498E-1,2.3719931E-2,-1.3015719E-1,2.3214403E-1,3.564881E-1,-1.4680515E-1,-6.23122E-1,-1.7496774E-1,3.9551458E-1,-4.689972E-1,2.668447E-1,-6.421667E-1,3.0486944E-1,-1.279287E-1,-4.4798914E-1,6.0707414E-1,2.0998189E-1,-6.7644024E-1,-6.7232895E-1,1.7560778E-2,-1.9078213E-1,4.9008855E-1],"categories":[],"categories_nodes":[],"categories_segments":[],"categories_sizes":[],"default_left":[1,1,1,1,1,1,1,0,1,1,1,1,1,1,1,0,0,0,0,0,0,0,0,0,0,0,0,0,0],"id":7,"left_children":[1,3,5,7,9,11,13,-1,15,17,19,21,23,25,27,-1,-1,-1,-1,-1,-1,-1,-1,-1,-1,-1,-1,-1,-1],"loss_changes":[9.471091E0,2.735913E0,2.9237728E0,2.527172E0,3.2176971E0,1.7211185E0,3.2784224E0,0E0,2.0868692E0,6.404117E0,3.3751469E0,3.4369376E0,2.450682E0,5.723772E-1,2.5774984E0,0E0,0E0,0E0,0E0,0E0,0E0,0E0,0E0,0E0,0E0,0E0,0E0,0E0,0E0],"parents":[2147483647,0,0,1,1,2,2,3,3,4,4,5,5,6,6,8,8,9,9,10,10,11,11,12,12,13,13,14,14],"right_children":[2,4,6,8,10,12,14,-1,16,18,20,22,24,26,28,-1,-1,-1,-1,-1,-1,-1,-1,-1,-1,-1,-1,-1,-1],"split_conditions":[1.995E0,1.375E0,1.4250261E3,3.75E0,1.375E0,2.47E2,1.3166963E3,-2.4937494E-1,1.643E0,1.125E0,5.625E0,2.085E2,2.4375E1,2.825E2,1.8725E2,1.1865438E-1,-1.4069916E-1,8.005341E-2,-1.9265E-1,9.146084E-2,-3.837861E-2,-1.3439675E-1,1.8212225E-1,6.299457E-2,-2.0293207E-1,-2.0169869E-1,5.268234E-3,-5.723464E-2,1.4702657E-1],"split_indices":[0,28,3,22,30,17,2,0,0,30,22,18,14,18,23,0,0,0,0,0,0,0,0,0,0,0,0,0,0],"split_type":[0,0,0,0,0,0,0,0,0,0,0,0,0,0,0,0,0,0,0,0,0,0,0,0,0,0,0,0,0],"sum_hessian":[4.477453E2,1.6986847E2,2.7787683E2,1.3806106E1,1.5606236E2,2.5917171E1,2.5195967E2,4.426836E0,9.37927E0,2.9662655E1,1.2639971E2,1.4699999E1,1.1217172E1,1.6781174E1,2.351785E2,5.458028E0,3.9212418E0,1.6977482E1,1.2685171E1,1.05287636E2,2.1112076E1,3.3042674E0,1.1395732E1,7.062844E0,4.154328E0,1.553837E1,1.2428029E0,2.3041264E2,4.765856E0],"tree_param":{"num_deleted":"0","num_feature":"31","num_nodes":"29","size_leaf_vector":"0"}},{"base_weights":[4.595182E-2,1.443062E-1,-9.578731E-2,-2.6069635E-1,1.711083E-1,-1.7842138E-1,1.8425786E-1,3.2901108E-1,-5.077695E-1,4.2581278E-1,1.2776734E-1,-7.8195703E-1,-1.372862E-1,-1.5099601E-1,5.310074E-1,6.2834036E-1,-3.429158E-1,2.882446E-1,-6.422349E-1,6.874865E-1,8.607163E-2,2.0945255E-1,-3.250979E-2,6.2259518E-2,-2.456037E-1,4.9074426E-2,-9.065224E-1,-1.8543273E-1,6.658821E-1],"categories":[],"categories_nodes":[],"categories_segments":[],"categories_sizes":[],"default_left":[1,1,1,1,1,1,1,1,1,1,1,0,1,1,1,0,0,0,0,0,0,0,0,0,0,0,0,0,0],"id":8,"left_children":[1,3,5,7,9,11,13,15,17,19,21,-1,23,25,27,-1,-1,-1,-1,-1,-1,-1,-1,-1,-1,-1,-1,-1,-1],"loss_changes":[6.033698E0,2.816135E0,4.1403775E0,2.533863E0,2.5958748E0,3.3078709E0,4.838655E0,1.3021979E0,1.452544E0,3.006425E0,2.711635E0,0E0,2.8251202E0,3.3080435E0,2.0892267E0,0E0,0E0,0E0,0E0,0E0,0E0,0E0,0E0,0E0,0E0,0E0,0E0,0E0,0E0],"parents":[2147483647,0,0,1,1,2,2,3,3,4,4,5,5,6,6,7,7,8,8,9,9,10,10,12,12,13,13,14,14],"right_children":[2,4,6,8,10,12,14,16,18,20,22,-1,24,26,28,-1,-1,-1,-1,-1,-1,-1,-1,-1,-1,-1,-1,-1,-1],"split_conditions":[1.5430142E3,1.62625E2,2.6149998E0,2.375E0,8.4875E1,1.5529563E3,2.625E0,2.745E2,1.304688E3,4.425E1,2.3125E1,-2.3458712E-1,2.1475E2,2.475E1,4.175E1,1.8850212E-1,-1.0287475E-1,8.647338E-2,-1.9267048E-1,2.0624597E-1,2.582149E-2,6.283577E-2,-9.752937E-3,1.8677857E-2,-7.368111E-2,1.4722329E-2,-2.7195674E-1,-5.5629823E-2,1.9976464E-1],"split_indices":[2,16,0,28,25,2,29,15,1,8,6,0,17,14,8,0,0,0,0,0,0,0,0,0,0,0,0,0,0],"split_type":[0,0,0,0,0,0,0,0,0,0,0,0,0,0,0,0,0,0,0,0,0,0,0,0,0,0,0,0,0],"sum_hessian":[4.3082132E2,2.5432455E2,1.7649678E2,1.5244248E1,2.3908029E2,1.3656335E2,3.9933426E1,4.4031935E0,1.0841055E1,3.3483147E1,2.0559715E2,7.564692E0,1.2899866E2,2.0590294E1,1.9343132E1,3.0910594E0,1.312134E0,1.4013932E0,9.439662E0,1.8336521E1,1.51466255E1,1.359854E2,6.9611755E1,4.5536034E1,8.346262E1,1.7018644E1,3.5716498E0,3.0051644E0,1.6337967E1],"tree_param":{"num_deleted":"0","num_feature":"31","num_nodes":"29","size_leaf_vector":"0"}},{"base_weights":[-4.5951843E-2,-1.4430623E-1,9.578729E-2,2.6069632E-1,-1.7110832E-1,1.7842136E-1,-1.8425788E-1,-3.2901108E-1,5.077695E-1,-4.258128E-1,-1.2776735E-1,7.81957E-1,1.3728619E-1,1.50996E-1,-5.310074E-1,-6.2834036E-1,3.4291577E-1,-2.882446E-1,6.422349E-1,-6.874865E-1,-8.607167E-2,-2.0945255E-1,3.2509763E-2,-6.225954E-2,2.4560368E-1,-4.907444E-2,9.065224E-1,1.8543273E-1,-6.658821E-1],"categories":[],"categories_nodes":[],"categories_segments":[],"categories_sizes":[],"default_left":[1,1,1,1,1,1,1,1,1,1,1,0,1,1,1,0,0,0,0,0,0,0,0,0,0,0,0,0,0],"id":9,"left_children":[1,3,5,7,9,11,13,15,17,19,21,-1,23,25,27,-1,-1,-1,-1,-1,-1,-1,-1,-1,-1,-1,-1,-1,-1],"loss_changes":[6.0336986E0,2.816134E0,4.140377E0,2.533863E0,2.5958743E0,3.3078713E0,4.8386545E0,1.3021977E0,1.4525442E0,3.0064244E0,2.7116346E0,0E0,2.8251202E0,3.3080435E0,2.0892267E0,0E0,0E0,0E0,0E0,0E0,0E0,0E0,0E0,0E0,0E0,0E0,0E0,0E0,0E0],"parents":[2147483647,0,0,1,1,2,2,3,3,4,4,5,5,6,6,7,7,8,8,9,9,10,10,12,12,13,13,14,14],"right_children":[2,4,6,8,10,12,14,16,18,20,22,-1,24,26,28,-1,-1,-1,-1,-1,-1,-1,-1,-1,-1,-1,-1,-1,-1],"split_conditions":[1.5430142E3,1.62625E2,2.6149998E0,2.375E0,8.4875E1,1.5529563E3,2.625E0,2.745E2,1.304688E3,4.425E1,2.3125E1,2.345871E-1,2.1475E2,2.475E1,4.175E1,-1.8850212E-1,1.0287473E-1,-8.647338E-2,1.9267048E-1,-2.0624597E-1,-2.5821501E-2,-6.283577E-2,9.752929E-3,-1.8677862E-2,7.368111E-2,-1.4722333E-2,2.7195674E-1,5.5629823E-2,-1.9976464E-1],"split_indices":[2,16,0,28,25,2,29,15,1,8,6,0,17,14,8,0,0,0,0,0,0,0,0,0,0,0,0,0,0],"split_type":[0,0,0,0,0,0,0,0,0,0,0,0,0,0,0,0,0,0,0,0,0,0,0,0,0,0,0,0,0],"sum_hessian":[4.3082132E2,2.5432454E2,1.7649678E2,1.5244248E1,2.3908029E2,1.3656335E2,3.9933426E1,4.4031935E0,1.0841055E1,3.3483147E1,2.0559715E2,7.564692E0,1.2899866E2,2.0590294E1,1.9343132E1,3.0910594E0,1.312134E0,1.4013932E0,9.439662E0,1.8336521E1,1.5146625E1,1.359854E2,6.9611755E1,4.5536034E1,8.346262E1,1.7018642E1,3.5716498E0,3.0051644E0,1.6337967E1],"tree_param":{"num_deleted":"0","num_feature":"31","num_nodes":"29","size_leaf_vector":"0"}},{"base_weights":[3.3803903E-2,3.365251E-1,2.43725E-3,-3.2195842E-1,4.5573765E-1,-5.8000546E-2,1.6217801E-1,3.0235302E-1,-7.7810246E-1,-4.654374E-1,5.09981E-1,2.5931656E-2,-2.432913E-1,2.3315679E-1,-2.3532985E-1,4.6522635E-1,-2.076201E-2,-2.911918E-1,5.602013E-1,7.768448E-2,-4.0177816E-1,-3.6848596E-1,2.0178397E-1,3.1557444E-1,-2.491413E-1,6.2536746E-2,-6.6652954E-1],"categories":[],"categories_nodes":[],"categories_segments":[],"categories_sizes":[],"default_left":[1,1,1,1,1,1,1,1,0,0,1,1,1,1,1,0,0,0,0,0,0,0,0,0,0,0,0],"id":10,"left_children":[1,3,5,7,9,11,13,15,-1,-1,17,19,21,23,25,-1,-1,-1,-1,-1,-1,-1,-1,-1,-1,-1,-1],"loss_changes":[3.9845061E0,3.239492E0,3.690765E0,2.1220117E0,1.9249268E0,4.3201256E0,3.0154924E0,1.9476077E-1,0E0,0E0,1.4656239E0,4.2769685E0,4.8982563E0,3.6376934E0,2.1475327E0,0E0,0E0,0E0,0E0,0E0,0E0,0E0,0E0,0E0,0E0,0E0,0E0],"parents":[2147483647,0,0,1,1,2,2,3,3,4,4,5,5,6,6,7,7,10,10,11,11,12,12,13,13,14,14],"right_children":[2,4,6,8,10,12,14,16,-1,-1,18,20,22,24,26,-1,-1,-1,-1,-1,-1,-1,-1,-1,-1,-1,-1],"split_conditions":[1.125E0,1.55E1,1.5799866E3,8.375E1,1.3279486E3,4.675E1,2.76875E2,4.65E1,-2.3343074E-1,-1.3963123E-1,1.57375E2,1.5546652E3,3.375E0,3.125E0,3.875E0,1.3956791E-1,-6.228603E-3,-8.7357536E-2,1.6806039E-1,2.3305343E-2,-1.2053345E-1,-1.1054579E-1,6.0535192E-2,9.467234E-2,-7.474239E-2,1.8761024E-2,-1.9995888E-1],"split_indices":[28,13,5,26,5,8,17,8,0,0,17,3,28,28,20,0,0,0,0,0,0,0,0,0,0,0,0],"split_type":[0,0,0,0,0,0,0,0,0,0,0,0,0,0,0,0,0,0,0,0,0,0,0,0,0,0,0],"sum_hessian":[4.187134E2,3.8398518E1,3.8031488E2,5.6253843E0,3.2773136E1,2.7638263E2,1.0393225E2,2.51725E0,3.1081343E0,1.4009672E0,3.1372168E1,1.9081027E2,8.557236E1,8.853665E1,1.5395597E1,1.3812058E0,1.1360441E0,1.567488E0,2.980468E1,1.709444E2,1.9865873E1,6.692047E1,1.8651892E1,7.591037E1,1.2626281E1,9.611252E0,5.7843456E0],"tree_param":{"num_deleted":"0","num_feature":"31","num_nodes":"27","size_leaf_vector":"0"}},{"base_weights":[-3.380391E-2,-3.365251E-1,-2.4372581E-3,3.2195842E-1,-4.5573765E-1,5.800053E-2,-1.6217801E-1,-3.0235302E-1,7.781025E-1,4.654374E-1,-5.09981E-1,-2.5931668E-2,2.4329129E-1,-2.3315677E-1,2.3532984E-1,-4.6522638E-1,2.0762037E-2,2.9119185E-1,-5.602013E-1,-7.7684484E-2,4.0177816E-1,3.6848596E-1,-2.0178397E-1,-3.1557444E-1,2.491413E-1,-6.253674E-2,6.665295E-1],"categories":[],"categories_nodes":[],"categories_segments":[],"categories_sizes":[],"default_left":[1,1,1,1,1,1,1,1,0,0,1,1,1,1,1,0,0,0,0,0,0,0,0,0,0,0,0],"id":11,"left_children":[1,3,5,7,9,11,13,15,-1,-1,17,19,21,23,25,-1,-1,-1,-1,-1,-1,-1,-1,-1,-1,-1,-1],"loss_changes":[3.9845054E0,3.2394924E0,3.6907644E0,2.122012E0,1.9249258E0,4.3201256E0,3.015492E0,1.9476074E-1,0E0,0E0,1.4656248E0,4.2769694E0,4.898257E0,3.637693E0,2.1475325E0,0E0,0E0,0E0,0E0,0E0,0E0,0E0,0E0,0E0,0E0,0E0,0E0],"parents":[2147483647,0,0,1,1,2,2,3,3,4,4,5,5,6,6,7,7,10,10,11,11,12,12,13,13,14,14],"right_children":[2,4,6,8,10,12,14,16,-1,-1,18,20,22,24,26,-1,-1,-1,-1,-1,-1,-1,-1,-1,-1,-1,-1],"split_conditions":[1.125E0,1.55E1,1.5799866E3,8.375E1,1.3279486E3,4.675E1,2.76875E2,4.65E1,2.3343076E-1,1.3963123E-1,1.57375E2,1.5546652E3,3.375E0,3.125E0,3.875E0,-1.3956793E-1,6.2286113E-3,8.735756E-2,-1.6806039E-1,-2.3305345E-2,1.2053345E-1,1.1054579E-1,-6.0535192E-2,-9.467234E-2,7.474239E-2,-1.8761022E-2,1.9995885E-1],"split_indices":[28,13,5,26,5,8,17,8,0,0,17,3,28,28,20,0,0,0,0,0,0,0,0,0,0,0,0],"split_type":[0,0,0,0,0,0,0,0,0,0,0,0,0,0,0,0,0,0,0,0,0,0,0,0,0,0,0],"sum_hessian":[4.187134E2,3.8398518E1,3.8031488E2,5.6253843E0,3.2773136E1,2.7638263E2,1.0393225E2,2.51725E0,3.1081343E0,1.4009672E0,3.1372168E1,1.9081027E2,8.557236E1,8.853665E1,1.5395597E1,1.3812059E0,1.1360441E0,1.567488E0,2.980468E1,1.7094441E2,1.9865873E1,6.692047E1,1.8651892E1,7.591037E1,1.2626281E1,9.611252E0,5.7843456E0],"tree_param":{"num_deleted":"0","num_feature":"31","num_nodes":"27","size_leaf_vector":"0"}},{"base_weights":[2.430489E-2,-2.1402656E-1,5.605033E-2,-3.7012026E-1,1.5043217E-3,2.5839376E-1,1.7301517E-2,4.026847E-1,-4.565821E-1,3.046473E-1,-3.2259047E-1,3.1122014E-1,-6.645838E-1,2.5559065E-1,-2.4957614E-2,-3.428246E-1,9.071768E-1,-6.4027977E-1,-2.032704E-1,-5.040548E-2,6.3773096E-1,-6.113827E-1,1.4017099E-1,3.9205074E-1,-2.610125E-1,9.581297E-2,5.408816E-1,-5.966369E-2,2.0060931E-1],"categories":[],"categories_nodes":[],"categories_segments":[],"categories_sizes":[],"default_left":[1,1,1,1,1,1,1,1,1,1,1,1,0,1,1,0,0,0,0,0,0,0,0,0,0,0,0,0,0],"id":12,"left_children":[1,3,5,7,9,11,13,15,17,19,21,23,-1,25,27,-1,-1,-1,-1,-1,-1,-1,-1,-1,-1,-1,-1,-1,-1],"loss_changes":[3.1250203E0,1.6346176E0,2.8485708E0,2.0663588E0,2.2004774E0,3.0548615E0,3.092498E0,1.5770648E0,1.0707331E0,1.4004651E0,1.5326221E0,2.689353E0,0E0,2.0565183E0,2.0569198E0,0E0,0E0,0E0,0E0,0E0,0E0,0E0,0E0,0E0,0E0,0E0,0E0,0E0,0E0],"parents":[2147483647,0,0,1,1,2,2,3,3,4,4,5,5,6,6,7,7,8,8,9,9,10,10,11,11,13,13,14,14],"right_children":[2,4,6,8,10,12,14,16,18,20,22,24,-1,26,28,-1,-1,-1,-1,-1,-1,-1,-1,-1,-1,-1,-1,-1,-1],"split_conditions":[1.437E0,2.875E0,8.35E1,1.54625E2,1.01E2,1.79375E2,3.375E0,1.4315172E3,8.75E-1,9.825E1,1E0,3.01875E2,-1.9937515E-1,4.875E0,5.875E0,-1.0284739E-1,2.7215305E-1,-1.9208394E-1,-6.0981125E-2,-1.5121644E-2,1.913193E-1,-1.8341482E-1,4.20513E-2,1.1761523E-1,-7.8303754E-2,2.8743891E-2,1.6226448E-1,-1.7899107E-2,6.0182795E-2],"split_indices":[0,29,26,16,24,23,20,1,11,25,12,16,0,21,20,0,0,0,0,0,0,0,0,0,0,0,0,0,0],"split_type":[0,0,0,0,0,0,0,0,0,0,0,0,0,0,0,0,0,0,0,0,0,0,0,0,0,0,0,0,0],"sum_hessian":[4.1045258E2,4.7570587E1,3.62882E2,2.7173502E1,2.0397087E1,5.7412056E1,3.0546994E2,2.366259E0,2.4807243E1,1.0570213E1,9.826874E0,5.493091E1,2.4811478E0,4.5252686E1,2.6021725E2,1.0843401E0,1.2819191E0,1.3493982E1,1.131326E1,5.5271645E0,5.0430484E0,5.8530445E0,3.9738295E0,4.8407932E1,6.5229764E0,2.986345E1,1.5389236E1,2.2615604E2,3.4061222E1],"tree_param":{"num_deleted":"0","num_feature":"31","num_nodes":"29","size_leaf_vector":"0"}},{"base_weights":[-2.4304897E-2,2.1402654E-1,-5.6050334E-2,3.7012026E-1,-1.5043126E-3,-2.5839376E-1,-1.7301524E-2,-4.0268472E-1,4.565821E-1,-3.046473E-1,3.2259047E-1,-3.1122014E-1,6.645838E-1,-2.5559065E-1,2.4957605E-2,3.4282458E-1,-9.071768E-1,6.402797E-1,2.032704E-1,5.040549E-2,-6.3773096E-1,6.113827E-1,-1.4017099E-1,-3.9205074E-1,2.6101246E-1,-9.581297E-2,-5.408815E-1,5.966368E-2,-2.0060933E-1],"categories":[],"categories_nodes":[],"categories_segments":[],"categories_sizes":[],"default_left":[1,1,1,1,1,1,1,1,1,1,1,1,0,1,1,0,0,0,0,0,0,0,0,0,0,0,0,0,0],"id":13,"left_children":[1,3,5,7,9,11,13,15,17,19,21,23,-1,25,27,-1,-1,-1,-1,-1,-1,-1,-1,-1,-1,-1,-1,-1,-1],"loss_changes":[3.1250203E0,1.6346176E0,2.8485706E0,2.0663593E0,2.2004774E0,3.0548615E0,3.0924978E0,1.5770646E0,1.0707321E0,1.4004649E0,1.5326221E0,2.689353E0,0E0,2.0565183E0,2.0569196E0,0E0,0E0,0E0,0E0,0E0,0E0,0E0,0E0,0E0,0E0,0E0,0E0,0E0,0E0],"parents":[2147483647,0,0,1,1,2,2,3,3,4,4,5,5,6,6,7,7,8,8,9,9,10,10,11,11,13,13,14,14],"right_children":[2,4,6,8,10,12,14,16,18,20,22,24,-1,26,28,-1,-1,-1,-1,-1,-1,-1,-1,-1,-1,-1,-1,-1,-1],"split_conditions":[1.437E0,2.875E0,8.35E1,1.54625E2,1.01E2,1.79375E2,3.375E0,1.4315172E3,8.75E-1,9.825E1,1E0,3.01875E2,1.9937515E-1,4.875E0,5.875E0,1.02847375E-1,-2.7215305E-1,1.9208393E-1,6.0981125E-2,1.5121648E-2,-1.913193E-1,1.8341482E-1,-4.20513E-2,-1.1761523E-1,7.830374E-2,-2.8743891E-2,-1.6226447E-1,1.7899105E-2,-6.01828E-2],"split_indices":[0,29,26,16,24,23,20,1,11,25,12,16,0,21,20,0,0,0,0,0,0,0,0,0,0,0,0,0,0],"split_type":[0,0,0,0,0,0,0,0,0,0,0,0,0,0,0,0,0,0,0,0,0,0,0,0,0,0,0,0,0],"sum_hessian":[4.1045258E2,4.7570587E1,3.62882E2,2.71735E1,2.0397087E1,5.7412056E1,3.0546994E2,2.366259E0,2.4807241E1,1.0570213E1,9.826874E0,5.493091E1,2.4811478E0,4.5252686E1,2.6021725E2,1.08434E0,1.2819191E0,1.3493982E1,1.131326E1,5.5271645E0,5.0430484E0,5.8530445E0,3.9738295E0,4.8407932E1,6.5229764E0,2.986345E1,1.5389236E1,2.2615604E2,3.4061222E1],"tree_param":{"num_deleted":"0","num_feature":"31","num_nodes":"29","size_leaf_vector":"0"}},{"base_weights":[1.7385708E-2,2.1384893E-1,-1.865397E-2,2.8257045E-1,-4.5545396E-1,-3.1730843E-1,5.8358237E-3,-3.0724285E-2,4.1723785E-1,-9.5591956E-1,3.8845912E-1,-4.5964667E-1,3.4837794E-1,2.576401E-2,-3.7142918E-1,2.9438612E-1,-5.2394664E-1,-1.2355195E-1,4.6411592E-1,-5.726668E-1,4.673506E-1,-1.2622572E-1,4.9771318E-1,1.2926906E-1,-6.8296075E-2,-4.3536797E-2,-6.944099E-1],"categories":[],"categories_nodes":[],"categories_segments":[],"categories_sizes":[],"default_left":[1,1,1,1,1,1,1,1,1,0,0,1,1,1,1,0,0,0,0,0,0,0,0,0,0,0,0],"id":14,"left_children":[1,3,5,7,9,11,13,15,17,-1,-1,19,21,23,25,-1,-1,-1,-1,-1,-1,-1,-1,-1,-1,-1,-1],"loss_changes":[2.8528883E0,3.0010738E0,2.4952703E0,2.4282804E0,2.9889932E0,2.6098964E0,2.3857493E0,3.063407E0,1.0741477E0,0E0,0E0,2.5443878E0,4.2593414E-1,2.9405818E0,1.6559784E0,0E0,0E0,0E0,0E0,0E0,0E0,0E0,0E0,0E0,0E0,0E0,0E0],"parents":[2147483647,0,0,1,1,2,2,3,3,4,4,5,5,6,6,7,7,8,8,11,11,12,12,13,13,14,14],"right_children":[2,4,6,8,10,12,14,16,18,-1,-1,20,22,24,26,-1,-1,-1,-1,-1,-1,-1,-1,-1,-1,-1,-1],"split_conditions":[1.3974081E3,2.73375E2,1.4205615E3,1.835E2,2.375E0,4.345E0,3.1875E1,2.875E0,3.625E0,-2.867759E-1,1.1653774E-1,1.37E2,1.3252338E3,1.5430142E3,1.4482804E3,8.831584E-2,-1.57184E-1,-3.7065588E-2,1.3923478E-1,-1.7180005E-1,1.4020519E-1,-3.7867717E-2,1.4931396E-1,3.878072E-2,-2.0488823E-2,-1.306104E-2,-2.0832299E-1],"split_indices":[4,15,2,15,29,0,14,28,19,0,0,23,2,2,5,0,0,0,0,0,0,0,0,0,0,0,0],"split_type":[0,0,0,0,0,0,0,0,0,0,0,0,0,0,0,0,0,0,0,0,0,0,0,0,0,0,0],"sum_hessian":[4.013601E2,6.1449036E1,3.3991107E2,5.6251186E1,5.1978483E0,2.4854328E1,3.1505673E2,1.7142395E1,3.910879E1,3.1795547E0,2.0182934E0,2.0731085E1,4.1232433E0,3.001345E2,1.4922231E1,1.0574976E1,6.56742E0,2.9892237E0,3.6119568E1,1.8818907E1,1.9121791E0,1.0239062E0,3.0993369E0,1.427148E2,1.5741971E2,7.9679284E0,6.954302E0],"tree_param":{"num_deleted":"0","num_feature":"31","num_nodes":"27","size_leaf_vector":"0"}},{"base_weights":[-1.7385714E-2,-2.1384893E-1,1.8653965E-2,-2.8257045E-1,4.5545396E-1,3.1730843E-1,-5.835829E-3,3.0724289E-2,-4.1723785E-1,9.559195E-1,-3.884591E-1,4.5964667E-1,-3.4837797E-1,-2.5764016E-2,3.714292E-1,-2.9438612E-1,5.2394664E-1,1.2355196E-1,-4.6411592E-1,5.726668E-1,-4.6735063E-1,1.2622568E-1,-4.9771318E-1,-1.2926906E-1,6.829607E-2,4.3536816E-2,6.944099E-1],"categories":[],"categories_nodes":[],"categories_segments":[],"categories_sizes":[],"default_left":[1,1,1,1,1,1,1,1,1,0,0,1,1,1,1,0,0,0,0,0,0,0,0,0,0,0,0],"id":15,"left_children":[1,3,5,7,9,11,13,15,17,-1,-1,19,21,23,25,-1,-1,-1,-1,-1,-1,-1,-1,-1,-1,-1,-1],"loss_changes":[2.8528886E0,3.0010731E0,2.4952703E0,2.4282808E0,2.9889932E0,2.609897E0,2.3857498E0,3.063407E0,1.0741477E0,0E0,0E0,2.5443883E0,4.2593426E-1,2.9405816E0,1.6559782E0,0E0,0E0,0E0,0E0,0E0,0E0,0E0,0E0,0E0,0E0,0E0,0E0],"parents":[2147483647,0,0,1,1,2,2,3,3,4,4,5,5,6,6,7,7,8,8,11,11,12,12,13,13,14,14],"right_children":[2,4,6,8,10,12,14,16,18,-1,-1,20,22,24,26,-1,-1,-1,-1,-1,-1,-1,-1,-1,-1,-1,-1],"split_conditions":[1.3974081E3,2.73375E2,1.4205615E3,1.835E2,2.375E0,4.345E0,3.1875E1,2.875E0,3.625E0,2.8677586E-1,-1.1653773E-1,1.37E2,1.3252338E3,1.5430142E3,1.4482804E3,-8.831584E-2,1.57184E-1,3.7065588E-2,-1.3923478E-1,1.7180005E-1,-1.4020519E-1,3.7867706E-2,-1.4931396E-1,-3.878072E-2,2.0488821E-2,1.3061046E-2,2.0832299E-1],"split_indices":[4,15,2,15,29,0,14,28,19,0,0,23,2,2,5,0,0,0,0,0,0,0,0,0,0,0,0],"split_type":[0,0,0,0,0,0,0,0,0,0,0,0,0,0,0,0,0,0,0,0,0,0,0,0,0,0,0],"sum_hessian":[4.013601E2,6.1449036E1,3.3991107E2,5.625119E1,5.1978483E0,2.4854328E1,3.1505673E2,1.7142395E1,3.910879E1,3.179555E0,2.0182934E0,2.0731085E1,4.1232433E0,3.001345E2,1.4922231E1,1.0574976E1,6.56742E0,2.989224E0,3.6119568E1,1.8818907E1,1.9121791E0,1.0239062E0,3.0993369E0,1.427148E2,1.5741971E2,7.9679284E0,6.9543023E0],"tree_param":{"num_deleted":"0","num_feature":"31","num_nodes":"27","size_leaf_vector":"0"}},{"base_weights":[1.3045677E-2,-1.5821336E-3,3.4940022E-1,7.65694E-2,-6.511072E-2,-2.5786963E-1,4.7086105E-1,9.821312E-3,3.2617065E-1,7.405068E-2,-1.5155652E-1,1.2212193E-1,-4.718233E-1,5.636732E-1,-1.87083E-1,-1.7093281E-1,1.0760913E-1,4.4390798E-1,-5.2438664E-1,3.4056562E-1,-1.1389573E-1,6.6324234E-2,-2.3739783E-1,6.558254E-1,-1.0538419E-1],"categories":[],"categories_nodes":[],"categories_segments":[],"categories_sizes":[],"default_left":[1,1,1,1,1,1,1,1,1,1,1,0,0,1,0,0,0,0,0,0,0,0,0,0,0],"id":16,"left_children":[1,3,5,7,9,11,13,15,17,19,21,-1,-1,23,-1,-1,-1,-1,-1,-1,-1,-1,-1,-1,-1],"loss_changes":[1.9432033E0,1.8885386E0,1.3355057E0,2.8385649E0,2.5351837E0,3.3319715E-1,9.6466756E-1,2.4154074E0,3.833736E0,4.0992975E0,2.442361E0,0E0,0E0,8.447454E-1,0E0,0E0,0E0,0E0,0E0,0E0,0E0,0E0,0E0,0E0,0E0],"parents":[2147483647,0,0,1,1,2,2,3,3,4,4,5,5,6,6,7,7,8,8,9,9,10,10,13,13],"right_children":[2,4,6,8,10,12,14,16,18,20,22,-1,-1,24,-1,-1,-1,-1,-1,-1,-1,-1,-1,-1,-1],"split_conditions":[1.66875E2,1.06625E2,7.2125E1,1.00375E2,4.375E0,1.825E1,3.55E1,2.1875E2,2.84375E2,2.2125E1,1.625E0,3.663658E-2,-1.41547E-1,1.5911958E3,-5.6124903E-2,-5.1279847E-2,3.228274E-2,1.331724E-1,-1.57316E-1,1.0216969E-1,-3.416872E-2,1.9897271E-2,-7.1219355E-2,1.9674762E-1,-3.161526E-2],"split_indices":[25,26,24,26,20,7,13,16,16,6,30,0,0,4,0,0,0,0,0,0,0,0,0,0,0],"split_type":[0,0,0,0,0,0,0,0,0,0,0,0,0,0,0,0,0,0,0,0,0,0,0,0,0],"sum_hessian":[3.9383716E2,3.7837714E2,1.5460046E1,1.6957018E2,2.0880695E2,2.3896089E0,1.30704365E1,1.3461179E2,3.4958385E1,8.00634E1,1.2874355E2,1.015409E0,1.3741999E0,1.15801735E1,1.4902632E0,4.699561E1,8.761618E1,3.1127674E1,3.830711E0,3.2775085E1,4.728832E1,3.6451195E1,9.229235E1,1.0195659E1,1.384515E0],"tree_param":{"num_deleted":"0","num_feature":"31","num_nodes":"25","size_leaf_vector":"0"}},{"base_weights":[-1.3045674E-2,1.5821374E-3,-3.4940022E-1,-7.656939E-2,6.511072E-2,2.5786963E-1,-4.7086108E-1,-9.821309E-3,-3.2617065E-1,-7.405067E-2,1.5155652E-1,-1.2212188E-1,4.7182328E-1,-5.636732E-1,1.8708299E-1,1.7093283E-1,-1.0760913E-1,-4.4390798E-1,5.243867E-1,-3.4056562E-1,1.1389573E-1,-6.6324234E-2,2.3739785E-1,-6.558254E-1,1.0538419E-1],"categories":[],"categories_nodes":[],"categories_segments":[],"categories_sizes":[],"default_left":[1,1,1,1,1,1,1,1,1,1,1,0,0,1,0,0,0,0,0,0,0,0,0,0,0],"id":17,"left_children":[1,3,5,7,9,11,13,15,17,19,21,-1,-1,23,-1,-1,-1,-1,-1,-1,-1,-1,-1,-1,-1],"loss_changes":[1.9432033E0,1.8885384E0,1.3355057E0,2.8385649E0,2.5351834E0,3.3319703E-1,9.6466756E-1,2.4154074E0,3.8337364E0,4.0992975E0,2.442361E0,0E0,0E0,8.447454E-1,0E0,0E0,0E0,0E0,0E0,0E0,0E0,0E0,0E0,0E0,0E0],"parents":[2147483647,0,0,1,1,2,2,3,3,4,4,5,5,6,6,7,7,8,8,9,9,10,10,13,13],"right_children":[2,4,6,8,10,12,14,16,18,20,22,-1,-1,24,-1,-1,-1,-1,-1,-1,-1,-1,-1,-1,-1],"split_conditions":[1.66875E2,1.06625E2,7.2125E1,1.00375E2,4.375E0,1.825E1,3.55E1,2.1875E2,2.84375E2,2.2125E1,1.625E0,-3.6636565E-2,1.41547E-1,1.5911958E3,5.61249E-2,5.127985E-2,-3.228274E-2,-1.331724E-1,1.5731601E-1,-1.0216969E-1,3.416872E-2,-1.9897271E-2,7.1219355E-2,-1.9674762E-1,3.161526E-2],"split_indices":[25,26,24,26,20,7,13,16,16,6,30,0,0,4,0,0,0,0,0,0,0,0,0,0,0],"split_type":[0,0,0,0,0,0,0,0,0,0,0,0,0,0,0,0,0,0,0,0,0,0,0,0,0],"sum_hessian":[3.9383716E2,3.7837714E2,1.5460046E1,1.6957018E2,2.0880695E2,2.3896089E0,1.30704365E1,1.3461179E2,3.4958385E1,8.00634E1,1.2874355E2,1.015409E0,1.3741999E0,1.15801735E1,1.4902632E0,4.699561E1,8.761618E1,3.1127674E1,3.830711E0,3.2775085E1,4.728832E1,3.6451195E1,9.229235E1,1.0195659E1,1.384515E0],"tree_param":{"num_deleted":"0","num_feature":"31","num_nodes":"25","size_leaf_vector":"0"}},{"base_weights":[1.0167844E-2,-6.6563785E-1,1.6450355E-2,3.3035025E-1,1.7026715E-3,-2.3796879E-1,4.509096E-1,1.2207337E-2,-3.9406034E-1,3.4730744E-1,-6.1461204E-1,1.3981125E-1,5.5327773E-1,-2.0220287E-3,3.3048904E-1,-5.787644E-1,5.615321E-1],"categories":[],"categories_nodes":[],"categories_segments":[],"categories_sizes":[],"default_left":[1,0,1,1,1,1,1,1,1,0,0,0,0,0,0,0,0],"id":18,"left_children":[1,-1,3,5,7,9,11,13,15,-1,-1,-1,-1,-1,-1,-1,-1],"loss_changes":[1.6575235E0,0E0,1.7827353E0,1.2913388E0,1.5386217E0,1.0244361E0,3.8767648E-1,1.6327622E0,2.0140326E0,0E0,0E0,0E0,0E0,0E0,0E0,0E0,0E0],"parents":[2147483647,0,0,2,2,3,3,4,4,5,5,6,6,7,7,8,8],"right_children":[2,-1,4,6,8,10,12,14,16,-1,-1,-1,-1,-1,-1,-1,-1],"split_conditions":[6.25E-1,-1.9969137E-1,8.75E-1,1.5375E1,3.35E2,8.375E1,1.4238527E3,3.24875E2,5.625E0,1.04192235E-1,-1.8438362E-1,4.1943375E-2,1.6598332E-1,-6.0660864E-4,9.914672E-2,-1.7362931E-1,1.6845962E-1],"split_indices":[30,0,28,13,16,26,4,15,21,0,0,0,0,0,0,0,0],"split_type":[0,0,0,0,0,0,0,0,0,0,0,0,0,0,0,0,0],"sum_hessian":[3.8681622E2,2.5961773E0,3.8422006E2,1.6281126E1,3.6793893E2,2.6788943E0,1.3602232E1,3.5936942E2,8.569521E0,1.0794284E0,1.5994658E0,3.9534395E0,9.648792E0,3.449418E2,1.4427606E1,7.511904E0,1.0576174E0],"tree_param":{"num_deleted":"0","num_feature":"31","num_nodes":"17","size_leaf_vector":"0"}},{"base_weights":[-1.0167844E-2,6.6563785E-1,-1.6450355E-2,-3.3035025E-1,-1.7026737E-3,2.379688E-1,-4.5090958E-1,-1.2207339E-2,3.9406034E-1,-3.4730747E-1,6.1461204E-1,-1.3981122E-1,-5.5327773E-1,2.0220275E-3,-3.3048907E-1,5.787644E-1,-5.615321E-1],"categories":[],"categories_nodes":[],"categories_segments":[],"categories_sizes":[],"default_left":[1,0,1,1,1,1,1,1,1,0,0,0,0,0,0,0,0],"id":19,"left_children":[1,-1,3,5,7,9,11,13,15,-1,-1,-1,-1,-1,-1,-1,-1],"loss_changes":[1.6575235E0,0E0,1.7827349E0,1.291339E0,1.5386215E0,1.0244362E0,3.8767672E-1,1.6327624E0,2.0140328E0,0E0,0E0,0E0,0E0,0E0,0E0,0E0,0E0],"parents":[2147483647,0,0,2,2,3,3,4,4,5,5,6,6,7,7,8,8],"right_children":[2,-1,4,6,8,10,12,14,16,-1,-1,-1,-1,-1,-1,-1,-1],"split_conditions":[6.25E-1,1.9969137E-1,8.75E-1,1.5375E1,3.35E2,8.375E1,1.4238527E3,3.24875E2,5.625E0,-1.0419225E-1,1.8438362E-1,-4.1943368E-2,-1.6598332E-1,6.066083E-4,-9.9146724E-2,1.7362931E-1,-1.6845962E-1],"split_indices":[30,0,28,13,16,26,4,15,21,0,0,0,0,0,0,0,0],"split_type":[0,0,0,0,0,0,0,0,0,0,0,0,0,0,0,0,0],"sum_hessian":[3.8681622E2,2.5961776E0,3.8422006E2,1.6281126E1,3.6793893E2,2.6788943E0,1.3602232E1,3.5936942E2,8.569521E0,1.0794284E0,1.5994658E0,3.9534395E0,9.648792E0,3.449418E2,1.4427606E1,7.511904E0,1.0576175E0],"tree_param":{"num_deleted":"0","num_feature":"31","num_nodes":"17","size_leaf_vector":"0"}},{"base_weights":[7.486583E-3,-2.3956315E-3,4.440878E-1,-1.3009317E-2,3.942212E-1,5.107619E-1,-2.6506733E-2,1.5516499E-1,-3.554572E-2,-2.255954E-1,5.479553E-1,3.6736014E-1,-7.936361E-2,-2.4247399E-2,-5.8575654E-1,6.497927E-1,-5.749105E-2],"categories":[],"categories_nodes":[],"categories_segments":[],"categories_sizes":[],"default_left":[1,1,1,1,1,0,0,1,1,0,1,0,0,0,0,0,0],"id":20,"left_children":[1,3,5,7,9,-1,-1,11,13,-1,15,-1,-1,-1,-1,-1,-1],"loss_changes":[1.6648855E0,1.5967085E0,2.8151286E-1,1.404801E0,1.0656275E0,0E0,0E0,2.2096462E0,2.0147583E0,0E0,5.437436E-1,0E0,0E0,0E0,0E0,0E0,0E0],"parents":[2147483647,0,0,1,1,2,2,3,3,4,4,7,7,8,8,10,10],"right_children":[2,4,6,8,10,-1,-1,12,14,-1,16,-1,-1,-1,-1,-1,-1],"split_conditions":[7.02E0,1.7825E2,2.62E2,1.3857362E3,1.705E2,1.5322858E-1,-7.9520205E-3,1.095E2,1.72625E2,-6.767862E-2,3.125E0,1.1020805E-1,-2.3809083E-2,-7.2742198E-3,-1.7572697E-1,1.9493781E-1,-1.7247315E-2],"split_indices":[0,24,15,4,16,0,0,24,24,0,27,0,0,0,0,0,0],"split_type":[0,0,0,0,0,0,0,0,0,0,0,0,0,0,0,0,0],"sum_hessian":[3.8462704E2,3.7708643E2,7.5406194E0,3.6820038E2,8.886046E0,6.53008E0,1.0105398E0,4.281503E1,3.2538538E2,1.6730994E0,7.2129474E0,2.218041E1,2.0634617E1,3.1986124E2,5.5241313E0,6.1117005E0,1.1012468E0],"tree_param":{"num_deleted":"0","num_feature":"31","num_nodes":"17","size_leaf_vector":"0"}},{"base_weights":[-7.486583E-3,2.3956324E-3,-4.440878E-1,1.3009317E-2,-3.9422116E-1,-5.107619E-1,2.6506744E-2,-1.5516497E-1,3.5545718E-2,2.2559543E-1,-5.479553E-1,-3.6736012E-1,7.936361E-2,2.4247397E-2,5.8575654E-1,-6.497927E-1,5.749105E-2],"categories":[],"categories_nodes":[],"categories_segments":[],"categories_sizes":[],"default_left":[1,1,1,1,1,0,0,1,1,0,1,0,0,0,0,0,0],"id":21,"left_children":[1,3,5,7,9,-1,-1,11,13,-1,15,-1,-1,-1,-1,-1,-1],"loss_changes":[1.6648856E0,1.5967084E0,2.815131E-1,1.404801E0,1.0656276E0,0E0,0E0,2.2096462E0,2.014758E0,0E0,5.4374313E-1,0E0,0E0,0E0,0E0,0E0,0E0],"parents":[2147483647,0,0,1,1,2,2,3,3,4,4,7,7,8,8,10,10],"right_children":[2,4,6,8,10,-1,-1,12,14,-1,16,-1,-1,-1,-1,-1,-1],"split_conditions":[7.02E0,1.7825E2,2.62E2,1.3857362E3,1.705E2,-1.5322858E-1,7.952023E-3,1.095E2,1.72625E2,6.767863E-2,3.125E0,-1.1020804E-1,2.3809083E-2,7.2742193E-3,1.7572697E-1,-1.9493781E-1,1.7247315E-2],"split_indices":[0,24,15,4,16,0,0,24,24,0,27,0,0,0,0,0,0],"split_type":[0,0,0,0,0,0,0,0,0,0,0,0,0,0,0,0,0],"sum_hessian":[3.8462704E2,3.7708643E2,7.54062E0,3.6820038E2,8.886046E0,6.53008E0,1.0105398E0,4.2815025E1,3.2538538E2,1.6730994E0,7.2129474E0,2.218041E1,2.0634617E1,3.1986124E2,5.5241313E0,6.1117005E0,1.1012467E0],"tree_param":{"num_deleted":"0","num_feature":"31","num_nodes":"17","size_leaf_vector":"0"}},{"base_weights":[6.4655365E-3,1.8347489E-2,-3.2227832E-1,1.0731544E-1,-3.9040975E-2,2.8940138E-1,-5.003362E-1,-1.7565374E-1,1.528492E-1,-2.6639017E-1,9.985617E-3,4.9180123E-1,-1.1890199E-1,-1.4181789E-3,-7.752754E-1,-3.4126997E-1,5.268979E-1,3.7961453E-1,9.012389E-2,-3.2795116E-1,2.7833933E-1,6.376846E-2,-2.3585786E-1,-4.0604588E-1,4.2801303E-1],"categories":[],"categories_nodes":[],"categories_segments":[],"categories_sizes":[],"default_left":[1,1,1,1,1,1,1,1,1,1,1,0,0,1,0,0,0,0,0,0,0,0,0,0,0],"id":22,"left_children":[1,3,5,7,9,11,13,15,17,19,21,-1,-1,23,-1,-1,-1,-1,-1,-1,-1,-1,-1,-1,-1],"loss_changes":[1.4971472E0,1.8902361E0,1.6010916E0,1.8965781E0,2.51372E0,3.599682E-1,1.4697645E0,2.5743065E0,1.7513676E0,1.4326327E0,2.478133E0,0E0,0E0,1.009831E0,0E0,0E0,0E0,0E0,0E0,0E0,0E0,0E0,0E0,0E0,0E0],"parents":[2147483647,0,0,1,1,2,2,3,3,4,4,5,5,6,6,7,7,8,8,9,9,10,10,13,13],"right_children":[2,4,6,8,10,12,14,16,18,20,22,-1,-1,24,-1,-1,-1,-1,-1,-1,-1,-1,-1,-1,-1],"split_conditions":[3.115E2,6.25E-1,2.875E0,1.835E2,1.5174999E0,2.325E2,2.0875E2,1.4625E2,2.02125E2,3.245E2,2.7625E1,1.4754038E-1,-3.5670597E-2,2.18E0,-2.3258263E-1,-1.02381E-1,1.5806937E-1,1.1388437E-1,2.7037168E-2,-9.838536E-2,8.35018E-2,1.913054E-2,-7.075736E-2,-1.2181377E-1,1.2840392E-1],"split_indices":[18,10,22,15,0,16,17,24,17,15,6,0,0,0,0,0,0,0,0,0,0,0,0,0,0],"split_type":[0,0,0,0,0,0,0,0,0,0,0,0,0,0,0,0,0,0,0,0,0,0,0,0,0],"sum_hessian":[3.807687E2,3.6839774E2,1.2370993E1,1.4411295E2,2.2428479E2,2.6482332E0,9.722759E0,1.9579378E1,1.2453356E2,3.8999634E1,1.8528516E2,1.633829E0,1.0144042E0,3.811459E0,5.9113007E0,1.6260456E1,3.318921E0,2.588863E1,9.864493E1,3.5397274E1,3.602362E0,1.5263419E2,3.2650963E1,1.9904406E0,1.8210185E0],"tree_param":{"num_deleted":"0","num_feature":"31","num_nodes":"25","size_leaf_vector":"0"}},{"base_weights":[-6.4655375E-3,-1.834749E-2,3.2227835E-1,-1.07315436E-1,3.904097E-2,-2.8940135E-1,5.003362E-1,1.7565377E-1,-1.528492E-1,2.6639017E-1,-9.985618E-3,-4.9180123E-1,1.18902005E-1,1.4182007E-3,7.752754E-1,3.4126997E-1,-5.268979E-1,-3.7961453E-1,-9.012389E-2,3.2795116E-1,-2.7833933E-1,-6.376846E-2,2.3585786E-1,4.0604588E-1,-4.28013E-1],"categories":[],"categories_nodes":[],"categories_segments":[],"categories_sizes":[],"default_left":[1,1,1,1,1,1,1,1,1,1,1,0,0,1,0,0,0,0,0,0,0,0,0,0,0],"id":23,"left_children":[1,3,5,7,9,11,13,15,17,19,21,-1,-1,23,-1,-1,-1,-1,-1,-1,-1,-1,-1,-1,-1],"loss_changes":[1.4971474E0,1.8902361E0,1.6010916E0,1.8965781E0,2.5137196E0,3.5996816E-1,1.4697642E0,2.5743065E0,1.7513676E0,1.4326327E0,2.4781327E0,0E0,0E0,1.0098308E0,0E0,0E0,0E0,0E0,0E0,0E0,0E0,0E0,0E0,0E0,0E0],"parents":[2147483647,0,0,1,1,2,2,3,3,4,4,5,5,6,6,7,7,8,8,9,9,10,10,13,13],"right_children":[2,4,6,8,10,12,14,16,18,20,22,-1,-1,24,-1,-1,-1,-1,-1,-1,-1,-1,-1,-1,-1],"split_conditions":[3.115E2,6.25E-1,2.875E0,1.835E2,1.5174999E0,2.325E2,2.0875E2,1.4625E2,2.02125E2,3.245E2,2.7625E1,-1.4754038E-1,3.5670605E-2,2.18E0,2.3258263E-1,1.02381E-1,-1.5806937E-1,-1.1388437E-1,-2.7037168E-2,9.838536E-2,-8.35018E-2,-1.913054E-2,7.075736E-2,1.2181377E-1,-1.284039E-1],"split_indices":[18,10,22,15,0,16,17,24,17,15,6,0,0,0,0,0,0,0,0,0,0,0,0,0,0],"split_type":[0,0,0,0,0,0,0,0,0,0,0,0,0,0,0,0,0,0,0,0,0,0,0,0,0],"sum_hessian":[3.807687E2,3.6839774E2,1.2370993E1,1.4411295E2,2.2428479E2,2.6482334E0,9.722759E0,1.9579378E1,1.2453356E2,3.8999634E1,1.8528516E2,1.6338291E0,1.0144043E0,3.8114588E0,5.9113007E0,1.6260456E1,3.3189209E0,2.588863E1,9.8644936E1,3.5397274E1,3.602362E0,1.5263419E2,3.2650963E1,1.9904406E0,1.8210182E0],"tree_param":{"num_deleted":"0","num_feature":"31","num_nodes":"25","size_leaf_vector":"0"}},{"base_weights":[4.541822E-3,-5.373081E-2,7.7273026E-2,-1.5351273E-1,5.3204264E-2,-1.6638719E-1,1.2200173E-1,2.2276112E-1,-2.1444377E-1,1.7143E-3,3.5865283E-1,-3.6385193E-1,1.5438691E-1,-3.5733503E-1,1.5305126E-1,-2.9070845E-1,4.5830098E-1,-2.9840237E-1,9.874725E-2,8.433655E-2,-2.7630186E-1,4.3654048E-1,-2.304049E-1,-5.751108E-2,-6.454976E-1,-2.0014298E-1,4.4706E-1,3.0430365E-1,-6.0835063E-1,1.7152171E-1,-5.686842E-1],"categories":[],"categories_nodes":[],"categories_segments":[],"categories_sizes":[],"default_left":[1,1,1,1,1,1,1,1,1,1,1,1,1,1,1,0,0,0,0,0,0,0,0,0,0,0,0,0,0,0,0],"id":24,"left_children":[1,3,5,7,9,11,13,15,17,19,21,23,25,27,29,-1,-1,-1,-1,-1,-1,-1,-1,-1,-1,-1,-1,-1,-1,-1,-1],"loss_changes":[1.5916696E0,2.2333832E0,1.8406396E0,2.5270262E0,1.5942669E0,1.7238555E0,2.1635866E0,2.0152376E0,2.4900808E0,2.0397146E0,7.715163E-1,1.3946328E0,1.2032512E0,1.6665777E0,1.8808877E0,0E0,0E0,0E0,0E0,0E0,0E0,0E0,0E0,0E0,0E0,0E0,0E0,0E0,0E0,0E0,0E0],"parents":[2147483647,0,0,1,1,2,2,3,3,4,4,5,5,6,6,7,7,8,8,9,9,10,10,11,11,12,12,13,13,14,14],"right_children":[2,4,6,8,10,12,14,16,18,20,22,24,26,28,30,-1,-1,-1,-1,-1,-1,-1,-1,-1,-1,-1,-1,-1,-1,-1,-1],"split_conditions":[8.75E-1,2.375E0,1.89375E2,3.375E0,5.075E1,2.445E2,1.3283435E3,2.13E0,5.625E0,1.5836235E3,3.33625E2,2.125E0,1.4411252E3,3.75E-1,1.77375E2,-8.721254E-2,1.374903E-1,-8.9520715E-2,2.9624177E-2,2.5300967E-2,-8.289056E-2,1.3096215E-1,-6.912147E-2,-1.7253324E-2,-1.9364929E-1,-6.0042895E-2,1.34118E-1,9.12911E-2,-1.8250519E-1,5.1456515E-2,-1.7060527E-1],"split_indices":[11,29,16,22,8,18,3,0,20,4,16,30,5,9,26,0,0,0,0,0,0,0,0,0,0,0,0,0,0,0,0],"split_type":[0,0,0,0,0,0,0,0,0,0,0,0,0,0,0,0,0,0,0,0,0,0,0,0,0,0,0,0,0,0,0],"sum_hessian":[3.7357013E2,2.0754512E2,1.6602502E2,1.0713814E2,1.00406975E2,2.5328386E1,1.4069662E2,1.4561152E1,9.257698E1,8.678338E1,1.3623603E1,1.55943775E1,9.734009E0,7.920036E0,1.327766E2,4.5053678E0,1.0055784E1,7.3043175E1,1.953381E1,6.7438354E1,1.9345024E1,1.2261283E1,1.36232E0,8.04652E0,7.547857E0,4.5448065E0,5.189202E0,2.1199315E0,5.8001046E0,1.3020673E2,2.5698647E0],"tree_param":{"num_deleted":"0","num_feature":"31","num_nodes":"31","size_leaf_vector":"0"}},{"base_weights":[-4.5418185E-3,5.373081E-2,-7.727302E-2,1.5351273E-1,-5.3204253E-2,1.663872E-1,-1.2200173E-1,-2.2276112E-1,2.1444376E-1,-1.714291E-3,-3.5865283E-1,3.6385196E-1,-1.543869E-1,3.5733503E-1,-1.5305126E-1,2.9070845E-1,-4.58301E-1,2.9840237E-1,-9.874726E-2,-8.433654E-2,2.7630186E-1,-4.3654048E-1,2.3040494E-1,5.7511095E-2,6.454976E-1,2.00143E-1,-4.4706E-1,-3.0430368E-1,6.0835063E-1,-1.715217E-1,5.686842E-1],"categories":[],"categories_nodes":[],"categories_segments":[],"categories_sizes":[],"default_left":[1,1,1,1,1,1,1,1,1,1,1,1,1,1,1,0,0,0,0,0,0,0,0,0,0,0,0,0,0,0,0],"id":25,"left_children":[1,3,5,7,9,11,13,15,17,19,21,23,25,27,29,-1,-1,-1,-1,-1,-1,-1,-1,-1,-1,-1,-1,-1,-1,-1,-1],"loss_changes":[1.5916693E0,2.2333825E0,1.8406397E0,2.527026E0,1.5942669E0,1.7238553E0,2.1635869E0,2.0152376E0,2.4900808E0,2.0397143E0,7.715169E-1,1.3946326E0,1.2032512E0,1.6665777E0,1.8808875E0,0E0,0E0,0E0,0E0,0E0,0E0,0E0,0E0,0E0,0E0,0E0,0E0,0E0,0E0,0E0,0E0],"parents":[2147483647,0,0,1,1,2,2,3,3,4,4,5,5,6,6,7,7,8,8,9,9,10,10,11,11,12,12,13,13,14,14],"right_children":[2,4,6,8,10,12,14,16,18,20,22,24,26,28,30,-1,-1,-1,-1,-1,-1,-1,-1,-1,-1,-1,-1,-1,-1,-1,-1],"split_conditions":[8.75E-1,2.375E0,1.89375E2,3.375E0,5.075E1,2.445E2,1.3283435E3,2.13E0,5.625E0,1.5836235E3,3.33625E2,2.125E0,1.4411252E3,3.75E-1,1.77375E2,8.721254E-2,-1.374903E-1,8.9520715E-2,-2.9624179E-2,-2.5300963E-2,8.289056E-2,-1.3096215E-1,6.912149E-2,1.725333E-2,1.9364929E-1,6.00429E-2,-1.34118E-1,-9.129111E-2,1.8250519E-1,-5.145651E-2,1.7060527E-1],"split_indices":[11,29,16,22,8,18,3,0,20,4,16,30,5,9,26,0,0,0,0,0,0,0,0,0,0,0,0,0,0,0,0],"split_type":[0,0,0,0,0,0,0,0,0,0,0,0,0,0,0,0,0,0,0,0,0,0,0,0,0,0,0,0,0,0,0],"sum_hessian":[3.7357013E2,2.0754512E2,1.6602502E2,1.0713814E2,1.00406975E2,2.5328386E1,1.4069662E2,1.4561152E1,9.257698E1,8.678338E1,1.3623602E1,1.55943775E1,9.734009E0,7.9200363E0,1.327766E2,4.505368E0,1.0055784E1,7.3043175E1,1.953381E1,6.7438354E1,1.9345024E1,1.2261282E1,1.3623198E0,8.04652E0,7.547857E0,4.5448065E0,5.189202E0,2.1199315E0,5.8001046E0,1.3020673E2,2.5698647E0],"tree_param":{"num_deleted":"0","num_feature":"31","num_nodes":"31","size_leaf_vector":"0"}},{"base_weights":[2.4647426E-3,6.763203E-2,-5.0636E-2,1.1658626E-1,-2.531421E-1,-1.4162926E-1,8.140449E-2,2.5943947E-1,1.1045658E-2,-4.037349E-1,2.854008E-1,-1.8648139E-1,3.1956878E-1,1.4710946E-1,-6.7123616E-1,-5.253244E-1,3.0102614E-1,-2.9221904E-1,7.6506734E-2,4.013033E-1,-4.941234E-1,-2.0952976E-1,6.441696E-1,1.6346845E-1,-2.4660671E-1,-2.5799018E-1,4.6338305E-1,-2.8373805E-1,2.2885755E-1,7.735024E-2,-9.746963E-1],"categories":[],"categories_nodes":[],"categories_segments":[],"categories_sizes":[],"default_left":[1,1,1,1,1,1,1,1,1,1,1,1,1,1,1,0,0,0,0,0,0,0,0,0,0,0,0,0,0,0,0],"id":26,"left_children":[1,3,5,7,9,11,13,15,17,19,21,23,25,27,29,-1,-1,-1,-1,-1,-1,-1,-1,-1,-1,-1,-1,-1,-1,-1,-1],"loss_changes":[1.2792085E0,2.6356163E0,2.4591632E0,2.178299E0,1.9229082E0,2.561951E0,4.2402687E0,2.162777E0,1.694799E0,1.4959133E0,1.1038808E0,2.3733218E0,1.0407238E0,2.8066783E0,1.6437225E0,0E0,0E0,0E0,0E0,0E0,0E0,0E0,0E0,0E0,0E0,0E0,0E0,0E0,0E0,0E0,0E0],"parents":[2147483647,0,0,1,1,2,2,3,3,4,4,5,5,6,6,7,7,8,8,9,9,10,10,11,11,12,12,13,13,14,14],"right_children":[2,4,6,8,10,12,14,16,18,20,22,24,26,28,30,-1,-1,-1,-1,-1,-1,-1,-1,-1,-1,-1,-1,-1,-1,-1,-1],"split_conditions":[1.04625E2,2.8875E1,1.285E2,2.3625E1,1.00875E2,4.56E0,1.6773701E3,1.51E2,8.375E1,3.375E0,4.875E0,1.7125E1,7.675E1,4.125E1,3.75E-1,-1.5759733E-1,9.030785E-2,-8.7665714E-2,2.295202E-2,1.2039099E-1,-1.4823702E-1,-6.285893E-2,1.932509E-1,4.9040537E-2,-7.3982015E-2,-7.7397056E-2,1.3901491E-1,-8.5121416E-2,6.8657264E-2,2.3205072E-2,-2.9240888E-1],"split_indices":[25,14,25,6,25,0,5,16,24,20,19,14,23,8,10,0,0,0,0,0,0,0,0,0,0,0,0,0,0,0,0],"split_type":[0,0,0,0,0,0,0,0,0,0,0,0,0,0,0,0,0,0,0,0,0,0,0,0,0,0,0,0,0,0,0],"sum_hessian":[3.6767776E2,1.6495947E2,2.0271829E2,1.4367012E2,2.1289352E1,1.1997033E2,8.2747955E1,6.0424744E1,8.324538E1,1.6832733E1,4.456619E0,1.0988001E2,1.0090318E1,7.684407E1,5.903888E0,2.4555278E0,5.7969215E1,1.4163842E1,6.9081535E1,1.3519486E0,1.5480785E1,2.0477173E0,2.4089017E0,1.58586235E1,9.402139E1,1.8533484E0,8.236969E0,1.1860939E1,6.498313E1,1.9178853E0,3.986003E0],"tree_param":{"num_deleted":"0","num_feature":"31","num_nodes":"31","size_leaf_vector":"0"}},{"base_weights":[-2.4647445E-3,-6.763203E-2,5.0636E-2,-1.1658627E-1,2.531421E-1,1.4162926E-1,-8.140449E-2,-2.5943947E-1,-1.1045663E-2,4.037349E-1,-2.854008E-1,1.8648139E-1,-3.1956878E-1,-1.4710946E-1,6.712362E-1,5.253244E-1,-3.0102617E-1,2.9221907E-1,-7.650674E-2,-4.0130326E-1,4.941234E-1,2.0952976E-1,-6.441696E-1,-1.6346847E-1,2.4660671E-1,2.5799015E-1,-4.6338305E-1,2.8373805E-1,-2.2885755E-1,-7.7350244E-2,9.7469634E-1],"categories":[],"categories_nodes":[],"categories_segments":[],"categories_sizes":[],"default_left":[1,1,1,1,1,1,1,1,1,1,1,1,1,1,1,0,0,0,0,0,0,0,0,0,0,0,0,0,0,0,0],"id":27,"left_children":[1,3,5,7,9,11,13,15,17,19,21,23,25,27,29,-1,-1,-1,-1,-1,-1,-1,-1,-1,-1,-1,-1,-1,-1,-1,-1],"loss_changes":[1.2792087E0,2.6356168E0,2.4591627E0,2.178299E0,1.9229081E0,2.5619512E0,4.240269E0,2.1627774E0,1.694799E0,1.4959133E0,1.1038808E0,2.3733218E0,1.0407236E0,2.8066783E0,1.6437232E0,0E0,0E0,0E0,0E0,0E0,0E0,0E0,0E0,0E0,0E0,0E0,0E0,0E0,0E0,0E0,0E0],"parents":[2147483647,0,0,1,1,2,2,3,3,4,4,5,5,6,6,7,7,8,8,9,9,10,10,11,11,12,12,13,13,14,14],"right_children":[2,4,6,8,10,12,14,16,18,20,22,24,26,28,30,-1,-1,-1,-1,-1,-1,-1,-1,-1,-1,-1,-1,-1,-1,-1,-1],"split_conditions":[1.04625E2,2.8875E1,1.285E2,2.3625E1,1.00875E2,4.56E0,1.6773701E3,1.51E2,8.375E1,3.375E0,4.875E0,1.7125E1,7.675E1,4.125E1,3.75E-1,1.5759733E-1,-9.0307854E-2,8.766572E-2,-2.2952024E-2,-1.2039098E-1,1.4823702E-1,6.285893E-2,-1.932509E-1,-4.904054E-2,7.3982015E-2,7.739705E-2,-1.3901491E-1,8.5121416E-2,-6.8657264E-2,-2.3205074E-2,2.924089E-1],"split_indices":[25,14,25,6,25,0,5,16,24,20,19,14,23,8,10,0,0,0,0,0,0,0,0,0,0,0,0,0,0,0,0],"split_type":[0,0,0,0,0,0,0,0,0,0,0,0,0,0,0,0,0,0,0,0,0,0,0,0,0,0,0,0,0,0,0],"sum_hessian":[3.6767776E2,1.6495947E2,2.0271829E2,1.4367012E2,2.1289352E1,1.1997033E2,8.2747955E1,6.0424744E1,8.324538E1,1.6832733E1,4.456619E0,1.0988001E2,1.0090318E1,7.684407E1,5.903888E0,2.4555278E0,5.7969215E1,1.4163842E1,6.9081535E1,1.3519485E0,1.5480785E1,2.047717E0,2.4089015E0,1.58586235E1,9.402139E1,1.8533485E0,8.23697E0,1.1860939E1,6.498313E1,1.9178854E0,3.986003E0],"tree_param":{"num_deleted":"0","num_feature":"31","num_nodes":"31","size_leaf_vector":"0"}},{"base_weights":[1.7923786E-3,-2.2074295E-2,1.3896E-1,2.6707256E-1,-3.869381E-2,2.0292182E-1,-4.7513884E-1,4.6020213E-1,-3.828224E-1,-5.449253E-2,3.3675805E-1,2.5412726E-1,-2.8997502E-1,3.4663942E-1,-8.821793E-1,-7.705666E-4,6.5549546E-1,-5.7055676E-1,6.429914E-2,1.9953266E-1,-7.331678E-2,5.154352E-1,1.3128417E-2,-3.3662483E-1,3.0592883E-1,3.6088473E-1,-5.894748E-1],"categories":[],"categories_nodes":[],"categories_segments":[],"categories_sizes":[],"default_left":[1,1,1,1,1,1,1,1,1,1,1,1,1,0,0,0,0,0,0,0,0,0,0,0,0,0,0],"id":28,"left_children":[1,3,5,7,9,11,13,15,17,19,21,23,25,-1,-1,-1,-1,-1,-1,-1,-1,-1,-1,-1,-1,-1,-1],"loss_changes":[1.1811748E0,1.4875104E0,2.196752E0,2.2891445E0,1.7477823E0,1.3136587E0,2.0931315E0,1.209719E0,4.06236E-1,1.3566371E0,6.820743E-1,1.4812448E0,1.2050532E0,0E0,0E0,0E0,0E0,0E0,0E0,0E0,0E0,0E0,0E0,0E0,0E0,0E0,0E0],"parents":[2147483647,0,0,1,1,2,2,3,3,4,4,5,5,6,6,7,7,8,8,9,9,10,10,11,11,12,12],"right_children":[2,4,6,8,10,12,14,16,18,20,22,24,26,-1,-1,-1,-1,-1,-1,-1,-1,-1,-1,-1,-1,-1,-1],"split_conditions":[1.375E0,6.9375E1,1.6509758E3,2.95E1,1.66875E2,1.525E2,9.925E1,2.1275E2,2.4225E2,1.3332253E3,2.33E2,1.3213936E3,1.625E0,1.0399183E-1,-2.646538E-1,-2.3116998E-4,1.9664864E-1,-1.7116703E-1,1.9289741E-2,5.98598E-2,-2.1995036E-2,1.5463057E-1,3.938525E-3,-1.0098746E-1,9.177865E-2,1.0826542E-1,-1.7684245E-1],"split_indices":[11,24,1,14,25,26,25,16,17,2,18,3,30,0,0,0,0,0,0,0,0,0,0,0,0,0,0],"split_type":[0,0,0,0,0,0,0,0,0,0,0,0,0,0,0,0,0,0,0,0,0,0,0,0,0,0,0],"sum_hessian":[3.5886646E2,3.0639407E2,5.2472397E1,1.5834536E1,2.9055954E2,4.8129047E1,4.343347E0,1.2431996E1,3.4025395E0,2.7964706E2,1.0912466E1,4.403846E1,4.0905905E0,1.4878671E0,2.8554802E0,3.9959538E0,8.436043E0,2.2019382E0,1.2006013E0,1.8630932E1,2.6101614E2,6.6489077E0,4.2635584E0,3.1070364E0,4.0931423E1,1.2245321E0,2.866058E0],"tree_param":{"num_deleted":"0","num_feature":"31","num_nodes":"27","size_leaf_vector":"0"}},{"base_weights":[-1.792381E-3,2.2074293E-2,-1.3896E-1,-2.6707256E-1,3.869381E-2,-2.0292182E-1,4.751389E-1,-4.6020213E-1,3.828224E-1,5.449253E-2,-3.3675805E-1,-2.5412726E-1,2.8997505E-1,-3.4663942E-1,8.821793E-1,7.705457E-4,-6.5549546E-1,5.7055676E-1,-6.429915E-2,-1.9953264E-1,7.331678E-2,-5.154353E-1,-1.3128395E-2,3.3662483E-1,-3.0592883E-1,-3.6088476E-1,5.894748E-1],"categories":[],"categories_nodes":[],"categories_segments":[],"categories_sizes":[],"default_left":[1,1,1,1,1,1,1,1,1,1,1,1,1,0,0,0,0,0,0,0,0,0,0,0,0,0,0],"id":29,"left_children":[1,3,5,7,9,11,13,15,17,19,21,23,25,-1,-1,-1,-1,-1,-1,-1,-1,-1,-1,-1,-1,-1,-1],"loss_changes":[1.1811749E0,1.4875102E0,2.1967525E0,2.2891443E0,1.7477822E0,1.3136582E0,2.0931315E0,1.2097192E0,4.06236E-1,1.3566372E0,6.820743E-1,1.481245E0,1.2050532E0,0E0,0E0,0E0,0E0,0E0,0E0,0E0,0E0,0E0,0E0,0E0,0E0,0E0,0E0],"parents":[2147483647,0,0,1,1,2,2,3,3,4,4,5,5,6,6,7,7,8,8,9,9,10,10,11,11,12,12],"right_children":[2,4,6,8,10,12,14,16,18,20,22,24,26,-1,-1,-1,-1,-1,-1,-1,-1,-1,-1,-1,-1,-1,-1],"split_conditions":[1.375E0,6.9375E1,1.6509758E3,2.95E1,1.66875E2,1.525E2,9.925E1,2.1275E2,2.4225E2,1.3332253E3,2.33E2,1.3213936E3,1.625E0,-1.0399183E-1,2.646538E-1,2.311637E-4,-1.9664864E-1,1.7116703E-1,-1.9289747E-2,-5.9859794E-2,2.1995036E-2,-1.5463059E-1,-3.938519E-3,1.0098746E-1,-9.177865E-2,-1.0826543E-1,1.7684245E-1],"split_indices":[11,24,1,14,25,26,25,16,17,2,18,3,30,0,0,0,0,0,0,0,0,0,0,0,0,0,0],"split_type":[0,0,0,0,0,0,0,0,0,0,0,0,0,0,0,0,0,0,0,0,0,0,0,0,0,0,0],"sum_hessian":[3.5886646E2,3.0639407E2,5.2472397E1,1.5834536E1,2.9055954E2,4.8129047E1,4.343347E0,1.2431996E1,3.4025395E0,2.7964706E2,1.0912466E1,4.403846E1,4.0905905E0,1.487867E0,2.8554802E0,3.9959538E0,8.436042E0,2.2019382E0,1.2006013E0,1.8630932E1,2.610161E2,6.648908E0,4.2635584E0,3.1070366E0,4.0931423E1,1.2245321E0,2.866058E0],"tree_param":{"num_deleted":"0","num_feature":"31","num_nodes":"27","size_leaf_vector":"0"}},{"base_weights":[1.8472461E-3,8.35063E-3,-4.3320498E-1,-6.2535517E-3,4.3009794E-1,1.050979E-1,-6.229045E-1,1.9851157E-1,-2.5840387E-2,6.687985E-1,-2.5820234E-1,-3.3398852E-1,2.8454176E-1,-4.2504534E-1,-1.2939853E-2,1.19087756E-1,7.3300266E-1,3.1900835E-1,-6.439313E-1],"categories":[],"categories_nodes":[],"categories_segments":[],"categories_sizes":[],"default_left":[1,1,1,1,1,0,0,1,1,1,1,0,0,0,0,0,0,0,0],"id":30,"left_children":[1,3,5,7,9,-1,-1,11,13,15,17,-1,-1,-1,-1,-1,-1,-1,-1],"loss_changes":[1.0114002E0,2.170314E0,6.0311115E-1,1.3733222E0,2.110243E0,0E0,0E0,1.4646795E0,1.6025116E0,2.3158121E-1,1.0421549E0,0E0,0E0,0E0,0E0,0E0,0E0,0E0,0E0],"parents":[2147483647,0,0,1,1,2,2,3,3,4,4,7,7,8,8,9,9,10,10],"right_children":[2,4,6,8,10,-1,-1,12,14,16,18,-1,-1,-1,-1,-1,-1,-1,-1],"split_conditions":[3.6125E1,3.2125E1,9.2125E1,7.8E1,3.75E0,3.152937E-2,-1.8687135E-1,1.4125E1,1.55875E2,1.625E0,3.3625E1,-1.0019656E-1,8.536253E-2,-1.275136E-1,-3.881956E-3,3.5726327E-2,2.199008E-1,9.570251E-2,-1.9317941E-1],"split_indices":[13,13,24,26,0,0,0,14,17,28,13,0,0,0,0,0,0,0,0],"split_type":[0,0,0,0,0,0,0,0,0,0,0,0,0,0,0,0,0,0,0],"sum_hessian":[3.5519357E2,3.5092853E2,4.265054E0,3.4013556E2,1.07929735E1,1.2275789E0,3.0374756E0,2.8897694E1,3.1123785E2,8.034845E0,2.7581282E0,3.618442E0,2.5279251E1,8.742882E0,3.02495E2,1.1388582E0,6.895987E0,1.174124E0,1.5840042E0],"tree_param":{"num_deleted":"0","num_feature":"31","num_nodes":"19","size_leaf_vector":"0"}},{"base_weights":[-1.8472482E-3,-8.350633E-3,4.33205E-1,6.2535494E-3,-4.3009797E-1,-1.0509786E-1,6.229045E-1,-1.9851157E-1,2.5840383E-2,-6.687985E-1,2.5820237E-1,3.3398855E-1,-2.8454176E-1,4.2504534E-1,1.293985E-2,-1.190878E-1,-7.330026E-1,-3.1900835E-1,6.439314E-1],"categories":[],"categories_nodes":[],"categories_segments":[],"categories_sizes":[],"default_left":[1,1,1,1,1,0,0,1,1,1,1,0,0,0,0,0,0,0,0],"id":31,"left_children":[1,3,5,7,9,-1,-1,11,13,15,17,-1,-1,-1,-1,-1,-1,-1,-1],"loss_changes":[1.0114003E0,2.170314E0,6.031109E-1,1.3733222E0,2.110244E0,0E0,0E0,1.4646795E0,1.6025114E0,2.3158073E-1,1.0421551E0,0E0,0E0,0E0,0E0,0E0,0E0,0E0,0E0],"parents":[2147483647,0,0,1,1,2,2,3,3,4,4,7,7,8,8,9,9,10,10],"right_children":[2,4,6,8,10,-1,-1,12,14,16,18,-1,-1,-1,-1,-1,-1,-1,-1],"split_conditions":[3.6125E1,3.2125E1,9.2125E1,7.8E1,3.75E0,-3.152936E-2,1.8687135E-1,1.4125E1,1.55875E2,1.625E0,3.3625E1,1.0019657E-1,-8.536253E-2,1.275136E-1,3.881955E-3,-3.5726342E-2,-2.1990079E-1,-9.570251E-2,1.9317943E-1],"split_indices":[13,13,24,26,0,0,0,14,17,28,13,0,0,0,0,0,0,0,0],"split_type":[0,0,0,0,0,0,0,0,0,0,0,0,0,0,0,0,0,0,0],"sum_hessian":[3.5519357E2,3.5092853E2,4.265054E0,3.4013556E2,1.07929735E1,1.2275789E0,3.0374756E0,2.8897694E1,3.1123785E2,8.034845E0,2.7581282E0,3.618442E0,2.5279251E1,8.742882E0,3.02495E2,1.1388581E0,6.8959875E0,1.174124E0,1.584004E0],"tree_param":{"num_deleted":"0","num_feature":"31","num_nodes":"19","size_leaf_vector":"0"}},{"base_weights":[1.4069916E-3,-4.5955554E-3,4.6584123E-1,-1.2869393E-2,3.2275027E-1,5.407085E-2,5.6782764E-1,2.8511971E-2,-1.2307384E-1,-2.0355931E-1,4.740525E-1,6.458171E-2,-1.6933393E-1,6.4592965E-2,-2.820217E-1,5.5682886E-1,1.51041355E-2],"categories":[],"categories_nodes":[],"categories_segments":[],"categories_sizes":[],"default_left":[1,1,1,1,1,0,0,1,1,0,1,0,0,0,0,0,0],"id":32,"left_children":[1,3,5,7,9,-1,-1,11,13,-1,15,-1,-1,-1,-1,-1,-1],"loss_changes":[9.8759234E-1,9.520105E-1,1.5911907E-1,1.5645494E0,7.865805E-1,0E0,0E0,1.7926391E0,2.811222E0,0E0,2.5871038E-1,0E0,0E0,0E0,0E0,0E0,0E0],"parents":[2147483647,0,0,1,1,2,2,3,3,4,4,7,7,8,8,10,10],"right_children":[2,4,6,8,10,-1,-1,12,14,-1,16,-1,-1,-1,-1,-1,-1],"split_conditions":[5.675E1,1.7825E2,3.3625E1,1.26625E2,1.68E2,1.6221255E-2,1.703483E-1,2.81375E2,2.2125E1,-6.1067794E-2,3.125E0,1.9374512E-2,-5.0800182E-2,1.9377891E-2,-8.460651E-2,1.6704866E-1,4.531241E-3],"split_indices":[8,24,7,24,16,0,0,18,13,0,27,0,0,0,0,0,0],"split_type":[0,0,0,0,0,0,0,0,0,0,0,0,0,0,0,0,0],"sum_hessian":[3.5248862E2,3.489685E2,3.520113E0,3.4130258E2,7.6659174E0,1.0025386E0,2.5175745E0,2.4866942E2,9.263317E1,1.6345837E0,6.0313334E0,2.1089436E2,3.7775055E1,4.275122E1,4.9881954E1,4.9290533E0,1.10228E0],"tree_param":{"num_deleted":"0","num_feature":"31","num_nodes":"17","size_leaf_vector":"0"}},{"base_weights":[-1.4069902E-3,4.5955563E-3,-4.6584123E-1,1.2869395E-2,-3.2275027E-1,-5.407082E-2,-5.6782764E-1,-2.851197E-2,1.2307384E-1,2.0355934E-1,-4.7405252E-1,-6.458171E-2,1.6933393E-1,-6.4592965E-2,2.820217E-1,-5.5682886E-1,-1.5104185E-2],"categories":[],"categories_nodes":[],"categories_segments":[],"categories_sizes":[],"default_left":[1,1,1,1,1,0,0,1,1,0,1,0,0,0,0,0,0],"id":33,"left_children":[1,3,5,7,9,-1,-1,11,13,-1,15,-1,-1,-1,-1,-1,-1],"loss_changes":[9.875921E-1,9.5201075E-1,1.5911931E-1,1.5645493E0,7.865806E-1,0E0,0E0,1.7926393E0,2.811222E0,0E0,2.5871038E-1,0E0,0E0,0E0,0E0,0E0,0E0],"parents":[2147483647,0,0,1,1,2,2,3,3,4,4,7,7,8,8,10,10],"right_children":[2,4,6,8,10,-1,-1,12,14,-1,16,-1,-1,-1,-1,-1,-1],"split_conditions":[5.675E1,1.7825E2,3.3625E1,1.26625E2,1.68E2,-1.6221246E-2,-1.703483E-1,2.81375E2,2.2125E1,6.1067805E-2,3.125E0,-1.9374512E-2,5.0800182E-2,-1.9377891E-2,8.460651E-2,-1.6704866E-1,-4.5312555E-3],"split_indices":[8,24,7,24,16,0,0,18,13,0,27,0,0,0,0,0,0],"split_type":[0,0,0,0,0,0,0,0,0,0,0,0,0,0,0,0,0],"sum_hessian":[3.5248862E2,3.489685E2,3.520113E0,3.4130258E2,7.665918E0,1.0025384E0,2.5175743E0,2.4866942E2,9.263317E1,1.6345838E0,6.031334E0,2.1089436E2,3.7775055E1,4.275122E1,4.9881954E1,4.929054E0,1.1022801E0],"tree_param":{"num_deleted":"0","num_feature":"31","num_nodes":"17","size_leaf_vector":"0"}},{"base_weights":[1.9413773E-3,1.7835358E-1,-1.2800032E-2,-1.7785634E-1,3.0988488E-1,1.8730192E-1,-2.577889E-2,4.9221936E-1,-4.3957898E-1,3.8641787E-1,-2.7929628E-1,4.0345386E-1,-2.059165E-1,3.2946717E-2,-1.0417185E-1,1.3138126E-1,-6.526589E-1,4.539654E-1,-1.6927655E-1,4.8932233E-1,-2.9943058E-1,2.5525254E-1,-4.7928923E-1,7.549516E-2,-2.1599154E-1,1.6132675E-2,-2.4032554E-1],"categories":[],"categories_nodes":[],"categories_segments":[],"categories_sizes":[],"default_left":[1,1,1,1,1,1,1,0,1,1,0,1,1,1,1,0,0,0,0,0,0,0,0,0,0,0,0],"id":34,"left_children":[1,3,5,7,9,11,13,-1,15,17,-1,19,21,23,25,-1,-1,-1,-1,-1,-1,-1,-1,-1,-1,-1,-1],"loss_changes":[9.167722E-1,1.3288339E0,8.500912E-1,1.6135037E0,1.0196353E0,1.7783186E0,1.414548E0,0E0,8.469982E-1,7.642784E-1,0E0,9.4371223E-1,1.0977409E0,1.8805083E0,2.158121E0,0E0,0E0,0E0,0E0,0E0,0E0,0E0,0E0,0E0,0E0,0E0,0E0],"parents":[2147483647,0,0,1,1,2,2,3,3,4,4,5,5,6,6,8,8,9,9,11,11,12,12,13,13,14,14],"right_children":[2,4,6,8,10,12,14,-1,16,18,-1,20,22,24,26,-1,-1,-1,-1,-1,-1,-1,-1,-1,-1,-1,-1],"split_conditions":[1.125E0,1.625E0,1.25E-1,2.2425E2,1.375E0,2.355E2,1.12375E2,1.4766581E-1,1.5258314E3,3.13625E2,-8.378889E-2,3.875E0,4.125E0,4.975E1,2.4125E1,3.941438E-2,-1.9579767E-1,1.3618962E-1,-5.0782967E-2,1.467967E-1,-8.982918E-2,7.657576E-2,-1.4378677E-1,2.2648549E-2,-6.479747E-2,4.8398026E-3,-7.209767E-2],"split_indices":[28,27,10,16,10,17,24,0,2,15,0,29,22,8,6,0,0,0,0,0,0,0,0,0,0,0,0],"split_type":[0,0,0,0,0,0,0,0,0,0,0,0,0,0,0,0,0,0,0,0,0,0,0,0,0,0,0],"sum_hessian":[3.506503E2,2.6185575E1,3.2446472E2,6.9665995E0,1.9218977E1,1.89452E1,3.0551953E2,1.7094045E0,5.257195E0,1.731407E1,1.9049057E0,1.2208283E1,6.7369165E0,1.7500201E2,1.305175E2,1.5329587E0,3.7242365E0,1.5600781E1,1.7132885E0,1.1149974E1,1.0583093E0,2.5319316E0,4.204985E0,1.5005191E2,2.4950094E1,6.975975E1,6.0757755E1],"tree_param":{"num_deleted":"0","num_feature":"31","num_nodes":"27","size_leaf_vector":"0"}},{"base_weights":[-1.9413796E-3,-1.7835358E-1,1.28000295E-2,1.7785631E-1,-3.0988488E-1,-1.8730193E-1,2.5778888E-2,-4.9221942E-1,4.3957898E-1,-3.8641787E-1,2.7929628E-1,-4.0345386E-1,2.0591648E-1,-3.2946717E-2,1.0417184E-1,-1.3138123E-1,6.526588E-1,-4.5396537E-1,1.6927652E-1,-4.8932233E-1,2.9943055E-1,-2.552526E-1,4.7928926E-1,-7.549516E-2,2.1599153E-1,-1.6132683E-2,2.4032554E-1],"categories":[],"categories_nodes":[],"categories_segments":[],"categories_sizes":[],"default_left":[1,1,1,1,1,1,1,0,1,1,0,1,1,1,1,0,0,0,0,0,0,0,0,0,0,0,0],"id":35,"left_children":[1,3,5,7,9,11,13,-1,15,17,-1,19,21,23,25,-1,-1,-1,-1,-1,-1,-1,-1,-1,-1,-1,-1],"loss_changes":[9.167722E-1,1.3288339E0,8.5009116E-1,1.6135037E0,1.0196351E0,1.7783184E0,1.4145479E0,0E0,8.469981E-1,7.642784E-1,0E0,9.4371223E-1,1.0977412E0,1.8805083E0,2.1581216E0,0E0,0E0,0E0,0E0,0E0,0E0,0E0,0E0,0E0,0E0,0E0,0E0],"parents":[2147483647,0,0,1,1,2,2,3,3,4,4,5,5,6,6,8,8,9,9,11,11,12,12,13,13,14,14],"right_children":[2,4,6,8,10,12,14,-1,16,18,-1,20,22,24,26,-1,-1,-1,-1,-1,-1,-1,-1,-1,-1,-1,-1],"split_conditions":[1.125E0,1.625E0,1.25E-1,2.2425E2,1.375E0,2.355E2,1.12375E2,-1.4766583E-1,1.5258314E3,3.13625E2,8.378889E-2,3.875E0,4.125E0,4.975E1,2.4125E1,-3.941437E-2,1.9579765E-1,-1.3618961E-1,5.078296E-2,-1.467967E-1,8.982917E-2,-7.6575786E-2,1.4378679E-1,-2.2648549E-2,6.479746E-2,-4.839805E-3,7.209767E-2],"split_indices":[28,27,10,16,10,17,24,0,2,15,0,29,22,8,6,0,0,0,0,0,0,0,0,0,0,0,0],"split_type":[0,0,0,0,0,0,0,0,0,0,0,0,0,0,0,0,0,0,0,0,0,0,0,0,0,0,0],"sum_hessian":[3.506503E2,2.6185575E1,3.2446472E2,6.9665995E0,1.9218975E1,1.89452E1,3.0551953E2,1.7094045E0,5.257195E0,1.731407E1,1.9049056E0,1.2208283E1,6.7369165E0,1.7500201E2,1.305175E2,1.5329587E0,3.7242365E0,1.5600781E1,1.7132885E0,1.1149974E1,1.0583094E0,2.5319316E0,4.2049847E0,1.5005193E2,2.4950094E1,6.975975E1,6.075775E1],"tree_param":{"num_deleted":"0","num_feature":"31","num_nodes":"27","size_leaf_vector":"0"}},{"base_weights":[1.6184124E-3,-1.3754392E-2,1.852933E-1,3.1407304E-2,-1.0691543E-1,-3.4211203E-1,3.043022E-1,-4.255337E-2,1.8269035E-1,-1.7278925E-1,2.2818643E-1,1.9316483E-1,-5.239523E-1,7.1630716E-1,6.452929E-2,1.900632E-1,-1.21466026E-1,6.586027E-1,1.3360088E-1,2.4026616E-1,-2.2925898E-1,-8.185364E-2,5.348126E-1,2.4862461E-1,7.7428854E-1,4.2531496E-1,-2.3588121E-1],"categories":[],"categories_nodes":[],"categories_segments":[],"categories_sizes":[],"default_left":[1,1,1,1,1,1,1,1,1,1,1,0,0,1,1,0,0,0,0,0,0,0,0,0,0,0,0],"id":36,"left_children":[1,3,5,7,9,11,13,15,17,19,21,-1,-1,23,25,-1,-1,-1,-1,-1,-1,-1,-1,-1,-1,-1,-1],"loss_changes":[9.8118293E-1,1.352871E0,1.7885516E0,2.4335766E0,2.3561795E0,6.2794733E-1,2.1691241E0,2.7109149E0,1.5795596E0,2.114201E0,1.723866E0,0E0,0E0,2.8514862E-2,1.7558458E0,0E0,0E0,0E0,0E0,0E0,0E0,0E0,0E0,0E0,0E0,0E0,0E0],"parents":[2147483647,0,0,1,1,2,2,3,3,4,4,5,5,6,6,7,7,8,8,9,9,10,10,13,13,14,14],"right_children":[2,4,6,8,10,12,14,16,18,20,22,-1,-1,24,26,-1,-1,-1,-1,-1,-1,-1,-1,-1,-1,-1,-1],"split_conditions":[3.2375E1,2.56625E2,2.37625E2,2.49125E2,2.925E1,2.13625E2,4.125E0,2.08375E2,1.8625E1,8.075E1,2.42125E2,5.794945E-2,-1.571857E-1,8.75E-1,1.5964795E3,5.701896E-2,-3.643981E-2,1.9758083E-1,4.0080264E-2,7.207985E-2,-6.8777695E-2,-2.4556095E-2,1.604438E-1,7.458738E-2,2.3228657E-1,1.275945E-1,-7.076436E-2],"split_indices":[6,15,15,17,7,18,20,18,13,26,18,0,0,11,2,0,0,0,0,0,0,0,0,0,0,0,0],"split_type":[0,0,0,0,0,0,0,0,0,0,0,0,0,0,0,0,0,0,0,0,0,0,0,0,0,0,0],"sum_hessian":[3.4559125E2,3.197543E2,2.5836954E1,2.1580252E2,1.0395177E2,4.411605E0,2.142535E1,1.4542467E2,7.037786E1,8.727897E1,1.66728E1,1.1028645E0,3.3087404E0,7.1507244E0,1.4274626E1,3.6480354E1,1.0894431E2,5.419598E0,6.495826E1,1.0105578E1,7.7173386E1,8.654746E0,8.018054E0,1.3720078E0,5.7787166E0,6.2966833E0,7.977942E0],"tree_param":{"num_deleted":"0","num_feature":"31","num_nodes":"27","size_leaf_vector":"0"}},{"base_weights":[-1.6184103E-3,1.3754394E-2,-1.852933E-1,-3.1407304E-2,1.0691543E-1,3.42112E-1,-3.043022E-1,4.2553373E-2,-1.8269035E-1,1.7278926E-1,-2.2818643E-1,-1.9316484E-1,5.239523E-1,-7.163071E-1,-6.4529285E-2,-1.9006318E-1,1.21466026E-1,-6.586027E-1,-1.3360088E-1,-2.4026614E-1,2.2925898E-1,8.185365E-2,-5.348126E-1,-2.4862464E-1,-7.7428854E-1,-4.2531496E-1,2.3588122E-1],"categories":[],"categories_nodes":[],"categories_segments":[],"categories_sizes":[],"default_left":[1,1,1,1,1,1,1,1,1,1,1,0,0,1,1,0,0,0,0,0,0,0,0,0,0,0,0],"id":37,"left_children":[1,3,5,7,9,11,13,15,17,19,21,-1,-1,23,25,-1,-1,-1,-1,-1,-1,-1,-1,-1,-1,-1,-1],"loss_changes":[9.8118293E-1,1.352871E0,1.7885513E0,2.4335766E0,2.3561795E0,6.2794733E-1,2.1691244E0,2.7109146E0,1.5795603E0,2.1142015E0,1.7238665E0,0E0,0E0,2.8514385E-2,1.7558459E0,0E0,0E0,0E0,0E0,0E0,0E0,0E0,0E0,0E0,0E0,0E0,0E0],"parents":[2147483647,0,0,1,1,2,2,3,3,4,4,5,5,6,6,7,7,8,8,9,9,10,10,13,13,14,14],"right_children":[2,4,6,8,10,12,14,16,18,20,22,-1,-1,24,26,-1,-1,-1,-1,-1,-1,-1,-1,-1,-1,-1,-1],"split_conditions":[3.2375E1,2.56625E2,2.37625E2,2.49125E2,2.925E1,2.13625E2,4.125E0,2.08375E2,1.8625E1,8.075E1,2.42125E2,-5.7949454E-2,1.571857E-1,8.75E-1,1.5964795E3,-5.7018954E-2,3.643981E-2,-1.9758083E-1,-4.0080264E-2,-7.2079845E-2,6.8777695E-2,2.4556097E-2,-1.604438E-1,-7.45874E-2,-2.3228657E-1,-1.275945E-1,7.076437E-2],"split_indices":[6,15,15,17,7,18,20,18,13,26,18,0,0,11,2,0,0,0,0,0,0,0,0,0,0,0,0],"split_type":[0,0,0,0,0,0,0,0,0,0,0,0,0,0,0,0,0,0,0,0,0,0,0,0,0,0,0],"sum_hessian":[3.4559125E2,3.197543E2,2.5836954E1,2.1580252E2,1.0395177E2,4.411605E0,2.142535E1,1.4542467E2,7.037786E1,8.727897E1,1.66728E1,1.1028645E0,3.3087404E0,7.1507244E0,1.4274626E1,3.6480354E1,1.0894431E2,5.4195976E0,6.495826E1,1.0105578E1,7.7173386E1,8.654746E0,8.018054E0,1.3720077E0,5.778717E0,6.2966833E0,7.977942E0],"tree_param":{"num_deleted":"0","num_feature":"31","num_nodes":"27","size_leaf_vector":"0"}},{"base_weights":[3.6338521E-3,-3.2704272E-3,3.7951347E-1,-1.7415813E-1,1.2343859E-2,4.4676545E-1,2.1210743E-2,-4.246271E-1,1.878703E-1,-3.918436E-2,8.68201E-2,2.2131707E-1,-6.362673E-1,-2.8070512E-1,5.7343894E-1,-2.9675308E-1,9.280548E-4,1.7422305E-1,-9.2465036E-2],"categories":[],"categories_nodes":[],"categories_segments":[],"categories_sizes":[],"default_left":[1,1,1,1,1,0,0,1,1,1,1,0,0,0,0,0,0,0,0],"id":38,"left_children":[1,3,5,7,9,-1,-1,11,13,15,17,-1,-1,-1,-1,-1,-1,-1,-1],"loss_changes":[8.855313E-1,8.9759845E-1,1.3882709E-1,2.6334455E0,1.187029E0,0E0,0E0,2.4583697E0,2.3668704E0,1.8908516E0,1.9974132E0,0E0,0E0,0E0,0E0,0E0,0E0,0E0,0E0],"parents":[2147483647,0,0,1,1,2,2,3,3,4,4,7,7,8,8,9,9,10,10],"right_children":[2,4,6,8,10,-1,-1,12,14,16,18,-1,-1,-1,-1,-1,-1,-1,-1],"split_conditions":[7.02E0,1.5625E1,2.57375E2,1.49402E3,2.3875E1,1.3402964E-1,6.3632233E-3,1.01E2,1.875E0,1.4170828E3,8.75E-1,6.639513E-2,-1.908802E-1,-8.421154E-2,1.7203169E-1,-8.902593E-2,2.7841644E-4,5.2266918E-2,-2.7739512E-2],"split_indices":[0,6,15,5,14,0,0,25,28,5,12,0,0,0,0,0,0,0,0],"split_type":[0,0,0,0,0,0,0,0,0,0,0,0,0,0,0,0,0,0,0],"sum_hessian":[3.3974356E2,3.3458902E2,5.154541E0,2.7162313E1,3.074267E2,4.132074E0,1.022467E0,1.5952607E1,1.1209706E1,1.8198782E2,1.2543889E2,3.9256039E0,1.2027003E1,5.1829367E0,6.0267696E0,2.3660654E1,1.5832716E2,8.434719E1,4.10917E1],"tree_param":{"num_deleted":"0","num_feature":"31","num_nodes":"19","size_leaf_vector":"0"}},{"base_weights":[-3.633849E-3,3.2704305E-3,-3.795135E-1,1.7415813E-1,-1.2343857E-2,-4.4676545E-1,-2.1210728E-2,4.246271E-1,-1.8787026E-1,3.918436E-2,-8.6820096E-2,-2.2131708E-1,6.3626736E-1,2.8070512E-1,-5.7343894E-1,2.9675308E-1,-9.2805485E-4,-1.7422304E-1,9.246504E-2],"categories":[],"categories_nodes":[],"categories_segments":[],"categories_sizes":[],"default_left":[1,1,1,1,1,0,0,1,1,1,1,0,0,0,0,0,0,0,0],"id":39,"left_children":[1,3,5,7,9,-1,-1,11,13,15,17,-1,-1,-1,-1,-1,-1,-1,-1],"loss_changes":[8.855314E-1,8.975985E-1,1.3882703E-1,2.6334453E0,1.1870289E0,0E0,0E0,2.4583707E0,2.36687E0,1.8908516E0,1.9974132E0,0E0,0E0,0E0,0E0,0E0,0E0,0E0,0E0],"parents":[2147483647,0,0,1,1,2,2,3,3,4,4,7,7,8,8,9,9,10,10],"right_children":[2,4,6,8,10,-1,-1,12,14,16,18,-1,-1,-1,-1,-1,-1,-1,-1],"split_conditions":[7.02E0,1.5625E1,2.57375E2,1.49402E3,2.3875E1,-1.3402964E-1,-6.3632187E-3,1.01E2,1.875E0,1.4170828E3,8.75E-1,-6.639513E-2,1.9088022E-1,8.421154E-2,-1.7203169E-1,8.902593E-2,-2.7841647E-4,-5.2266914E-2,2.7739514E-2],"split_indices":[0,6,15,5,14,0,0,25,28,5,12,0,0,0,0,0,0,0,0],"split_type":[0,0,0,0,0,0,0,0,0,0,0,0,0,0,0,0,0,0,0],"sum_hessian":[3.3974356E2,3.3458902E2,5.154541E0,2.7162313E1,3.074267E2,4.132074E0,1.022467E0,1.5952607E1,1.1209706E1,1.8198782E2,1.2543889E2,3.925604E0,1.2027003E1,5.182937E0,6.026769E0,2.3660654E1,1.5832716E2,8.434719E1,4.1091698E1],"tree_param":{"num_deleted":"0","num_feature":"31","num_nodes":"19","size_leaf_vector":"0"}},{"base_weights":[3.0841033E-3,8.265855E-3,-5.0647223E-1,2.105583E-1,-4.1576596E-3,3.6718547E-1,-2.2359174E-1,3.0958918E-1,-1.3970241E-2,-1.6618028E-1,4.3957078E-1,1.9356771E-1,-5.8994967E-1,-2.8833947E-1,4.868579E-1,-4.4081536E-1,-6.361459E-3],"categories":[],"categories_nodes":[],"categories_segments":[],"categories_sizes":[],"default_left":[1,1,0,1,1,1,1,1,1,0,0,0,0,0,0,0,0],"id":40,"left_children":[1,3,-1,5,7,9,11,13,15,-1,-1,-1,-1,-1,-1,-1,-1],"loss_changes":[8.9654654E-1,8.441651E-1,0E0,1.4036164E0,9.8060805E-1,6.390482E-1,9.966222E-1,1.1643077E0,9.9897766E-1,0E0,0E0,0E0,0E0,0E0,0E0,0E0,0E0],"parents":[2147483647,0,0,1,1,3,3,4,4,5,5,6,6,7,7,8,8],"right_children":[2,4,-1,6,8,10,12,14,16,-1,-1,-1,-1,-1,-1,-1,-1],"split_conditions":[1.9275E2,1.3332253E3,-1.5194167E-1,1.375E0,1.56875E2,3.375E0,1.05375E2,1.91875E2,1.3125E1,-4.985409E-2,1.3187124E-1,5.8070313E-2,-1.769849E-1,-8.6501844E-2,1.4605737E-1,-1.3224462E-1,-1.9084377E-3],"split_indices":[26,2,0,9,15,21,24,16,6,0,0,0,0,0,0,0,0],"split_type":[0,0,0,0,0,0,0,0,0,0,0,0,0,0,0,0,0],"sum_hessian":[3.3696472E2,3.3454645E2,2.4182725E0,1.8434158E1,3.161123E2,1.3660234E1,4.7739244E0,8.660236E0,3.0745206E2,1.4775137E0,1.218272E1,2.4527283E0,2.321196E0,1.8371038E0,6.8231325E0,4.387414E0,3.0306464E2],"tree_param":{"num_deleted":"0","num_feature":"31","num_nodes":"17","size_leaf_vector":"0"}},{"base_weights":[-3.0841057E-3,-8.265857E-3,5.0647223E-1,-2.105583E-1,4.1576573E-3,-3.6718547E-1,2.235917E-1,-3.095892E-1,1.397024E-2,1.6618025E-1,-4.3957078E-1,-1.9356772E-1,5.8994967E-1,2.883394E-1,-4.868579E-1,4.408153E-1,6.361458E-3],"categories":[],"categories_nodes":[],"categories_segments":[],"categories_sizes":[],"default_left":[1,1,0,1,1,1,1,1,1,0,0,0,0,0,0,0,0],"id":41,"left_children":[1,3,-1,5,7,9,11,13,15,-1,-1,-1,-1,-1,-1,-1,-1],"loss_changes":[8.9654654E-1,8.44165E-1,0E0,1.4036162E0,9.8060817E-1,6.3904834E-1,9.966222E-1,1.1643076E0,9.989773E-1,0E0,0E0,0E0,0E0,0E0,0E0,0E0,0E0],"parents":[2147483647,0,0,1,1,3,3,4,4,5,5,6,6,7,7,8,8],"right_children":[2,4,-1,6,8,10,12,14,16,-1,-1,-1,-1,-1,-1,-1,-1],"split_conditions":[1.9275E2,1.3332253E3,1.5194167E-1,1.375E0,1.56875E2,3.375E0,1.05375E2,1.91875E2,1.3125E1,4.9854077E-2,-1.3187124E-1,-5.807032E-2,1.769849E-1,8.650182E-2,-1.4605737E-1,1.322446E-1,1.9084375E-3],"split_indices":[26,2,0,9,15,21,24,16,6,0,0,0,0,0,0,0,0],"split_type":[0,0,0,0,0,0,0,0,0,0,0,0,0,0,0,0,0],"sum_hessian":[3.3696472E2,3.3454645E2,2.4182725E0,1.8434158E1,3.161123E2,1.3660234E1,4.7739244E0,8.660236E0,3.0745206E2,1.4775139E0,1.218272E1,2.4527285E0,2.3211958E0,1.8371038E0,6.8231325E0,4.3874145E0,3.0306467E2],"tree_param":{"num_deleted":"0","num_feature":"31","num_nodes":"17","size_leaf_vector":"0"}},{"base_weights":[1.829893E-3,3.6439547E-1,-4.4594887E-3,-1.4188465E-1,5.290388E-1,2.3023307E-3,-3.5416383E-1,6.5206134E-1,7.1472175E-2,-1.1559773E-2,4.0697846E-1,-5.7051796E-1,1.282693E-1,-3.155915E-2,1.3447617E-1,-1.075278E-1,5.359735E-1],"categories":[],"categories_nodes":[],"categories_segments":[],"categories_sizes":[],"default_left":[1,1,1,0,1,1,1,0,0,1,1,0,0,0,0,0,0],"id":42,"left_children":[1,3,5,-1,7,9,11,-1,-1,13,15,-1,-1,-1,-1,-1,-1],"loss_changes":[7.659581E-1,5.5247426E-1,7.8223425E-1,0E0,2.085849E-1,1.8288845E0,7.281388E-1,0E0,0E0,9.253735E-1,7.742715E-1,0E0,0E0,0E0,0E0,0E0,0E0],"parents":[2147483647,0,0,1,1,2,2,4,4,5,5,6,6,9,9,10,10],"right_children":[2,4,6,-1,8,10,12,-1,-1,14,16,-1,-1,-1,-1,-1,-1],"split_conditions":[1.1375E1,1.97875E2,1.7249835E3,-4.2565398E-2,1.89375E2,1.6888331E3,1.7504535E3,1.956184E-1,2.1441653E-2,5.875E0,6.6875E1,-1.711554E-1,3.8480792E-2,-9.467745E-3,4.0342852E-2,-3.2258343E-2,1.6079205E-1],"split_indices":[13,15,4,0,17,2,4,0,0,20,25,0,0,0,0,0,0],"split_type":[0,0,0,0,0,0,0,0,0,0,0,0,0,0,0,0,0],"sum_hessian":[3.341877E2,4.7274084E0,3.294603E2,1.1940181E0,3.53339E0,3.2418533E2,5.274972E0,2.4496953E0,1.0836947E0,3.1438748E2,9.797849E0,3.5157146E0,1.7592576E0,2.772082E2,3.71793E1,1.9974176E0,7.8004313E0],"tree_param":{"num_deleted":"0","num_feature":"31","num_nodes":"17","size_leaf_vector":"0"}},{"base_weights":[-1.8298957E-3,-3.6439547E-1,4.4594863E-3,1.4188464E-1,-5.290388E-1,-2.3023335E-3,3.5416386E-1,-6.5206134E-1,-7.147216E-2,1.1559771E-2,-4.069785E-1,5.7051796E-1,-1.2826928E-1,3.1559147E-2,-1.3447617E-1,1.07527785E-1,-5.359735E-1],"categories":[],"categories_nodes":[],"categories_segments":[],"categories_sizes":[],"default_left":[1,1,1,0,1,1,1,0,0,1,1,0,0,0,0,0,0],"id":43,"left_children":[1,3,5,-1,7,9,11,-1,-1,13,15,-1,-1,-1,-1,-1,-1],"loss_changes":[7.6595813E-1,5.524742E-1,7.822344E-1,0E0,2.0858502E-1,1.8288847E0,7.281388E-1,0E0,0E0,9.253734E-1,7.742715E-1,0E0,0E0,0E0,0E0,0E0,0E0],"parents":[2147483647,0,0,1,1,2,2,4,4,5,5,6,6,9,9,10,10],"right_children":[2,4,6,-1,8,10,12,-1,-1,14,16,-1,-1,-1,-1,-1,-1],"split_conditions":[1.1375E1,1.97875E2,1.7249835E3,4.2565394E-2,1.89375E2,1.6888331E3,1.7504535E3,-1.956184E-1,-2.144165E-2,5.875E0,6.6875E1,1.711554E-1,-3.848079E-2,9.467744E-3,-4.0342852E-2,3.2258336E-2,-1.6079205E-1],"split_indices":[13,15,4,0,17,2,4,0,0,20,25,0,0,0,0,0,0],"split_type":[0,0,0,0,0,0,0,0,0,0,0,0,0,0,0,0,0],"sum_hessian":[3.341877E2,4.7274084E0,3.294603E2,1.1940181E0,3.5333903E0,3.2418533E2,5.274972E0,2.4496953E0,1.0836948E0,3.1438748E2,9.797849E0,3.5157146E0,1.7592574E0,2.772082E2,3.71793E1,1.9974176E0,7.8004313E0],"tree_param":{"num_deleted":"0","num_feature":"31","num_nodes":"17","size_leaf_vector":"0"}},{"base_weights":[1.937548E-3,-6.753926E-3,2.3301864E-1,2.4284662E-3,-3.6883187E-1,4.581179E-1,-1.7757027E-1,-1.0636875E-2,2.1840808E-1,1.8189876E-1,-6.0864216E-1,-1.2127299E-1,5.570121E-1,-6.557017E-1,2.0380434E-1,-2.3537736E-4,-3.8184023E-1,3.4993917E-1,-5.4546857E-1,3.2231343E-1,-6.2413808E-2,-1.5519424E-1,-6.9741124E-1,-8.624764E-2,3.6589122E-1],"categories":[],"categories_nodes":[],"categories_segments":[],"categories_sizes":[],"default_left":[1,1,1,1,1,1,1,1,1,1,1,0,0,0,1,0,0,0,0,0,0,0,0,0,0],"id":44,"left_children":[1,3,5,7,9,11,13,15,17,19,21,-1,-1,-1,23,-1,-1,-1,-1,-1,-1,-1,-1,-1,-1],"loss_changes":[6.729344E-1,1.0752043E0,1.203836E0,8.943853E-1,1.1670682E0,5.330312E-1,1.0492507E0,1.154555E0,2.0073595E0,1.2976338E-1,1.2531662E-1,0E0,0E0,0E0,1.9874471E-1,0E0,0E0,0E0,0E0,0E0,0E0,0E0,0E0,0E0,0E0],"parents":[2147483647,0,0,1,1,2,2,3,3,4,4,5,5,6,6,7,7,8,8,9,9,10,10,14,14],"right_children":[2,4,6,8,10,12,14,16,18,20,22,-1,-1,-1,24,-1,-1,-1,-1,-1,-1,-1,-1,-1,-1],"split_conditions":[1.7075605E3,1.6857673E3,1.7464492E3,4.7200003E0,9.6375E1,1.6125E1,1.7565864E3,3.34625E2,2.7775E2,1.6940171E3,1.4713999E3,-3.6381897E-2,1.6710363E-1,-1.9671051E-1,1.625E0,-7.061321E-5,-1.1455207E-1,1.0498176E-1,-1.6364057E-1,9.669403E-2,-1.8724144E-2,-4.6558272E-2,-2.0922337E-1,-2.5874292E-2,1.0976737E-1],"split_indices":[5,5,1,0,26,6,1,16,15,5,2,0,0,0,28,0,0,0,0,0,0,0,0,0,0],"split_type":[0,0,0,0,0,0,0,0,0,0,0,0,0,0,0,0,0,0,0,0,0,0,0,0,0],"sum_hessian":[3.3327048E2,3.221254E2,1.1145081E1,3.1512698E2,6.99841E0,7.123803E0,4.021277E0,2.9804782E2,1.7079176E1,2.1962204E0,4.80219E0,1.0056593E0,6.118144E0,1.4651276E0,2.5561495E0,2.9089722E2,7.1506033E0,1.5032617E1,2.0465593E0,1.1919181E0,1.0043023E0,1.2361277E0,3.5660622E0,1.0840863E0,1.4720633E0],"tree_param":{"num_deleted":"0","num_feature":"31","num_nodes":"25","size_leaf_vector":"0"}},{"base_weights":[-1.937547E-3,6.753927E-3,-2.3301864E-1,-2.4284653E-3,3.688319E-1,-4.581179E-1,1.7757027E-1,1.0636877E-2,-2.1840808E-1,-1.8189876E-1,6.0864216E-1,1.2127301E-1,-5.570121E-1,6.5570164E-1,-2.0380433E-1,2.3537972E-4,3.8184023E-1,-3.4993917E-1,5.4546857E-1,-3.2231343E-1,6.2413786E-2,1.5519427E-1,6.9741124E-1,8.624767E-2,-3.6589122E-1],"categories":[],"categories_nodes":[],"categories_segments":[],"categories_sizes":[],"default_left":[1,1,1,1,1,1,1,1,1,1,1,0,0,0,1,0,0,0,0,0,0,0,0,0,0],"id":45,"left_children":[1,3,5,7,9,11,13,15,17,19,21,-1,-1,-1,23,-1,-1,-1,-1,-1,-1,-1,-1,-1,-1],"loss_changes":[6.729344E-1,1.0752043E0,1.203836E0,8.943854E-1,1.1670682E0,5.3303146E-1,1.0492506E0,1.1545548E0,2.0073595E0,1.2976335E-1,1.2531662E-1,0E0,0E0,0E0,1.9874474E-1,0E0,0E0,0E0,0E0,0E0,0E0,0E0,0E0,0E0,0E0],"parents":[2147483647,0,0,1,1,2,2,3,3,4,4,5,5,6,6,7,7,8,8,9,9,10,10,14,14],"right_children":[2,4,6,8,10,12,14,16,18,20,22,-1,-1,-1,24,-1,-1,-1,-1,-1,-1,-1,-1,-1,-1],"split_conditions":[1.7075605E3,1.6857673E3,1.7464492E3,4.7200003E0,9.6375E1,1.6125E1,1.7565864E3,3.34625E2,2.7775E2,1.6940171E3,1.4713999E3,3.6381904E-2,-1.6710363E-1,1.967105E-1,1.625E0,7.061392E-5,1.1455207E-1,-1.0498176E-1,1.6364057E-1,-9.669403E-2,1.8724136E-2,4.6558283E-2,2.0922337E-1,2.5874302E-2,-1.0976737E-1],"split_indices":[5,5,1,0,26,6,1,16,15,5,2,0,0,0,28,0,0,0,0,0,0,0,0,0,0],"split_type":[0,0,0,0,0,0,0,0,0,0,0,0,0,0,0,0,0,0,0,0,0,0,0,0,0],"sum_hessian":[3.3327048E2,3.221254E2,1.1145081E1,3.1512698E2,6.99841E0,7.123803E0,4.021277E0,2.9804782E2,1.7079176E1,2.1962204E0,4.80219E0,1.0056595E0,6.118144E0,1.4651276E0,2.5561495E0,2.9089722E2,7.1506033E0,1.5032617E1,2.0465593E0,1.1919181E0,1.0043024E0,1.2361276E0,3.5660622E0,1.0840862E0,1.4720633E0],"tree_param":{"num_deleted":"0","num_feature":"31","num_nodes":"25","size_leaf_vector":"0"}},{"base_weights":[8.4927067E-4,-8.577444E-3,2.0370828E-1,1.1448283E-1,-2.7742304E-2,-1.7177327E-1,4.7129858E-1,1.8514104E-1,-4.393475E-1,-5.4024416E-1,-1.709484E-2,-3.7347373E-1,3.972925E-1,6.203827E-1,-2.5297E-1,-2.6332175E-2,3.3400583E-1,-6.552019E-1,5.627188E-2,1.7389156E-1,-8.0533874E-1,3.5725895E-1,-2.9985972E-2,-5.690082E-1,1.7574072E-1,7.06507E-1,3.9082818E-2],"categories":[],"categories_nodes":[],"categories_segments":[],"categories_sizes":[],"default_left":[1,1,1,1,1,1,1,1,1,1,1,1,0,1,0,0,0,0,0,0,0,0,0,0,0,0,0],"id":46,"left_children":[1,3,5,7,9,11,13,15,17,19,21,23,-1,25,-1,-1,-1,-1,-1,-1,-1,-1,-1,-1,-1,-1,-1],"loss_changes":[6.330193E-1,7.4941534E-1,1.5578725E0,1.7574632E0,1.489113E0,9.345643E-1,1.1125189E0,1.2267632E0,5.87044E-1,1.1918255E0,1.3138145E0,6.984288E-1,0E0,3.5431695E-1,0E0,0E0,0E0,0E0,0E0,0E0,0E0,0E0,0E0,0E0,0E0,0E0,0E0],"parents":[2147483647,0,0,1,1,2,2,3,3,4,4,5,5,6,6,7,7,8,8,9,9,10,10,11,11,13,13],"right_children":[2,4,6,8,10,12,14,16,18,20,22,24,-1,26,-1,-1,-1,-1,-1,-1,-1,-1,-1,-1,-1,-1,-1],"split_conditions":[3.24875E2,8.35E1,4.375E0,3.275E1,8.5125E1,2.875E1,1.5E0,7.0125E1,3.7450001E0,1.875E0,1.3875E1,1.5768171E3,1.1918775E-1,1.5799899E3,-7.5891E-2,-7.899653E-3,1.00201756E-1,-1.9656058E-1,1.6881565E-2,5.216747E-2,-2.4160163E-1,1.0717769E-1,-8.995792E-3,-1.7070246E-1,5.272222E-2,2.1195212E-1,1.17248455E-2],"split_indices":[15,26,21,7,26,14,12,26,0,30,14,1,0,5,0,0,0,0,0,0,0,0,0,0,0,0,0],"split_type":[0,0,0,0,0,0,0,0,0,0,0,0,0,0,0,0,0,0,0,0,0,0,0,0,0,0,0],"sum_hessian":[3.291125E2,3.1541318E2,1.3699309E1,4.183179E1,2.735814E2,5.849454E0,7.849855E0,3.768909E1,4.1427026E0,4.5557775E0,2.690256E2,4.5724835E0,1.2769704E0,6.62881E0,1.221045E0,1.5910371E1,2.1778719E1,2.6615477E0,1.481155E0,1.3264654E0,3.2293122E0,8.066412E0,2.609592E2,3.3453968E0,1.2270868E0,5.585832E0,1.042978E0],"tree_param":{"num_deleted":"0","num_feature":"31","num_nodes":"27","size_leaf_vector":"0"}},{"base_weights":[-8.492748E-4,8.577439E-3,-2.0370829E-1,-1.1448283E-1,2.77423E-2,1.7177323E-1,-4.7129855E-1,-1.8514104E-1,4.3934757E-1,5.402441E-1,1.7094836E-2,3.734737E-1,-3.9729246E-1,-6.2038267E-1,2.5297007E-1,2.6332166E-2,-3.3400583E-1,6.552019E-1,-5.627182E-2,-1.738916E-1,8.0533874E-1,-3.5725895E-1,2.998597E-2,5.690082E-1,-1.757408E-1,-7.06507E-1,-3.908278E-2],"categories":[],"categories_nodes":[],"categories_segments":[],"categories_sizes":[],"default_left":[1,1,1,1,1,1,1,1,1,1,1,1,0,1,0,0,0,0,0,0,0,0,0,0,0,0,0],"id":47,"left_children":[1,3,5,7,9,11,13,15,17,19,21,23,-1,25,-1,-1,-1,-1,-1,-1,-1,-1,-1,-1,-1,-1,-1],"loss_changes":[6.330194E-1,7.494153E-1,1.5578723E0,1.7574635E0,1.4891125E0,9.345641E-1,1.1125189E0,1.2267631E0,5.8704394E-1,1.1918256E0,1.3138145E0,6.9842887E-1,0E0,3.5431695E-1,0E0,0E0,0E0,0E0,0E0,0E0,0E0,0E0,0E0,0E0,0E0,0E0,0E0],"parents":[2147483647,0,0,1,1,2,2,3,3,4,4,5,5,6,6,7,7,8,8,9,9,10,10,11,11,13,13],"right_children":[2,4,6,8,10,12,14,16,18,20,22,24,-1,26,-1,-1,-1,-1,-1,-1,-1,-1,-1,-1,-1,-1,-1],"split_conditions":[3.24875E2,8.35E1,4.375E0,3.275E1,8.5125E1,2.875E1,1.5E0,7.0125E1,3.7450001E0,1.875E0,1.3875E1,1.5768171E3,-1.1918774E-1,1.5799899E3,7.5891025E-2,7.89965E-3,-1.00201756E-1,1.9656058E-1,-1.6881548E-2,-5.2167483E-2,2.4160163E-1,-1.0717769E-1,8.995791E-3,1.7070246E-1,-5.272224E-2,-2.1195212E-1,-1.1724834E-2],"split_indices":[15,26,21,7,26,14,12,26,0,30,14,1,0,5,0,0,0,0,0,0,0,0,0,0,0,0,0],"split_type":[0,0,0,0,0,0,0,0,0,0,0,0,0,0,0,0,0,0,0,0,0,0,0,0,0,0,0],"sum_hessian":[3.291125E2,3.1541318E2,1.3699309E1,4.183179E1,2.735814E2,5.849454E0,7.849855E0,3.768909E1,4.1427026E0,4.555778E0,2.690256E2,4.5724835E0,1.2769704E0,6.62881E0,1.221045E0,1.5910371E1,2.1778719E1,2.6615477E0,1.4811548E0,1.3264656E0,3.2293124E0,8.066413E0,2.609592E2,3.3453965E0,1.2270869E0,5.585832E0,1.042978E0],"tree_param":{"num_deleted":"0","num_feature":"31","num_nodes":"27","size_leaf_vector":"0"}},{"base_weights":[9.6507295E-4,-2.3153957E-2,7.95175E-2,2.7402597E-2,-1.58475E-1,-8.552351E-2,2.1975869E-1,5.4111327E-3,4.9404237E-1,-4.114156E-1,6.4191655E-3,-3.5260308E-1,1.328826E-1,5.816802E-1,9.2777304E-2,-3.789275E-2,2.0899408E-1,-1.310779E-1,6.956635E-1,-4.9779814E-1,4.2238802E-1,4.297023E-1,-1.2575655E-1,5.563067E-1,-4.7559762E-1,-2.882274E-1,2.3058656E-1,6.7504555E-1,-4.833516E-2,2.785896E-1,-1.1662533E-1],"categories":[],"categories_nodes":[],"categories_segments":[],"categories_sizes":[],"default_left":[1,1,1,1,1,1,1,1,1,1,1,1,1,1,1,0,0,0,0,0,0,0,0,0,0,0,0,0,0,0,0],"id":48,"left_children":[1,3,5,7,9,11,13,15,17,19,21,23,25,27,29,-1,-1,-1,-1,-1,-1,-1,-1,-1,-1,-1,-1,-1,-1,-1,-1],"loss_changes":[6.2067616E-1,1.7192948E0,1.7999736E0,1.8788412E0,2.8524873E0,2.1509922E0,1.8708947E0,1.560453E0,1.1298168E0,2.1535444E0,2.423291E0,2.1092873E0,9.128147E-1,6.6134715E-1,1.2851901E0,0E0,0E0,0E0,0E0,0E0,0E0,0E0,0E0,0E0,0E0,0E0,0E0,0E0,0E0,0E0,0E0],"parents":[2147483647,0,0,1,1,2,2,3,3,4,4,5,5,6,6,7,7,8,8,9,9,10,10,11,11,12,12,13,13,14,14],"right_children":[2,4,6,8,10,12,14,16,18,20,22,24,26,28,30,-1,-1,-1,-1,-1,-1,-1,-1,-1,-1,-1,-1,-1,-1,-1,-1],"split_conditions":[2.6625E1,1.5497413E3,2.125E0,1.5632607E3,1.5872964E3,1.577887E3,2.125E0,2.77875E2,1.8825E2,1.37375E2,1.5949653E3,1.6375E1,1.5625E1,1.61875E2,2.73625E2,-1.1367826E-2,6.269822E-2,-3.932337E-2,2.0869906E-1,-1.4933945E-1,1.267164E-1,1.289107E-1,-3.7726965E-2,1.6689202E-1,-1.4267929E-1,-8.646823E-2,6.917597E-2,2.0251368E-1,-1.4500549E-2,8.357689E-2,-3.4987602E-2],"split_indices":[7,3,27,5,5,3,30,17,16,25,3,13,13,23,16,0,0,0,0,0,0,0,0,0,0,0,0,0,0,0,0],"split_type":[0,0,0,0,0,0,0,0,0,0,0,0,0,0,0,0,0,0,0,0,0,0,0,0,0,0,0,0,0,0,0],"sum_hessian":[3.2562952E2,2.4967395E2,7.595558E1,1.8234612E2,6.7327835E1,3.5071873E1,4.0883705E1,1.7510547E2,7.2406487E0,2.5980234E1,4.1347603E1,1.5501413E1,1.957046E1,9.688572E0,3.1195135E1,1.4506313E2,3.0042334E1,1.8511364E0,5.3895125E0,2.3906488E1,2.0737464E0,9.303339E0,3.2044262E1,1.4277266E0,1.4073687E1,3.3183146E0,1.6252144E1,8.375837E0,1.3127348E0,1.6353521E1,1.4841613E1],"tree_param":{"num_deleted":"0","num_feature":"31","num_nodes":"31","size_leaf_vector":"0"}},{"base_weights":[-9.65069E-4,2.3153959E-2,-7.951749E-2,-2.7402595E-2,1.58475E-1,8.552352E-2,-2.1975869E-1,-5.4111294E-3,-4.9404234E-1,4.1141564E-1,-6.4191734E-3,3.5260305E-1,-1.3288257E-1,-5.816802E-1,-9.27773E-2,3.7892755E-2,-2.0899408E-1,1.3107787E-1,-6.956635E-1,4.9779814E-1,-4.22388E-1,-4.297023E-1,1.2575653E-1,-5.563067E-1,4.7559762E-1,2.882274E-1,-2.3058653E-1,-6.7504555E-1,4.833515E-2,-2.785896E-1,1.1662533E-1],"categories":[],"categories_nodes":[],"categories_segments":[],"categories_sizes":[],"default_left":[1,1,1,1,1,1,1,1,1,1,1,1,1,1,1,0,0,0,0,0,0,0,0,0,0,0,0,0,0,0,0],"id":49,"left_children":[1,3,5,7,9,11,13,15,17,19,21,23,25,27,29,-1,-1,-1,-1,-1,-1,-1,-1,-1,-1,-1,-1,-1,-1,-1,-1],"loss_changes":[6.2067604E-1,1.7192948E0,1.7999735E0,1.8788414E0,2.8524878E0,2.150992E0,1.8708949E0,1.5604533E0,1.1298163E0,2.1535435E0,2.423291E0,2.1092873E0,9.128146E-1,6.6134715E-1,1.28519E0,0E0,0E0,0E0,0E0,0E0,0E0,0E0,0E0,0E0,0E0,0E0,0E0,0E0,0E0,0E0,0E0],"parents":[2147483647,0,0,1,1,2,2,3,3,4,4,5,5,6,6,7,7,8,8,9,9,10,10,11,11,12,12,13,13,14,14],"right_children":[2,4,6,8,10,12,14,16,18,20,22,24,26,28,30,-1,-1,-1,-1,-1,-1,-1,-1,-1,-1,-1,-1,-1,-1,-1,-1],"split_conditions":[2.6625E1,1.5497413E3,2.125E0,1.5632607E3,1.5872964E3,1.577887E3,2.125E0,2.77875E2,1.8825E2,1.37375E2,1.5949653E3,1.6375E1,1.5625E1,1.61875E2,2.73625E2,1.1367827E-2,-6.269822E-2,3.9323363E-2,-2.0869906E-1,1.4933945E-1,-1.267164E-1,-1.289107E-1,3.772696E-2,-1.6689202E-1,1.4267929E-1,8.646823E-2,-6.917596E-2,-2.0251368E-1,1.4500545E-2,-8.357689E-2,3.4987602E-2],"split_indices":[7,3,27,5,5,3,30,17,16,25,3,13,13,23,16,0,0,0,0,0,0,0,0,0,0,0,0,0,0,0,0],"split_type":[0,0,0,0,0,0,0,0,0,0,0,0,0,0,0,0,0,0,0,0,0,0,0,0,0,0,0,0,0,0,0],"sum_hessian":[3.2562952E2,2.4967395E2,7.595558E1,1.8234612E2,6.7327835E1,3.5071873E1,4.0883705E1,1.7510547E2,7.240649E0,2.5980234E1,4.1347603E1,1.5501414E1,1.9570457E1,9.688572E0,3.1195135E1,1.4506313E2,3.0042334E1,1.8511367E0,5.3895125E0,2.3906488E1,2.0737464E0,9.303339E0,3.2044266E1,1.4277267E0,1.4073687E1,3.3183146E0,1.6252144E1,8.375837E0,1.3127347E0,1.6353521E1,1.4841613E1],"tree_param":{"num_deleted":"0","num_feature":"31","num_nodes":"31","size_leaf_vector":"0"}},{"base_weights":[3.5161658E-3,1.0096903E-2,-3.2888192E-1,5.5413585E-2,-3.7739217E-2,9.48605E-2,-4.7784585E-1,3.9604545E-2,7.009437E-1,-1.1369897E-1,4.1194987E-2,1.1937182E-1,-8.460059E-2,-1.5648885E-1,2.5256827E-1,1.1325305E-1,-2.9129517E-1],"categories":[],"categories_nodes":[],"categories_segments":[],"categories_sizes":[],"default_left":[1,1,1,1,1,0,0,1,0,1,1,0,0,0,0,0,0],"id":50,"left_children":[1,3,5,7,9,-1,-1,11,-1,13,15,-1,-1,-1,-1,-1,-1],"loss_changes":[7.057361E-1,6.867861E-1,4.4071E-1,1.6316296E0,9.295354E-1,0E0,0E0,1.5930719E0,0E0,1.2756428E0,1.8628919E0,0E0,0E0,0E0,0E0,0E0,0E0],"parents":[2147483647,0,0,1,1,2,2,3,3,4,4,7,7,9,9,10,10],"right_children":[2,4,6,8,10,-1,-1,12,-1,14,16,-1,-1,-1,-1,-1,-1],"split_conditions":[1.77375E2,1.09125E2,2.2025E2,1.08625E2,1.26375E2,2.8458152E-2,-1.4335376E-1,2.625E0,2.1028312E-1,1.625E0,1.620601E3,3.5811547E-2,-2.5380177E-2,-4.6946656E-2,7.577048E-2,3.3975918E-2,-8.738855E-2],"split_indices":[26,25,17,25,25,0,0,28,0,11,1,0,0,0,0,0,0],"split_type":[0,0,0,0,0,0,0,0,0,0,0,0,0,0,0,0,0],"sum_hessian":[3.2011526E2,3.1485153E2,5.263731E0,1.616022E2,1.5324933E2,1.4635938E0,3.800137E0,1.5877515E2,2.8270538E0,7.787166E1,7.537766E1,9.670682E1,6.2068333E1,7.023864E1,7.633019E0,6.249334E1,1.2884327E1],"tree_param":{"num_deleted":"0","num_feature":"31","num_nodes":"17","size_leaf_vector":"0"}},{"base_weights":[-3.5161693E-3,-1.0096908E-2,3.2888195E-1,-5.5413585E-2,3.773921E-2,-9.486049E-2,4.7784585E-1,-3.9604545E-2,-7.009437E-1,1.1369896E-1,-4.1195E-2,-1.1937182E-1,8.460058E-2,1.5648884E-1,-2.5256824E-1,-1.13253064E-1,2.9129517E-1],"categories":[],"categories_nodes":[],"categories_segments":[],"categories_sizes":[],"default_left":[1,1,1,1,1,0,0,1,0,1,1,0,0,0,0,0,0],"id":51,"left_children":[1,3,5,7,9,-1,-1,11,-1,13,15,-1,-1,-1,-1,-1,-1],"loss_changes":[7.0573616E-1,6.86786E-1,4.4070995E-1,1.6316293E0,9.295356E-1,0E0,0E0,1.5930717E0,0E0,1.2756425E0,1.8628919E0,0E0,0E0,0E0,0E0,0E0,0E0],"parents":[2147483647,0,0,1,1,2,2,3,3,4,4,7,7,9,9,10,10],"right_children":[2,4,6,8,10,-1,-1,12,-1,14,16,-1,-1,-1,-1,-1,-1],"split_conditions":[1.77375E2,1.09125E2,2.2025E2,1.08625E2,1.26375E2,-2.8458146E-2,1.4335376E-1,2.625E0,-2.1028312E-1,1.625E0,1.620601E3,-3.5811547E-2,2.5380176E-2,4.6946652E-2,-7.5770475E-2,-3.397592E-2,8.738855E-2],"split_indices":[26,25,17,25,25,0,0,28,0,11,1,0,0,0,0,0,0],"split_type":[0,0,0,0,0,0,0,0,0,0,0,0,0,0,0,0,0],"sum_hessian":[3.2011526E2,3.1485153E2,5.263731E0,1.616022E2,1.5324933E2,1.4635938E0,3.8001373E0,1.5877515E2,2.8270538E0,7.787166E1,7.537767E1,9.670682E1,6.2068333E1,7.023864E1,7.633019E0,6.249334E1,1.2884327E1],"tree_param":{"num_deleted":"0","num_feature":"31","num_nodes":"17","size_leaf_vector":"0"}},{"base_weights":[2.8439967E-3,-4.525066E-2,4.201435E-2,1.774384E-2,-2.636056E-1,1.4766969E-1,-2.1314189E-2,1.4617626E-1,-1.24400504E-1,3.0019668E-1,-3.640401E-1,-3.979589E-1,1.941077E-1,-4.6609235E-1,2.3000843E-3,-4.844797E-4,3.6084983E-1,-3.5847935E-1,2.3977282E-3,5.817876E-1,-2.4825905E-1,-4.8288265E-1,-9.232215E-3,-6.0242593E-1,1.20674826E-1,1.225351E-2,3.117274E-1,7.713183E-2,-6.880672E-1,-3.0204195E-1,3.603703E-2],"categories":[],"categories_nodes":[],"categories_segments":[],"categories_sizes":[],"default_left":[1,1,1,1,1,1,1,1,1,1,1,1,1,1,1,0,0,0,0,0,0,0,0,0,0,0,0,0,0,0,0],"id":52,"left_children":[1,3,5,7,9,11,13,15,17,19,21,23,25,27,29,-1,-1,-1,-1,-1,-1,-1,-1,-1,-1,-1,-1,-1,-1,-1,-1],"loss_changes":[6.0203207E-1,1.9781653E0,1.1813502E0,2.0680673E0,1.9318657E0,1.7525109E0,1.1666112E0,1.87184E0,1.5988135E0,9.806948E-1,1.1665821E0,6.573839E-1,1.3138521E0,7.282796E-1,1.1030592E0,0E0,0E0,0E0,0E0,0E0,0E0,0E0,0E0,0E0,0E0,0E0,0E0,0E0,0E0,0E0,0E0],"parents":[2147483647,0,0,1,1,2,2,3,3,4,4,5,5,6,6,7,7,8,8,9,9,10,10,11,11,12,12,13,13,14,14],"right_children":[2,4,6,8,10,12,14,16,18,20,22,24,26,28,30,-1,-1,-1,-1,-1,-1,-1,-1,-1,-1,-1,-1,-1,-1,-1,-1],"split_conditions":[2.145E0,2.875E0,1.04625E2,1.4518987E3,6.9625E1,2.875E0,1.06125E2,1.9625E1,1.4960571E3,1.3975E2,2.8E1,5.05E1,3.875E0,4.45E1,1.4105403E3,-1.4534392E-4,1.08254954E-1,-1.0754381E-1,7.1931846E-4,1.7453629E-1,-7.447772E-2,-1.448648E-1,-2.7696644E-3,-1.8072778E-1,3.620245E-2,3.6760531E-3,9.351823E-2,2.313955E-2,-2.0642017E-1,-9.061259E-2,1.081111E-2],"split_indices":[0,27,25,3,24,19,25,7,5,26,14,8,20,8,1,0,0,0,0,0,0,0,0,0,0,0,0,0,0,0,0],"split_type":[0,0,0,0,0,0,0,0,0,0,0,0,0,0,0,0,0,0,0,0,0,0,0,0,0,0,0,0,0,0,0],"sum_hessian":[3.1756027E2,1.4247255E2,1.7508774E2,1.1128579E2,3.1186756E1,6.511692E1,1.09970825E2,5.844779E1,5.2838E1,4.4147882E0,2.6771967E1,4.5136456E0,6.060327E1,4.5995684E0,1.0537126E2,3.5317387E1,2.31304E1,1.7923233E1,3.491477E1,2.8769276E0,1.5378605E0,1.9784277E1,6.987692E0,3.121469E0,1.3921765E0,2.4235878E1,3.6367393E1,1.5235665E0,3.076002E0,9.7213955E0,9.5649864E1],"tree_param":{"num_deleted":"0","num_feature":"31","num_nodes":"31","size_leaf_vector":"0"}},{"base_weights":[-2.843998E-3,4.525066E-2,-4.2014353E-2,-1.774384E-2,2.636056E-1,-1.476697E-1,2.1314185E-2,-1.4617626E-1,1.24400504E-1,-3.0019668E-1,3.640401E-1,3.979589E-1,-1.941077E-1,4.6609235E-1,-2.3000895E-3,4.844828E-4,-3.6084983E-1,3.5847935E-1,-2.3977302E-3,-5.817876E-1,2.4825907E-1,4.8288265E-1,9.232248E-3,6.0242593E-1,-1.2067482E-1,-1.2253507E-2,-3.117274E-1,-7.7131845E-2,6.880672E-1,3.0204195E-1,-3.6037035E-2],"categories":[],"categories_nodes":[],"categories_segments":[],"categories_sizes":[],"default_left":[1,1,1,1,1,1,1,1,1,1,1,1,1,1,1,0,0,0,0,0,0,0,0,0,0,0,0,0,0,0,0],"id":53,"left_children":[1,3,5,7,9,11,13,15,17,19,21,23,25,27,29,-1,-1,-1,-1,-1,-1,-1,-1,-1,-1,-1,-1,-1,-1,-1,-1],"loss_changes":[6.020322E-1,1.9781651E0,1.1813502E0,2.068067E0,1.9318657E0,1.7525109E0,1.1666112E0,1.8718404E0,1.5988133E0,9.806949E-1,1.1665821E0,6.573838E-1,1.3138521E0,7.282797E-1,1.1030592E0,0E0,0E0,0E0,0E0,0E0,0E0,0E0,0E0,0E0,0E0,0E0,0E0,0E0,0E0,0E0,0E0],"parents":[2147483647,0,0,1,1,2,2,3,3,4,4,5,5,6,6,7,7,8,8,9,9,10,10,11,11,12,12,13,13,14,14],"right_children":[2,4,6,8,10,12,14,16,18,20,22,24,26,28,30,-1,-1,-1,-1,-1,-1,-1,-1,-1,-1,-1,-1,-1,-1,-1,-1],"split_conditions":[2.145E0,2.875E0,1.04625E2,1.4518987E3,6.9625E1,2.875E0,1.06125E2,1.9625E1,1.4960571E3,1.3975E2,2.8E1,5.05E1,3.875E0,4.45E1,1.4105403E3,1.4534485E-4,-1.08254954E-1,1.0754381E-1,-7.193191E-4,-1.7453629E-1,7.4477725E-2,1.448648E-1,2.7696746E-3,1.8072778E-1,-3.6202446E-2,-3.6760522E-3,-9.351823E-2,-2.3139555E-2,2.0642017E-1,9.061259E-2,-1.0811111E-2],"split_indices":[0,27,25,3,24,19,25,7,5,26,14,8,20,8,1,0,0,0,0,0,0,0,0,0,0,0,0,0,0,0,0],"split_type":[0,0,0,0,0,0,0,0,0,0,0,0,0,0,0,0,0,0,0,0,0,0,0,0,0,0,0,0,0,0,0],"sum_hessian":[3.1756027E2,1.4247253E2,1.7508774E2,1.1128578E2,3.1186756E1,6.511692E1,1.09970825E2,5.844779E1,5.2837997E1,4.4147882E0,2.6771969E1,4.513645E0,6.060327E1,4.599569E0,1.0537126E2,3.5317387E1,2.3130398E1,1.7923233E1,3.491477E1,2.8769276E0,1.5378605E0,1.9784275E1,6.987692E0,3.121469E0,1.3921764E0,2.4235876E1,3.6367393E1,1.5235666E0,3.0760021E0,9.7213955E0,9.5649864E1],"tree_param":{"num_deleted":"0","num_feature":"31","num_nodes":"31","size_leaf_vector":"0"}},{"base_weights":[5.3696486E-4,-4.5010492E-1,4.4827242E-3,9.11807E-2,-1.941631E-2,1.8146792E-1,-2.555918E-1,4.04941E-3,-3.2412028E-1,6.380148E-1,1.2042623E-1,-4.5085567E-1,1.3379611E-1,1.8160239E-1,-2.1970673E-2,-3.935722E-1,3.516998E-1],"categories":[],"categories_nodes":[],"categories_segments":[],"categories_sizes":[],"default_left":[1,0,1,1,1,1,1,1,1,0,0,0,0,0,0,0,0],"id":54,"left_children":[1,-1,3,5,7,9,11,13,15,-1,-1,-1,-1,-1,-1,-1,-1],"loss_changes":[5.55949E-1,0E0,6.4369977E-1,2.1479487E0,1.7437102E0,1.4236486E0,1.1461867E0,1.0538784E0,9.56872E-1,0E0,0E0,0E0,0E0,0E0,0E0,0E0,0E0],"parents":[2147483647,0,0,2,2,3,3,4,4,5,5,6,6,7,7,8,8],"right_children":[2,-1,4,6,8,10,12,14,16,-1,-1,-1,-1,-1,-1,-1,-1],"split_conditions":[6.25E-1,-1.3503148E-1,1.625E0,4.825E1,1.52375E2,3.125E0,1.24375E2,1.375E0,1.6548833E3,1.9140445E-1,3.612787E-2,-1.3525671E-1,4.0138833E-2,5.448072E-2,-6.591202E-3,-1.1807167E-1,1.05509944E-1],"split_indices":[30,0,30,8,26,19,26,28,1,0,0,0,0,0,0,0,0],"split_type":[0,0,0,0,0,0,0,0,0,0,0,0,0,0,0,0,0],