{"learner":{"attributes":{"best_iteration":"9","best_ntree_limit":"10"},"feature_names":["eloaway","elohome","Away Line Close","Away Odds Close","Total Score Close","TeamScore_Home_4","PYds_Away_4","TeamScore_Away_4","PYds_Home_4","Int_Opp_Home_4","OppScore_Home_4","RYds_Home_4","OppScore_Away_4","RYds_Opp_Home_4","Pnt_Home_4","Int_Opp_Away_4","Int_Home_4","Sk_Opp_Home_4","Pnt_Opp_Away_4","Int_Away_4","Sk_Opp_Away_4","RYds_Away_4","Sk_Home_4","PYds_Opp_Home_4","PYds_Opp_Away_4","eloaway_4","Pnt_Away_4","elohome_4","RYds_Opp_Away_4","Sk_Away_4","Pnt_Opp_Home_4"],"feature_types":["float","float","float","float","float","float","float","float","float","float","float","float","float","float","float","float","float","float","float","float","float","float","float","float","float","float","float","float","float","float","float"],"gradient_booster":{"model":{"gbtree_model_param":{"num_parallel_tree":"1","num_trees":"20","size_leaf_vector":"0"},"tree_info":[0,1,0,1,0,1,0,1,0,1,0,1,0,1,0,1,0,1,0,1],"trees":[{"base_weights":[8.718726E-2,-1.95795E-1,4.7142857E-1,-5.5450237E-1,-5.7971016E-2,3.1410256E-1,6.64E-1],"categories":[],"categories_nodes":[],"categories_segments":[],"categories_sizes":[],"default_left":[1,1,1,0,0,0,0],"id":0,"left_children":[1,3,5,-1,-1,-1,-1],"loss_changes":[7.180203E1,1.8779198E1,8.274448E0,0E0,0E0,0E0,0E0],"parents":[2147483647,0,0,1,1,2,2],"right_children":[2,4,6,-1,-1,-1,-1],"split_conditions":[2.58E0,-4.25E0,3.67E0,-1.6635072E-1,-1.7391305E-2,9.423077E-2,1.992E-1],"split_indices":[3,2,3,0,0,0,0],"split_type":[0,0,0,0,0,0,0],"sum_hessian":[6.585E2,3.795E2,2.79E2,1.045E2,2.75E2,1.55E2,1.24E2],"tree_param":{"num_deleted":"0","num_feature":"31","num_nodes":"7","size_leaf_vector":"0"}},{"base_weights":[-8.718726E-2,1.95795E-1,-4.7142857E-1,5.5450237E-1,5.7971016E-2,-3.1410256E-1,-6.64E-1],"categories":[],"categories_nodes":[],"categories_segments":[],"categories_sizes":[],"default_left":[1,1,1,0,0,0,0],"id":1,"left_children":[1,3,5,-1,-1,-1,-1],"loss_changes":[7.180203E1,1.8779198E1,8.274448E0,0E0,0E0,0E0,0E0],"parents":[2147483647,0,0,1,1,2,2],"right_children":[2,4,6,-1,-1,-1,-1],"split_conditions":[2.58E0,-4.25E0,3.67E0,1.6635072E-1,1.7391305E-2,-9.423077E-2,-1.992E-1],"split_indices":[3,2,3,0,0,0,0],"split_type":[0,0,0,0,0,0,0],"sum_hessian":[6.585E2,3.795E2,2.79E2,1.045E2,2.75E2,1.55E2,1.24E2],"tree_param":{"num_deleted":"0","num_feature":"31","num_nodes":"7","size_leaf_vector":"0"}},{"base_weights":[6.23682E-2,-2.0571873E-1,2.79461E-1,-4.768136E-1,-1.146828E-1,1.3779396E-1,4.5580828E-1],"categories":[],"categories_nodes":[],"categories_segments":[],"categories_sizes":[],"default_left":[1,1,1,0,0,0,0],"id":2,"left_children":[1,3,5,-1,-1,-1,-1],"loss_changes":[3.791155E1,7.1419115E0,8.926247E0,0E0,0E0,0E0,0E0],"parents":[2147483647,0,0,1,1,2,2],"right_children":[2,4,6,-1,-1,-1,-1],"split_conditions":[2.165E0,1.365E0,6.25E0,-1.4304408E-1,-3.440484E-2,4.133819E-2,1.3674249E-1],"split_indices":[3,3,2,0,0,0,0],"split_type":[0,0,0,0,0,0,0],"sum_hessian":[6.4941626E2,2.9060358E2,3.5881268E2,7.198942E1,2.1861417E2,1.9995888E2,1.588538E2],"tree_param":{"num_deleted":"0","num_feature":"31","num_nodes":"7","size_leaf_vector":"0"}},{"base_weights":[-6.23682E-2,2.0571874E-1,-2.79461E-1,4.7681364E-1,1.1468281E-1,-1.3779397E-1,-4.558083E-1],"categories":[],"categories_nodes":[],"categories_segments":[],"categories_sizes":[],"default_left":[1,1,1,0,0,0,0],"id":3,"left_children":[1,3,5,-1,-1,-1,-1],"loss_changes":[3.7911552E1,7.1419125E0,8.92625E0,0E0,0E0,0E0,0E0],"parents":[2147483647,0,0,1,1,2,2],"right_children":[2,4,6,-1,-1,-1,-1],"split_conditions":[2.165E0,1.365E0,6.25E0,1.430441E-1,3.4404844E-2,-4.1338194E-2,-1.367425E-1],"split_indices":[3,3,2,0,0,0,0],"split_type":[0,0,0,0,0,0,0],"sum_hessian":[6.4941626E2,2.906036E2,3.5881268E2,7.1989426E1,2.1861417E2,1.9995888E2,1.588538E2],"tree_param":{"num_deleted":"0","num_feature":"31","num_nodes":"7","size_leaf_vector":"0"}},{"base_weights":[4.5310732E-2,-1.7906626E-1,1.8923493E-1,-2.039371E-1,5.7387614E-1,1.2623164E-1,4.7284737E-1],"categories":[],"categories_nodes":[],"categories_segments":[],"categories_sizes":[],"default_left":[1,1,1,0,0,0,0],"id":4,"left_children":[1,3,5,-1,-1,-1,-1],"loss_changes":[2.0505865E1,4.7657237E0,6.849989E0,0E0,0E0,0E0,0E0],"parents":[2147483647,0,0,1,1,2,2],"right_children":[2,4,6,-1,-1,-1,-1],"split_conditions":[1.9565E0,2.95375E2,8.75E0,-6.118113E-2,1.7216285E-1,3.7869494E-2,1.4185421E-1],"split_indices":[3,23,2,0,0,0,0],"split_type":[0,0,0,0,0,0,0],"sum_hessian":[6.3293945E2,2.4724371E2,3.856957E2,2.4004385E2,7.19987E0,3.167714E2,6.892432E1],"tree_param":{"num_deleted":"0","num_feature":"31","num_nodes":"7","size_leaf_vector":"0"}},{"base_weights":[-4.5310784E-2,1.7906624E-1,-1.8923499E-1,2.0393708E-1,-5.7387614E-1,-1.262317E-1,-4.7284746E-1],"categories":[],"categories_nodes":[],"categories_segments":[],"categories_sizes":[],"default_left":[1,1,1,0,0,0,0],"id":5,"left_children":[1,3,5,-1,-1,-1,-1],"loss_changes":[2.0505873E1,4.765724E0,6.84999E0,0E0,0E0,0E0,0E0],"parents":[2147483647,0,0,1,1,2,2],"right_children":[2,4,6,-1,-1,-1,-1],"split_conditions":[1.9565E0,2.95375E2,8.75E0,6.1181128E-2,-1.7216285E-1,-3.7869513E-2,-1.4185424E-1],"split_indices":[3,23,2,0,0,0,0],"split_type":[0,0,0,0,0,0,0],"sum_hessian":[6.329394E2,2.4724371E2,3.856957E2,2.4004384E2,7.19987E0,3.167714E2,6.892432E1],"tree_param":{"num_deleted":"0","num_feature":"31","num_nodes":"7","size_leaf_vector":"0"}},{"base_weights":[3.3581838E-2,-5.789441E-2,2.5221503E-1,-3.2446373E-1,-1.04484325E-2,-7.3368126E-1,2.6826274E-1],"categories":[],"categories_nodes":[],"categories_segments":[],"categories_sizes":[],"default_left":[1,1,1,0,0,0,0],"id":6,"left_children":[1,3,5,-1,-1,-1,-1],"loss_changes":[1.239323E1,5.525875E0,3.0883617E0,0E0,0E0,0E0,0E0],"parents":[2147483647,0,0,1,1,2,2],"right_children":[2,4,6,-1,-1,-1,-1],"split_conditions":[2.915E0,1.365E0,1.5708334E2,-9.733912E-2,-3.1345298E-3,-2.2010438E-1,8.0478825E-2],"split_indices":[3,3,8,0,0,0,0],"split_type":[0,0,0,0,0,0,0],"sum_hessian":[6.179394E2,4.361776E2,1.8176175E2,6.502185E1,3.7115576E2,2.1949582E0,1.7956679E2],"tree_param":{"num_deleted":"0","num_feature":"31","num_nodes":"7","size_leaf_vector":"0"}},{"base_weights":[-3.358187E-2,5.789436E-2,-2.5221506E-1,3.2446373E-1,1.0448373E-2,7.336813E-1,-2.6826274E-1],"categories":[],"categories_nodes":[],"categories_segments":[],"categories_sizes":[],"default_left":[1,1,1,0,0,0,0],"id":7,"left_children":[1,3,5,-1,-1,-1,-1],"loss_changes":[1.2393229E1,5.5258775E0,3.0883598E0,0E0,0E0,0E0,0E0],"parents":[2147483647,0,0,1,1,2,2],"right_children":[2,4,6,-1,-1,-1,-1],"split_conditions":[2.915E0,1.365E0,1.5708334E2,9.733912E-2,3.134512E-3,2.2010441E-1,-8.0478825E-2],"split_indices":[3,3,8,0,0,0,0],"split_type":[0,0,0,0,0,0,0],"sum_hessian":[6.1793933E2,4.361776E2,1.8176173E2,6.502185E1,3.7115576E2,2.194958E0,1.7956679E2],"tree_param":{"num_deleted":"0","num_feature":"31","num_nodes":"7","size_leaf_vector":"0"}},{"base_weights":[2.4012158E-2,-1.3884637E-1,9.7578466E-2,-3.96598E-2,-2.8825316E-1,1.4560659E-1,-1.3744988E-1],"categories":[],"categories_nodes":[],"categories_segments":[],"categories_sizes":[],"default_left":[1,1,1,0,0,0,0],"id":8,"left_children":[1,3,5,-1,-1,-1,-1],"loss_changes":[7.254153E0,2.7814114E0,4.7257857E0,0E0,0E0,0E0,0E0],"parents":[2147483647,0,0,1,1,2,2],"right_children":[2,4,6,-1,-1,-1,-1],"split_conditions":[1.7485001E0,2.3958332E1,1.33875E2,-1.189794E-2,-8.647595E-2,4.368198E-2,-4.1234963E-2],"split_indices":[3,10,11,0,0,0,0],"split_type":[0,0,0,0,0,0,0],"sum_hessian":[6.033456E2,1.874618E2,4.1588376E2,1.13426735E2,7.403507E1,3.4563385E2,7.024992E1],"tree_param":{"num_deleted":"0","num_feature":"31","num_nodes":"7","size_leaf_vector":"0"}},{"base_weights":[-2.4012176E-2,1.3884632E-1,-9.757847E-2,3.9659742E-2,2.882531E-1,-1.4560659E-1,1.3744988E-1],"categories":[],"categories_nodes":[],"categories_segments":[],"categories_sizes":[],"default_left":[1,1,1,0,0,0,0],"id":9,"left_children":[1,3,5,-1,-1,-1,-1],"loss_changes":[7.2541504E0,2.7814114E0,4.7257853E0,0E0,0E0,0E0,0E0],"parents":[2147483647,0,0,1,1,2,2],"right_children":[2,4,6,-1,-1,-1,-1],"split_conditions":[1.7485001E0,2.3958332E1,1.33875E2,1.1897923E-2,8.647593E-2,-4.368198E-2,4.1234963E-2],"split_indices":[3,10,11,0,0,0,0],"split_type":[0,0,0,0,0,0,0],"sum_hessian":[6.033456E2,1.874618E2,4.1588376E2,1.13426735E2,7.403507E1,3.4563385E2,7.024992E1],"tree_param":{"num_deleted":"0","num_feature":"31","num_nodes":"7","size_leaf_vector":"0"}},{"base_weights":[1.6922388E-2,2.6162893E-1,-2.1158772E-2,-6.5167956E-2,3.8709038E-1,-2.3970892E-1,1.8974638E-2],"categories":[],"categories_nodes":[],"categories_segments":[],"categories_sizes":[],"default_left":[1,1,1,0,0,0,0],"id":10,"left_children":[1,3,5,-1,-1,-1,-1],"loss_changes":[5.548593E0,3.3125067E0,4.5274353E0,0E0,0E0,0E0,0E0],"parents":[2147483647,0,0,1,1,2,2],"right_children":[2,4,6,-1,-1,-1,-1],"split_conditions":[1.378884E3,1.4263103E3,1.4450808E3,-1.9550387E-2,1.1612712E-1,-7.1912676E-2,5.6923917E-3],"split_indices":[0,1,27,0,0,0,0],"split_type":[0,0,0,0,0,0,0],"sum_hessian":[5.93831E2,7.9176796E1,5.146542E2,2.2097832E1,5.7078964E1,7.907442E1,4.3557977E2],"tree_param":{"num_deleted":"0","num_feature":"31","num_nodes":"7","size_leaf_vector":"0"}},{"base_weights":[-1.6922368E-2,-2.616289E-1,2.1158786E-2,6.5167956E-2,-3.8709033E-1,2.3970896E-1,-1.8974626E-2],"categories":[],"categories_nodes":[],"categories_segments":[],"categories_sizes":[],"default_left":[1,1,1,0,0,0,0],"id":11,"left_children":[1,3,5,-1,-1,-1,-1],"loss_changes":[5.5485916E0,3.3125062E0,4.527436E0,0E0,0E0,0E0,0E0],"parents":[2147483647,0,0,1,1,2,2],"right_children":[2,4,6,-1,-1,-1,-1],"split_conditions":[1.378884E3,1.4263103E3,1.4450808E3,1.9550387E-2,-1.161271E-1,7.191269E-2,-5.692388E-3],"split_indices":[0,1,27,0,0,0,0],"split_type":[0,0,0,0,0,0,0],"sum_hessian":[5.93831E2,7.917679E1,5.146542E2,2.2097832E1,5.707896E1,7.907442E1,4.3557977E2],"tree_param":{"num_deleted":"0","num_feature":"31","num_nodes":"7","size_leaf_vector":"0"}},{"base_weights":[1.2523804E-2,-1.4360782E-2,2.7989054E-1,4.030983E-1,-3.3615034E-2,-6.3571435E-1,3.242933E-1],"categories":[],"categories_nodes":[],"categories_segments":[],"categories_sizes":[],"default_left":[1,1,1,0,0,0,0],"id":12,"left_children":[1,3,5,-1,-1,-1,-1],"loss_changes":[4.231903E0,4.3169737E0,2.39296E0,0E0,0E0,0E0,0E0],"parents":[2147483647,0,0,1,1,2,2],"right_children":[2,4,6,-1,-1,-1,-1],"split_conditions":[4.32E0,1.2916667E0,7.7666664E1,1.2092949E-1,-1.0084511E-2,-1.9071431E-1,9.728799E-2],"split_indices":[3,22,13,0,0,0,0],"split_type":[0,0,0,0,0,0,0],"sum_hessian":[5.871828E2,5.3439404E2,5.2788754E1,2.2681961E1,5.117121E2,1.825667E0,5.096309E1],"tree_param":{"num_deleted":"0","num_feature":"31","num_nodes":"7","size_leaf_vector":"0"}},{"base_weights":[-1.2523788E-2,1.4360797E-2,-2.7989054E-1,-4.0309826E-1,3.361505E-2,6.3571435E-1,-3.242933E-1],"categories":[],"categories_nodes":[],"categories_segments":[],"categories_sizes":[],"default_left":[1,1,1,0,0,0,0],"id":13,"left_children":[1,3,5,-1,-1,-1,-1],"loss_changes":[4.231903E0,4.3169737E0,2.3929596E0,0E0,0E0,0E0,0E0],"parents":[2147483647,0,0,1,1,2,2],"right_children":[2,4,6,-1,-1,-1,-1],"split_conditions":[4.32E0,1.2916667E0,7.7666664E1,-1.2092948E-1,1.0084515E-2,1.9071431E-1,-9.728799E-2],"split_indices":[3,22,13,0,0,0,0],"split_type":[0,0,0,0,0,0,0],"sum_hessian":[5.871828E2,5.3439404E2,5.278875E1,2.268196E1,5.117121E2,1.825667E0,5.0963085E1],"tree_param":{"num_deleted":"0","num_feature":"31","num_nodes":"7","size_leaf_vector":"0"}},{"base_weights":[9.433383E-3,-6.068336E-3,3.7767598E-1,5.4988075E-2,-1.4068471E-1,-7.039199E-1,5.491508E-1],"categories":[],"categories_nodes":[],"categories_segments":[],"categories_sizes":[],"default_left":[1,1,1,0,0,0,0],"id":14,"left_children":[1,3,5,-1,-1,-1,-1],"loss_changes":[3.3284457E0,4.611504E0,4.754969E0,0E0,0E0,0E0,0E0],"parents":[2147483647,0,0,1,1,2,2],"right_children":[2,4,6,-1,-1,-1,-1],"split_conditions":[2.952917E2,2.51625E2,1.459463E3,1.6496424E-2,-4.2205416E-2,-2.1117598E-1,1.6474526E-1],"split_indices":[23,6,27,0,0,0,0],"split_type":[0,0,0,0,0,0,0],"sum_hessian":[5.8167773E2,5.5912415E2,2.2553638E1,3.8506577E2,1.7405835E2,2.6614113E0,1.9892227E1],"tree_param":{"num_deleted":"0","num_feature":"31","num_nodes":"7","size_leaf_vector":"0"}},{"base_weights":[-9.433408E-3,6.06831E-3,-3.7767598E-1,-5.49881E-2,1.406847E-1,7.039199E-1,-5.491508E-1],"categories":[],"categories_nodes":[],"categories_segments":[],"categories_sizes":[],"default_left":[1,1,1,0,0,0,0],"id":15,"left_children":[1,3,5,-1,-1,-1,-1],"loss_changes":[3.328445E0,4.6115046E0,4.7549696E0,0E0,0E0,0E0,0E0],"parents":[2147483647,0,0,1,1,2,2],"right_children":[2,4,6,-1,-1,-1,-1],"split_conditions":[2.952917E2,2.51625E2,1.459463E3,-1.6496431E-2,4.220541E-2,2.1117598E-1,-1.6474526E-1],"split_indices":[23,6,27,0,0,0,0],"split_type":[0,0,0,0,0,0,0],"sum_hessian":[5.8167773E2,5.591241E2,2.2553638E1,3.8506577E2,1.7405835E2,2.6614113E0,1.9892227E1],"tree_param":{"num_deleted":"0","num_feature":"31","num_nodes":"7","size_leaf_vector":"0"}},{"base_weights":[6.711921E-3,-2.1178694E-1,3.0955577E-2,-6.831784E-2,-5.708394E-1,1.252153E-1,-3.8772453E-2],"categories":[],"categories_nodes":[],"categories_segments":[],"categories_sizes":[],"default_left":[1,1,1,0,0,0,0],"id":16,"left_children":[1,3,5,-1,-1,-1,-1],"loss_changes":[3.0859554E0,2.9583702E0,3.4497755E0,0E0,0E0,0E0,0E0],"parents":[2147483647,0,0,1,1,2,2],"right_children":[2,4,6,-1,-1,-1,-1],"split_conditions":[1.365E0,1.2783333E2,2.2895834E2,-2.0495351E-2,-1.7125183E-1,3.7564594E-2,-1.16317365E-2],"split_indices":[3,28,23,0,0,0,0],"split_type":[0,0,0,0,0,0,0],"sum_hessian":[5.8032465E2,5.7186714E1,5.231379E2,4.1710453E1,1.5476263E1,2.2210124E2,3.0103665E2],"tree_param":{"num_deleted":"0","num_feature":"31","num_nodes":"7","size_leaf_vector":"0"}},{"base_weights":[-6.71192E-3,2.1178691E-1,-3.0955572E-2,6.831781E-2,5.708394E-1,-1.2521532E-1,3.877246E-2],"categories":[],"categories_nodes":[],"categories_segments":[],"categories_sizes":[],"default_left":[1,1,1,0,0,0,0],"id":17,"left_children":[1,3,5,-1,-1,-1,-1],"loss_changes":[3.0859542E0,2.9583707E0,3.449776E0,0E0,0E0,0E0,0E0],"parents":[2147483647,0,0,1,1,2,2],"right_children":[2,4,6,-1,-1,-1,-1],"split_conditions":[1.365E0,1.2783333E2,2.2895834E2,2.0495344E-2,1.7125183E-1,-3.7564598E-2,1.1631738E-2],"split_indices":[3,28,23,0,0,0,0],"split_type":[0,0,0,0,0,0,0],"sum_hessian":[5.8032465E2,5.7186714E1,5.231379E2,4.1710453E1,1.5476262E1,2.2210124E2,3.0103665E2],"tree_param":{"num_deleted":"0","num_feature":"31","num_nodes":"7","size_leaf_vector":"0"}},{"base_weights":[4.13085E-3,1.9940488E-2,-3.1041464E-1,9.815507E-2,-4.215654E-2,5.109876E-1,-4.0863925E-1],"categories":[],"categories_nodes":[],"categories_segments":[],"categories_sizes":[],"default_left":[1,1,1,0,0,0,0],"id":18,"left_children":[1,3,5,-1,-1,-1,-1],"loss_changes":[2.871288E0,2.673075E0,2.4382768E0,0E0,0E0,0E0,0E0],"parents":[2147483647,0,0,1,1,2,2],"right_children":[2,4,6,-1,-1,-1,-1],"split_conditions":[1.4791666E2,2.2458332E1,3.75E-1,2.9446522E-2,-1.2646963E-2,1.5329628E-1,-1.2259178E-1],"split_indices":[28,12,9,0,0,0,0],"split_type":[0,0,0,0,0,0,0],"sum_hessian":[5.751482E2,5.485154E2,2.6632792E1,2.4249681E2,3.060186E2,2.3957903E0,2.4237001E1],"tree_param":{"num_deleted":"0","num_feature":"31","num_nodes":"7","size_leaf_vector":"0"}},{"base_weights":[-4.130841E-3,-1.9940479E-2,3.1041467E-1,-9.815506E-2,4.215655E-2,-5.109876E-1,4.086393E-1],"categories":[],"categories_nodes":[],"categories_segments":[],"categories_sizes":[],"default_left":[1,1,1,0,0,0,0],"id":19,"left_children":[1,3,5,-1,-1,-1,-1],"loss_changes":[2.8712885E0,2.6730752E0,2.4382768E0,0E0,0E0,0E0,0E0],"parents":[2147483647,0,0,1,1,2,2],"right_children":[2,4,6,-1,-1,-1,-1],"split_conditions":[1.4791666E2,2.2458332E1,3.75E-1,-2.9446518E-2,1.2646966E-2,-1.5329628E-1,1.225918E-1],"split_indices":[28,12,9,0,0,0,0],"split_type":[0,0,0,0,0,0,0],"sum_hessian":[5.751482E2,5.485154E2,2.6632792E1,2.4249681E2,3.060186E2,2.3957906E0,2.4237001E1],"tree_param":{"num_deleted":"0","num_feature":"31","num_nodes":"7","size_leaf_vector":"0"}}]},"name":"gbtree"},"learner_model_param":{"base_score":"5E-1","boost_from_average":"1","num_class":"2","num_feature":"31","num_target":"1"},"objective":{"name":"multi:softprob","softmax_multiclass_param":{"num_class":"2"}}},"version":[1,7,5]}