{"learner":{"attributes":{"best_iteration":"9","best_ntree_limit":"10"},"feature_names":["eloaway","elohome","Away Line Close","Away Odds Close","Total Score Close","TeamScore_Home_4","PYds_Away_4","TeamScore_Away_4","PYds_Home_4","Int_Opp_Home_4","OppScore_Home_4","RYds_Home_4","OppScore_Away_4","RYds_Opp_Home_4","Pnt_Home_4","Int_Opp_Away_4","Int_Home_4","Sk_Opp_Home_4","Pnt_Opp_Away_4","Int_Away_4","Sk_Opp_Away_4","RYds_Away_4","Sk_Home_4","PYds_Opp_Home_4","PYds_Opp_Away_4","eloaway_4","Pnt_Away_4","elohome_4","RYds_Opp_Away_4","Sk_Away_4","Pnt_Opp_Home_4"],"feature_types":["float","float","float","float","float","float","float","float","float","float","float","float","float","float","float","float","float","float","float","float","float","float","float","float","float","float","float","float","float","float","float"],"gradient_booster":{"model":{"gbtree_model_param":{"num_parallel_tree":"1","num_trees":"20","size_leaf_vector":"0"},"tree_info":[0,1,0,1,0,1,0,1,0,1,0,1,0,1,0,1,0,1,0,1],"trees":[{"base_weights":[8.8703565E-2,-2.677966E-1,3.7619698E-1,-6.018519E-1,-7.446808E-2,2.039801E-1,5.8308154E-1],"categories":[],"categories_nodes":[],"categories_segments":[],"categories_sizes":[],"default_left":[1,1,1,0,0,0,0],"id":0,"left_children":[1,3,5,-1,-1,-1,-1],"loss_changes":[6.769386E1,1.900699E1,1.2903469E1,0E0,0E0,0E0,0E0],"parents":[2147483647,0,0,1,1,2,2],"right_children":[2,4,6,-1,-1,-1,-1],"split_conditions":[2.25E0,-4.25E0,6.25E0,-1.8055557E-1,-2.2340426E-2,6.1194032E-2,1.7492446E-1],"split_indices":[2,2,2,0,0,0,0],"split_type":[0,0,0,0,0,0,0],"sum_hessian":[6.585E2,2.94E2,3.645E2,1.07E2,1.87E2,2E2,1.645E2],"tree_param":{"num_deleted":"0","num_feature":"31","num_nodes":"7","size_leaf_vector":"0"}},{"base_weights":[-8.8703565E-2,2.677966E-1,-3.7619698E-1,6.018519E-1,7.446808E-2,-2.039801E-1,-5.8308154E-1],"categories":[],"categories_nodes":[],"categories_segments":[],"categories_sizes":[],"default_left":[1,1,1,0,0,0,0],"id":1,"left_children":[1,3,5,-1,-1,-1,-1],"loss_changes":[6.769386E1,1.900699E1,1.2903469E1,0E0,0E0,0E0,0E0],"parents":[2147483647,0,0,1,1,2,2],"right_children":[2,4,6,-1,-1,-1,-1],"split_conditions":[2.25E0,-4.25E0,6.25E0,1.8055557E-1,2.2340426E-2,-6.1194032E-2,-1.7492446E-1],"split_indices":[2,2,2,0,0,0,0],"split_type":[0,0,0,0,0,0,0],"sum_hessian":[6.585E2,2.94E2,3.645E2,1.07E2,1.87E2,2E2,1.645E2],"tree_param":{"num_deleted":"0","num_feature":"31","num_nodes":"7","size_leaf_vector":"0"}},{"base_weights":[6.317033E-2,-2.3003413E-1,2.462753E-1,-4.387556E-1,-7.989564E-2,9.790499E-2,3.933959E-1],"categories":[],"categories_nodes":[],"categories_segments":[],"categories_sizes":[],"default_left":[1,1,1,0,0,0,0],"id":2,"left_children":[1,3,5,-1,-1,-1,-1],"loss_changes":[3.4970146E1,7.8153124E0,8.710274E0,0E0,0E0,0E0,0E0],"parents":[2147483647,0,0,1,1,2,2],"right_children":[2,4,6,-1,-1,-1,-1],"split_conditions":[1.951E0,-4.25E0,2.915E0,-1.3162668E-1,-2.3968693E-2,2.9371498E-2,1.18018776E-1],"split_indices":[3,2,3,0,0,0,0],"split_type":[0,0,0,0,0,0,0],"sum_hessian":[6.493133E2,2.4951335E2,3.9979993E2,1.03586205E2,1.4592715E2,1.9988376E2,1.9991618E2],"tree_param":{"num_deleted":"0","num_feature":"31","num_nodes":"7","size_leaf_vector":"0"}},{"base_weights":[-6.317027E-2,2.3003416E-1,-2.4627522E-1,4.387557E-1,7.989564E-2,-9.790492E-2,-3.933958E-1],"categories":[],"categories_nodes":[],"categories_segments":[],"categories_sizes":[],"default_left":[1,1,1,0,0,0,0],"id":3,"left_children":[1,3,5,-1,-1,-1,-1],"loss_changes":[3.497014E1,7.815318E0,8.710279E0,0E0,0E0,0E0,0E0],"parents":[2147483647,0,0,1,1,2,2],"right_children":[2,4,6,-1,-1,-1,-1],"split_conditions":[1.951E0,-4.25E0,2.915E0,1.3162671E-1,2.3968693E-2,-2.9371478E-2,-1.1801875E-1],"split_indices":[3,2,3,0,0,0,0],"split_type":[0,0,0,0,0,0,0],"sum_hessian":[6.493133E2,2.4951335E2,3.9979996E2,1.035862E2,1.4592715E2,1.9988376E2,1.9991618E2],"tree_param":{"num_deleted":"0","num_feature":"31","num_nodes":"7","size_leaf_vector":"0"}},{"base_weights":[4.559499E-2,-9.980881E-2,2.4779612E-1,-3.4274307E-1,-1.8067589E-2,1.7449982E-1,4.4477767E-1],"categories":[],"categories_nodes":[],"categories_segments":[],"categories_sizes":[],"default_left":[1,1,1,0,0,0,0],"id":4,"left_children":[1,3,5,-1,-1,-1,-1],"loss_changes":[1.8649506E1,7.325404E0,3.75239E0,0E0,0E0,0E0,0E0],"parents":[2147483647,0,0,1,1,2,2],"right_children":[2,4,6,-1,-1,-1,-1],"split_conditions":[2.58E0,1.452E0,8.75E0,-1.0282292E-1,-5.420277E-3,5.234995E-2,1.3343331E-1],"split_indices":[3,3,2,0,0,0,0],"split_type":[0,0,0,0,0,0,0],"sum_hessian":[6.324781E2,3.682059E2,2.6427222E2,9.1896675E1,2.763092E2,1.9397902E2,7.02932E1],"tree_param":{"num_deleted":"0","num_feature":"31","num_nodes":"7","size_leaf_vector":"0"}},{"base_weights":[-4.5594964E-2,9.980884E-2,-2.477961E-1,3.4274304E-1,1.8067643E-2,-1.744998E-1,-4.4477767E-1],"categories":[],"categories_nodes":[],"categories_segments":[],"categories_sizes":[],"default_left":[1,1,1,0,0,0,0],"id":5,"left_children":[1,3,5,-1,-1,-1,-1],"loss_changes":[1.8649506E1,7.325399E0,3.7523918E0,0E0,0E0,0E0,0E0],"parents":[2147483647,0,0,1,1,2,2],"right_children":[2,4,6,-1,-1,-1,-1],"split_conditions":[2.58E0,1.452E0,8.75E0,1.02822915E-1,5.420293E-3,-5.234994E-2,-1.3343331E-1],"split_indices":[3,3,2,0,0,0,0],"split_type":[0,0,0,0,0,0,0],"sum_hessian":[6.324781E2,3.6820587E2,2.6427222E2,9.189667E1,2.763092E2,1.9397902E2,7.02932E1],"tree_param":{"num_deleted":"0","num_feature":"31","num_nodes":"7","size_leaf_vector":"0"}},{"base_weights":[3.3218592E-2,-1.2653348E-1,1.3780269E-1,5.743597E-1,-1.5001056E-1,-1.1486986E-1,1.8616116E-1],"categories":[],"categories_nodes":[],"categories_segments":[],"categories_sizes":[],"default_left":[1,1,1,0,0,0,0],"id":6,"left_children":[1,3,5,-1,-1,-1,-1],"loss_changes":[1.0321386E1,4.1098385E0,4.581432E0,0E0,0E0,0E0,0E0],"parents":[2147483647,0,0,1,1,2,2],"right_children":[2,4,6,-1,-1,-1,-1],"split_conditions":[1.995E0,1.6E1,2.0666666E2,1.7230792E-1,-4.500317E-2,-3.446096E-2,5.584835E-2],"split_indices":[3,5,8,0,0,0,0],"split_type":[0,0,0,0,0,0,0],"sum_hessian":[6.15725E2,2.4352736E2,3.721976E2,7.1323013E0,2.3639507E2,5.956992E1,3.126277E2],"tree_param":{"num_deleted":"0","num_feature":"31","num_nodes":"7","size_leaf_vector":"0"}},{"base_weights":[-3.32186E-2,1.2653342E-1,-1.3780266E-1,-5.743598E-1,1.500105E-1,1.1486989E-1,-1.8616113E-1],"categories":[],"categories_nodes":[],"categories_segments":[],"categories_sizes":[],"default_left":[1,1,1,0,0,0,0],"id":7,"left_children":[1,3,5,-1,-1,-1,-1],"loss_changes":[1.0321378E1,4.1098385E0,4.581432E0,0E0,0E0,0E0,0E0],"parents":[2147483647,0,0,1,1,2,2],"right_children":[2,4,6,-1,-1,-1,-1],"split_conditions":[1.995E0,1.6E1,2.0666666E2,-1.7230794E-1,4.500315E-2,3.446097E-2,-5.584834E-2],"split_indices":[3,5,8,0,0,0,0],"split_type":[0,0,0,0,0,0,0],"sum_hessian":[6.15725E2,2.4352736E2,3.721976E2,7.1323013E0,2.3639507E2,5.9569916E1,3.126277E2],"tree_param":{"num_deleted":"0","num_feature":"31","num_nodes":"7","size_leaf_vector":"0"}},{"base_weights":[2.4122477E-2,-2.7633289E-2,2.557433E-1,-2.618597E-1,1.0653761E-2,-5.783371E-1,2.8753445E-1],"categories":[],"categories_nodes":[],"categories_segments":[],"categories_sizes":[],"default_left":[1,1,1,0,0,0,0],"id":8,"left_children":[1,3,5,-1,-1,-1,-1],"loss_changes":[7.2676563E0,4.4504128E0,3.1020956E0,0E0,0E0,0E0,0E0],"parents":[2147483647,0,0,1,1,2,2],"right_children":[2,4,6,-1,-1,-1,-1],"split_conditions":[3.62E0,1.402E0,8.079167E1,-7.855791E-2,3.1961284E-3,-1.7350113E-1,8.626033E-2],"split_indices":[3,3,21,0,0,0,0],"split_type":[0,0,0,0,0,0,0],"sum_hessian":[6.0466925E2,4.949526E2,1.0971667E2,6.871845E1,4.2623416E2,3.3971229E0,1.0631954E2],"tree_param":{"num_deleted":"0","num_feature":"31","num_nodes":"7","size_leaf_vector":"0"}},{"base_weights":[-2.4122477E-2,2.7633289E-2,-2.557433E-1,2.618597E-1,-1.0653763E-2,5.783371E-1,-2.8753442E-1],"categories":[],"categories_nodes":[],"categories_segments":[],"categories_sizes":[],"default_left":[1,1,1,0,0,0,0],"id":9,"left_children":[1,3,5,-1,-1,-1,-1],"loss_changes":[7.267656E0,4.4504128E0,3.1020951E0,0E0,0E0,0E0,0E0],"parents":[2147483647,0,0,1,1,2,2],"right_children":[2,4,6,-1,-1,-1,-1],"split_conditions":[3.62E0,1.402E0,8.079167E1,7.855791E-2,-3.196129E-3,1.7350113E-1,-8.6260326E-2],"split_indices":[3,3,21,0,0,0,0],"split_type":[0,0,0,0,0,0,0],"sum_hessian":[6.0466925E2,4.949526E2,1.0971666E2,6.871845E1,4.2623416E2,3.3971229E0,1.0631954E2],"tree_param":{"num_deleted":"0","num_feature":"31","num_nodes":"7","size_leaf_vector":"0"}},{"base_weights":[1.7264703E-2,1.6474232E-1,-3.474797E-2,-2.357887E-1,2.4489953E-1,5.8604594E-2,-1.2811762E-1],"categories":[],"categories_nodes":[],"categories_segments":[],"categories_sizes":[],"default_left":[1,1,1,0,0,0,0],"id":10,"left_children":[1,3,5,-1,-1,-1,-1],"loss_changes":[4.5574913E0,5.0305285E0,3.8383822E0,0E0,0E0,0E0,0E0],"parents":[2147483647,0,0,1,1,2,2],"right_children":[2,4,6,-1,-1,-1,-1],"split_conditions":[2.0541668E1,1.575E0,1.4911268E3,-7.073662E-2,7.346986E-2,1.7581379E-2,-3.8435288E-2],"split_indices":[12,3,25,0,0,0,0],"split_type":[0,0,0,0,0,0,0],"sum_hessian":[5.923961E2,1.5388908E2,4.3850705E2,2.5338022E1,1.2855107E2,2.1945978E2,2.1904727E2],"tree_param":{"num_deleted":"0","num_feature":"31","num_nodes":"7","size_leaf_vector":"0"}},{"base_weights":[-1.7264653E-2,-1.6474226E-1,3.474802E-2,2.3578873E-1,-2.4489948E-1,-5.8604546E-2,1.2811768E-1],"categories":[],"categories_nodes":[],"categories_segments":[],"categories_sizes":[],"default_left":[1,1,1,0,0,0,0],"id":11,"left_children":[1,3,5,-1,-1,-1,-1],"loss_changes":[4.557492E0,5.030528E0,3.8383825E0,0E0,0E0,0E0,0E0],"parents":[2147483647,0,0,1,1,2,2],"right_children":[2,4,6,-1,-1,-1,-1],"split_conditions":[2.0541668E1,1.575E0,1.4911268E3,7.0736624E-2,-7.346985E-2,-1.7581364E-2,3.8435306E-2],"split_indices":[12,3,25,0,0,0,0],"split_type":[0,0,0,0,0,0,0],"sum_hessian":[5.923962E2,1.5388908E2,4.3850708E2,2.5338024E1,1.2855107E2,2.1945978E2,2.1904729E2],"tree_param":{"num_deleted":"0","num_feature":"31","num_nodes":"7","size_leaf_vector":"0"}},{"base_weights":[1.2359731E-2,-1.41662955E-2,2.5677967E-1,-2.4236478E-2,6.6107136E-1,-5.5996597E-1,3.472277E-1],"categories":[],"categories_nodes":[],"categories_segments":[],"categories_sizes":[],"default_left":[1,1,1,0,0,0,0],"id":12,"left_children":[1,3,5,-1,-1,-1,-1],"loss_changes":[3.8185072E0,3.6317317E0,4.453758E0,0E0,0E0,0E0,0E0],"parents":[2147483647,0,0,1,1,2,2],"right_children":[2,4,6,-1,-1,-1,-1],"split_conditions":[8.75E0,4.291667E0,1.4040809E3,-7.270944E-3,1.9832142E-1,-1.6798979E-1,1.0416831E-1],"split_indices":[2,29,25,0,0,0,0],"split_type":[0,0,0,0,0,0,0],"sum_hessian":[5.8739764E2,5.307403E2,5.665732E1,5.2389136E2,6.848966E0,5.131237E0,5.152608E1],"tree_param":{"num_deleted":"0","num_feature":"31","num_nodes":"7","size_leaf_vector":"0"}},{"base_weights":[-1.2359719E-2,1.4166311E-2,-2.5677967E-1,2.4236493E-2,-6.610713E-1,5.5996597E-1,-3.4722772E-1],"categories":[],"categories_nodes":[],"categories_segments":[],"categories_sizes":[],"default_left":[1,1,1,0,0,0,0],"id":13,"left_children":[1,3,5,-1,-1,-1,-1],"loss_changes":[3.818508E0,3.6317315E0,4.4537582E0,0E0,0E0,0E0,0E0],"parents":[2147483647,0,0,1,1,2,2],"right_children":[2,4,6,-1,-1,-1,-1],"split_conditions":[8.75E0,4.291667E0,1.4040809E3,7.270948E-3,-1.983214E-1,1.6798979E-1,-1.0416832E-1],"split_indices":[2,29,25,0,0,0,0],"split_type":[0,0,0,0,0,0,0],"sum_hessian":[5.8739764E2,5.307403E2,5.6657322E1,5.2389136E2,6.848966E0,5.131237E0,5.152608E1],"tree_param":{"num_deleted":"0","num_feature":"31","num_nodes":"7","size_leaf_vector":"0"}},{"base_weights":[9.589913E-3,9.9789076E-2,-5.5869553E-2,-1.1443536E-1,1.6418721E-1,9.3889654E-1,-6.8509445E-2],"categories":[],"categories_nodes":[],"categories_segments":[],"categories_sizes":[],"default_left":[1,1,1,0,0,0,0],"id":14,"left_children":[1,3,5,-1,-1,-1,-1],"loss_changes":[3.4503517E0,3.4084985E0,4.323272E0,0E0,0E0,0E0,0E0],"parents":[2147483647,0,0,1,1,2,2],"right_children":[2,4,6,-1,-1,-1,-1],"split_conditions":[2.2895834E2,2.0670834E2,6.679167E1,-3.433061E-2,4.9256165E-2,2.8166896E-1,-2.0552834E-2],"split_indices":[23,8,21,0,0,0,0],"split_type":[0,0,0,0,0,0,0],"sum_hessian":[5.824264E2,2.4470851E2,3.377179E2,5.6379974E1,1.8832854E2,3.3178885E0,3.344E2],"tree_param":{"num_deleted":"0","num_feature":"31","num_nodes":"7","size_leaf_vector":"0"}},{"base_weights":[-9.589896E-3,-9.978906E-2,5.5869576E-2,1.1443537E-1,-1.641872E-1,-9.388965E-1,6.850947E-2],"categories":[],"categories_nodes":[],"categories_segments":[],"categories_sizes":[],"default_left":[1,1,1,0,0,0,0],"id":15,"left_children":[1,3,5,-1,-1,-1,-1],"loss_changes":[3.450352E0,3.4084978E0,4.323272E0,0E0,0E0,0E0,0E0],"parents":[2147483647,0,0,1,1,2,2],"right_children":[2,4,6,-1,-1,-1,-1],"split_conditions":[2.2895834E2,2.0670834E2,6.679167E1,3.433061E-2,-4.925616E-2,-2.8166896E-1,2.055284E-2],"split_indices":[23,8,21,0,0,0,0],"split_type":[0,0,0,0,0,0,0],"sum_hessian":[5.824264E2,2.4470851E2,3.3771786E2,5.6379974E1,1.8832854E2,3.3178887E0,3.344E2],"tree_param":{"num_deleted":"0","num_feature":"31","num_nodes":"7","size_leaf_vector":"0"}},{"base_weights":[7.286466E-3,2.4009731E-1,-1.9905293E-2,-6.899953E-1,3.017921E-1,2.4932839E-2,-1.5870515E-1],"categories":[],"categories_nodes":[],"categories_segments":[],"categories_sizes":[],"default_left":[1,1,1,0,0,0,0],"id":16,"left_children":[1,3,5,-1,-1,-1,-1],"loss_changes":[3.68997E0,3.7060714E0,3.2537088E0,0E0,0E0,0E0,0E0],"parents":[2147483647,0,0,1,1,2,2],"right_children":[2,4,6,-1,-1,-1,-1],"split_conditions":[1.3541532E3,1.7666666E1,1.0416667E0,-2.069986E-1,9.053763E-2,7.479852E-3,-4.7611546E-2],"split_indices":[0,10,19,0,0,0,0],"split_type":[0,0,0,0,0,0,0],"sum_hessian":[5.8112933E2,5.9957184E1,5.211721E2,3.096172E0,5.686101E1,3.9453973E2,1.266324E2],"tree_param":{"num_deleted":"0","num_feature":"31","num_nodes":"7","size_leaf_vector":"0"}},{"base_weights":[-7.286452E-3,-2.4009728E-1,1.9905306E-2,6.8999535E-1,-3.0179206E-1,-2.4932826E-2,1.5870515E-1],"categories":[],"categories_nodes":[],"categories_segments":[],"categories_sizes":[],"default_left":[1,1,1,0,0,0,0],"id":17,"left_children":[1,3,5,-1,-1,-1,-1],"loss_changes":[3.6899698E0,3.706071E0,3.2537088E0,0E0,0E0,0E0,0E0],"parents":[2147483647,0,0,1,1,2,2],"right_children":[2,4,6,-1,-1,-1,-1],"split_conditions":[1.3541532E3,1.7666666E1,1.0416667E0,2.0699862E-1,-9.053762E-2,-7.479848E-3,4.7611546E-2],"split_indices":[0,10,19,0,0,0,0],"split_type":[0,0,0,0,0,0,0],"sum_hessian":[5.8112933E2,5.995718E1,5.211721E2,3.096172E0,5.6861008E1,3.9453973E2,1.266324E2],"tree_param":{"num_deleted":"0","num_feature":"31","num_nodes":"7","size_leaf_vector":"0"}},{"base_weights":[5.2485173E-3,3.500265E-2,-1.3982145E-1,1.2329082E-1,-3.4074783E-2,7.1763206E-1,-1.8137358E-1],"categories":[],"categories_nodes":[],"categories_segments":[],"categories_sizes":[],"default_left":[1,1,1,0,0,0,0],"id":18,"left_children":[1,3,5,-1,-1,-1,-1],"loss_changes":[2.5025194E0,2.937391E0,3.646042E0,0E0,0E0,0E0,0E0],"parents":[2147483647,0,0,1,1,2,2],"right_children":[2,4,6,-1,-1,-1,-1],"split_conditions":[1.33875E2,2.2458332E1,8.0125E1,3.698725E-2,-1.0222435E-2,2.1528962E-1,-5.4412078E-2],"split_indices":[11,12,21,0,0,0,0],"split_type":[0,0,0,0,0,0,0],"sum_hessian":[5.7763196E2,4.7995166E2,9.7680305E1,2.1033577E2,2.696159E2,3.762763E0,9.391754E1],"tree_param":{"num_deleted":"0","num_feature":"31","num_nodes":"7","size_leaf_vector":"0"}},{"base_weights":[-5.2485163E-3,-3.5002653E-2,1.3982147E-1,-1.2329082E-1,3.407478E-2,-7.1763206E-1,1.813736E-1],"categories":[],"categories_nodes":[],"categories_segments":[],"categories_sizes":[],"default_left":[1,1,1,0,0,0,0],"id":19,"left_children":[1,3,5,-1,-1,-1,-1],"loss_changes":[2.5025196E0,2.937391E0,3.6460423E0,0E0,0E0,0E0,0E0],"parents":[2147483647,0,0,1,1,2,2],"right_children":[2,4,6,-1,-1,-1,-1],"split_conditions":[1.33875E2,2.2458332E1,8.0125E1,-3.698725E-2,1.0222434E-2,-2.1528962E-1,5.441208E-2],"split_indices":[11,12,21,0,0,0,0],"split_type":[0,0,0,0,0,0,0],"sum_hessian":[5.7763196E2,4.799517E2,9.7680305E1,2.1033577E2,2.696159E2,3.7627628E0,9.391754E1],"tree_param":{"num_deleted":"0","num_feature":"31","num_nodes":"7","size_leaf_vector":"0"}}]},"name":"gbtree"},"learner_model_param":{"base_score":"5E-1","boost_from_average":"1","num_class":"2","num_feature":"31","num_target":"1"},"objective":{"name":"multi:softprob","softmax_multiclass_param":{"num_class":"2"}}},"version":[1,7,5]}